125
20
-0,26423585
-0,19219412
-0,3917384
0,3848344
0,14326613
0,40103903
-0,16511807
0,37380594
0,30760294
0,13439722
-0,06461396
0,30039728
-0,12276353
0,48240638
-0,24354783
0,17280829
-0,3479552
0,1927712
-0,434325
-0,49300736
-0,3412611
0,31513572
0,41578582
0,053868927
0,1954651
0,25734535
0,12845209
0,44384065
0,10230116
0,40395474
0,05305546
0,4046769
-0,4206265
0,084331945
-0,4323134
-0,011020811
-0,22406921
0,13572507
-0,12995102
-0,24426031
-0,22548375
-0,057495363
-0,09116409
-0,2161515
0,05338243
-0,18469416
0,48397174
0,3147799
-0,4117262
0,062685184
-0,17889772
0,33406204
0,31935552
-0,0050045727
-0,35633805
-0,27718475
-0,08367588
-0,14014105
0,09922507
0,38590002
0,32865408
-0,2447792
-0,06046732
0,47331566
0,16764253
-0,017852064
0,47882304
0,43201894
-0,07820487
0,040681005
0,3385949
0,43820593
-0,15547726
-0,19839597
-0,08111718
-0,37396926
0,0062491046
-0,047253404
0,09147243
-0,43492475
0,0730338
-0,3116444
0,3701803
-0,020102452
-0,31651428
-0,4493218
0,0378534
-0,0321056
0,2204708
-0,43862784
0,21599564
0,4785803
0,35956708
0,2536281
0,41294497
-0,17861848
-0,42948797
-0,18487646
0,049479187
-0,43920714
0,22697873
-0,3873212
-0,1047269
0,28798983
-0,0124684675
-0,29087105
0,46099782
0,16654952
0,3104327
-0,027715927
0,13834366
-0,12764561
0,47175688
-0,36369017
0,36519524
-0,15019625
0,25816733
-0,22440353
0,42736965
0,059984047
0,49591705
0,43508634
0,29754925
-0,20521893
0,4748201
-0,27717665
-0,43781328
0,15767288
0,28984168
-0,42035577
0,08653273
-0,21995974
0,44199386
-0,21524225
0,14119047
0,1505378
-0,17958371
-0,3016258
0,2770876
-0,1654054
0,03949142
-0,45075727
0,2691336
0,25478548
0,17075135
0,47946283
-0,39516073
-0,23236862
-0,08451289
-0,2606875
-0,26580107
-0,057826772
-0,14244147
-0,42155755
-0,011145811
-0,23965307
0,016175153
0,10114061
0,026075602
-0,02246672
0,3410533
-0,4802717
0,1093688
0,1469355
0,18078348
-0,26638445
-0,49639678
0,00307221
0,07162701
-0,33205387
-0,21294822
-0,38549015
0,08379835
-0,30465066
0,09298126
-0,25059786
0,31936198
0,2747403
-0,18844205
0,2629
-0,0546544
-0,016813915
-0,1090516
0,4569097
-0,10091464
-0,4633405
-0,5024791
0,22379495
-0,15121087
0,0020741762
0,29740664
0,22318469
0,12087991
0,3283323
0,026528325
-0,2775463
-0,46677926
-0,21721783
0,011292553
0,3552572
0,38117293
0,25884813
-0,499327
0,2619089
-0,48319632
0,30938405
0,48265857
-0,18399557
0,20324165
0,03716204
-0,027901514
0,24225295
0,38372794
-0,11578228
-0,4193283
0,048306216
0,08925076
-0,43036422
0,37547916
0,3046724
0,44062006
0,06932612
0,07271747
0,33164322
-0,39312688
0,0831301
-0,24017534
0,28248146
-0,22053628
0,19825861
-0,23751171
0,08466584
0,12422543
-0,10374492
-0,34005055
-0,43201077
0,07320894
-0,08578919
-0,25627562
-0,2001119
0,039977465
0,32733765
-0,4314652
0,3743825
-0,4793945
0,25712898
0,17079628
-0,38614577
-0,015628487
-0,15551923
0,05913796
-0,16893965
-0,187772
0,09917534
-0,2637464
0,3608546
0,24440396
0,24318254
-0,40825692
-0,29390433
-0,44488475
-0,4010689
0,011816182
0,08390554
-0,48346886
0,21393062
0,46199554
0,39255908
-0,14673796
0,1866374
0,030308034
0,4420134
0,23201579
-0,4738215
0,29383987
-0,025094116
-0,09348772
0,08370609
-0,36342773
-0,47078243
0,44535372
0,008696753
0,0759227
0,28275344
0,41349787
0,029717728
0,4073215
0,27377528
-0,24343757
-0,21849695
0,47106034
-0,46862486
0,29081824
-0,25100902
0,45522216
-0,40463346
0,058739092
0,124875106
-0,1409873
-0,4832829
0,46134672
0,034084015
-0,08849536
0,18707742
0,4659422
0,4601135
-0,1491105
0,46678427
-0,011989018
0,1804781
-0,13785233
-0,15823308
0,2831531
0,08661034
-0,17835347
0,4492753
-0,3431034
0,2468315
-0,11612508
-0,3859714
-0,18675701
-0,46885982
0,3031342
0,1877399
0,039707515
0,34300068
-0,039344005
-0,4747536
0,06301648
-0,010661212
-0,2929079
0,46136355
0,26105654
-0,31808308
-0,12558918
-0,27918518
-0,23424818
0,2827995
0,03907417
0,4611218
-0,34660074
-0,18621169
0,39785022
-0,4715432
0,36487836
-0,07862004
-0,013305521
-0,31453788
0,061341878
0,38952327
0,034345977
-0,0052266335
-0,38175857
0,41393986
0,22827828
0,50058436
0,17395759
-0,10271055
-0,16908003
0,0051033674
0,07065167
-0,34826255
-0,21545874
-0,38171065
0,3824942
-0,12883289
-0,29173574
-0,424873
-0,1523745
0,08484874
-0,30902222
0,03612829
-0,07787974
0,12778993
0,33741033
-0,25952685
-0,257103
0,2193577
-0,42969382
-0,07834546
-0,40708405
-0,35286036
0,23041742
0,33121485
0,32764605
0,25608298
-0,32555953
0,34696892
-0,28672436
0,043825638
0,37429747
-0,38659438
-0,18211655
0,3568428
0,3241537
-0,23924056
-0,23126361
0,06799523
-0,27791327
0,029337747
-0,36390397
-0,10049307
0,32495037
0,08643902
-0,0316946
0,25278226
-0,30571935
-0,4722501
0,20838784
-0,15828805
0,41236067
0,25373963
-0,2435631
0,47171378
0,3649271
-0,22216147
0,43968666
-0,2032743
-0,15338232
0,22561927
0,4357858
0,2548804
-0,47157153
-0,32031697
-0,10180598
-0,19031137
0,33975455
0,20762731
-0,26679027
0,22087574
-0,04068538
0,40280867
-0,39057335
0,49780568
0,49009958
-0,13295037
0,103371814
-0,4060016
-0,40804005
-0,28709713
0,34817958
-0,3649898
0,43184903
0,4298025
-0,059998404
-0,47600672
0,21072413
0,31523302
0,13581395
0,15533245
-0,19638328
-0,21931757
-0,29522666
-0,47787008
-0,3476987
-0,01821261
-0,35747463
-0,08329919
0,42500612
-0,19631845
0,12347337
-0,22121759
-0,08008428
-0,215172
-0,30909804
0,46258554
-0,22459912
-0,45623663
0,3348696
-0,057688605
-0,2876597
-0,3217775
0,45610932
0,38217542
0,45236254
-0,037946135
0,050515097
0,4396888
0,1753083
-0,38709557
0,05485102
-0,23573354
-0,49024224
-0,35279885
0,018107267
0,034589317
-0,42395845
-0,07861643
-0,20445089
0,38081214
-0,33720943
-0,42178726
0,35645264
0,2141725
-0,45182422
0,06412927
0,042197168
-0,22029588
-0,2826111
0,41717425
0,077459455
0,2992472
0,22123845
0,14801633
-0,18065251
0,060263053
-0,380263
0,15337811
0,17512277
0,13695663
-0,0435931
0,39978927
0,29249176
-0,32608554
0,05440656
0,2950779
0,15269224
-0,2912005
-0,44545034
0,0051661786
-0,4081879
-0,21117541
-0,12518768
0,092714846
0,08941067
-0,47371733
-0,061709803
-0,48169938
-0,30318984
0,002052564
-0,115420505
0,30124876
-0,05847272
0,3056339
-0,005241794
-0,20505038
0,20997971
-0,23939665
-0,36698234
0,02077111
-0,39469597
-0,012670757
0,25075635
-0,48872846
0,3265365
-0,436534
-0,17745686
0,36191717
-0,12487358
-0,36944792
0,053164195
0,3141455
-0,043899897
-0,372521
0,35543475
-0,05453378
0,3615016
0,016502079
-0,46523014
0,37142196
0,027678741
-0,2635588
-0,2809493
0,43354946
-0,053043388
0,36422923
-0,23166922
-0,27086633
0,19169599
-0,004119501
-0,41202274
0,11645679
-0,34020048
-0,07559789
0,262235
0,43893388
0,44486848
0,4571266
-0,18225539
-0,4558287
0,25341043
-0,025035605
0,21610554
0,0026387235
-0,4273527
-0,46768177
0,13966075
0,09755832
0,2690783
0,14809625
-0,03870138
-0,49148098
0,014986082
-0,22254528
0,034586046
0,4042105
0,3999336
0,022235205
0,26821283
0,012432181
0,32439512
-0,18073507
0,17366445
-0,44881234
0,18564832
-0,37719706
0,3320481
0,22908197
0,41698426
-0,018249627
-0,27890584
0,38135332
0,35018608
0,4372424
-0,35316095
0,20288292
0,33896768
0,22696294
0,48170346
-0,38144305
-0,41436857
-0,18606535
0,014887619
0,38692516
0,43927267
-0,1716998
0,4432767
0,22775073
-0,17345202
0,37146673
-0,22325808
-0,3186663
0,13551682
0,19517949
0,27498466
0,29726586
-0,2068469
-0,07701908
0,46713847
0,04072014
0,324678
-0,44605264
0,22755818
0,35582018
0,30795386
0,38284978
0,17106323
0,18052608
0,3973041
0,3963613
-0,26395446
-0,086419046
0,49041465
0,27707735
0,17740612
-0,43070498
0,4603531
-0,005503712
-0,4265073
-0,26586515
0,43648148
0,49261656
-0,050913326
0,3080853
0,23664415
-0,23568724
-0,34055647
-0,122795865
0,22831905
-0,07155405
-0,089095384
0,1864863
-0,46056783
0,14612088
-0,1994844
-0,36495814
0,4857043
0,0706309
-0,30022
-0,37369397
0,4968348
-0,41461027
0,18819627
-0,094269335
0,29910308
-0,13884738
0,23546748
0,39446855
-0,086235665
0,052112933
-0,13318042
0,34980547
-0,4079531
-0,39555308
0,27682036
-0,24221839
-0,097457156
-0,31055623
0,40578532
-0,1687561
-0,24623118
-0,39124843
0,44518194
-0,3307698
0,50802535
-0,3854795
0,4703135
0,15206835
0,3629405
0,48476714
-0,38188484
0,13196494
-0,3379769
-0,18096651
0,29605302
-0,07520348
-0,38605586
0,40676236
0,23529892
0,3999222
-0,4550799
-0,3821073
0,42116633
-0,04694436
-0,05742658
0,44664705
-0,09318934
-0,026731612
-0,031007994
-0,3635792
0,13907409
0,049619548
0,25772446
0,16677098
0,39452943
-0,13708246
-0,1931804
-0,25723457
0,3732641
-0,023388252
0,37176612
0,34728557
-0,4548895
-0,40891543
-0,41131663
-0,43820778
0,2815961
-0,377114
0,00954334
0,3809791
-0,16031899
-0,41319215
-0,1827061
0,37988305
0,38672793
0,35275376
-0,096514024
0,31555358
0,379264
0,19850276
-0,31985936
-0,013554556
0,23704445
0,15667419
-0,49674138
0,38665578
-0,42965636
-0,3814874
0,36561748
-0,21128286
0,24170785
0,40480655
-0,4481481
-0,08775605
0,3250295
0,17287263
-0,39473838
0,13797191
-0,08731155
-0,040050026
0,4049888
0,17112099
0,24091858
0,30229563
-0,028782945
0,454632
-0,32061622
-0,17245474
-0,26141453
-0,35038498
0,024769217
0,23818284
-0,46331832
-0,16087075
-0,38289323
0,16972509
-0,09982382
0,15440196
-0,4628745
-0,31247884
-0,2140832
0,3657746
0,50110865
0,26483396
0,11714548
0,27204874
-0,466722
-0,13276808
0,49749732
-0,14662643
-0,326167
0,378017
0,025351891
-0,19428867
0,008612112
-0,40664202
0,31981063
-0,027188122
0,3197605
-0,13462834
0,4058595
0,31077173
0,38987017
-0,33650562
-0,00035221293
0,22804943
-0,22837263
0,26181516
-0,16306838
-0,16339171
-0,3012153
0,3659771
-0,14164424
0,09571705
-0,046097063
-0,27235425
-0,08703103
-0,33129767
0,31608164
0,3020492
-0,30167314
0,30185717
-0,42452744
-0,42836937
0,21939792
-0,19117174
-0,32790998
0,27396217
0,0842609
0,38686913
0,10147049
-0,2734001
0,12324713
-0,3813168
0,23380658
0,22586676
0,29358232
-0,44733202
0,16003905
-0,21527314
0,4046693
-0,06497059
-0,26605165
0,4469703
0,047528364
-0,23691788
0,21643642
-0,2707811
-0,14977804
-0,03707773
0,24299149
0,3006518
0,07910266
0,14635412
-0,4690574
-0,3784011
0,35395777
-0,03950694
-0,47483328
0,32127512
-0,21509504
-0,06319331
0,5063316
0,0525974
0,094597876
0,34057435
-0,30809155
-0,4642037
-0,10926256
-0,48341742
-0,2779815
-0,46355975
0,07716697
-0,4251632
-0,44679722
-0,05487348
0,007549021
-0,07797971
-0,15651447
0,3322359
0,038608413
0,26811358
0,45023853
-0,32437053
-0,42168117
-0,21794546
-0,21058208
0,35899302
0,46353823
-0,3378787
-0,35208553
-0,13765706
0,167878
0,36801648
0,15103225
0,35471296
0,13352151
0,38809022
-0,34431803
-0,22843932
0,30128244
-0,23363364
0,28430077
-0,21203698
0,092595205
0,2776652
0,4716857
-0,10231485
-0,047735825
-0,21383758
0,30216157
-0,285459
0,38005427
-0,069767736
-0,22020872
0,25074244
0,00364873
0,08416057
0,13191554
0,32854804
-0,43775645
-0,1329253
0,02480573
0,02789113
0,45424575
-0,40518793
-0,1595441
0,48986545
0,48820272
-0,070134595
-0,23309258
0,47860467
0,17515673
0,37210402
0,3189933
-0,43620384
0,13484327
0,052266773
0,36262634
0,050545342
-0,05607608
-0,24936415
0,1356883
-0,2796962
0,011731361
0,4023091
0,124471895
0,03811182
0,28239238
0,33875215
-0,18965836
-0,029562399
0,3469491
0,123327315
0,17685854
0,05147555
-0,31284285
0,07044188
0,24067073
0,17101288
0,29532614
0,47088623
0,06629451
0,3846194
0,2471533
0,18103965
-0,24353325
0,32680342
-0,10008938
-0,37711847
0,47283372
0,28767905
-0,024996368
-0,35757014
0,28201532
-0,21390651
-0,29298246
0,48434353
-0,28843525
0,32563448
-0,16052078
-0,18934938
-0,31917924
-0,22560675
0,07490729
-0,10099218
0,3680738
-0,3881144
0,0590137
-0,09667515
0,3182331
-0,1303379
-0,29191774
0,038882118
-0,15360494
-0,41405988
0,052709546
0,29367337
0,09490337
-0,3586741
-0,029844368
0,022452364
0,119601704
-0,25024313
0,4044142
-0,42937142
-0,45980915
-0,14889015
-0,47297424
0,35613653
0,14134014
0,39600414
0,37574348
-0,35416836
-0,2460763
0,4448582
-0,14657782
-0,28165844
0,32418874
-0,40901887
0,4912014
-0,22490054
-0,23650011
-0,42899346
-0,3859835
0,38444522
0,016758187
0,18049705
0,15629509
0,27082968
-0,28141454
-0,45612884
-0,46592686
0,27610517
-0,208588
-0,124734506
-0,15736297
-0,3076117
0,25702855
0,42999136
0,38128445
0,23435134
0,43991813
0,042257637
-0,05806291
-0,16743782
-0,15853527
-0,27879512
-0,051841713
-0,02457083
-0,20636065
-0,364538
0,28016603
0,08838511
-0,4337415
0,37280345
0,38850966
0,34987476
-0,060658675
-0,4535515
0,2430789
-0,15335387
-0,48341691
0,22213039
-0,12346712
-0,095905535
0,35954908
-0,39903623
-0,38905603
0,066680074
0,026714727
-0,052157015
0,38593498
0,3903319
0,31746596
0,29579046
0,10408342
-0,13471416
0,33906978
0,19483519
0,36835995
0,2911646
-0,020189952
0,26722968
-0,4539441
0,23927943
0,49267137
-0,26276687
0,26018876
0,25457886
0,060023624
-0,45171234
0,13674457
0,48437235
0,23447067
0,45114523
-0,3331781
0,31653798
0,077015094
0,14312926
-0,42774332
0,066586286
0,34629732
-0,4848502
0,03683932
-0,29701045
-0,15839149
0,124962606
0,23026453
0,10416214
0,17962816
0,011129669
0,086069524
0,12728909
-0,4147836
0,2006493
0,20084873
0,44314912
-0,13311867
0,008677625
0,41895056
-0,029680267
0,31088024
-0,4231656
-0,27537373
-0,19740653
0,32969368
-0,33997747
0,3711235
-0,30012688
-0,36683962
-0,15917663
-0,43605334
0,3942959
0,29377717
-0,08851509
-0,25827414
0,24801357
0,2954416
-0,25246522
0,35597703
0,38484326
-0,2590591
-0,18062428
0,03332121
0,2184536
-0,12948911
-0,42685953
0,02585744
0,124537796
-0,08378793
0,026616791
0,09230955
-0,4740962
-0,2843412
-0,13991651
-0,12230974
0,2793024
0,059418038
0,40697318
0,10444116
0,11295326
0,045935467
0,112031996
-0,41584796
-0,4086398
-0,18298632
-0,21125776
-0,26183692
-0,18560714
0,27147242
0,46085605
0,34441754
0,32703567
0,28167012
0,20922098
-0,22900578
0,17606801
0,3453086
-0,42172027
-0,22932999
-0,23937589
0,3335305
-0,026580991
-0,16442892
0,277497
-0,06918678
-0,22739428
0,057171263
0,1558238
-0,14945439
0,09655652
0,18109712
-0,29121345
-0,12488155
-0,27701205
0,4569029
-0,34511212
0,4179749
0,23798344
0,52339405
0,22889994
-0,38493997
-0,23426327
-0,33985594
-0,17832744
-0,3738164
0,094037116
-0,00674952
-0,15674253
-0,2164985
0,43171275
0,3692165
-0,34093115
0,39394373
-0,19419912
-0,07946768
0,0036692664
0,39405897
0,47128624
-0,3163253
0,3251557
0,1994411
-0,17732607
-0,46628433
-0,2687821
0,32558092
-0,38017854
-0,44812256
-0,20383759
-0,15523319
-0,03505375
0,16506603
0,025390828
-0,0017476801
0,45583028
0,010732781
-0,45071697
-0,24031807
-0,43057758
0,30539137
-0,017576696
0,23073113
0,37435842
0,4626652
0,041796535
-0,2753105
-0,13472971
-0,12980331
-0,060388934
-0,36251104
-0,021522433
-0,13552964
-0,3407601
-0,4613479
0,37131685
-0,22004637
-0,3442805
0,10442811
0,0527906
-0,12198699
-0,2692914
0,08699396
0,058222663
0,258539
0,23483987
0,32287836
-0,14867888
-0,07295122
-0,29834196
-0,48521116
0,4307613
-0,47945777
0,20821796
0,4101344
0,35770676
-0,008987158
-0,24561696
0,38335958
0,4800012
-0,22875355
0,0018069911
0,3442312
0,092428654
-0,09308311
0,35949147
-0,4574631
0,0296212
0,19549292
-0,19377801
-0,14409903
-0,44159997
0,3019091
0,28194398
-0,29735935
-0,22571261
-0,14474846
0,25241464
-0,25876904
0,08965743
0,103468336
-0,46177155
-0,3088431
-0,10416004
0,23384732
-0,09510769
-0,42889598
-0,48878106
0,17962447
-0,41381478
0,38192755
-0,35705233
0,15891576
-0,05726865
0,2587515
-0,043742266
0,23833314
-0,41542408
-0,09053973
-0,49014634
-0,27390605
-0,31376398
0,14964095
-0,07217743
0,4897044
-0,21520583
-0,018895218
-0,2745406
-0,012783
-0,10197492
0,4567026
-0,40138102
0,2306832
0,16432878
0,47202227
0,26822823
0,24643146
0,19443068
-0,37196407
-0,03736089
-0,34175962
0,51432836
-0,10461677
-0,2712322
0,3964026
-0,068375625
-0,2844052
0,38168204
-0,087606676
-0,1142172
-0,22455755
0,17295164
-0,49195245
0,5013586
-0,15240152
-0,11857448
0,43387744
-0,46052504
0,18316041
0,3401446
-0,48836023
-0,07315941
0,30001935
-0,06514847
-0,2130518
0,08370912
0,25403816
0,15811092
0,19709209
-0,34100005
-0,3896902
-0,19948068
-0,066914946
-0,26560387
-0,25328028
0,010386441
-0,48061746
0,33123857
0,15180618
0,1349303
-0,46133092
0,095395245
-0,12034311
-0,18703865
0,009190046
-0,30232394
-0,2610621
0,1316635
-0,13692573
0,38114527
-0,008270623
-0,007674905
0,3526433
-0,2183694
0,38119793
-0,27369103
-0,2996827
0,26232836
-0,1962267
-0,051245365
0,46493107
-0,08531718
-0,060789607
0,18420155
-0,4502692
0,20808257
0,110760026
-0,2978538
-0,32551572
0,40810418
0,04251993
-0,4124083
-0,03850448
0,17881645
0,23069558
0,36108556
0,45575067
-0,070539415
-0,32936555
-0,19565137
-0,032043714
-0,22787546
-0,33017722
-0,14576598
0,13028307
-0,43843976
0,39584795
-0,04354187
0,10007562
-0,17257231
-0,33499587
0,17097463
-0,44963348
0,09309429
0,24890016
0,0077240895
-0,1725398
-0,40986633
0,10766442
-0,11406308
0,301581
-0,35838443
-0,16644828
0,3554002
-0,052248884
-0,32587612
0,100110814
0,230599
-0,07764236
-0,053443585
-0,07176769
0,1968197
-0,09619434
0,43440768
-0,0643258
-0,06986038
-0,08487257
-0,024622478
0,42394698
0,15810542
0,3875599
-0,3501263
0,3326868
0,2998703
-0,005800746
0,15496375
-0,30867627
0,062667854
-0,38492587
0,109148405
-0,47672677
0,39113912
-0,3127312
-0,3976751
0,28630129
-0,42693195
-0,24851596
-0,2734947
-0,14533648
-0,15483397
-0,26011336
-0,46283948
-0,49591017
0,10843321
-0,20126066
-0,46690947
-0,19670962
-0,20469894
0,3488153
-0,053946152
-0,10706399
-0,23724182
-0,39010054
0,2152271
0,0530261
0,42299634
0,21671632
0,35636935
-0,3013123
0,4388086
0,14571856
0,014198448
-0,14183532
-0,069021165
0,07882228
-0,44121462
-0,18875326
0,45289293
0,060872618
-0,3642968
0,04958454
0,34108186
0,3289106
-0,42500138
0,24001867
-0,16564047
0,12017133
-0,10930784
-0,2921762
0,35793483
0,061656408
0,09992227
0,2321495
-0,21806718
0,45503357
-0,056653406
0,24246396
0,01069989
-0,088688076
0,37222254
0,32249993
0,30184874
-0,036089905
-0,28965664
0,22000207
-0,31170896
0,14104933
0,29781577
0,20895532
-0,1888228
-0,4536512
-0,4772032
-0,112325795
0,30392727
0,17260844
-0,29862508
0,037379093
0,10859486
0,2967904
0,07916719
-0,20696913
-0,26041394
0,0567301
-0,049374115
0,32777843
-0,14358579
-0,16717342
-0,23572175
0,47902414
0,03731105
0,3034716
0,13469599
-0,42854324
-0,2539001
0,18985333
-0,14793299
0,3404072
-0,33948007
-0,36677256
-0,42357716
-0,08052897
0,22244981
0,29621708
-0,016427176
0,14804251
0,12701374
0,30211046
0,20730445
-0,120143004
-0,4143848
0,3875994
0,3118261
0,50369936
0,38943234
0,39670464
-0,37340552
0,35079643
-0,16639355
0,09654697
-0,19643643
0,3986068
0,0022382874
-0,4306084
-0,23111874
-0,14283268
-0,4712586
0,0811229
-0,17347701
0,008721693
-0,18720774
0,26304176
-0,45785996
0,25701556
0,3965112
-0,39973667
-0,20219448
-0,4449067
-0,38779452
-0,21612546
-0,38465217
-0,06350911
0,2705778
-0,49471506
-0,45614454
0,19198593
0,3108171
-0,37408975
-0,29759932
0,4709723
-0,21285474
0,27434555
-0,2614034
0,2049973
0,19381244
-0,10298429
-0,33856475
-0,20406486
0,3466185
-0,20260765
0,25518343
-0,19643909
0,48058823
-0,168897
0,2551061
-0,10106736
-0,40076694
-0,031026619
-0,07400914
0,015289344
0,28751832
0,0712939
-0,2928963
0,09652544
0,4804522
0,4767951
-0,031429835
0,07815486
0,08115933
-0,11126385
0,38867646
0,19563477
-0,31545576
0,42640126
0,19911811
0,29837987
0,3462816
0,28182933
0,106402926
0,42363346
0,36004642
0,21005899
-0,48996246
-0,3733567
0,38068736
0,2177238
-0,3059169
0,45161662
-0,20713627
-0,3212709
-0,06444557
-0,19802456
-0,21706364
0,20404069
0,06700757
-0,07689317
-0,25521803
0,32182166
-0,20810299
0,0031467844
-0,43876454
0,15326656
-0,25643042
-0,43169168
0,099821
-0,11485988
0,4318725
0,05981883
-0,00087608467
-0,15569393
-0,28874403
-0,0009316017
-0,35204342
0,49032086
-0,2212035
0,25243062
-0,44077858
-0,49078542
-0,40480843
-0,012528195
-0,11458542
-0,08590001
0,4498971
0,20373248
-0,027407072
-0,4272372
0,25047752
0,2393416
0,04541594
-0,32449797
0,13687651
0,2859011
-0,26385528
-0,44093382
-0,20442055
-0,17740192
-0,23710468
-0,2759038
0,011846672
-0,50500435
0,13987048
0,35145298
-0,44333565
-0,42000887
-0,06874025
-0,262057
-0,40168336
0,08285481
-0,4107933
-0,06594082
-0,08443474
0,17674936
0,463074
0,15423387
0,038123094
-0,28078634
0,11529649
-0,12684534
0,053990845
0,017766573
-0,36953837
0,09359825
0,2956826
0,24099791
0,17740433
0,20209831
0,49684376
0,104907155
0,3903552
0,35621506
-0,34061384
0,258878
0,296766
-0,30978113
-0,32214922
-0,42032388
-0,12076612
-0,43459368
-0,005168373
0,48974904
-0,24495472
-0,09971664
-0,46199563
0,21880274
-0,11921444
-0,3952072
-0,18846439
-0,009788707
-0,32030264
0,41615736
0,14565347
-0,03733582
-0,09904639
0,120760046
-0,36774993
0,45566192
-0,05778241
-0,2017955
-0,3285528
0,3830472
0,3293586
-0,24636957
-0,33852562
-0,32725978
-0,092771344
0,10527436
-0,23872547
0,008327786
0,28035775
-0,16772404
-0,5230227
0,23457316
0,3828398
-0,27355167
-0,26539072
0,45556885
-0,4102367
-0,26676077
0,051475316
0,060898345
-0,08805822
-0,051272016
-0,02347192
-0,045214146
0,46789604
0,3919728
-0,47894678
-0,36702695
0,4103525
-0,37773344
-0,25408545
-0,33193436
-0,2417843
0,20588401
0,088992074
0,04411668
-0,30432627
0,032084167
0,4694935
0,15459831
0,098110445
-0,20909688
-0,41273838
0,34984675
0,27095467
-0,2334468
0,23115733
-0,38291112
-0,48568323
0,41368338
0,0772253
0,34675974
0,025806399
-0,07137757
-0,09325488
0,42505535
-0,12079419
0,2594075
-0,09167103
-0,08948252
-0,06897474
-0,30204085
0,16356415
-0,30765295
-0,46115232
-0,34517232
0,2950757
-0,27092496
0,078165494
-0,45615092
0,46706432
-0,09919042
-0,45694265
-0,41293693
-0,36336905
0,423695
0,26260453
-0,46205738
-0,12698092
0,34883437
-0,21320942
0,37914824
0,0883392
-0,41542754
0,20139135
0,34377813
0,48025802
0,35389298
-0,17314209
-0,26568574
0,24709235
-0,36998045
-0,43870866
0,44957894
-0,17606221
-0,40206033
-0,38673997
0,037799574
0,46153358
-0,29780105
0,2594787
-0,38496798
-0,20834546
0,08838482
0,3731646
-0,43154436
0,27398488
-0,40634012
-0,18350427
0,39852846
0,39484105
-0,18752788
0,50041324
-0,16741666
-0,3476544
0,015953284
0,4291389
0,008901626
0,04348339
-0,054390132
-0,19932586
0,091619894
0,1283202
0,34285712
0,14333937
-0,15209736
0,44160107
-0,20223156
0,31438842
-0,00762948
0,4119238
0,4592949
0,03732202
0,3273575
0,3920138
-0,21118578
0,10283155
0,05187538
0,42990014
-0,16784677
-0,14604089
-0,1489095
-0,0045550154
-0,17341265
0,3885128
0,019230966
0,113778934
-0,3138434
-0,19560388
-0,48771077
-0,26048195
0,299963
-0,44944838
0,12096658
-0,2587308
-0,22686338
-0,46264875
0,45610803
0,18729302
-0,06142815
0,17848895
0,22729915
-0,017075514
0,28280362
-0,276818
-0,12957346
0,25067145
0,09766892
0,0279529
0,25220126
-0,4400149
-0,028011065
0,34405622
0,28654414
0,1510381
-0,24575876
-0,4052468
-0,02566443
0,1715898
0,3252593
-0,09092949
-0,4052192
0,07280177
0,044088263
0,20666169
0,38280082
-0,32046264
0,29719192
0,24469641
-0,28211716
-0,47115365
0,07737553
-0,25380346
0,48889163
0,14375982
-0,32847187
-0,17585386
-0,3339409
-0,44272643
0,0921594
-0,11137571
-0,45723364
-0,4990625
0,03525565
0,3001713
-0,32257855
0,23378132
0,19259277
-0,31463274
0,08353376
-0,3541779
0,48885736
-0,27522558
0,008553608
-0,1805563
0,14690645
-0,067008
-0,41376904
0,10818438
-0,38542828
0,28449497
0,21555634
0,3609095
-0,19940692
-0,032882024
-0,2756571
-0,34705383
-0,33027875
0,35006785
0,28002217
-0,33244225
-0,28835124
0,13407896
0,2523413
0,25165802
0,21729405
0,3602405
0,33291936
0,28593203
0,025650762
0,30220962
0,39736566
-0,3967651
0,379951
0,451813
0,029628143
-0,44707957
-0,15940738
-0,4595531
0,45091847
-0,40714845
0,48761138
-0,23981343
0,21514721
-0,17309849
-0,0068028597
-0,29885584
0,42196473
0,3135348
-0,19417042
0,30432466
0,0032037604
-0,047387294
-0,043014485
0,2701889
0,30044082
0,0044706673
-0,15705185
-0,38714558
0,4678166
-0,4463623
0,17729701
-0,02363088
0,32961017
-0,24218935
0,09441741
0,17761904
-0,35982707
0,43011284
-0,12253189
0,13887757
0,12327967
-0,267368
0,020400273
-0,40852723
-0,22230202
0,09772489
0,35701132
-0,05735332
0,3308575
0,25978056
-0,035202343
-0,16845794
0,31423682
0,2971758
-0,26077816
0,4560232
0,14158815
0,42244926
0,3574043
-0,4087816
0,06347962
0,20034717
0,40228948
-0,13039985
0,08814381
-0,084714375
-0,32527858
-0,15753318
0,15599802
-0,24302268
0,15719804
-0,05166406
-0,28921992
0,009755793
-0,17339575
0,30021685
-0,32192406
0,061385214
0,14851187
0,28993264
0,34465867
-0,08774425
0,46736696
-0,14535117
0,22368062
-0,3275869
0,41050428
-0,30604103
-0,490759
0,3790825
-0,2861693
-0,009241567
-0,0644189
0,26620334
-0,20722228
0,19537011
-0,47267872
0,15342663
-0,4311631
0,22935934
-0,0022132304
-0,42121616
0,15036254
-0,41206592
0,17281874
-0,349836
-0,32701504
-0,42958772
0,26142055
-0,4365939
-0,22548643
0,49054402
0,44425952
-0,28671864
0,40546897
-0,17907122
-0,5195214
-0,38153982
-0,46365616
-0,18240808
-0,020494923
0,022954267
0,3107695
0,007945044
0,101185076
0,04937182
0,20234074
-0,36079124
0,40416864
0,27233014
-0,15017238
0,4792543
-0,008086106
0,45229286
-0,005805712
0,22886448
-0,3759219
0,31354296
-0,49716678
0,24319634
-0,40565592
-0,2545855
-0,15197617
-0,23583032
-0,15225413
0,3976013
0,24822313
-0,08956262
0,0028470422
0,3034236
0,10206157
0,24515146
0,14425138
0,43954343
0,20840034
0,26702896
0,27515382
-0,21197203
0,2841885
-0,12780163
-0,08600873
0,32303846
-0,37705508
-0,2809835
-0,3572144
0,47692928
0,15728271
0,033871647
-0,44020858
-0,032597426
-0,45487884
0,12994793
-0,4864154
0,074608885
0,46703476
-0,25147617
0,30644813
-0,24308787
0,5005948
-0,47443548
-0,45161003
0,281962
0,12741275
0,3180073
-0,13108371
0,29157674
0,4663221
-0,27488288
-0,22943324
0,4751958
-0,4852303
0,105805665
0,032061864
-0,32110006
0,037425667
-0,32906875
-0,24880736
0,24728592
0,032145653
0,3063538
0,19734576
0,0151301855
-0,20102939
0,060951598
-0,2207116
-0,28242773
0,31550294
-0,38981366
0,29936993
0,42784873
0,470967
-0,41536677
0,3623391
0,21313335
0,32918903
0,47972432
-0,48970446
0,09357169
-0,019178422
-0,47653878
0,4618973
-0,05710233
-0,47857347
-0,43533567
0,1485534
-0,41810906
-0,17334737
0,401512
-0,38360268
0,17667478
-0,20659365
0,41082183
-0,23729517
0,39130422
0,31899765
-0,35381392
0,31850258
0,42926645
-0,21242468
0,47695407
-0,16598698
0,44436413
-0,32004747
-0,20846169
-0,4613129
-0,44978717
0,06632196
-0,39046803
-0,48270622
-0,3934038
-0,14481314
0,33613926
0,030515458
-0,085262306
-0,02789834
-0,3156123
0,23871179
0,14557996
0,3914129
0,31438679
-0,3863307
-0,29153913
0,028051345
-0,0010074885
-0,061007418
-0,13498273
0,004151091
-0,022229662
0,057538178
-0,43383467
0,4731412
-0,4118806
-0,4833221
0,19609496
-0,2754824
-0,19854762
-0,15791504
-0,45571914
-0,1013991
0,10259002
0,41251606
-0,41776136
-0,1347377
-0,07410266
-0,084130056
-0,09257277
-0,34713486
0,42836374
-0,22474451
0,12950428
0,14929973
0,49111095
-0,5075709
0,45323288
0,26204994
0,06839241
0,04755612
-0,3961291
-0,19002615
-0,0021707176
0,38578218
-0,4031637
0,11704188
0,16940802
0,35651633
0,21522333
-0,039635796
0,32048333
-0,08463117
-0,22327796
0,38235304
-0,16617748
0,17720555
-0,48028943
0,0052535213
-0,25152245
-0,17087495
0,069208056
-0,49131885
0,47143024
-0,4133624
-0,08838007
-0,11316034
0,09082917
-0,2596802
-0,2897616
0,022720577
0,29431453
0,3026801
0,016621929
0,108347416
-0,37947196
-0,29404947
-0,053949572
-0,10585911
0,38821787
0,29814288
-0,53375775
-0,056664255
0,035319038
0,42862415
0,45487264
0,3731189
0,43214616
0,12197608
0,32491624
0,10024624
-0,08641032
0,1851414
0,30603883
0,053989977
0,19565167
-0,4735882
-0,25461465
0,44435146
0,26775774
0,013759841
-0,48377064
-0,28853762
0,24229492
-0,07635121
0,35733965
0,13486885
-0,29854915
0,342467
-0,040181838
0,20744996
-0,45039636
0,13124248
-0,37386847
-0,2099445
0,26888746
-0,123582095
0,43907487
0,5059496
-0,062051546
-0,33948445
0,43935126
-0,4160579
-0,41657045
0,41076863
0,02456162
-0,1812333
-0,5077136
0,3248534
0,35190153
0,2413602
-0,38787615
-0,25448984
-0,1699014
0,089511
-0,48116487
0,48621106
-0,013566218
-0,24017932
-0,06796598
-0,3198278
0,37691844
-0,07066446
-0,3410608
0,1796643
0,24043085
0,4098741
-0,32112077
-0,45791307
-0,07443294
-0,27914032
0,35052082
-0,47579005
0,43419966
-0,3428384
0,4214583
0,052065313
-0,37974325
-0,16312915
-0,45014483
0,2621815
0,17353451
0,06579795
0,20014417
0,104712695
0,22147048
0,43988767
0,13512857
-0,037718114
-0,356323
0,26809105
-0,2539351
0,34463313
-0,21385624
-0,4064927
0,34814894
0,3447702
-0,19890805
-0,005102673
-0,09127219
0,16478339
0,3792992
0,10070917
0,21213767
0,09665384
-0,1936803
0,40502295
-0,45703772
0,4670138
0,04214637
-0,10080586
-0,050701503
-0,2759063
0,28418556
0,30903292
0,055325024
-0,03521147
0,27686682
-0,17025721
0,18844268
-0,310753
0,23271607
0,45916653
-0,123054676
