60
125
0,23254737
-0,4790064
0,35229436
-0,3610908
0,3145222
0,36024448
0,17080867
0,11076799
-0,4497117
-0,16424516
-0,3254471
0,0030870533
-0,35765395
0,040454317
0,40556026
-0,08351058
-0,35550508
-0,067720935
0,40703374
0,31851307
0,32978973
0,054359853
-0,33037245
-0,11085616
-0,011631841
-0,17600079
-0,018596504
0,38835806
0,085937835
0,062384494
-0,23064192
-0,38425246
0,31847987
0,41313335
0,22809005
0,39971164
-0,11847525
0,04385229
0,19082192
-0,01583017
-0,43362427
0,41949192
-0,35586792
0,046109732
0,03260932
0,43709287
0,23277839
-0,22293581
0,17790717
0,43695116
0,27921897
0,32779956
0,12914433
0,027164478
0,16669084
-0,26197556
-0,32682312
0,3198826
0,26137114
-0,47577262
-0,39997855
0,47257736
0,38493726
-0,43703604
0,44772273
-0,018015811
-0,023815935
0,30807436
-0,37413868
0,4481913
0,30838603
0,44185987
0,24330802
0,04835476
-0,23425135
-0,5014021
-0,12251453
0,16822456
-0,3686054
-0,03157252
-0,24680035
-0,22066142
0,09706998
0,15384506
-0,28936118
-0,49009284
-0,19012275
-0,2689017
-0,28129888
0,4845267
-0,3052638
0,30521935
0,44481075
-0,24855828
0,10101627
0,3899956
-0,17435502
-0,18771558
-0,35318977
-0,07930047
0,2599687
-0,13693586
0,386051
-0,47099
0,4870299
-0,45832565
-0,3816463
-0,31388426
0,22602324
-0,38462877
-0,004920437
-0,035128735
-0,3686693
-0,20418733
-0,30178553
0,30938914
0,40241557
0,25984332
-0,360754
-0,20770487
-0,37292078
0,32366344
0,2734385
0,12619416
0,15164371
-0,39440843
-0,072453834
0,088089734
0,040888727
0,47157696
-0,42466617
0,06432159
-0,14793737
0,06295975
-0,3814477
-0,01361931
-0,15304503
0,42120656
-0,24256921
-0,07370335
0,2710247
0,025375921
0,49537817
-0,36783293
0,11401783
0,4478493
-0,16085696
0,46428135
0,4300515
-0,33741584
-0,08007375
0,22463271
-0,03052374
-0,031579476
-0,17787053
0,2673076
-0,3206648
0,2803864
0,08003952
0,2530407
0,42904574
0,17513467
-0,2234345
-0,45859766
0,36815894
0,32687357
-0,14142314
-0,28512934
0,090045534
0,49799502
-0,19050094
-0,38012525
-0,4872049
-0,13454886
0,4002867
-0,37209108
-0,346133
-0,069794744
0,08287994
0,106291756
0,33102167
-0,32609046
0,3664163
-0,09149057
0,2982346
0,47571224
0,2607668
-0,42699102
0,21707131
-0,10696153
0,05399714
-0,20858942
-0,033156123
0,4537435
-0,29351136
0,40566224
-0,4379632
-0,19711153
0,42860466
-0,28708565
-0,43663648
-0,23618911
-0,19222027
-0,02903154
0,33089253
0,4051902
-0,06392975
-0,46725288
-0,25920442
-0,028366106
-0,15025797
0,05798964
0,23497939
-0,20419516
0,37275347
0,22908397
-0,097083785
-0,44106397
0,054847002
0,27559766
-0,36211967
0,24847546
-0,41034728
-0,24379095
0,06080868
-0,2487549
0,3034603
0,25758356
0,4090211
-0,11339919
-0,09339473
-0,1029992
0,016254704
0,18925343
0,04468867
-0,17394935
-0,35083404
-0,44192007
0,35307696
-0,36139324
-0,20955266
0,10868715
-0,1298036
-0,011026071
-0,10377106
0,044627734
-0,50918305
-0,28795764
-0,23925853
0,48652145
0,015543655
0,007818048
-0,0146281235
-0,023036422
-0,26458657
0,1886487
0,10177184
0,024014337
-0,00043725598
-0,13639419
-0,25072604
-0,3942042
-0,21326159
-0,29852146
-0,082106404
-0,095966816
0,46650097
0,054875284
-0,35621992
-0,35213557
-0,3450836
-0,21097636
0,34924105
0,20688194
0,0526345
-0,48294446
0,32574445
-0,18931358
0,23493339
-0,14358376
-0,318955
0,10448282
-0,32724953
-0,36362445
-0,31140804
0,37994498
-0,050384376
0,30345666
0,20535897
-0,21605338
-0,068026304
0,13955788
0,3382302
0,40396902
0,2982995
0,32871467
0,24579602
-0,34368932
-0,25411144
0,4016879
0,3997734
-0,4626737
0,1374259
-0,48789188
-0,0048227794
-0,2289547
-0,061072785
0,3469393
0,10950782
-0,43247992
0,09348994
-0,3884027
0,075210184
-0,19804917
-0,39080545
-0,4379171
-0,08663158
0,014220484
-0,45610586
0,39923188
-0,1357092
-0,24475974
0,09573308
-0,17945649
0,4747156
0,198161
0,061980058
-0,14776702
-0,13846755
-0,16625644
-0,21840206
0,47475672
-0,18563344
-0,3617501
0,38874114
-0,14879757
0,46659797
-0,36059833
0,09436423
-0,4766657
0,11067684
-0,48997927
0,27523628
-0,39479932
0,105946764
-0,3033224
0,44967854
-0,26776627
-0,13392036
0,058205333
0,10486998
0,33450133
-0,3416932
0,23570228
-0,37386027
-0,46450534
0,124769315
-0,30160174
0,15164213
-0,04539037
0,43830448
-0,27621043
-0,16125591
0,031030454
0,018499725
-0,21297388
0,4603834
-0,36626932
-0,38624075
0,06000224
0,46233642
-0,11119329
0,18678106
0,029217862
-0,2660881
0,34419417
0,21094412
-0,445518
0,38412827
0,49484852
0,07236357
0,18742573
0,40266111
0,13819411
0,15960342
-0,07681859
0,34031558
-0,24600399
0,059771538
0,24887471
0,35905012
0,4419871
0,2689814
-0,44668245
-0,15195633
-0,0665189
-0,41599622
-0,3872166
0,0010973075
-0,38884765
0,2231524
0,34620482
0,03688848
-0,21393014
0,047470786
0,3557548
0,08403171
-0,15626787
0,2547784
0,4109012
0,2327925
0,12444848
0,011599154
-0,26019192
0,21446463
-0,22994609
0,46897203
0,1403701
-0,19726872
-0,0047983536
-0,090963975
0,47847342
-0,013126212
0,49864122
0,100008346
0,13485086
0,21214755
0,42195955
0,15563305
0,24118483
-0,14793365
0,33909163
0,1750829
-0,39033872
0,03939955
0,17021847
-0,011038494
0,38374364
0,15901722
-0,089315884
0,4334214
-0,20368734
0,12753797
0,07646265
0,35015658
0,38025948
0,081024885
-0,45796698
-0,11121526
0,1785582
0,32178056
0,28562802
0,0547654
-0,32421064
0,251071
0,2218271
0,27861476
-0,037106324
-0,43890557
0,21455522
-0,49099633
-0,014702299
0,4792216
0,10215091
0,46467298
0,4446228
-0,32747072
-0,31899855
0,42730162
0,19225958
0,044239573
0,25645703
-0,45313632
-0,063704
-0,04186359
0,14262256
0,350289
0,43020922
-0,42084676
-0,11557075
0,39110973
-0,25680283
-0,29426867
0,41918424
0,19875807
-0,3807055
-0,01824393
0,20890695
0,17191173
0,09402982
0,4297727
-0,1410366
0,38961974
0,16374026
-0,13131242
0,030115414
-0,23797311
-0,3327235
-0,2807723
-0,1432064
-0,020003118
0,018886454
-0,05263898
0,28706464
0,34238222
0,053703763
-0,38856205
-0,21545245
0,5005407
-0,1468666
0,43902612
0,23348188
-0,45208392
0,069766134
0,4016372
0,19224946
-0,41666532
0,30586728
-0,06021416
0,45287403
0,23029462
0,30230772
-0,15295616
0,37202492
-0,398357
-0,06471685
-0,4299898
-0,28651422
-0,34016034
0,45918748
-0,32279992
-0,43303898
0,48989934
0,09640433
-0,45797664
0,018502548
0,11435052
0,032318957
0,114112526
-0,17572622
-0,1509702
-0,29462168
-0,039604284
-0,33082473
-0,31255087
-0,42546415
0,4165304
0,37058312
0,29014394
-0,3628833
0,28069815
0,44875577
0,44366527
-0,05491158
-0,16670048
0,046889447
-0,20189868
-0,027282119
0,014656285
0,26722094
0,23829347
-0,3589325
0,08904375
0,31444058
-0,017690258
0,05879844
-0,061323587
-0,40819088
-0,088013105
-0,15734278
0,28656286
0,060742512
0,07260976
0,2706047
-0,25732246
0,22406474
0,13790001
0,4779889
-0,42340294
-0,23906446
0,1578726
-0,14320716
-0,3146453
0,2014798
0,007280866
0,45009506
0,5185286
-0,15784292
-0,37562525
-0,24544817
0,20420654
-0,43127474
0,19633895
0,409152
-0,1854991
-0,16657558
-0,32894596
-0,17313096
0,4770305
-0,04440586
-0,026824493
0,0386126
0,18495613
0,29106766
-0,41801262
0,2065068
-0,44422835
-0,11023707
0,4294728
-0,47343424
-0,40738025
-0,2458237
0,43234378
-0,34181952
-0,29657826
-0,019349389
-0,2042915
0,37960234
-0,031309847
0,3808392
0,280978
0,4327879
0,49571553
0,17738147
-0,12474153
-0,08503167
-0,22918797
0,20463173
0,15872237
0,36153764
0,4350599
-0,27577537
-0,45834032
-0,31069183
-0,10857622
0,45653635
0,4542054
0,038747486
-0,3226063
-0,40580666
0,40146858
-0,4792453
0,14726564
0,49671364
-0,07878043
-0,42575824
0,09573404
-0,028439412
0,27509594
-0,16161598
0,08211967
0,1908692
-0,4810222
-0,4398705
-0,25956595
0,30523694
0,4755165
-0,1470865
0,28222045
-0,13042542
0,32709
0,24537659
0,22063439
-0,09416406
-0,19135702
0,014121153
0,35959277
0,09976246
-0,3008892
-0,25461954
-0,28888863
0,0008416171
-0,25764784
0,07767594
0,38309836
-0,0027064304
-0,4086924
-0,12758636
-0,31387216
0,26919183
0,26813304
0,12743507
0,42821893
0,13067998
-0,044643577
-0,11131941
0,48001385
0,017143074
0,10817649
-0,21953408
-0,16191739
0,11146082
0,30706155
-0,09074651
-0,2380885
0,032229472
-0,41980657
0,30156845
0,48215753
-0,44889122
-0,38143995
0,014742991
0,4908164
-0,25386912
-0,21296342
0,40941876
0,23631361
-0,3402939
0,3476974
-0,40485394
0,20847593
-0,2905752
-0,029044032
0,119680464
-0,06265825
0,32976162
-0,47510153
0,29799792
-0,046758756
0,31848103
-0,10750122
-0,28514892
-0,0956943
-0,34465608
-0,22943069
-0,394045
0,19238141
-0,2663036
0,38607404
-0,14579597
0,019362146
-0,46388823
0,24322166
-0,36162338
0,17764367
0,22529541
-0,26759076
-0,40982455
-0,068840966
0,004838194
-0,434005
0,38528723
0,21552104
0,21993992
0,47970954
0,110306405
-0,018784434
-0,030356295
0,47287902
-0,020579698
0,4605998
-0,26659524
0,3118472
0,46186936
0,15685897
0,24875167
-0,278102
-0,4488149
0,3533001
-0,14247581
-0,1346897
-0,012019264
-0,41978055
-0,4872913
-0,26236692
-0,09282128
0,18313007
-0,39547926
0,35488638
0,23295198
-0,109873824
-0,26627848
0,3606027
0,49351496
0,16509284
-0,4775743
-0,4001406
0,10188634
-0,40608788
0,037123483
-0,06335397
0,46015218
0,3416901
-0,055770587
0,1188498
0,06263281
-0,44221047
-0,104662314
0,21704447
-0,1504548
0,17000002
-0,13429807
0,36755884
-0,48111674
0,32507074
-0,31600362
-0,1896453
-0,2967089
0,18516634
0,0849475
-0,39624095
-0,36644983
0,4612804
0,2149765
-0,45713928
0,46647704
0,08252228
-0,2890972
0,4868591
0,38781413
0,21154839
-0,20831041
0,39708695
-0,16730858
0,49053425
0,2578471
-0,4365123
-0,053885125
0,18272896
-0,38344958
0,22064608
0,2875153
0,06942715
-0,18572883
0,2828956
-0,10774584
-0,4918296
-0,09046398
-0,14579597
-0,24668275
-0,2610141
-0,09724579
-0,2598085
-0,14998738
0,08541676
-0,4002407
-0,3741999
-0,35595888
-0,44587913
0,3659617
0,12676051
-0,13812122
0,44852448
-0,29841623
0,33936194
-0,4208406
0,18493721
-0,113681756
-0,24181825
0,42659992
-0,35091722
0,05358723
-0,34947914
-0,069377884
-0,14723267
0,47686875
0,46637467
-0,44742933
-0,096779995
-0,05099309
-0,42246094
0,28831443
0,081698015
0,43852705
-0,31776243
-0,27555856
0,44869548
-0,39355752
-0,3031188
-0,027385645
0,32193604
-0,28161153
0,05993226
-0,2750545
-0,18864441
0,18144776
0,43526536
-0,3710328
0,050759505
-0,35578617
0,3690492
-0,4645058
-0,141466
0,4601675
-0,41572207
-0,087812416
0,057657305
-0,26325673
0,19628936
-0,28657526
-0,2968339
-0,23698264
0,20633718
0,3217948
-0,5027095
0,28963885
-0,3290869
0,041978747
-0,10127843
-0,20195386
0,33532116
0,16815507
0,16781016
0,3533435
0,21709803
-0,48133907
0,0242252
0,26159227
0,091129646
0,26025707
0,19030078
0,3518512
0,19680329
0,35361683
-0,3671136
-0,245699
0,30700296
0,3655374
-0,33242106
0,24177796
-0,17589279
0,04369707
-0,30123508
-0,076269016
0,23364544
-0,36737272
-0,09053702
-0,26493803
-0,24014616
0,13594185
-0,36038095
-0,0591468
-0,38903484
0,03278459
0,18934102
-0,37636495
-0,012884818
0,0037342447
0,39687058
-0,3496876
0,0940469
0,18430802
0,28229123
-0,0588903
0,08745295
0,44400764
0,13644171
0,11939309
0,35414633
-0,48332998
0,21130924
-0,4471503
0,34453496
-0,23126094
0,3822094
0,2095943
0,40156987
-0,047586527
0,057766516
0,066104695
-0,025033653
-0,23111627
-0,31005242
0,2492529
-0,0999611
0,47656593
-0,27299848
-0,4458093
0,16377382
-0,38907424
-0,09318047
-0,47113192
0,24333328
0,37180987
0,43444708
-0,4597388
-0,13870071
0,10673077
-0,4960879
0,44206285
0,056397136
-0,07051179
-0,4780059
-0,061750647
-0,2627
-0,23407069
0,18064919
-0,0018202089
0,026287539
0,09828739
-0,3352425
-0,23607475
0,40561172
0,019157644
-0,4538515
0,37029618
0,4741806
-0,14293616
0,28950512
0,16182338
-0,22289078
0,22795825
-0,12408999
0,06056132
0,004252406
-0,04854697
-0,2640681
0,32001987
0,040113013
-0,47964826
-0,21070246
0,052437987
-0,24964362
0,17276411
0,117955536
-0,18586558
0,21405783
0,09367793
-0,42311504
-0,22991832
-0,30297214
0,10268853
-0,059217587
-0,33231184
0,0486304
0,06292098
0,099474736
-0,18758658
-0,29920974
-0,29890776
-0,18637177
0,16898637
0,3958809
-0,15283488
-0,41342092
0,4324249
0,42624798
0,21172237
-0,26314735
0,08574508
-0,14519852
-0,4156728
-0,100064725
0,42921862
0,36174482
-0,20093969
0,1372229
0,15163462
0,056221407
-0,31546453
-0,39856085
-0,21716785
0,26352972
-0,17632473
0,21911667
-0,20384985
0,39647338
-0,011459105
0,2232083
-0,37872642
0,45151803
-0,23230016
-0,14707372
0,31081894
-0,3704104
0,24611029
0,34098017
0,062175278
0,29341185
-0,21370578
-0,21231553
0,1779598
0,2628845
0,47576192
0,030516302
-0,41242963
0,12727998
0,43838942
0,3579442
-0,34995434
0,17540918
-0,23376387
-0,19038007
0,111250356
0,48863244
-0,10664636
0,36616576
-0,41986337
0,101249374
0,27461454
0,09894355
-0,3752538
0,12531203
0,29030466
0,50359595
0,49082744
-0,20850268
0,42628834
0,4419261
0,05674659
0,013795079
0,42195836
0,14607124
-0,14855905
-0,35207447
0,043792266
0,37319896
0,3284611
-0,22018671
-0,29373017
0,042718347
0,44447845
0,31265533
-0,13106224
0,19151367
-0,34087652
0,14457369
0,11521732
-0,18557017
-0,04427194
0,22518693
-0,21371722
0,38863915
-0,2634364
0,14413786
-0,24875928
-0,174497
0,23020165
-0,29064593
-0,1393531
0,48474124
-0,22877377
-0,21548682
0,38862264
-0,43461394
0,35926515
-0,09459393
0,3452595
0,36711416
0,0664252
0,22746818
-0,4888312
-0,4352363
0,28336427
-0,32832518
-0,24826834
0,090358816
0,2300059
-0,07981911
0,055282705
-0,27590656
0,34206492
-0,36627904
0,31722802
0,42910868
-0,44249424
-0,23429364
-0,23750876
0,21328793
-0,20654571
0,06300047
0,41139653
0,39326477
0,25392765
0,18741362
0,36301374
0,051365834
0,28883767
0,16637631
0,20216899
-0,33381414
-0,38728756
0,23589972
0,16252987
-0,06869673
0,20765308
-0,42464307
-0,28603476
0,09826818
0,1613288
-0,06230643
0,4810562
0,36840373
-0,2623761
-0,46583328
-0,3044768
-0,22163393
0,17711914
0,23144795
0,15034635
0,34963098
-0,46585876
-0,2311346
-0,117288925
0,11190252
0,1696776
-0,3239947
-0,3663817
-0,11399617
-0,016158031
0,23392072
0,07177486
-0,20610775
0,16033098
-0,36180347
0,35876027
0,1247673
-0,12614015
0,22694968
0,071247086
0,18358131
0,33337948
-0,08208251
0,37394074
-0,03707164
0,029602785
-0,011473604
0,050654296
-0,43223524
-0,48106664
0,2426514
0,19443747
-0,225343
-0,41779208
-0,34236047
-0,20091918
0,028059363
0,2620211
0,055533413
-0,3697073
-0,44974762
-0,007403155
-0,45967278
0,06712714
0,32678434
0,095628634
0,26976442
0,29193264
-0,21395539
0,06743281
0,14506373
0,18396237
-0,29567966
-0,25715357
-0,37508047
0,42483768
0,08370299
0,38831416
-0,08427483
-0,3825409
0,11619151
-0,065701745
0,3014342
0,1458802
0,42976415
-0,21221584
0,082522705
-0,054668896
-0,16227278
-0,25683874
-0,42257684
-0,3243176
0,46727678
0,06817917
0,30436778
0,10270009
-0,0120194955
0,4070831
0,3726076
-0,3672303
0,13055497
0,009899835
-0,21875384
-0,23107767
0,41885254
-0,23705982
0,4125945
-0,16568014
-0,13221948
-0,46988407
-0,3393387
0,48996595
0,31726953
-0,33247766
-0,0909295
-0,20751165
0,2521604
-0,15247345
-0,11905823
-0,0134124495
-0,27654916
0,338354
-0,14176664
0,04361744
-0,10588504
0,18486089
-0,48580214
0,40509695
-0,1169937
-0,49240276
0,19646205
0,41012487
0,21006073
-0,012010944
0,121392205
0,4321877
-0,048956145
0,10194151
-0,100704305
0,15968992
-0,12810458
-0,23715165
-0,13824044
-0,33221912
-0,21448562
0,018168254
0,3672635
0,17564778
-0,22805089
-0,30725774
-0,33572796
0,01720771
-0,0237724
-0,11014743
-0,15251851
-0,26391965
-0,29572856
0,25256804
0,0029461652
0,14733168
0,23861112
0,24848749
0,511824
-0,15766388
-0,39699006
0,364425
-0,29071313
0,16770327
-0,13532111
0,11789702
0,4358525
0,4139563
-0,3621175
0,12204339
-0,2198789
0,40914443
0,28508747
-0,013289566
0,07812031
-0,47214776
-0,48561275
0,38517824
0,21900383
-0,09113088
-0,35350227
-0,5028045
0,024349356
-0,37425292
-0,38454387
-0,09498663
-0,34024316
0,47261858
0,028573887
0,4501643
0,3590924
0,21198939
-0,26544872
0,43042287
0,34027004
-0,05431426
0,21571714
-0,051085792
-0,16356446
-0,08807501
-0,40501115
0,42453477
-0,23168503
-0,3114622
-0,025420325
0,053977713
0,14384946
0,2867521
-0,46811682
-0,40284654
0,45786652
-0,019486088
0,30102682
0,31204793
-0,22352156
-0,04488402
0,07613611
0,47689646
-0,013226285
0,20809004
-0,2814848
-0,02968948
0,1733146
-0,08746891
-0,09804317
-0,15355715
-0,039478503
0,43459627
-0,05660309
-0,28634718
-0,3375638
-0,33838025
-0,23845583
-0,3978737
0,28297067
-0,2569701
-0,21559735
0,28706095
-0,22708803
-0,48252568
-0,20789488
-0,32305986
0,2032222
-0,07518219
0,27007186
-0,36351338
-0,29002744
-0,39587724
-0,4889768
0,0225778
-0,0059414185
0,2772046
-0,14291155
-0,30981034
-0,4340612
-0,04400405
-0,038105216
-0,2751926
0,2452626
0,25727886
0,24295352
-0,3216414
0,34475186
-0,0042754784
-0,40257797
0,42384174
0,27929935
0,35789916
0,38690403
0,4603892
-0,33935225
0,082519226
0,4868802
0,19831201
0,16605647
0,17793928
-0,31069463
-0,28170916
0,0826278
-0,32799488
0,080627
0,18951413
-0,23122343
0,3473508
0,15666413
-0,45311934
-8,373965E-05
-0,24661382
0,2507037
-0,2284736
0,44304585
-0,012176321
-0,3661669
0,48276722
0,44570905
-0,20989737
-0,23692143
-0,2437893
0,42907906
-0,34090653
0,051788848
0,41324604
-0,49104184
0,3602477
0,44524178
0,28808743
-0,10279982
-0,43190274
0,23296437
-0,4877223
0,12529385
0,17353237
-0,42861488
0,45413393
0,25469086
-0,3624102
-0,047430936
-0,47611004
-0,45920378
-0,25003073
-0,39708433
-0,17694215
0,35215947
-0,2787256
0,06907675
-0,012052231
0,018485079
0,106685735
-0,3385761
0,050179906
-0,28060696
0,4500042
0,06393007
0,27588975
0,26201612
-0,13305265
-0,299166
0,3635014
-0,36471865
0,011041572
-0,31237388
0,39274576
-0,13038778
-0,096746795
-0,03132671
-0,13731666
-0,25256956
0,3613582
-0,15227912
-0,07609008
0,16614614
0,45020214
-0,36714572
0,4328359
-0,25797516
-0,25967854
0,45848608
0,17965083
-0,39800602
-0,10512003
0,0459061
-0,22120138
-0,09937802
0,4854727
-0,47927
0,19758454
-0,17304258
-0,31167734
-0,40271962
0,27108222
-0,22983938
-0,39932656
0,42464417
0,07140493
-0,26353645
-0,04310724
0,41864556
-0,044314068
-0,22107047
-0,0012741813
0,15446286
0,3644549
0,3230366
0,3831441
0,017662056
-0,22521116
0,4895353
0,444434
0,49883407
0,21620542
-0,3701935
0,24640846
-0,25171208
0,48482734
-0,023683958
-0,28545645
-0,35729834
0,35552529
-0,030710842
-0,37830022
-0,24013342
0,46939167
-0,28903347
0,097329326
0,10969507
-0,19743448
0,11574655
-0,36659652
-0,319723
0,20675531
-0,049871102
0,46040568
0,11429014
-0,12758186
0,4326263
-0,47508657
0,26989678
0,25738174
0,3077547
0,40013498
0,246033
0,32929838
0,33354616
0,3790735
0,24840723
0,35382506
-0,0823108
-0,25525522
0,38651577
0,21629074
-0,021665912
0,35949722
0,035583347
-0,3549981
0,33040115
0,37162498
-0,11146712
0,27968124
0,30960616
0,15391311
-0,46086466
-0,23089099
0,29382256
-0,3338528
-0,053022593
0,26275837
0,4259227
-0,22956496
0,13238917
-0,37447083
-0,26638165
0,035625685
-0,37513065
-0,20657901
-0,49188024
0,15532814
-0,2587759
-0,25579396
0,1498594
0,27063698
-0,13994786
0,48953912
0,48295876
-0,35029203
-0,12843288
-0,37564602
-0,023692075
0,319686
-0,057680774
-0,045751594
-0,27527192
0,14210312
-0,44624922
0,06034499
0,05423907
-0,19213799
-0,1675177
0,015329669
-0,33489957
-0,20490001
0,08635162
0,2367476
0,26551706
-0,11011489
0,35164443
-0,49046183
-0,43928492
-0,009173653
-0,16632031
0,26471955
0,004380934
0,09034611
-0,30394986
0,029710483
-0,37876314
0,43170002
0,30694345
-0,34806848
0,25418127
-0,43574342
0,30290163
0,4980517
-0,4796021
-0,022877308
0,37034535
0,15947036
-0,46769622
0,12590927
-0,40816334
-0,25712612
-0,11032515
-0,064560525
0,014769248
-0,112249896
0,09705982
0,061225574
0,18476075
-0,27904618
-0,0022269345
0,11989133
-0,054259535
0,17030664
-0,03395085
-0,3107265
-0,23021744
0,47172812
0,38796028
-0,4180446
-0,12481409
-0,0066370256
-0,11575869
0,32162803
-0,43721065
0,39819884
0,19896898
-0,16608788
0,023794847
-0,024995852
0,2709141
0,06466803
-0,46295097
-0,10006936
0,2522066
0,06564339
0,06388523
0,23866457
-0,43209296
-0,1009407
0,28260723
0,2567904
0,18768357
0,4113555
0,26323038
-0,003649114
-0,13524248
-0,35724825
0,33117914
-0,18819298
0,20936407
0,38263744
0,4560864
-0,33018878
-0,3630293
-0,16407955
-0,20551226
-0,08085013
-0,25727358
-0,26901057
-0,3266082
-0,38220522
0,48450926
0,3976832
0,4605639
-0,2667449
-0,46815315
0,5042017
-0,48007196
-0,16178802
-0,1858766
0,38581723
0,3369739
-0,13670774
-0,3294045
0,27402756
0,35278836
-0,21086654
-0,2569233
-0,46198303
-0,15052871
0,3774772
0,08909088
-0,19303396
-0,33346272
0,25240335
-0,26114625
-0,49975342
-0,12417508
-0,44135368
-0,24075423
0,23530419
-0,32367662
0,057309754
0,44328693
-0,13871427
0,11132036
-0,01846921
0,43518984
-0,08741031
-0,10153869
0,14644362
0,31905267
-0,4339103
0,1463225
-0,25322273
0,30415145
0,08544015
-0,17829248
-0,16954315
0,0037449934
-0,24150428
-0,32567626
-0,21728134
0,10510083
-0,2553326
0,029455183
0,15744497
0,25449467
-0,24673104
-0,33066875
0,2572327
0,46724755
-0,25468186
0,30916995
0,27418593
0,28423753
-0,18674904
-0,36716688
-0,31743497
-0,073132455
0,1935074
0,40456215
0,14456826
-0,13119903
0,28678414
-0,3832818
0,25765204
0,37004182
0,3964815
-0,37982342
0,14285743
0,44317397
0,30697912
0,33760983
-0,19824602
-0,073613405
-0,486119
-0,041668575
0,5008765
-0,34418395
0,47489226
-0,34691295
0,1287183
-0,26013976
-0,21552959
0,23056117
0,23131992
0,05238348
-0,47124192
-0,29466897
0,49055868
-0,1784003
-0,43330035
0,03021603
0,20710115
-0,0035528324
-0,35662118
-0,14679825
-0,28464788
0,15840535
0,4352452
0,33649585
0,402694
-0,48030278
-0,4977548
-0,39779887
-0,24872816
-0,3809522
0,3409956
0,27219954
-0,072291106
-0,13842465
-0,45001507
0,39168113
-0,1346725
0,2926251
0,366406
-0,22306812
0,15245132
-0,449933
-0,4843065
-0,209181
0,093820676
-0,17748553
0,27377182
-0,28055325
-0,087327935
-0,043978136
0,18060367
0,15033036
0,35452092
0,2983065
-0,49027652
0,38808173
0,22603156
0,31532222
-0,13331503
-0,47726044
-0,42880544
-0,31661403
-0,26518676
-0,26189885
-0,4576627
-0,02281723
-0,080323234
0,30797842
-0,3751512
0,102926314
-0,061090257
0,47682315
0,38375625
-0,33001894
0,33591613
-0,37495533
0,073876634
-0,39953718
-0,043515027
-0,16559422
-0,49179628
-0,27323967
-0,37255925
-0,25826374
0,44336948
0,020342806
-0,2010262
0,083473034
-0,11672173
0,14850911
-0,47094947
0,06636576
0,30999753
0,12888065
-0,45279902
-0,47252837
-0,19449703
-0,42096716
0,46071544
0,38377622
-0,47350013
-0,01138005
-0,29696614
-0,27488965
0,32382184
0,119681574
0,09694417
0,15987869
0,2661423
0,15521769
-0,075098306
0,3762044
0,15936969
0,008530497
-0,45040268
0,057179164
-0,055958092
-0,02684881
0,3938349
0,4268774
0,1758565
0,27709788
0,24342951
0,064600684
0,21479395
-0,48478568
-0,39186305
0,076415785
0,041092496
0,3355818
0,32912263
0,28385538
-0,2578568
0,033439692
-0,004476401
-0,4576553
0,028034488
-0,3340955
0,40365282
-0,37485835
0,47498155
0,41165304
0,43406573
0,30609918
-0,2412576
-0,26033518
-0,043245625
-0,11847991
0,1862536
0,39814973
-0,15612681
0,07371914
0,119186155
-0,27741203
-0,073668
0,40129596
-0,13686426
-0,35027906
-0,18660629
0,22591783
-0,4839487
0,29358506
0,48935035
0,45692962
-0,30343416
0,043633826
0,31621376
-0,009673273
-0,28602716
0,29373616
0,24792327
-0,346964
0,44276848
0,41674265
0,064723566
0,2548768
0,17109261
-0,4074117
-0,01105074
-0,44264123
0,40310243
0,4820789
0,33797115
-0,08201691
0,3305121
0,32400194
0,4734972
0,3958881
-0,3198653
0,054381303
0,32927242
0,3189006
0,003605325
0,13124518
0,34000215
-0,06289468
0,1244991
-0,24015056
0,49370816
0,49787098
0,08075455
-0,35512543
-0,2516426
-0,11367084
0,49505574
0,15621616
0,2814891
-0,07407244
0,18195012
-0,16175306
-0,28640398
0,3271669
0,39802212
-0,26910037
-0,209152
-0,23414035
-0,24377708
-0,06317086
-0,013709654
0,36972335
0,413871
0,4119031
0,15353991
0,12353219
0,32421386
0,4445399
-0,45836085
-0,40855682
-0,13508224
-0,07172583
0,14297797
-0,30860347
0,3301514
0,44426835
-0,1426241
-0,13757347
0,35119265
-0,21666913
-0,179266
-0,26460195
-0,1900755
0,3068051
0,4608233
0,25351873
0,4331709
-0,14754027
0,40524486
0,014948621
-0,33646137
0,3141604
0,39932084
-0,2895704
-0,1012097
0,3197455
0,28214094
0,0031406346
0,18550727
0,28761074
0,26341966
-0,38189763
0,2540288
0,2956274
-0,04384262
-0,065077275
-0,5123696
0,037629493
0,104375094
-0,20675443
0,08676611
0,38174504
-0,0159383
0,13697304
-0,089250885
-0,019354366
0,06689056
0,47805053
-0,24275677
0,4093379
-0,21749239
0,13746332
-0,1790006
-0,22467546
0,09552128
-0,00314296
-0,19609584
0,36562315
-0,3188287
0,29916662
-0,044429217
0,27580336
-0,157761
-0,22492006
-0,47943613
0,31587625
-0,097030774
0,00412789
0,26938838
0,24821353
-0,364973
0,3360374
-0,14993979
0,06660321
-0,1271729
-0,4516643
0,24519934
0,44370046
0,17993526
0,27606165
-0,05501147
-0,11726331
-0,49137536
-0,48543948
0,27600542
0,007814862
-0,018861322
0,1274448
-0,13179137
0,17982796
0,27066782
-0,27440858
0,040396467
-0,2706652
-0,28217876
0,25631335
-0,4898755
0,47533908
0,070624165
0,11666847
-0,44270155
-0,26266453
-0,22744799
0,47048208
-0,35043296
0,02931116
-0,49286315
-0,27474603
-0,20746498
-0,11552119
0,4248087
0,21544184
-0,41495997
-0,37621185
-0,068292364
-0,37131938
0,37517124
-0,39328977
-0,49150097
-0,34447148
-0,43486857
-0,43168202
0,33765846
-0,21002258
0,04621199
-0,13665101
0,40902686
0,091839954
-0,09773667
-0,2100521
-0,15090339
-0,36292467
0,33468843
-0,35357782
0,17129637
0,36176673
-0,07825749
-0,026711566
-0,1358253
0,18402317
-0,19784023
-0,009928367
0,24993089
0,370631
-0,32684115
0,32065973
0,2175361
0,37181997
0,063078664
0,17649813
0,48385805
0,48788276
0,397204
0,13048457
-0,2190581
0,25554135
-0,30858833
0,27454987
-0,14972201
-0,45338538
-0,44446695
-0,0011574479
0,21340449
-0,35027665
0,39898202
-0,02508318
0,10490482
-0,18188268
0,058268495
0,18994682
0,21854691
-0,34284654
0,4501661
-0,40002835
0,40474215
0,21462867
-0,39725062
-0,15337473
-0,4507442
-0,36476865
0,16093485
0,30547017
0,50291777
-0,22026968
-0,2156666
-0,2131919
-0,34176436
0,021722965
-0,2518084
-0,24799483
-0,23325948
0,23067456
-0,48563874
-0,49252835
-0,10890328
0,36561868
-0,28162453
0,19020374
-0,22736543
0,33415148
0,06679421
-0,38995054
0,39177206
0,28068963
-0,038524427
-0,45645666
-0,014701548
-0,28365993
0,43541297
0,13858551
-0,26476815
-0,48790103
0,310237
-0,2767657
0,1510727
-0,4969166
0,067133576
-0,03638093
-0,48013535
-0,12727536
-0,23644167
-0,17841882
-0,14147073
-0,35193014
0,03807211
0,035554677
-0,023055874
0,11296329
0,35017455
0,15415022
-0,33163247
-0,0069661713
-0,35930684
0,12492589
0,32202658
-0,055082645
0,10679864
0,12926824
0,49081
0,078071244
0,25744498
0,31695533
-0,03287604
-0,32738924
0,26309225
0,4743333
0,35146254
-0,20188712
0,2657518
-0,22534135
-0,38461038
0,22664976
0,38449273
0,2776312
0,06486102
-0,3037226
0,27089173
0,05988692
0,35394245
0,000115840194
-0,46172363
0,29811248
0,44666326
-0,4446578
-0,212451
0,24829248
0,026865855
0,39052624
0,36988884
-0,4822317
0,32361916
-0,073154725
-0,19337833
-0,011564625
-0,42369863
-0,21113029
-0,36593854
0,07208468
-0,2787058
0,15020728
-0,45262808
-0,0561539
0,054571044
-0,21932803
-0,02610041
-0,3275456
-0,19000803
0,4652976
-0,41127264
-0,118293345
0,37520143
0,21940649
0,0076422226
-0,31120926
0,11513713
-0,18156904
0,2876001
-0,27899686
-0,28378168
-0,060863867
0,13801503
-0,18201491
0,30328235
0,47261786
-0,13918255
-0,4514215
-0,055275187
-0,43760294
-0,06904026
-0,24949925
0,12277156
-0,4161611
0,34899634
0,08537244
-0,019073548
0,34255794
-0,2820382
-0,11526711
-0,32989356
-0,23495643
-0,015031523
-0,3540507
0,32352188
-0,27441642
-0,317008
0,41314703
0,25987595
0,24826887
-0,3756305
0,28914705
-0,26602042
-0,17054467
-0,10542214
-0,027583605
0,17229927
0,4834026
0,17081699
0,36086985
0,06777949
0,4926212
-0,45243317
0,03137289
0,0742476
-0,1338279
0,24136522
0,09373834
-0,1899394
0,2750162
0,4059794
0,3351985
0,4866933
0,33577284
0,124082044
-0,04762533
-0,3458244
-0,15645899
-0,022058694
0,49876627
-0,22936504
-0,12679395
-0,48718816
-0,10881406
-0,08317813
0,40069902
0,384785
-0,3913905
-0,05009462
-0,2154368
0,14740176
-0,07565838
0,121944815
-0,114909165
-0,24449013
0,2367913
-0,47598445
-0,30454728
0,24919644
-0,45082197
0,36857444
-0,4742034
-0,362019
0,27613238
-0,4336143
-0,0338028
0,1643328
-0,44027483
-0,16661139
0,4631706
0,15644658
0,4094155
-0,24146444
-0,41665384
0,24559134
-0,14046465
-0,4539351
0,4329707
0,43449864
0,10196979
0,015658222
0,42815363
-0,47462064
-0,04136529
0,31694123
0,009300449
-0,37019032
-0,40203768
-0,36063087
0,20435458
0,46439716
-0,08930775
-0,15223959
0,4241436
0,45717195
-0,23662625
0,38617396
0,44514737
0,416276
-0,2370432
-0,34172538
0,42186165
-0,48687
-0,19335167
-0,010630174
0,3395812
-0,3777722
-0,37211144
-0,29484808
0,3405712
0,29933095
-0,39336827
0,27078965
0,40860206
-0,29564407
0,12862685
-0,47967908
-0,3763532
-0,23906969
-0,14822935
-0,21535103
0,2333324
-0,00657701
-0,2799934
0,41798672
0,05344431
0,08582531
-0,088216804
-0,030972727
-0,24582626
-0,21837063
-0,10217826
0,38484764
-0,06439431
-0,40383163
-0,23978126
-0,09907044
-0,20589429
0,10199897
-0,43396094
0,2757426
0,45156097
0,38570392
0,03728127
0,018413661
0,46227735
0,08808545
0,04789669
0,3895729
0,26321375
0,14390413
-0,20532319
-0,21070994
-0,15918735
-0,47780538
0,434205
-0,076556675
0,23995715
0,36422667
0,16080675
0,216917
-0,13722424
0,28961667
-0,13777654
0,2879707
0,14217661
-0,04920808
0,47591916
-0,48644444
-0,03811567
0,3564387
-0,18817163
0,2810583
-0,19557136
0,35795036
0,3734677
-0,05835257
0,24905741
-0,26840252
-0,32684094
-0,18065421
0,19385336
0,43733612
0,308929
-0,35016316
0,28073516
0,13188379
0,1420162
0,077126145
0,3953198
0,24119997
-0,3363771
-0,0055484963
-0,39093503
-0,29982868
-0,27380306
-0,44633734
0,36726218
0,07223463
0,03149706
0,27132455
0,30661196
0,23535956
-0,28855243
-0,41970164
0,38658538
-0,060856976
0,054417495
0,018745212
-0,23245808
0,41903043
0,41120097
-0,27820033
-0,049819518
-0,30794647
-0,14234248
-0,03268204
-0,11929147
0,2712628
-0,046027806
-0,20852448
0,22810341
0,38115537
0,1474531
0,4153318
0,34498084
-0,40166318
0,2176461
-0,45844272
0,09590971
0,11085852
-0,15116419
-0,3918664
0,2049194
0,4620577
0,4521065
-0,007534969
-0,107622765
-0,46871728
0,44248486
0,03776617
-0,11439363
-0,21187949
0,30327505
0,15907581
-0,052487366
-0,38559178
0,36921296
-0,14386342
-0,23405415
-0,3125612
-0,02494885
-0,2196322
-0,10740071
0,0023837872
0,062492236
0,31667703
0,41634762
0,4084312
0,5039853
0,09491334
0,062169597
-0,30075282
0,47602713
0,26056534
0,15484758
0,2204591
0,46537656
0,4339473
-0,020184636
-0,089620434
0,2564989
0,023786914
-0,41063833
-0,45354936
-0,21109624
-0,016892282
-0,48725528
-0,46561357
0,0034632438
-0,06351006
0,06700379
-0,27741563
0,2541578
0,14536905
0,065876484
-0,18827857
0,026858656
-0,36286142
0,26913002
0,027783958
-0,42520824
0,0898876
-0,32274568
-0,45136553
-0,15411267
-0,028970512
-0,32890096
0,3733508
0,3354313
-0,34476015
-0,35412708
-0,38618606
0,42209727
0,0051027588
-0,2619068
0,3016521
-0,05294317
0,45413983
0,4764189
0,45722032
0,4606029
-0,020921074
-0,44047794
0,3634009
0,15187556
0,078298435
0,28050807
0,46142122
0,11624961
-0,08735033
0,37694746
-0,16921493
0,12619223
-0,44283918
0,1040947
0,27634346
-0,025487347
0,49928918
-0,05300813
0,41848943
-0,49817017
-0,18187705
0,2458977
-0,19614734
0,31394568
-0,3504959
0,3694563
0,3235986
-0,44377774
0,19944614
0,45608246
-0,099878825
-0,2514858
-0,09249992
-0,41105202
0,09457223
0,0062702056
0,46528295
-0,24952012
-0,47868595
-0,24399583
-0,27852073
-0,13874018
0,48569143
0,044899248
-0,07676995
-0,42218357
-0,23514731
-0,09191462
-0,05749623
-0,4453959
0,23711562
0,38454086
0,044879206
0,15175349
-0,039717816
-0,08240954
0,4917659
0,0030208756
0,13075997
-0,48141357
-0,33696693
-0,2547051
0,05062007
-0,3268313
-0,11347533
-0,39929965
0,18789612
-0,23995194
0,11109225
0,0896311
-0,053214207
-0,03971162
-0,47018513
-0,088440016
0,17865254
-0,20329139
0,42204824
-0,008911594
-0,38837555
-0,4133457
-0,07280441
-0,37679544
0,16794646
-0,027048383
-0,27092707
0,059203934
0,2700119
0,21949786
0,17601155
-0,09247502
0,009910747
0,41104767
0,04085916
0,18248005
-0,36444288
-0,3534787
-0,22374164
0,30293772
-0,1279997
0,16083352
-0,33107534
-0,15084898
-0,30580375
-0,27663487
-0,39356685
-0,47913837
-0,14544997
-0,39904103
0,41644305
-0,10063745
0,28361905
0,36140698
-0,38891393
0,31761286
0,25446114
0,44430035
0,059161197
-0,03350928
-0,20840599
0,20252615
-0,007528585
-0,49877363
-0,47177503
-0,15404485
0,16287628
-0,11344091
-0,23255615
0,41231185
-0,41954702
-0,4145602
-0,40623632
0,37358052
0,45567212
0,08423119
-0,4440998
0,25909188
0,12777083
-0,050660726
-0,36300936
-0,22244094
0,4944773
-0,35183504
-0,008707168
-0,27869353
-0,21998613
-0,042749774
-0,47318122
-0,40794155
-0,2746853
0,07354097
0,39502105
-0,20530297
0,15831925
-0,4479037
0,3784063
0,45168418
-0,3801229
0,07214652
-0,11344215
0,34883654
0,26071724
-0,20245872
0,34359017
0,16211084
0,4378954
-0,46856913
0,4842674
-0,09892982
0,27650416
0,4252315
-0,24271852
0,0038628916
0,28958133
0,34278074
0,3166062
0,37474832
0,36868256
0,14261878
-0,049700156
-0,15504093
-0,4083495
0,16398256
-0,032091588
0,27861986
0,13991481
0,42010656
0,0006640306
-0,38133857
0,05752983
0,19144808
0,10846093
-0,1767465
0,49937296
-0,2671111
-0,2335256
-0,024166975
0,2963157
-0,3550986
0,3828901
0,1090528
0,028530465
-0,18116789
-0,3265323
-0,06576496
0,21801895
-0,028404454
0,2603359
0,12899601
0,002096833
0,10454479
0,1666467
0,28990355
-0,27558568
-0,105245754
-0,022780353
-0,24379492
0,16422325
-0,304177
0,14435798
0,4681832
0,42426
-0,25816402
-0,1875475
0,00022765149
-0,31451944
0,37930396
0,28100333
-0,34425804
-0,2223618
0,20538995
0,33126375
-0,05787854
-0,021679608
0,046160914
-0,22935739
0,35267773
-0,16917883
0,38805804
0,3969024
0,48908728
0,32554793
0,417342
0,3564217
0,08202784
0,47919357
0,21235955
-0,3984528
0,1457013
-0,41303012
0,23234554
-0,22257458
-0,41664273
0,13990723
-0,22598061
-0,11892645
0,28212488
0,41302362
-0,1318088
-0,48941788
0,25792244
0,28828022
0,10684795
-0,4314789
0,49120584
0,49682075
-0,23405205
0,44111162
0,4914755
0,27755618
-0,38778335
0,27251306
0,43618253
-0,24058056
-0,041975215
-0,4411137
0,15929121
0,11371498
-0,2303047
-0,0071894494
0,48797742
0,02863002
0,19973828
0,40135834
0,04888261
0,2463322
0,36910903
-0,32914382
0,269332
0,28468993
0,017063195
-0,40591717
-0,2862973
-0,40188652
0,31233338
0,48222145
-0,30615747
-0,052634515
0,3846069
0,22355837
-0,46671182
-0,38685477
-0,15763699
0,2365734
0,08930294
-0,018005146
-0,45754784
-0,4345604
0,25534424
0,35961756
-0,32577163
0,42594585
-0,5072311
-0,28882563
0,06156311
-0,21927974
0,46874976
0,057469413
0,10748102
0,2199946
0,2923283
0,21972647
-0,2448773
-0,38134852
0,45479527
-0,0634653
0,11703626
0,3171592
-0,11916037
0,018055344
-0,042976324
0,22739688
-0,3444187
-0,37539306
0,09202118
0,40883964
-0,40310904
0,38683048
-0,098225005
-0,110574
0,08169489
-0,1926954
-0,306382
-0,17019884
0,39199117
0,45468596
0,30903822
-0,4297508
-0,048377138
0,1426868
-0,44820198
-0,2507039
-0,29185984
0,32807145
-0,21731597
0,3684036
-0,100333005
0,3053841
0,19616814
-0,092736855
0,461556
-0,12021759
0,40109035
0,15645623
-0,38584504
-0,41046897
0,124243334
0,30238461
-0,2416817
0,05079998
0,36503518
0,37891212
0,3604432
0,2511635
-0,1635366
0,2053178
-0,20211144
0,043304984
0,36798173
0,16673698
0,22858168
0,034718182
0,48693323
-0,28694323
0,22189353
-0,08804987
-0,24278933
0,12439634
0,2559489
-0,36668947
-0,454981
0,412037
-0,09102788
0,373251
0,016965812
0,3344853
0,41503912
-0,41807708
-0,009168787
-0,15419656
-0,10806367
0,05258374
0,484991
-0,022722146
0,3154045
0,082813874
0,25053236
0,4934122
-0,1481152
-0,20021063
0,3134447
0,06752817
-0,23357844
-0,17400281
0,3188714
0,03206529
0,4926797
-0,054599144
0,050291114
-0,4583288
-0,28030065
-0,15861325
0,044306483
0,15655462
-0,32781234
-0,06288647
-0,45225468
-0,0036059725
-0,14499599
0,14558397
-0,3233205
-0,44117913
0,4072665
0,14667372
-0,053940482
0,388017
-0,3902319
-0,09174492
-0,4523712
-0,026105816
-0,24589658
-0,40958592
0,4409797
0,3461304
-0,16348091
-0,3465315
0,3221366
-0,09720485
0,03189509
0,41201562
-0,322894
0,3868148
0,2519931
0,21612193
-0,41409966
0,38119635
-0,06298606
-0,14128432
0,1465384
0,3067698
-0,2431935
0,04530025
0,15444684
0,1779867
-0,08939471
0,41295645
0,47179303
0,3627026
-0,30718392
-0,18969284
0,45665118
-0,30440474
0,32032904
0,4438895
0,33015838
0,41083696
-0,24474168
0,1135313
-0,048198365
0,19223689
-0,20608157
-0,2631736
0,04847404
-0,4752113
0,2681425
-0,3818126
0,096804276
0,113454305
0,2738483
0,3327243
0,10364594
0,4736816
0,14304651
0,18707097
-0,23242438
0,31773087
-0,24590024
-0,42877966
0,4513148
0,25901932
0,20227169
0,24602382
0,18983261
-0,023876231
0,119998835
-0,058718074
-0,029517114
-0,09244425
0,4530125
-0,20695454
-0,52626085
0,37068734
0,19632344
-0,17007637
0,15092562
-0,40726143
-0,35951498
0,0034813534
0,27003634
0,36425504
0,24006036
-0,3676101
-0,33215848
0,18001534
-0,19665435
-0,29048175
-0,46261808
-0,33638504
-0,2616971
-0,16157585
0,36976826
0,3805624
0,3701701
0,00962361
0,115843035
-0,383241
0,07337789
-0,24947983
0,012065918
-0,15674768
-0,2610897
-0,40345463
0,35774815
0,36365935
-0,41323313
0,24647422
0,19547673
-0,38697386
-0,2386334
0,33265463
0,20170146
0,2053304
-0,37105036
0,092574514
0,42841014
-0,33900592
0,4362791
0,01562475
0,1032348
0,23803248
-0,22428294
-0,39153084
0,34092057
-0,4102012
0,37508523
-0,02107416
0,48639375
-0,30537117
0,22239228
-0,27312613
0,32966307
-0,3804215
0,21268027
0,1118437
0,18267353
0,3899936
-0,17879425
0,29470843
0,14216173
0,38307983
-0,06838247
0,35410312
-0,16696645
0,12586333
0,16141717
-0,002468551
-0,12999879
-0,38224074
-0,09958102
-0,42190015
0,4440157
-0,23966606
-0,04505112
0,12307884
-0,101018466
-0,14775375
-0,26102898
0,3504351
0,3891979
-0,4637389
0,17588262
0,08918245
0,4688395
0,085221305
-0,28583488
0,20823146
0,31122598
0,19774756
0,31382015
0,14105071
-0,21978524
-0,4267003
-0,23547302
0,41120753
0,3268455
0,38333324
-0,3898256
-0,01413885
-0,46259883
0,07464254
0,35753536
-0,5017915
0,25078088
-0,14883608
-0,17738768
0,40106875
-0,19460319
-0,15682901
0,39042217
0,03450422
0,09530584
-0,29621014
-0,085918464
0,11821984
-0,3741834
0,45052487
-0,3944719
-0,22889234
0,29850248
0,32426628
0,25102147
0,22335592
-0,10860976
-0,45853537
-0,27662483
-0,4273212
0,03142109
-0,10965247
-0,46228853
-0,06530704
-0,30892348
-0,48077542
0,26040426
-0,11341163
-0,021614248
-0,059575107
-0,041249122
-0,15606876
-0,023142133
0,29310095
-0,12920007
-0,1805545
-0,2762727
-0,25181627
0,10976369
0,022613062
0,18055564
-0,44209847
0,33201212
0,3972374
-0,16512933
0,37811077
0,5080618
-0,032526426
-0,25271016
-0,34157863
0,46170905
-0,33023274
-0,40570396
0,32103324
-0,024836829
-0,17074922
0,12455272
-0,3400862
0,37125137
-0,020324057
0,50047976
0,33562604
0,11049309
0,39498976
0,4824025
0,49436054
0,023614328
-0,4475777
-0,36017957
-0,2338052
0,17379498
0,26840147
0,23601173
-0,40004843
-0,030599559
0,2595548
-0,47206396
0,3075272
0,07731063
0,3310271
-0,2584394
-0,4654831
0,052890666
0,50695324
-0,06865942
0,4597643
-0,35298774
0,3085
0,39661556
0,15060247
-0,15118647
0,3612643
0,05813958
0,42035243
0,07122951
-0,22060438
0,18643917
-0,055087
0,1999546
0,2733774
-0,035496827
0,29248586
-0,10848293
-0,29669398
0,11707685
-0,15475473
0,14521648
0,40305185
-0,055011358
-0,49931812
0,3867045
0,06777187
-0,11435865
0,33765665
-0,12904471
-0,27406344
-0,47952718
-0,34951428
-0,20757864
0,37919265
-0,28344467
-0,31537044
-0,31684685
-0,06436567
0,06754578
0,45934618
-0,1607681
0,23862207
0,17532273
0,41924694
0,34918055
0,049296103
0,4621807
-0,28002024
0,4007771
-0,2581307
-0,12754573
0,19757894
-0,13315484
-0,0049946504
0,090470135
0,33605143
0,23668434
-0,21381968
0,4770656
-0,3142171
0,118517704
0,2160859
-0,43433204
0,44287947
-0,18433987
-0,48038805
-0,38642836
0,2744799
-0,12378536
-0,3329229
0,202528
-0,0145916045
0,21516705
0,034461293
-0,00635215
-0,12703
0,35178322
0,028228022
0,3430034
0,34880695
0,25956768
-0,05815663
-0,26781112
0,44961193
0,04172998
0,06880454
0,12761761
-0,02627875
-0,30601132
0,33282605
-0,1153854
-0,096289456
-0,38450587
-0,50751567
-0,26736334
-0,105903655
0,48331827
0,46480367
0,35003072
0,028303951
0,17397034
-0,303138
-0,0061799656
0,41193128
-0,31347156
0,15183245
0,39541456
0,34956914
0,42520642
-0,23995498
0,271281
0,21909049
0,36407083
0,1255737
-0,054793146
-0,066852935
0,4333115
-0,24732359
0,33521906
0,49900463
-0,10368857
0,4803536
0,38376316
0,44127324
-0,18882199
0,36693612
0,2624318
0,47728384
-0,4748778
-0,11516916
-0,40103433
-0,3459662
0,34250546
0,4631862
0,21151286
0,33531266
-0,051028244
-0,13094282
0,28358155
0,44580525
-0,16262372
-0,48436046
-0,20131981
-0,33805156
-0,1480655
0,2529291
0,28389558
0,47582728
-0,14445853
0,3509766
-0,19238254
0,12881938
0,28166053
-0,0655886
0,27498338
-0,33665544
0,07002022
-0,32509252
-0,1488975
0,06172479
-0,383129
0,31410733
0,48233205
0,26253006
-0,061288457
0,0023543306
0,33669123
0,29610664
0,37407595
-0,17971408
-0,05686984
-0,30203563
-0,16440466
0,40441006
-0,3844628
-0,32328036
-0,16967086
0,24015304
-0,36237332
0,44225845
-0,44705272
-0,19990104
-0,13915351
0,34284055
0,32875255
0,31177115
-0,17591548
0,397393
0,42612335
-0,48205385
0,22155154
0,33058995
0,47434008
0,020921908
0,0060457094
0,0022676345
-0,23843496
-0,21563584
-0,32679284
-0,025884543
0,18507858
0,14105462
0,10996548
-0,361552
-0,008468749
0,090784065
-0,42184582
-0,47973385
0,2724823
0,19121985
-0,4837798
0,21596783
0,4235737
0,4852239
0,21592748
-0,14455776
0,39575323
0,22331133
0,12825976
-0,46245584
0,44078693
0,19513015
0,17628428
0,40101156
0,4920118
-0,3193125
-0,072148524
0,13820629
0,09960514
-0,14376938
-0,23690128
-0,5015199
0,451361
-0,010397198
-0,46666494
-0,45392403
-0,16846226
-0,47796428
0,11232514
-0,36993226
-0,101922974
-0,21724619
0,38968825
0,37811595
-0,4360978
-0,5084831
0,43961608
0,040632408
-0,2727166
0,5193484
-0,42618224
0,4447638
-0,0020229581
-0,08986967
-0,44160253
0,10347347
-0,056236573
-0,076986365
-0,031351805
0,023233207
0,28361806
-0,2004353
-0,23079367
0,09195264
-0,117393285
-0,33496475
-0,21673849
0,39703196
0,1997371
0,16424721
-0,26747063
-0,34884506
0,116611615
-0,22148414
0,06641376
0,4955737
-0,45524412
-0,41881004
0,46684614
-0,23975575
0,30661783
0,063374236
0,021776624
0,42399025
-0,44412082
-0,19096582
0,17467724
-0,36602813
-0,08047788
0,10902146
0,17514978
0,223106
-0,3601434
0,012420015
0,25707284
0,40151197
-0,09238399
-0,24991725
0,20083247
-0,3500604
-0,27888536
-0,17377569
0,47762522
0,00020821084
-0,38195515
-0,47893843
-0,44428593
-0,053064015
-0,25519252
-0,4546429
-0,4092476
-0,18111885
-0,33399707
-0,43218505
-0,10662471
-0,09610812
0,31051433
0,20160373
0,42768508
-0,26527745
0,4410636
0,03890587
-0,41378
0,11200181
-0,101926014
0,26984802
0,34331694
-0,31278425
-0,2059145
0,4373192
-0,39385748
-0,11515601
0,18847333
0,13890482
-0,34481093
0,33725664
-0,45587248
-0,30023274
-0,42614937
-0,0076748813
0,12192565
0,26483038
0,46922547
-0,3377651
-0,15017484
0,3970344
-0,14283806
-0,22097564
-0,15393865
-0,09825404
0,14411452
-0,034283847
-0,23330952
-0,24147967
-0,2749588
0,51500523
0,12793706
0,3171831
0,016621552
0,014004376
0,17690565
-0,086711995
0,2144339
0,28486001
0,17533791
0,24823046
-0,27961785
0,24056399
-0,059035573
-0,20135103
-0,38820422
0,24187249
0,3916751
0,31677186
0,3637983
-0,1686342
-0,33601177
0,08102338
0,34584808
0,32992148
0,4349729
0,32555914
-0,0059926086
-0,29361987
-0,43583202
-0,20972386
0,21843575
-0,49451396
-0,5008579
-0,47439823
-0,25226223
0,2304871
0,3390431
-0,2982256
0,18398415
0,112441935
0,4591424
0,30216494
-0,16554123
0,20047584
0,2864249
0,1824493
-0,02299717
-0,02387125
0,28772044
-0,080150545
-0,010990664
-0,06809937
-0,20170547
0,41295874
0,4369303
0,25630414
0,15181965
-0,152296
-0,16801654
-0,34316918
-0,4780196
-0,33804163
-0,4882869
0,37978378
-0,13278393
-0,37939933
-0,4575193
0,0006522876
-0,19066304
-0,22609028
0,3991324
0,14175104
-0,10416842
-0,46385178
0,36943626
-0,47302935
-0,36142334
0,2176046
0,3242688
0,43323663
-0,40866452
0,26350704
-0,4988979
-0,043355063
-0,11163165
0,3981065
-0,16926478
0,1501754
-0,44951186
0,42429507
0,39541954
-0,4872592
0,014454518
0,17497866
0,47986326
0,19947587
-0,29356173
-0,30958962
-0,10746876
0,49458128
-0,059411664
0,25477427
-0,1190595
0,38230848
0,467493
0,2627904
-0,11798065
0,43289134
0,41213912
0,057705473
-0,32766184
-0,062797524
0,24769066
0,03380623
-0,29755408
0,27131715
0,077319555
0,26764533
-0,35058686
0,39045736
0,49724463
0,27472386
-0,24217682
0,28142837
0,3520282
0,1364864
0,18053675
0,27164245
-0,18016064
-0,11827461
0,2274311
0,1364681
-0,33402997
-0,16664767
0,12472268
-0,4513289
0,46091574
-0,11747816
0,1897197
0,45888224
0,39411625
-0,41083378
-0,38644317
-0,24753115
0,38339847
-0,48129398
0,32992193
0,22992915
-0,3942551
-0,44618484
0,3161297
0,40526417
-0,29777527
-0,36622304
-0,41541812
-0,4572889
-0,41796342
-0,088386156
0,3482083
0,1887785
0,3072079
0,21098486
0,22344373
-0,11492591
-0,17626995
0,068485044
-0,16946693
-0,3201524
-0,0835315
-0,09502039
-0,4661092
0,15548417
0,30565003
0,48534098
-0,35412773
-0,06647009
-0,057041712
-0,33774334
-0,10691732
0,35453224
-0,1307694
0,34978876
-0,31595883
-0,3395568
0,1747078
0,37389907
-0,34233314
0,109931484
-0,3219877
-0,34869564
0,06603184
0,07951748
0,044339925
0,47321093
0,46552533
0,4164922
0,059482604
0,40997806
0,42656073
0,3069996
-0,2763754
0,44919097
-0,19594029
-0,34569696
-0,06575473
0,017624253
-0,075934745
0,15694346
0,40272105
-0,064728394
-0,34229222
-0,4482165
-0,111165665
-0,12664416
0,12385173
-0,013184082
-0,4142416
0,16273102
0,058255788
0,041404437
0,35525522
0,37291282
0,49904335
-0,43886128
-0,10294371
0,0020753695
-0,32168472
-0,42608166
0,39134082
0,4803509
-0,47950757
-0,09954124
-0,21054396
0,39418164
-0,08966157
0,2498092
0,34411588
-0,4670869
-0,28534698
-0,40159935
0,1709861
-0,061813075
0,015231505
-0,41206282
0,001256021
0,15154001
0,20935167
-0,03615381
-0,46615523
-0,257339
0,39752474
-0,35968676
-0,16428013
0,0067489822
-0,37698767
0,18492715
0,33166492
0,3284343
-0,35853246
-0,024898868
-0,2102677
-0,46542975
0,053333346
0,44198412
-0,15883328
0,37072814
0,07236531
-0,20276365
0,3998493
0,3842792
-0,20887095
-0,47925285
0,15240102
-0,079584695
-0,19656405
0,4583989
0,16759427
0,43764257
-0,030780919
-0,03653708
-0,13901219
0,46674293
-0,42005017
0,42964602
0,024585601
0,16134343
-0,09033744
0,34321022
-0,4507971
-0,23893568
0,18699133
-0,18325007
0,45950875
-0,37812698
-0,1311807
-0,4512817
0,20745528
-0,29086766
-0,48661944
0,13535006
0,0040068333
-0,32280302
-0,49726945
0,4154289
-0,4587746
-0,4367451
-0,02882344
0,06587682
0,31118524
0,3427475
0,4544183
0,16836058
0,046614923
0,31287938
0,260687
-0,44398904
0,29455718
-0,0551325
0,24489738
-0,017857868
0,22298065
0,42607626
0,32174787
0,042024802
-0,2417815
-0,020402275
-0,2439395
-0,19454835
0,434487
-0,13500391
0,41772482
-0,24378623
-0,35204387
0,20800333
0,11229659
0,18115309
0,378997
-0,25374818
-0,3973807
-0,04233493
-0,24008526
0,029169844
0,025419092
0,27743948
0,065889485
0,20569438
-0,23671117
-0,015774706
-0,027191095
0,24219343
-0,50217086
-0,04861984
-0,40576714
0,21707079
0,19535498
0,17763467
0,0008686193
0,07631017
0,24609455
0,47166315
0,1831112
0,11645448
-0,23920333
-0,20472936
-0,2218056
-0,25346115
-0,13768023
0,21797058
0,3154388
0,31191513
0,08139021
-0,38698664
-0,27243438
-0,3632957
0,096919015
0,25849602
-0,005557583
-0,20079659
-0,33366677
0,078304626
0,17817034
-0,40089664
0,24720551
0,16740435
-0,37131232
-0,27708998
0,48433125
0,18080255
0,500738
0,11066897
-0,16328326
-0,20704775
0,4119933
-0,28316653
0,12572686
-0,2868845
0,2670945
-0,2000337
0,08852916
0,27104628
0,27365518
0,2838078
-0,3840365
0,08753949
-0,24179357
-0,38526332
0,00017066427
0,07175722
-0,30757868
-0,12824309
-0,0783237
0,36712435
0,3297328
0,37441793
0,10643483
0,23685984
-0,33694613
0,36781412
-0,33752778
-0,18023866
-0,1767754
0,4540348
0,22152114
-0,24734235
0,00837612
0,39371952
0,31893572
0,04093037
0,4940991
0,040242363
0,36083016
0,31490663
0,49736813
0,44644958
-0,17829856
0,013403662
-0,18656114
0,038236335
-0,40615034
-0,49746108
0,11837993
-0,15382624
0,019245045
-0,23557879
0,3155011
-0,44671538
0,27136198
-0,4687111
0,4099254
0,13728352
0,4471916
0,2475137
0,06425666
0,4265123
-0,19135423
-0,42577812
0,49166727
0,46499828
-0,2648707
-0,018677656
-0,0795966
-0,48040643
0,39388087
0,11376817
-0,055368494
-0,46634644
0,39222458
0,03049685
-0,12843631
0,4491749
-0,27594757
0,41763565
0,20550238
-0,22159274
-0,08714284
0,49409422
0,119270794
0,35222113
-0,23771393
-0,1362798
0,028003467
-0,31856874
0,05675086
-0,020429816
-0,20791984
0,3230088
0,029255727
-0,44263312
0,30269116
-0,13474451
-0,11986036
0,50206524
0,020041117
-0,28851748
-0,32758975
-0,305204
-0,29162773
-0,2087172
0,07480188
-0,15061843
0,20063159
0,4370493
0,42334506
-0,040301587
-0,3460528
0,018694052
-0,04643137
-0,38281512
0,17251855
0,24045448
-0,122661985
0,11322843
0,45467752
0,395737
0,17165518
0,49692997
-0,25320643
0,44787395
0,36168173
-0,22860233
-0,22672643
-0,2905335
0,18755147
0,3007907
-0,21968192
0,16699484
0,29274547
-0,48041996
-0,43018386
-0,24167222
0,071797766
0,44542655
0,014538943
0,11119894
-0,10916578
-0,03479549
-0,4621938
-0,19977175
-0,362634
-0,49624255
-0,04605694
-0,29073134
0,21001424
0,3774343
-0,35909638
-0,114607744
-0,3329556
-0,20426136
-0,1467158
0,0838414
-0,07127927
-0,047357287
-0,24733704
0,31569538
-0,34150693
-0,276289
-0,41528076
-0,12238662
0,3474344
0,1671613
0,3482839
-0,09265915
-0,48426124
-0,2876385
-0,30421448
-0,34213307
-0,30443084
-0,09933797
0,020157333
0,2873612
0,22543041
-0,44956872
0,18625513
-0,14501938
-0,2422608
-0,1358617
0,1900171
-0,044800382
0,013591018
-0,053217355
0,000855982
-0,050665863
0,03070132
-0,16244751
0,043687403
-0,042955346
-0,1871849
-0,21789354
0,22932863
0,35611886
-0,24339561
-0,44386664
-0,3876871
0,18249156
-0,03534647
0,041015845
-0,14968756
0,101341836
0,46096164
-0,28028455
-0,34486943
0,02300659
0,26380116
-0,21926202
0,24759856
-0,020900022
-0,12546784
0,16578859
-0,027981523
-0,10688619
0,27511203
0,46092358
-0,48984137
-0,18344547
-0,18925476
-0,21634284
-0,439238
0,33715186
-0,27085355
0,13151425
-0,2682153
0,17523912
-0,40390292
-0,43995366
0,107366934
-0,1503676
0,4683983
-0,1717035
-0,07641054
-0,3280397
0,10602279
-0,038002517
0,0057519446
-0,25823742
-0,026201617
0,23567529
0,3555488
0,117152765
-0,35778624
-0,14628388
0,27372217
-0,09569768
-0,2675981
-0,4818142
0,1915141
-0,042922363
-0,3643602
-0,1838696
0,26192003
0,2932349
0,3797385
0,31144467
0,32619786
-0,07408645
0,49609053
-0,26378784
0,46797022
-0,040379696
-0,19149116
-0,21052901
0,17359976
0,21675391
0,31814256
-0,1833672
0,340294
-0,0016990709
-0,06905074
0,41806543
0,05642243
-0,047114097
-0,121759444
-0,25513083
0,20412442
0,1365819
0,15336666
0,4620985
0,23312782
0,26616308
0,3346104
0,4736028
-0,21814391
-0,14061967
0,23635904
-0,25854963
0,1481701
-0,27475435
0,083976544
0,40869343
-0,49594644
0,15419297
0,3944856
0,39041415
0,35851717
0,28868905
0,34731212
-0,17206012
0,09859141
-0,030841205
-0,20852011
-0,20148924
0,4613786
-0,21358597
0,2530947
-0,36723837
-0,3388017
0,08141897
-0,10415826
-0,41272703
0,3981526
-0,068757735
0,31453675
0,042661484
0,16538078
-0,38202772
-0,25209728
-0,102451995
0,454754
-0,26519877
0,02373204
0,19456507
0,3807156
0,3630224
-0,24544159
-0,112244226
-0,49755293
-0,29519287
-0,13063036
-0,3452414
-0,16135946
-0,23831025
0,23973443
0,31161362
-0,16176233
0,41285515
0,41505772
-0,07044602
-0,33886123
0,306456
-0,22876409
-0,27997476
-0,3400911
0,06768996
-0,36251664
-0,39887634
-0,22163644
-0,15059878
0,45930037
-0,11695872
0,26304442
-0,38375944
-0,078369
0,14978038
0,36811954
-0,34936827
-0,2981338
-0,4281456
0,46619925
-0,17997926
-0,5010948
-0,44254887
0,3193679
-0,15291584
-0,21328214
0,35335466
0,023406707
0,40305775
0,09866177
0,41427726
-0,3553567
0,4676483
-0,4455081
0,09929614
0,122246064
-0,24800596
-0,28503042
0,08895042
-0,44675958
-0,41572976
0,030708125
-0,24082121
0,16896357
-0,3497927
-0,060311407
0,2562165
-0,09273894
-0,13068788
-0,2580401
0,36192304
0,05031065
0,444542
-0,29930004
-0,39075127
-0,36909518
0,06557216
-0,1410227
-0,48261917
0,2103255
0,37833115
-0,122941956
-0,12550855
-0,050048828
0,4670809
-0,5003393
0,40005186
-0,49792534
0,17863837
-0,46806967
-0,00075206044
-0,21554871
0,39132982
-0,18604895
0,33165786
0,4383285
-0,38776278
-0,24432237
-0,4209794
0,21915348
0,30862212
0,017589908
-0,18914773
0,2663802
-0,3803591
0,41295585
-0,48849154
-0,29687783
0,24753131
0,059983417
0,11496892
-0,2505037
-0,13993369
0,09835272
-0,02075418
-0,29484794
0,4446139
0,014249753
-0,17596503
0,48790157
-0,3342004
-0,20872462
-0,3975556
0,47491896
-0,30113846
-0,09193487
0,42194316
-0,3923867
-0,34818617
0,35608983
0,43331292
-0,17263556
0,35901168
0,49462685
0,48217237
0,0877919
0,036632553
0,45094222
-0,38008493
0,17125477
0,4395463
-0,1656937
-0,025728151
-0,2852454
0,5025619
-0,19197378
0,50000334
0,20754234
0,26794067
-0,009875794
0,28152147
0,45001113
0,13188773
0,13995883
-0,18771385
0,25549278
0,14240372
-0,2980035
0,50172335
-0,16132545
0,2803398
-0,14573611
0,0804711
-0,120003946
0,3447214
0,3137573
0,07187158
0,23151295
0,23461851
-0,17098172
-0,24021187
-0,38264123
-0,46116492
0,24185638
0,12508944
0,42278865
0,06201537
0,16792384
-0,37715212
0,19637494
-0,15710607
0,04396368
-0,35430986
0,2456891
-0,213676
0,3252506
-0,35952786
0,0929456
-0,033039812
-0,062054053
-0,13840248
0,16627143
0,048825
-0,20914622
0,28059086
-0,21998705
-0,4646943
-0,4410352
0,21043903
0,18106228
-0,2315972
0,43347707
-0,19737391
0,3984173
0,43947783
-0,33298087
-0,0869381
-0,12996599
0,40070757
0,4091572
-0,04839933
0,068086416
0,16510057
-0,12859361
0,0678595
0,44002765
0,07667326
0,17768346
-0,31128103
-0,10150734
-0,41070762
0,41631514
-0,42325535
0,18001567
0,09790175
0,17187916
-0,308574
0,12702115
0,09950265
0,40238628
0,14773874
-0,44558775
-0,25454286
-0,057655822
-0,21209854
0,44031292
0,2770728
0,09939731
-0,22265935
-0,17068568
0,39490125
0,39427763
0,24275893
-0,25337347
0,08658615
0,2001602
0,3657595
-0,2699277
0,3569488
-0,031703774
-0,48739198
0,21214522
0,41937986
-0,18861619
-0,48334652
-0,09852858
0,10817839
-0,17527464
-0,4576213
0,17801951
0,09828478
-0,31282666
0,46445814
-0,31888083
0,4574518
0,064717755
-0,29094502
-0,017462455
-0,31617397
-0,07981729
0,10910958
-0,5019596
-0,19638455
-0,16095945
0,30011475
-0,0028728284
-0,15295361
0,3474725
0,0435533
-0,2834013
-0,42911127
0,19701569
0,022845615
-0,23792759
0,011587402
0,39685836
-0,43365267
0,48616004
-0,3155779
-0,42327744
0,3568399
0,22765772
-0,1725257
0,21286526
-0,3457853
-0,39750347
0,06492535
-0,42238533
-0,24967965
0,4735849
0,06001209
0,077308536
-0,38445893
0,2522982
-0,23040077
0,27043894
0,2293571
-0,1923876
-0,48681474
-0,065804586
-0,013994706
-0,1840851
0,36725447
0,1214909
0,15685849
-0,18846805
-0,4296292
0,050898664
0,49116746
-0,36469322
0,19003423
-0,47128248
-0,030367827
-0,09089105
-0,19315465
-0,31212336
0,20235085
0,43720248
0,20674032
-0,2518331
0,37465477
0,2898724
-0,15537207
0,1405734
-0,022464165
-0,040404066
-0,35933065
0,15798026
0,11034618
-0,040438924
0,16425759
-0,44846413
0,37410912
-0,14297225
0,42456928
0,14537038
-0,07350071
0,050991435
0,2338562
0,20480192
0,39832887
0,29703557
-0,20826767
-0,012707573
-0,38844135
0,07266455
-0,4817554
0,18336377
-0,42081547
-0,42337266
0,24635519
0,04755245
-0,12658007
-0,03965868
0,09015494
0,38599557
0,0068267873
0,37816146
0,28369737
-0,4196126
-0,49979734
-0,05940257
0,22924292
0,4278187
0,069486484
0,34687713
-0,22855459
-0,034379616
-0,47139412
-0,0012918246
-0,40720645
-0,039288454
-0,3960583
-0,052478887
-0,4146109
-0,36384535
0,37632957
0,23300073
-0,05488385
-0,39681658
0,47648072
-0,4083315
-0,0074950103
-0,3014967
-0,4350978
-0,063751325
-0,32728082
0,12294154
-0,0090001635
0,1578303
-0,22654209
-0,2473034
0,26845643
0,044661336
0,01874643
0,33361554
-0,12720232
0,36614397
0,36399603
-0,20607181
-0,21184239
0,3485749
-0,17009655
0,08242361
0,41295013
0,4928748
-0,035380237
0,4823889
0,011092577
-0,15273868
-0,23847154
0,26414913
0,29465684
0,2693509
0,26387292
0,14028637
-0,15473597
-0,1645533
0,26194027
-0,16302517
0,5030592
0,35765976
0,035025682
-0,25071284
-0,4855557
-0,28049883
0,022079634
-0,41057846
-0,2070357
-0,16850127
0,31242612
-0,01764624
-0,16842307
-0,17164372
0,08832939
0,50546795
0,11527638
0,30463403
-0,47827247
-0,117961206
0,4490447
-0,23690915
0,25215295
0,48935223
0,043206517
0,055413
0,096944615
-0,021188905
0,17631534
0,27928102
0,3340843
-0,076235
0,28053278
-0,15081309
0,15699497
-0,030639669
-0,06786083
0,3411599
0,45052025
-0,055493414
-0,3678486
-0,2000426
-0,15355761
0,11679231
-0,4583948
0,19185688
0,072294705
-0,37215734
-0,014153918
-0,44173053
-0,15902111
-0,1175077
-0,3682454
-0,039254196
0,3002663
-0,044466153
0,45111498
-0,10847311
-0,312578
0,46577147
0,24707676
0,3195313
0,19740227
0,1951613
0,1398919
0,3157781
-0,3374573
-0,011487614
-0,42479002
-0,4660988
0,4081931
-0,36283413
0,25473127
0,41670388
0,4669664
0,3666067
-0,48992887
0,12321295
-0,3074339
0,34949082
0,29495412
-0,3717648
-0,04732002
-0,25647315
0,22973858
0,21580869
0,08499371
0,046967577
-0,414009
0,18046942
-0,13627768
-0,12119172
-0,15582988
0,32139045
0,22318861
-0,10081478
0,15939912
0,40587422
0,49541152
-0,3953527
0,37751862
0,010780328
0,17849028
0,26480967
-0,4342653
-0,23587997
-0,43460384
-0,17537141
-0,4807101
-0,23627879
0,002225986
0,33350044
0,37939632
-0,008901417
0,057274103
0,046331942
-0,30642614
0,22072347
0,25374308
0,24384077
-0,39381135
-0,12415286
0,19871941
0,13801149
0,06004897
0,3271539
0,43837962
0,16854101
0,04090577
-0,44865113
-0,23978527
-0,061598595
0,24547367
0,08789243
-0,31845078
0,02665704
-0,21800342
-0,11705541
0,16099116
-0,3581997
0,00082362647
-0,47947785
0,3898722
0,37679166
0,45074135
0,105328165
-0,113256425
-0,2986194
-0,16237332
-0,38004908
0,3147856
-0,07142051
0,25521183
0,006348095
0,20619091
-0,23612902
0,07904635
-0,072934516
-0,36941352
0,4171743
-0,36417517
0,35178354
0,117058255
-0,18735328
0,23873734
0,48024482
0,14496188
0,44953838
-0,3879428
0,42646387
-0,4795851
0,16699871
0,24118185
-0,37440118
0,17431256
0,15212646
0,11188257
-0,09784131
0,23379688
0,3284451
0,27317503
-0,029787684
0,099766925
-0,40005407
-0,38736764
-0,10939617
-0,29540855
-0,20747532
-0,382154
0,3092176
-0,065032564
-0,40403458
0,24549903
0,37971604
0,4361896
0,20885797
-0,3274706
0,40029946
-0,06044304
0,022316253
-0,37385768
-0,4567653
-0,12731272
0,06829498
-0,347557
0,12558845
0,49947158
-0,32129344
0,1287729
0,14033805
-0,16461036
0,04895453
-0,014484165
0,46546483
0,14460073
-0,40938005
-0,31969082
-0,37623405
0,43439072
0,18303373
0,22315349
-0,061090626
0,044678904
0,08416912
-0,3323024
-0,09739804
0,45760152
-0,049374457
0,47948778
-0,10088543
-0,36467987
-0,015539689
0,29198876
-0,025132447
0,31080663
-0,27468866
0,005073535
0,006110268
-0,3273944
-0,4690507
0,33504066
0,15570466
-0,005245013
-0,040113218
0,011697008
-0,17338839
0,4039441
0,4182422
-0,14180854
0,19198376
-0,25144356
-0,18026553
0,1816808
0,26694793
0,06627075
-0,43899366
-0,06565962
-0,21916038
-0,29706827
0,4545755
0,28865305
-0,37221646
0,22172837
0,27811795
0,3013326
0,28099194
-0,04360358
0,23175631
-0,5029153
0,46400914
-0,14722799
-0,116177976
0,15939596
0,450487
0,035575848
0,17618047
-0,31725454
0,10062045
-0,29078183
0,100399576
0,05750725
-0,2821095
-0,493828
0,27481055
-0,5051852
-0,14403519
-0,30304798
0,24934104
-0,31402355
-0,21398634
-0,10138647
0,19071445
-0,4749542
-0,16351901
0,47518542
0,41459665
-0,4251237
0,3670132
-0,28165677
0,22151761
0,115152344
0,35777214
-0,41774204
-0,39851347
0,039992936
-0,03969688
-0,23461622
-0,3633386
-0,29446563
0,39745378
-0,10615465
-0,27327478
-0,35816088
-0,49511805
0,023304367
0,23435575
0,3608155
-0,36936754
-0,4329713
-0,1848753
0,50336885
-0,28195044
-0,4914073
0,12653066
0,14069341
-0,15645173
0,49801704
0,27959636
0,27333406
-0,34178835
0,2794285
-0,15220143
-0,18022217
-0,49040362
0,17454195
0,34278375
-0,24442478
0,28161976
0,16931278
-0,052982945
-0,38655856
0,23490436
-0,38214818
-0,29522505
0,2521431
0,21899232
0,042757533
0,26180872
-0,14055695
0,23127878
-0,4365244
-0,26887992
-0,43795717
-0,2511275
0,4747359
-0,4515902
-0,13505146
-0,26473615
0,07180508
-0,42060918
0,28844714
0,08836466
0,4592653
0,44342032
0,46126488
0,08662286
0,45482123
-0,36099306
-0,3329232
-0,25953528
0,26101774
0,312095
0,37920576
0,25902334
0,24753857
0,46500486
-0,18590632
-0,056724213
-0,36956453
-0,3481755
0,4107257
-0,13852018
0,08518793
0,44003564
-0,35005367
0,27843246
0,07029362
-0,41204283
-0,3290324
-0,09470917
-0,05371856
-0,025652528
0,26949647
-0,5081891
-0,26014662
0,25778985
-0,010682954
0,026366688
-0,08555503
0,23911789
0,25933337
0,1225642
-0,35596168
-0,49951023
0,15140313
0,3026826
-0,15550885
-0,30187663
0,32824332
0,13437095
-0,46602198
-0,042390704
0,021551285
0,2084034
-0,45595708
-0,20590581
-0,16768919
-0,3110991
-0,30613074
0,0760812
0,24992141
0,17286003
-0,0653195
0,3616937
-0,3015005
0,036223557
0,23041904
0,3954183
0,0060944376
0,0638311
-0,3487218
0,005157098
-0,084169805
0,082988
0,1567723
-0,48083356
-0,41407314
-0,49033135
-0,38540924
-0,013742612
-0,15100418
-0,03972725
-0,015884498
-0,2865199
-0,24661614
-0,1642965
0,021725537
0,4247038
-0,23903309
0,16410604
0,34038448
-0,1771969
0,19001594
0,21906395
0,34714663
-0,42152146
0,19180872
-0,3323978
0,104187354
0,4030283
-0,32189044
-0,3535379
0,39027762
-0,06557788
0,35059243
-0,46756792
-0,20410426
0,25125492
0,04865413
0,05642884
0,40275156
-0,42628372
0,33175692
-0,4977314
-0,103627175
0,21707998
-0,39577094
-0,051765013
0,22565615
-0,08560722
-0,30417082
0,041697036
-0,09918352
-0,1231426
0,24602601
-0,293183
0,024394304
-0,44296598
-0,058734167
-0,059353583
-0,114437796
0,1436369
-0,19560012
0,4964831
0,016311914
0,25474775
0,089841925
0,18009926
-0,38929254
-0,34729484
0,31011906
0,23747139
0,31039622
-0,34434965
0,2132075
0,41359878
-0,1674089
0,12216591
0,071328126
-0,038931943
0,22893132
0,13454117
0,37616274
0,36717612
-0,0027976872
0,18911749
-0,4381861
-0,44571844
-0,11549692
0,1569705
-0,3161451
0,2806712
-0,055899158
0,28263667
-0,15106453
0,15291083
0,3800547
0,03454192
0,3481665
0,35033306
-0,1587063
-0,018635519
0,32115552
-0,14214186
-0,096371174
-0,21783802
0,24494769
0,0056098085
-0,4493586
0,32324892
-0,31598446
0,05435201
-0,44830123
0,44251293
-0,21352822
0,1847486
0,40174088
0,13265613
-0,4684086
-0,20335402
-0,16996352
-0,42580432
0,22764735
-0,08200636
0,077938035
0,24630472
-0,38872233
-0,39743575
0,46039763
-0,04885567
0,3520112
0,23855399
-0,3939063
0,36203027
0,15433097
0,030351285
0,3315915
0,30933362
0,47957745
-0,33657664
-0,2748061
-0,16595411
-0,13425496
0,31140998
-0,30116904
0,1169196
-0,072539225
-0,39009285
0,42763618
0,2862739
0,43060958
0,11965772
0,07127488
0,11417868
-0,18006346
-0,15788624
0,40021786
-0,46137732
-0,008202059
-0,48222753
-0,4929012
0,42296332
0,051958993
-0,1950532
-0,27409217
0,27841702
0,12563998
-0,038220625
-0,38765097
0,108378716
0,124151155
-0,0882695
-0,250176
-0,291784
0,39243913
-0,16091208
-0,38735166
-0,22116233
0,10826219
-0,15080546
-0,19528572
0,28060597
0,048679594
-0,37131456
0,31097218
0,26535282
-0,059987176
-0,20614119
0,3241083
0,21050678
-0,49512964
0,43367156
0,39952433
-0,12719955
-0,31757247
-0,33879313
-0,14595155
0,0005412651
0,113319516
0,38538402
-0,304074
0,29262406
-0,3268862
-0,19344422
0,38380203
-0,1227441
-0,09372505
-0,39827222
-0,09507742
0,34426132
0,49388903
0,3020773
-0,1619496
-0,26323766
-0,35747856
-0,49612495
0,070310704
0,36589983
0,47773513
0,034245513
0,4830497
0,02496651
-0,19309595
-0,08207758
-0,42292133
-0,46277222
0,37281922
0,3384819
-0,116044365
-0,44161272
-0,24256465
0,18475875
-0,25859588
-0,22111441
0,27834055
0,27839005
0,4452724
0,06235608
0,06040269
-0,02364654
0,06947673
0,0035125457
-0,23125176
0,0055451337
0,20252031
0,4500895
-0,4693101
0,06985314
0,3066261
-0,087420315
-0,022921823
-0,33533087
-0,0586042
0,40300414
0,46717006
-0,20007728
0,07317704
0,24375892
0,023264833
-0,2834906
0,47420493
-0,42125016
0,38783133
0,3901291
-0,11201395
0,46960753
0,06278787
0,35057476
-0,43720737
0,48084533
-0,41612267
-0,3098667
-0,08207194
-0,16089833
0,07549678
0,3111596
-0,25060982
-0,18374239
0,04006258
-0,07119494
-0,008441032
0,025215687
-0,29570246
-0,052859243
-0,106711216
0,31281325
0,20734985
-0,119126484
-0,25100902
-0,3919542
0,24714027
0,3121671
0,0023737573
0,48731732
-0,17737846
0,35020983
0,29150936
0,07624091
0,13622989
0,32784203
-0,29936448
-0,34362885
0,35795158
0,32850662
0,30540028
0,1711751
-0,09212539
0,22132505
-0,27895844
0,4588516
0,1344039
-0,41949788
-0,18112001
0,1907143
-0,19551952
-0,1059803
0,4167697
0,3442342
0,38485596
-0,3241059
-0,27138132
0,1648824
0,2338931
0,39060554
-0,054128602
0,027998187
-0,46552727
0,26786256
0,01859332
-0,25393984
0,26947823
-0,5032195
-0,3372526
0,11804235
0,08302762
-0,44953912
0,44257277
-0,46245268
-0,11943289
0,4054626
-0,30123818
0,10425047
-0,40623555
-0,19674456
0,25348055
0,07970873
0,39374948
-0,2063809
-0,33540082
-0,48404232
-0,08982566
-0,103463314
-0,06105323
0,40644428
0,17094801
-0,49153167
-0,044257928
-0,36852425
-0,14589255
0,49657577
0,23952287
0,35948548
-0,1482555
0,3067096
0,105538785
-0,30136782
0,06386758
0,32133824
-0,22173609
0,18124121
-0,21694559
-0,019209478
0,22305378
0,3444286
-0,23004314
-0,45526704
-0,25430128
-0,38949233
-0,30638653
-0,1951141
-0,07883863
0,16200179
-0,12405414
0,29220986
0,35842758
0,41066873
0,2683576
0,35466295
0,2674638
-0,16400218
0,48796403
-0,29986498
0,1861656
0,4391066
-0,18017724
0,03349474
-0,01746845
-0,17945774
-0,249779
0,10754326
0,440706
-0,010703569
0,07080149
0,36046067
0,35419115
-0,14064673
0,3450041
-0,001864195
0,46773943
-0,3543739
0,16895209
0,28598008
0,39492822
0,066976026
0,3307736
0,42757615
-0,47116563
-0,3669415
0,4835459
-0,40648067
-0,06261619
0,39674273
-0,1442082
-0,33901358
-0,32099667
0,11539441
0,27270913
-0,049076784
-0,12626304
-0,109014265
-0,066041306
-0,11954823
-0,30641645
-0,2190121
0,1641819
-0,10780124
-0,16181654
-0,23340845
-0,4720473
-0,3118863
-0,26212147
0,14125073
0,07298649
-0,19484498
0,12278131
0,1689181
-0,22068797
-0,41163063
-0,27698356
-0,29987073
-0,15343285
0,4650324
0,46166196
-0,30994773
-0,29482836
-0,01706332
0,30179393
-0,09031227
-0,4993776
0,036012955
-0,4968814
-0,35524508
-0,48800856
0,49301133
0,06274297
0,33775875
0,06296403
-0,23671341
-0,30892262
0,054396465
0,12454517
0,40715802
-0,18728949
0,33027476
-0,2183936
0,37422365
-0,24138622
-0,2778467
0,25205827
-0,1145823
-0,009194408
0,03691057
0,0947652
-0,30407232
0,13022652
0,3377063
-0,2289574
-0,40424174
0,4220736
0,3777378
-0,30088708
-0,3568675
-0,022362307
0,115314074
-0,14497317
-0,30529758
0,08816932
0,10977661
0,044408105
-0,22287276
0,25522876
-0,47544122
0,27792072
0,47296166
-0,33967513
-0,27090657
0,22530985
0,019774865
-0,2272493
-0,34055132
-0,41063532
0,19778189
-0,13406509
-0,3673156
-0,32602122
0,19061847
0,0031706207
0,28520033
0,23423962
-0,4528085
-0,47977212
0,48897186
-0,13498716
0,29738396
-0,4661877
0,017784096
-0,38848984
-0,34593958
0,43779144
0,19604753
-0,025854254
-0,21452825
-0,2940336
-0,12318891
-0,09550018
0,43526217
0,3002829
0,29938924
-0,34786138
-0,3614454
-0,13342187
-0,25866547
-0,2736788
-0,28031492
-0,1290262
-0,18018381
0,24663004
0,4778978
-0,08305282
-0,27715904
-0,08604101
0,022826575
0,16429643
-0,105970055
-0,21991841
0,279372
-0,35900313
-0,063892774
0,0016767307
0,15640551
0,19152777
-0,46712643
-0,4605073
-0,0879861
-0,057423417
0,093909316
0,10550247
0,30614173
-0,3601317
0,28289813
-0,23743147
0,37520713
0,44492203
0,2764619
0,1360714
-0,101045266
-0,45157552
0,47841302
0,05329403
0,06748501
0,45294333
0,43523613
-0,18058077
-0,4946033
0,2029808
-0,22304668
0,44026226
0,0306652
-0,39079663
0,16458248
-0,0051012626
-0,3075882
0,031674948
-0,037242334
0,057563506
0,38979873
-0,2787508
0,2823356
-0,4734144
0,35339934
-0,13791291
0,06356322
0,48278594
-0,028163351
0,39588836
0,33429486
0,055332128
0,03981972
-0,00558577
-0,15319522
0,20313403
0,28659567
-0,023091767
0,13837387
0,30319476
0,1976912
0,35490832
0,45218524
0,3931024
0,50270903
0,07828073
-0,102963716
0,14728905
-0,26521328
0,38390943
0,04734415
0,10449981
-0,4660735
0,120502524
0,046116795
-0,066665195
-0,21470524
0,3707082
-0,39764968
0,32804924
0,46211725
0,32975757
-0,13161424
0,4573044
0,020863224
-0,1076356
0,17515014
-0,39112338
-0,21668535
0,09006915
0,10258224
-0,095624916
0,07256472
0,48044616
-0,36779496
-0,16366003
0,03127142
-0,101873055
-0,37559032
0,21952102
-0,40521494
-0,19145076
0,44606125
0,23938136
0,23903205
0,019553844
0,2894999
-0,2281989
-0,1280381
0,2836159
0,022979822
-0,117497645
0,35493174
0,3160639
-0,1770784
0,171918
0,29726025
0,3730927
-0,4010775
-0,19415437
-0,3584747
0,017322594
-0,08633232
0,15518512
-0,42728075
-0,2808693
-0,37900785
0,089223415
-0,21056668
0,3186581
0,37695518
0,05146913
-0,38443035
-0,19173245
-0,40356454
0,059594136
-0,33072186
0,3767163
-0,19345199
0,40210712
0,057743303
-0,48630923
0,41268492
0,028247407
-0,17614019
-0,22586049
0,017173763
-0,1370678
-0,4571369
-0,46343344
0,07088581
-0,46207672
0,11433812
0,276435
0,4225309
-0,45160398
-0,308222
-0,46963626
0,36561635
0,07363176
0,1197697
-0,13523503
0,3129912
0,009156659
-0,17489389
0,45514292
0,014348899
-0,22690137
-0,28198117
0,04450869
0,12136085
-0,2505877
-0,112882435
0,26958308
-0,26350325
0,13220426
-0,02733729
-0,12915015
-0,39598572
-0,0807422
0,41594404
-0,43335328
-0,3320453
-0,49439123
-0,453205
-0,5067041
0,06484962
0,07938247
-0,053850383
0,26982084
0,10845031
-0,020630743
-0,1088114
-0,10210999
-0,11924894
0,45835805
-0,22086701
-0,20615862
0,4329559
0,3786954
0,37236896
-0,41282776
-0,3882625
-0,020899098
0,39401576
0,13540144
0,306113
0,20812283
0,2301487
0,14626206
0,24536975
0,38419133
0,35091594
0,16232345
0,13342796
-0,15627822
-0,35246727
-0,43796426
0,059138145
-0,32476494
-0,39804798
0,42123893
0,16952512
0,18801951
-0,036216363
0,27603304
-0,36633617
0,00605659
-0,39110905
0,3522077
-0,33409864
0,15811044
-0,2765724
0,26794112
0,4049104
-0,25810036
-0,032817587
-0,35140622
-0,090044454
-0,3656116
0,34570903
0,18101417
0,29673484
-0,4308429
-0,28253865
-0,28719485
-0,3823519
0,030320095
0,2388849
-0,30077037
-0,06760019
-0,1944099
-0,34387666
-0,16286764
0,22465314
-0,40580297
0,09162793
-0,48813066
-0,041846942
-0,23974752
0,24227354
0,4353484
0,2558328
-0,44296697
0,23289832
0,14742985
-0,30614194
-0,42844003
-0,07135607
0,14707111
0,47139007
-0,20547904
0,13346136
-0,20014085
0,35871953
-0,15708098
-0,20993774
-0,22585629
0,4400207
-0,35804248
0,01563719
0,061453436
0,37720242
-0,3997154
0,35330838
-0,2619518
-0,23964523
-0,02884527
0,23537844
-0,43616968
0,22803168
0,20446329
-0,21054184
0,41542795
0,06636945
0,2438209
-0,27583972
0,33594456
-0,10792073
0,42153195
-0,068434395
0,030106762
0,09423334
-0,19505909
0,37422276
-0,23165849
-0,47289672
-0,11833113
0,072788574
-0,22491275
-0,43611977
-0,30079922
-0,085669234
-0,4055318
0,41056937
0,4434308
0,44666827
0,33374003
0,36132362
0,11652022
-0,05952003
-0,3918721
0,2614004
0,43029052
-0,19208394
0,11664898
-0,3036674
-0,28661996
0,29219112
-0,087887876
-0,21904403
0,24504626
-0,11449134
-0,24149309
-0,4947372
0,2519171
-0,48610228
-0,44765538
0,010185339
-0,3209145
-0,49213994
0,43416333
0,018538658
0,20715345
-0,44662938
0,24440604
0,20182715
-0,46117532
0,2657954
0,41438586
-0,1881674
0,06817329
0,09512835
-0,29145253
0,39729568
-0,33602214
-0,32236126
-0,27754778
0,1293064
0,31747514
-0,03696626
0,23004973
0,2544356
-0,09469092
0,30351278
0,49903366
-0,2300878
0,3924594
0,26155043
-0,3803104
-0,15278034
-0,3905035
0,13533501
0,3026151
-0,0069819135
0,13331552
0,3944217
0,056336705
-0,3086767
0,42369094
-0,47452632
-0,3087862
-0,17303269
0,0077667427
0,47701293
-0,2302241
0,18882208
0,076763414
0,052970473
0,27517772
-0,27652004
-0,31025946
0,046553247
0,14768925
-0,041428722
-0,36452937
0,35259336
0,12859386
0,16576119
0,14027293
0,35905612
0,20325246
-0,2918981
-0,36301914
-0,35207462
-0,06933568
0,0049414393
-0,13569514
-0,44357702
0,08534389
-0,04194278
-0,3124101
-0,40010095
0,40443477
0,17676084
0,051527984
0,33324102
-0,2842691
-0,44530466
-0,39898512
-0,29466373
0,09299118
0,21408983
-0,23210229
-0,19169927
0,28954086
-0,26491788
-0,31499624
-0,18616274
-0,22593789
-0,34635434
-0,01705272
-0,3901548
-0,09727107
-0,173171
0,36444485
-0,1988253
0,47224128
-0,21473388
0,13439035
-0,017495671
-0,24833563
0,14215958
-0,45818055
-0,18781213
-0,032978363
-0,24431217
-0,4043112
0,25764465
-0,103002794
-0,4125568
-0,3920517
-0,41518632
-0,056403812
-0,30401695
-0,15484723
-0,0698214
0,26410252
-0,05916325
-0,4061545
-0,49687815
-0,026119435
0,12675016
-0,32218862
0,10132048
0,28857163
0,13481309
0,23065446
0,48389354
-0,059388254
-0,39081603
-0,0707395
0,172292
-0,021552982
-0,037646815
0,1636693
-0,31327307
0,001696225
-0,20596266
0,23814623
-0,32980108
-0,2824388
-0,092705764
0,364812
-0,35427076
-0,3569749
-0,061784424
0,11381712
-0,30962828
0,014104658
-0,2578776
-0,3525084
0,068544716
0,03477472
-0,257188
0,043106455
0,42858154
0,07578962
0,4831364
-0,05486714
-0,12641342
-0,07242419
0,5065645
-0,19621703
0,24046232
-0,25566086
-0,40008005
0,3864501
0,0822321
-0,38141033
-0,26892525
-0,11569765
-0,124656804
0,03018547
0,26192454
-0,31744343
-0,4822069
0,4905581
-0,032942362
-0,27693403
0,41992173
0,43685013
-0,36400822
-0,038731575
0,19053347
-0,41014376
-0,12707658
0,50938857
-0,08028248
-0,3221893
-0,17271285
-0,22420624
-0,14011374
0,16259539
-0,076850936
-0,48472732
-0,07024358
-0,44183752
-0,42030817
-0,09679479
0,16094078
0,5024127
-0,504431
-0,050218944
0,10983813
-0,37614366
-0,48710746
0,33101746
0,3537992
-0,19056582
0,13108592
-0,23298313
-0,38241804
-0,25755614
0,46746257
-0,43670258
-0,45569864
-0,25576532
-0,17002736
-0,003986596
-0,49006325
0,32304773
0,054233722
-0,34883305
-0,035418645
-0,3125752
-0,06618816
-0,2907082
-0,017486736
0,37328923
0,103850916
0,0073314006
-0,21847281
0,4946731
0,02852701
0,42765456
-0,19227794
0,021417834
-0,12582697
-0,44388455
-0,04811496
-0,4081115
-0,08134674
0,3549249
0,11105429
0,08666671
0,19983228
0,47925153
0,4375278
-0,14596502
0,037393637
0,35841572
-0,29989693
0,04893383
-0,24737719
0,06718607
-0,26096305
0,06921406
-0,36419874
-0,050310995
-0,15336776
-0,25983915
-0,32056004
-0,31077936
-0,43260974
0,32442465
0,10242683
0,37375888
-0,04699078
-0,4371317
0,52120596
-0,17041174
-0,38170788
0,26385432
0,060110636
-0,142678
-0,041252196
-0,34059334
-0,22366238
-0,18809134
-0,12609394
-0,29381633
0,07465241
-0,014535894
0,31308928
-0,030726898
-0,33398712
-0,21121353
-0,28174302
0,2727927
0,46643856
0,4033225
0,050792933
0,11831424
0,4755932
0,34635654
-0,39834154
0,29268143
0,13354442
0,37939245
0,11562828
0,07675962
0,46437463
-0,30934379
0,3791953
-0,19714093
-0,08802598
-0,44252577
0,31648
-0,46203163
0,20632105
0,41864842
-0,2090541
-0,2115124
-0,31206432
-0,16077492
0,4474699
0,1638109
0,42999268
0,15035172
-0,28425482
0,24835277
0,34635794
-0,034800343
0,42075783
0,12464049
-0,13230762
0,28934005
-0,36256453
0,051410306
0,14165844
0,32754913
-0,40283376
0,0056354934
0,4630666
-0,20411028
-0,3499598
-0,27195966
0,3388209
0,4982765
-0,28211486
0,19913702
0,019234715
-0,09856361
0,12185074
0,22482501
-0,30242163
0,31881073
-0,17963661
0,5045741
-0,011698085
0,27866292
0,46612826
-0,38928258
-0,31248802
-0,3731523
-0,19245386
-0,056411464
-0,039085064
0,09557878
-0,000596502
0,007527659
0,12533812
0,23901609
-0,22521289
0,0983711
0,19878598
0,34027293
-0,45560446
-0,22732554
0,115722604
-0,22493218
-0,18340647
0,15809114
-0,20493525
-0,15763351
-0,29058123
-0,3519089
0,36051267
0,113803595
-0,48441622
-0,032663595
0,46920648
0,36468396
0,08016536
-0,3742505
0,43476588
-0,2827618
-0,27287441
-0,47330004
-0,34782353
-0,009566804
0,19947472
0,3490141
0,06253591
-0,38632417
0,34859583
-0,46248215
-0,21309507
-0,07411622
0,39703953
0,46601456
0,15671405
0,46137357
0,30463603
0,2805518
0,42025334
0,25675768
-0,068245605
0,17631197
-0,0022119433
-0,063549444
0,28111947
-0,07049974
-0,022122495
0,50749356
-0,07097527
0,48468083
0,4335323
0,34159356
-0,12901418
0,09937031
-0,31643894
0,38896722
-0,2673856
-0,111350186
-0,064877115
0,4866247
-0,48582774
0,2598826
-0,1507951
-0,303162
-0,2726615
-0,35366482
-0,4325853
0,42076826
-0,3245404
-0,34594998
-0,38562006
-0,12981139
0,026698785
-0,004229171
0,14474362
-0,44927707
-0,23472479
-0,33006912
0,12929243
0,38784763
-0,13846515
-0,02403384
-0,289067
0,13492146
-0,36812368
-0,4526334
0,2268998
0,23135898
0,08104161
0,36344805
-0,34960303
-0,32772246
0,19867766
-0,21393768
-0,4779564
0,18963538
-0,48352334
0,43792412
-0,12709416
0,20701826
-0,16924079
0,35368717
0,26502565
0,35528105
0,43930966
0,32660794
0,05723586
0,19263862
0,29555735
0,37145883
-0,32991305
0,4888457
0,37821633
-0,09037171
-0,15321305
0,48484698
0,06498718
0,4017777
-0,4087345
-0,22624224
0,041716546
-0,4874686
0,02507997
-0,35228288
0,11856434
0,3899686
0,12922916
-0,33096993
-0,43962964
0,3595685
0,047944866
0,4090209
0,057631552
-0,08242556
0,0068586613
0,503142
-0,41005182
0,11817907
0,023269923
0,013449695
0,15063561
0,18272123
0,025233403
-0,21839614
0,04727114
0,4020158
0,05462509
-0,051802546
0,13956729
-0,33557358
0,41721275
-0,3930079
-0,32478836
0,35167432
0,20604719
0,21965167
-0,13537282
0,17074876
-0,3886018
-0,1706299
-0,04512998
0,47455958
0,11433426
-0,40761778
0,164793
0,39941838
-0,11810534
-0,04828781
-0,38230672
0,012304732
0,3667846
0,1298871
0,40016088
0,22378159
0,43858567
0,48589233
-0,2783543
0,23564214
-0,22443393
0,35999188
-0,010825349
-0,31821287
-0,15665583
0,31309196
-0,5119297
0,0044402657
0,36975133
0,2953497
0,15283537
-0,087900236
-0,44375816
0,46070665
-0,27862826
0,05004872
0,34983578
0,47049263
0,19614579
0,49573305
0,24369021
0,40328136
-0,12793331
-0,074855655
0,032606624
0,48317546
0,22435574
0,03303946
-0,0526149
-0,4539699
0,42888525
0,019481802
0,26352695
-0,036286272
-0,46132693
-0,10278977
-0,37747848
0,2804177
-0,45887455
-0,03248026
0,30280375
0,11274218
0,21738164
0,3278924
0,24305466
0,4189484
-0,35282636
0,11400887
-0,050330687
-0,13748507
-0,4980409
-0,06294791
0,22138722
0,34510267
-0,3535651
-0,41086096
0,27797043
0,049721837
0,35435742
0,45340097
-0,007013617
0,4957221
-0,2371742
0,020107431
0,13357708
-0,48993662
0,37503046
0,33986405
0,44176906
0,13555522
0,36047122
-0,4195595
-0,15381514
0,20901991
-0,25863197
-0,26287186
0,16666414
-0,19598083
0,051496446
-0,20396478
0,16895948
-0,3163934
-0,027936568
0,4443892
0,36930937
-0,12646353
-0,109934784
0,32788286
-0,04545274
0,45424166
0,29707128
-0,06348921
0,44903994
-0,25931638
0,0863292
0,028071677
0,21662903
-0,105208196
0,014454551
0,4680216
-0,12225838
-0,33241612
0,31493196
-0,22219157
0,421176
0,38353285
-0,06121023
0,005948211
-0,2841397
-0,49873894
-0,34627587
-0,2647678
0,30790827
-0,38624015
-0,40662268
0,01601851
-0,16469693
0,27311313
0,20434241
0,14623035
0,30426675
-0,2929864
0,14514945
-0,08711353
-0,033265263
0,47989342
0,0062164105
-0,47217536
0,4528986
-0,31344268
-0,2771722
0,5036249
0,3582425
-0,4959763
0,017452119
0,19160992
0,35905102
-0,062080756
0,07438758
0,4534557
-0,27238986
0,36603498
0,31278762
-0,23316555
0,20529327
0,33751944
0,29262564
0,49673024
-0,49558645
-0,20841314
-0,18588679
0,042239875
-0,28135034
-0,033366144
-0,07211575
-0,35651743
0,32462132
-0,23674819
-0,07050125
-0,45965236
0,23490286
0,068962455
0,2787778
0,50186986
-0,18392144
0,057021115
0,03685305
0,1751976
0,39268237
0,058855485
-0,109083034
0,3221137
-0,47135928
0,43726602
0,26011518
0,22199315
0,063076556
0,29736236
0,37420478
0,40869105
0,1881186
0,09415522
0,057793733
-0,46858227
0,37250912
-0,09389683
0,45280284
0,3698599
-0,32052308
-0,1999696
-0,026467362
0,34455445
0,03809939
-0,34654287
0,47234297
-0,08141418
-0,044750392
0,06657832
0,08767995
0,31069997
0,45464465
-0,4480071
-0,16948688
-0,22876553
-0,27323768
0,29590863
-0,4670389
0,42127055
-0,18692909
-0,06885224
0,35862187
-0,17870994
-0,32693896
0,37286806
-0,16310628
-0,33893472
0,45184863
0,48842767
-0,010582366
-0,28723934
-0,04079096
-0,3829009
0,034863986
0,2686922
0,32505265
0,111568265
0,2320416
0,3726913
0,48912245
-0,45095605
0,14594421
0,38835686
0,16638403
0,29191247
0,10052719
0,4443377
0,041062724
0,22394615
0,14282005
0,3664178
0,39972106
-0,34815058
0,22510116
0,18228687
-0,4739398
0,27567005
-0,043105654
0,2236663
0,2068314
-0,36649635
-0,04717685
-0,17265901
0,15411583
-0,37472275
0,3751758
-0,1614731
-0,13309051
-0,05147327
-0,3385607
-0,32726613
0,10302466
0,2653217
0,3406624
-0,07065481
0,28601888
0,17020123
-0,036443878
-0,25844976
0,39313143
0,20832385
-0,076006405
0,12740685
-0,3979057
0,25591236
-0,15399294
-0,023198731
0,35723698
0,043590605
-0,07463583
-0,18715034
0,42053735
-0,1442636
-0,28308794
0,20938173
0,12637764
-0,17805451
-0,32221135
0,09062169
-0,06803644
-0,29021218
-0,25179705
0,016214345
0,28265715
-0,41202292
0,40844792
-0,44734785
0,46767822
-0,29965514
0,05901091
0,34902924
-0,061229575
-0,42015064
-0,2548704
-0,28168494
-0,3026934
-0,006605431
0,19061747
-0,4041789
0,4643128
-0,18173337
-0,41617665
-0,37538794
0,22528565
-0,32109213
-0,044731364
0,37489262
0,38848802
0,06647806
0,088716745
-0,050621163
-0,018001333
-0,3137209
0,34251028
-0,16468523
-0,43964085
0,19878128
0,03830946
-0,5135949
-0,33238202
0,13180229
0,15113859
0,20517638
-0,2538504
0,25873026
-0,37335312
-0,3014659
0,29431385
0,38094902
-0,46784866
0,025576828
0,33985645
0,10838874
-0,3692988
-0,38365588
-0,402471
-0,4672328
0,010235003
0,031500097
0,103476584
-0,5006905
-0,41378734
-0,020448163
-0,19328715
0,16249566
0,20078546
0,12670983
0,39406857
-0,38657612
-0,3273293
-0,27213967
-0,4345701
-0,0023314278
-0,10998242
-0,118207626
0,4080683
-0,16863985
0,5043774
0,17695376
-0,48428303
-0,21295388
0,26878566
-0,26613912
0,129368
-0,09701043
0,29456273
-0,2249301
0,080292426
0,4384119
-0,47426376
-0,26318008
-0,27015293
-0,4800619
0,06453447
0,19186261
-0,22429076
-0,34538135
-0,21852829
0,04030257
-0,121608734
0,13727015
-0,031911485
-0,3021558
0,3545579
-0,4217151
-0,11735522
0,052634846
0,2947623
-0,2912995
-0,028836424
-0,43586478
0,2949929
0,18054414
0,4926734
0,016813107
0,19882327
0,046638805
-0,07260977
-0,18217073
-0,1409028
0,06835287
-0,14645374
-0,37231496
-0,35649592
0,3271748
0,1284076
0,35988
0,46168932
0,1516064
0,1739586
-0,18957298
0,15550777
-0,1435074
-0,40951088
0,46909273
-0,054776244
-0,17956188
0,48787376
-0,3327691
0,24584118
-0,06555122
0,32420194
-0,11535603
0,25896573
-0,0671603
-0,48318085
-0,4623733
-0,46293986
-0,47325683
-0,022566648
0,00835184
-0,35286742
-0,12252273
0,111130245
0,28081203
0,5238261
0,1650587
-0,12888229
-0,31983054
0,19147791
0,37457782
-0,13944118
0,4679299
-0,31313962
-0,0037328461
-0,4206587
-0,15924385
0,4925197
0,16603082
0,21120474
0,29192105
0,29730555
-0,37656966
0,13385923
-0,43891782
-0,21873336
0,14251275
0,3792117
-0,16898413
-0,27957588
0,16554366
-0,1158005
0,118876316
-0,23835978
-0,41592014
-0,20421049
0,10493436
0,296002
0,3911075
0,0073872623
-0,33446693
0,09341792
-0,3523194
-0,1016864
-0,112178735
-0,37107578
-0,15387554
-0,03538305
0,4223514
-0,28672102
-0,086684264
-0,4838098
0,2148836
-0,17831653
-0,43592435
0,0259413
0,32714483
-0,23332871
-0,0069905254
0,23826785
-0,02903391
0,32112005
-0,34832668
-0,0036467032
0,12138263
-0,47000045
-0,40668008
-0,2887493
0,4223884
-0,35556987
0,048482906
0,15613134
-0,11020319
0,49561387
0,48920354
0,22219993
0,4501468
-0,19162819
-0,47034204
-0,30340007
0,24362947
-0,23984388
-0,13298212
0,4904333
0,39187354
0,35164884
0,37959242
-0,015254227
0,3304052
-0,028048614
-0,23376554
-0,03664889
-0,26443928
0,19614543
0,20465614
-0,027454503
0,11993516
0,35920656
0,13524579
-0,25843605
0,19577491
-0,36696988
0,32883203
0,14547504
0,023897782
-0,09297538
-0,3546193
0,14445172
0,20049955
-0,4648322
-0,2264446
0,49524787
-0,4060133
0,40249228
-0,28796986
-0,49236628
-0,15447846
0,17313775
0,42468384
0,080898
0,32738918
0,09052915
0,41146228
-0,121088386
-0,4149938
-0,44560042
-0,035044685
0,33220443
0,09904552
-0,06563047
-0,43481466
0,48222634
-0,19627719
-0,37049943
0,2718795
-0,25430405
-0,2489234
-0,31982478
0,37087983
0,05142459
0,30299407
-0,072632805
0,43948886
-0,42808464
-0,18779442
0,42654157
0,38630304
0,39977825
-0,41181383
0,07644305
-0,10817791
0,055232834
0,034043767
0,5039355
-0,39445803
0,09241617
0,23950852
0,42015994
0,028627392
-0,44138852
0,17326395
-0,121937305
-0,26607135
-0,2715153
0,20747307
-0,17373748
0,036706742
0,3863077
-0,3206371
0,13338953
-0,41144934
0,4498215
0,2772201
0,43187538
-0,033028174
0,33195162
0,031431526
-0,036368687
-0,4097031
0,19765353
-0,046356566
-0,075673625
-0,22279176
-0,27721846
-0,25118163
-0,33292684
-0,037516966
-0,27175614
0,39518812
0,02701114
0,42260614
0,06871742
-0,32162514
-0,122745425
0,36111504
0,06098346
-0,35100204
0,4446763
-0,41910213
0,27140185
0,43225184
0,10927545
-0,21344241
0,47604945
0,24260627
-0,071078286
0,4367315
-0,021910764
-0,17087846
0,342852
-0,48904452
-0,17443533
-0,12085675
-0,4319544
-0,30451185
-0,13201913
-0,14161094
0,28981665
-0,44186178
0,23443936
0,401976
0,36580566
-0,15914503
-0,46524552
-0,14707074
0,26196763
0,4914605
0,17500481
-0,11965769
-0,38474843
-0,031112967
0,28249466
0,35485604
0,13965099
0,24828342
-0,26749498
0,37545422
0,4167711
0,32321453
0,012193808
-0,2562716
0,1436147
-0,14357339
0,08523522
-0,47879255
-0,47630966
-0,25089738
0,39106184
0,2827227
-0,13978694
0,22909652
0,1148329
-0,31688848
0,20823626
-0,18447997
0,47063032
0,25160503
0,2056503
-0,2286734
-0,41380993
-0,41122535
0,20392722
0,4465874
-0,042073127
0,37203658
0,20798403
-0,111674555
-0,08166955
0,35362488
0,32111385
0,13934062
0,43739146
0,18983929
-0,1612157
-0,08943233
0,09990312
0,33816063
0,20544353
-0,22088306
-0,116789006
0,17242882
-0,31057897
-0,017614586
0,09855995
-0,22503075
0,30421716
-0,48262566
