60
125
0,3028955
-0,35941023
0,38322115
-0,3732612
-0,059791476
-0,3011375
-0,4032044
-0,38357455
0,39435983
0,44329143
0,2373082
-0,38599908
0,23067743
0,40121835
0,39193362
0,07303476
0,38137674
-0,23881856
0,15207052
0,14113367
0,053569317
-0,2277694
-0,37085012
-0,4468528
0,34218526
-0,49511757
0,40447247
0,17091292
-0,19531134
-0,3926268
-0,42048842
-0,40196568
0,41113985
0,25294417
-0,0687215
0,45452464
0,3285371
-0,132386
0,3353004
0,37003285
0,068035424
0,09393561
0,05406344
-0,015568048
-0,3340635
0,048918664
-0,07592812
0,15769225
0,059233606
0,304156
0,016206205
0,04811555
0,23589921
0,22988337
-0,030228257
-0,092706054
-0,21942812
0,10286671
-0,28312474
0,08785939
0,3327064
-0,38003054
-0,12639713
-0,34745878
0,4420225
0,34802032
0,330873
-0,070976615
-0,056638718
-0,14596757
0,34688348
-0,14435327
-0,31208825
0,16064149
-0,08860412
-0,3025004
-0,45170066
-0,10686624
-0,009673536
-0,3886342
-0,42430857
-0,43532142
0,11175096
0,4968016
0,3753177
-0,022607744
0,37043273
0,16062313
0,46539557
-0,24073148
0,3773504
0,24376136
-0,45750582
0,18654847
-0,30549192
-0,27414444
-0,09344834
-0,21934262
0,30033314
0,06336534
0,37969446
-0,17069149
-0,4328519
-0,012955993
0,26741683
0,210688
-0,48885497
0,27614427
-0,15402511
-0,07230225
-0,04341072
0,482525
0,20225245
-0,27457446
-0,20617375
-0,09734902
-0,41731662
0,43416297
-0,21812779
-0,048255652
-0,035032272
0,2723757
0,4920938
0,10534382
0,3736844
0,36098397
-0,10319677
0,21759874
-0,14428192
-0,35906726
-0,46132857
0,30837
-0,22864276
-0,14816695
0,15680069
0,21154785
0,14243549
0,30216247
0,42103428
-0,1416797
0,36387587
0,42112947
0,36277407
0,02635771
-0,38557553
0,4456221
0,44003862
-0,29656512
0,30305374
-0,19367468
-0,10657859
0,017602324
-0,38532275
-0,381522
0,4243639
0,011574209
0,32178068
0,04415971
0,23636109
0,35511953
-0,08927247
0,33086473
0,3153047
0,38029158
-0,3829149
0,37710994
-0,08959684
0,26970905
-0,28137794
0,1812393
-0,13342246
-0,3051023
0,4382584
-0,09570745
-0,44485015
-0,2533828
0,19696873
-0,19217733
0,32892257
-0,08084336
-0,1726546
-0,30852515
-0,25184685
0,47874582
-0,3028453
0,17582345
0,24432856
0,26020318
-0,39732078
-0,24822235
0,4733476
0,007767558
0,12499553
-0,26818946
-0,047855526
-0,30563623
0,34580112
-0,07169187
0,09370601
0,40471393
-0,45335782
-0,26400775
0,020827472
0,2705285
-0,22416276
-0,2690566
-0,011147559
0,0063070655
-0,41148543
-0,3817676
-0,06853062
0,3158002
-0,4984807
0,09734297
-0,1078935
0,41977
0,046005607
0,31120914
-0,26091886
-0,34827816
0,08740848
0,456065
0,4741515
0,19621927
-0,098718315
0,19152462
-0,16021982
-0,16214585
-0,055301517
-0,077313095
-0,2319648
0,003376516
-0,49307966
0,021466076
-0,25112778
-0,45500022
-0,28659874
0,26345962
0,27027708
0,11100811
0,34344333
-0,10139814
-0,27677277
0,32952422
-0,350119
-0,49362406
0,42166394
-0,25754303
-0,07122436
-0,43842167
0,031394005
0,016025007
-0,023506373
-0,19666874
-0,17893845
-0,3002443
0,39739048
-0,052384943
0,49583882
0,2962501
-0,27340922
0,37152135
0,26561993
0,08645767
0,28600377
-0,3767446
-0,35163113
0,27179193
0,43808275
-0,44605553
0,08746195
0,18965375
0,028008461
0,2527902
-0,3901528
0,2743674
0,4981131
-0,13224354
0,2022661
0,2093634
-0,3664793
0,38101304
-0,27700734
-0,34762678
0,39659172
0,45343488
0,32882428
-0,42976773
-0,41447496
-0,038159013
0,015568256
0,3150307
-0,10206473
0,10269618
0,14276278
0,41781873
0,47774148
-0,43788874
0,21188647
-0,1427044
-0,34079152
0,07545489
-0,3529544
0,34476537
-0,29797363
-0,03404051
-0,23042104
-0,010134578
-0,304052
-0,31423682
0,23572868
-0,24400517
0,43312937
-0,27397728
0,46676415
0,42732
-0,45881984
-0,32708755
0,2414447
-0,004233081
0,24432045
0,42285126
-0,21549326
-0,4183937
0,11973214
0,014811218
-0,08189687
0,1526171
0,3597005
-0,335893
0,34936136
0,31457412
0,43329877
-0,33846408
-0,24088109
-0,31442592
-0,423313
-0,14856687
-0,36273205
0,23244065
0,45769942
0,23393762
-0,21845129
0,43097925
0,17951316
-0,018050164
-0,1163432
-0,14038783
0,3243801
-0,26895422
0,4415788
-0,31935012
-0,13209039
-0,3594966
0,12529266
0,07795817
-0,41102684
0,48048443
0,3067069
-0,3453642
0,1511091
-0,24972731
0,36699754
-0,22405478
0,099469066
-0,3438182
-0,023356616
0,12228286
-0,49043322
-0,10311547
-0,45498148
0,026176214
0,05939561
-0,27493048
-0,4779627
-0,31587
-0,18050638
-0,033335954
-0,3008989
-0,09221488
0,08778298
-0,20356879
0,25032127
0,10077679
-0,26460013
-0,001008328
-0,38658953
0,46684414
0,42752767
-0,46794555
0,0558424
-0,24655113
0,078579366
-0,08509323
0,2728718
0,27063572
0,47953814
0,4404114
0,37862396
0,0024377704
0,41012388
0,17121917
-0,25645703
-0,018699944
-0,39690858
0,34499085
-0,29863745
-0,39653242
0,48698628
-0,36618334
0,18254942
-0,4626666
0,11544186
-0,42880866
-0,04267347
0,09692216
0,02213043
-0,046743423
-0,24752563
-0,35986942
-0,48162225
-0,36365107
0,48114157
-0,46392262
0,04309708
-0,28072637
-0,45760053
-0,2584777
-0,45739064
-0,20285764
-0,31980026
0,45818508
-0,03319925
-0,4152855
0,09530264
0,36197883
0,41668814
0,20134759
-0,24140343
0,37250453
-0,1629729
-0,23834097
0,38837844
0,31721383
-0,20828399
0,46654594
0,34087068
0,14222956
-0,048567772
0,24205494
-0,15569669
-0,12543145
0,26195627
-0,38526523
0,07874477
-0,13842866
0,0010252577
-0,21183434
-0,19719246
-0,48180476
-0,05238375
0,3474453
-0,4576387
0,20489562
0,048185706
0,41080397
0,0848608
-0,4193768
0,29649585
-0,33906078
-0,027944326
0,18086106
-0,10822761
0,3822133
0,17802286
0,19852895
-0,331818
0,4693454
-0,47298843
-0,1819871
-0,0704045
0,3388849
-0,46015647
-0,20080286
-0,23130825
0,42109352
-0,38424563
-0,28747517
-0,097049445
-0,14588359
-0,4205707
0,3918125
0,43379635
-0,38623503
0,39593923
-0,40296566
0,38079882
0,2402572
-0,03474343
-0,30184674
-0,36951366
-0,12458581
0,4666562
-0,30672276
0,16587377
0,050012767
-0,36265844
-0,28034973
-0,45552787
-0,3016665
0,025954485
-0,07977232
0,42191488
0,21996903
-0,26970398
-0,016386658
0,27220863
0,118425965
0,26245546
-0,18312824
0,03936124
0,12334716
-0,36906362
-0,47487018
0,32017976
-0,42314804
-0,29419369
0,16993922
0,36009485
-0,25491217
-0,19908875
0,08135176
0,12097627
0,3249876
-0,24812132
-0,11566496
-0,49367952
0,3886255
-0,35013187
-0,18803737
-0,059566587
-0,17365476
0,38328677
-0,17348877
0,24612552
-0,033361703
-0,26159298
0,31538963
-0,49043205
0,28533846
-0,3144182
-0,08000103
0,47123283
0,17018205
-0,21234873
-0,37652877
0,12837559
0,32406926
0,39986354
0,42549145
0,30699092
0,31626529
0,2540655
0,4492234
0,031713724
-0,14650238
-0,27209705
0,285802
-0,29404122
-0,059449315
-0,41944975
0,31593025
0,39975852
0,17175311
0,17161614
-0,052037895
0,29978967
0,20217228
-0,4727162
0,129893
0,00483346
-0,27620533
-0,080789894
-0,22020924
-0,49177566
-0,0972577
-0,040988892
-0,07220048
0,061305225
-0,27362046
-0,25839365
0,14844275
0,4132114
0,2663325
-0,26709005
0,09996343
0,46535218
0,20862097
-0,28114805
0,1609065
-0,13643849
0,17095125
-0,13706353
-0,3488466
0,31990325
-0,38191175
-0,37591803
-0,4457594
0,027955592
0,14448649
-0,4325282
-0,3112145
0,011288226
0,32264793
0,37836277
-0,19635558
0,36911643
0,1412456
0,029369056
0,4434592
0,26539767
-0,09982297
-0,09346032
0,06983328
-0,15138578
0,28872985
-0,49152583
0,019352794
-0,17612433
-0,42243007
-0,3883423
-0,29288024
0,0819211
0,13941288
0,058068395
0,24185729
-0,2977141
-0,0419482
0,36114758
-0,35282975
0,06590378
-0,08629385
-0,47839698
0,14855158
-0,06629515
-0,43884254
0,41606182
-0,21315593
-0,22940469
0,3732261
0,24496293
-0,3501249
-0,21466431
-0,36649787
0,11064541
0,08029771
0,13088894
-0,1121856
0,103388846
-0,31957397
-0,4215866
-0,33037835
-0,08990529
-0,15356255
-0,15146384
-0,17614985
0,19363278
-0,22761336
-0,43567556
-0,31007642
-0,2098163
0,49518144
-0,13710406
-0,45596656
-0,467986
0,18131077
0,360214
-0,22412398
0,22270161
0,4472866
0,48584086
-0,069468826
0,123524964
0,028724134
0,38935518
-0,015820205
0,17635363
0,045362353
-0,21154848
0,266006
0,23560053
-0,18578124
-0,44608024
0,079672635
0,1980362
-0,2496422
-0,42837396
0,4388072
0,21354067
-0,27230617
-0,42907637
0,31786227
0,4304434
-0,24194032
0,05303943
-0,20546487
0,097381055
-0,32038254
0,06675184
0,25099206
-0,3258028
0,15762347
0,37617987
-0,20750245
0,07053292
-0,1296759
0,10915381
0,07174039
0,43630916
-0,3626188
0,040284216
0,07504827
-0,38715255
-0,33456126
-0,3274114
0,09073138
0,41404748
0,19465017
0,46854544
0,1128726
-0,22217602
0,30608088
0,04186791
-0,2098518
0,27507192
0,28437406
-0,08765596
0,095140815
-0,3996763
0,01339525
-0,110225976
0,2508613
-0,17020023
-0,023866385
0,11957896
-0,12140486
0,45245492
-0,057175964
-0,39718294
-0,3931538
-0,41566688
0,09532881
-0,18511987
0,30780822
0,36203003
0,44755715
0,17182702
0,4710173
-0,48001269
0,20830375
-0,22378728
0,070067465
-0,3926918
-0,42973065
0,44648767
0,2797423
-0,37875444
-0,42659855
-0,39508003
-0,07133436
-0,31564724
-0,30114162
0,080868244
0,27143502
-0,119336784
-0,096616924
-0,4406296
0,35694337
-0,30235147
0,495826
0,48317826
-0,19386995
0,09164536
-0,17958802
0,288921
0,38624412
-0,15404171
0,28946674
0,25006557
0,43927276
0,46222025
0,1364634
0,018731177
-0,0680373
0,008397698
-0,2966323
0,2852102
0,029086351
0,18070984
-0,11043438
-0,10960466
-0,30405906
-0,4498708
-0,19527197
-0,072573096
-0,1440081
0,1036942
-0,10159296
-0,0927999
0,3338716
0,030142486
-0,27437925
0,11668342
-0,281227
-0,41339746
0,050772607
0,32196504
-0,22150248
0,3769465
-0,35594362
-0,4346506
-0,1900424
0,07311797
-0,22019413
0,12647873
0,19382483
0,1358102
-0,380479
-0,32926524
-0,02678603
0,034432113
0,44050628
-0,004900098
0,11581123
0,24664736
-0,42059442
-0,446588
0,16978407
-0,037418664
-0,2559722
-0,4438561
-0,4970602
0,25442612
0,33285153
0,37688828
-0,39238274
0,38579494
-0,37517175
-0,03332007
-0,14624465
0,4474089
0,41689295
-0,41914523
-0,24713951
-0,25355002
0,49942195
-0,36334616
-0,32701218
0,40800905
-0,14116535
-0,18018532
-0,1618689
-0,27685234
0,45191216
-0,4617714
-0,14870864
0,04039198
0,28755784
-0,17861474
-0,096740246
0,4421674
-0,4170385
0,33582813
-0,3137567
-0,26836985
-0,14451331
0,29170263
-0,4997577
-0,4076293
-0,42959616
-0,27482492
-0,13918129
-0,37048757
0,4542488
0,22491372
-0,40400267
0,0035072346
-0,014019817
-0,39566445
-0,13168931
0,29220277
0,42825723
-0,39732298
-0,41372696
0,30448246
-0,14064142
0,1778391
0,3031897
0,26670438
-0,4161549
-0,43101564
-0,3790964
0,37699002
0,22503752
0,11032796
-0,49455026
-0,19137007
0,39519882
-0,40624502
0,31667215
-0,18843016
-0,26573473
0,47034734
0,37188685
0,46527082
0,20236069
0,40644807
-0,09719896
0,42704397
0,34994674
0,0070848083
-0,27974933
0,19611925
-0,063513845
0,2632125
0,16376239
-0,4850264
0,29820174
0,38964808
0,45903146
-0,49985537
0,014846861
0,07518184
-0,24135205
0,23010588
0,3699031
0,39956313
-0,4393554
-0,30372214
0,2701168
-0,3217694
0,02216953
-0,048076868
-0,08771974
-0,10454205
-0,44196072
-0,022956371
0,124329925
-0,07435948
-0,024285793
-0,48953015
-0,17955199
0,22187692
-0,05477664
-0,0035924723
-0,21799824
-0,2011247
0,33625185
-0,31109893
-0,14825097
-0,23606345
-0,11553007
-0,17925546
-0,030768275
-0,27236265
-0,08333638
0,35370332
-0,44404832
-0,31637102
-0,06708014
-0,4545175
-0,44754595
-0,20187014
-0,32111877
0,094467044
0,060232162
0,32513523
-0,041855276
-0,33059907
-0,4885114
-0,11327684
-0,34905046
0,11980188
0,22383237
-0,23069611
0,08206856
-0,04429871
-0,47861785
-0,27878016
0,13996941
0,2826624
-0,19567326
-0,11765602
0,09744793
-0,24696946
0,13998663
0,0016075373
-0,062194496
-0,38006285
-0,31125635
0,39512885
-0,046814024
-0,019889534
0,4616111
-0,22121307
-0,13954183
-0,31757003
-0,04480976
-0,32126743
-0,059831828
0,31531948
0,0032632947
0,1655938
-0,20517081
0,3750388
0,324095
0,3123793
-0,3088652
0,4593035
-0,33306175
-0,3239801
0,23501807
0,14780557
0,009564638
-0,026555657
0,3861943
-0,23311678
-0,26020303
-0,099609554
-0,22074798
0,17108631
-0,12738171
0,018490493
0,23605376
0,1811701
0,20698714
-0,3059535
-0,2994035
-0,07434857
-0,37614253
0,37102127
-0,36699086
0,17119318
-0,38598064
-0,17309323
-0,0029728413
0,03491527
0,09143251
-0,17219314
0,13922578
-0,33653855
-0,45651618
0,41424304
0,06578177
0,30435956
0,30738842
-0,31998152
-0,011731476
0,39097953
0,42320168
0,34416264
0,46810114
0,17959887
-0,22980794
-0,24269918
0,05130309
0,24538547
0,24455601
-0,147946
0,11230481
-0,21908724
-0,035471976
0,061707675
0,100186706
-0,14297667
-0,3551862
-0,2614165
0,08751762
0,24211401
0,19253403
0,17282933
-0,3308283
-0,38579303
0,46109837
0,169667
-0,28740314
-0,46947014
0,41985762
-0,38530314
0,46327865
-0,20821914
-0,2586543
0,34184766
0,08227807
-0,47860783
-0,045963407
0,3310796
0,16440761
0,16693568
-0,17849502
-0,39939755
-0,4572826
0,4667719
0,17249745
0,47903973
-0,22648597
0,068781614
0,48046505
0,42250866
-0,42469287
-0,44852117
-0,38989794
-0,072087616
0,062123954
0,39411455
0,4920609
0,13988662
-0,39675158
-0,07298431
0,11060995
-0,1181421
0,09625101
0,054596007
-0,10024157
-0,06784192
0,40563232
-0,17377275
-0,39108002
0,3224172
-0,30409586
0,12769443
0,28569895
0,25904745
0,08708668
0,4227246
-0,08905563
-0,23149547
0,24823552
0,07454616
0,47194797
0,32789427
-0,32820225
0,19765282
-0,01550141
0,1799286
-0,31823817
-0,48887852
0,038473904
0,28104407
-0,20531738
0,43285948
0,36111176
-0,41465694
0,14214826
-0,08700025
-0,32911888
0,25185883
0,30861962
0,2856362
0,30885965
0,2868439
0,23003596
0,05933225
0,47089493
-0,12818205
-0,24985489
-0,055949092
0,41576803
0,42279524
0,2746818
-0,27834618
-0,30733812
-0,11139855
0,21504587
-0,35293177
-0,36053813
-0,3519217
-0,09237033
0,25714993
0,43133062
0,24196601
0,07696015
-0,018437564
0,11345053
-0,048938185
-0,38438496
-0,25767958
-0,09763691
-0,09482068
-0,2808902
-0,15028864
-0,057224482
0,46306348
-0,3409837
0,18669724
-0,42819807
0,10226798
-0,3551225
-0,43762192
-0,2463659
0,15098768
0,4227903
0,045027554
0,068282604
0,3924731
0,18632883
0,32417464
-0,41758904
-0,24728674
-0,35507637
-0,48960057
-0,2875861
-0,25407025
0,18696594
-0,13683319
0,13771313
-0,04795882
-0,4413498
-0,48295012
0,17974299
-0,31371397
0,4041502
-0,46069044
0,2766083
0,4788869
0,19978505
0,080008626
0,19507545
-0,38218608
-0,38037658
-0,38296187
0,27160925
0,39989847
-0,23115468
-0,13552931
-0,040304035
0,15242904
-0,48902285
0,4090597
0,43850064
-0,31786883
-0,32205433
0,46884525
0,36471915
-0,3324203
-0,20652232
0,017399907
0,45981717
-0,09933555
0,19797373
-0,02880454
0,3356201
-0,3697432
-0,47238716
-0,40703386
0,19103622
0,286
0,23873413
-0,068396
0,05874753
0,23876399
0,342112
0,33617038
-0,25711143
0,11882055
-0,07559717
-0,47200847
-0,1563634
-0,10726786
-0,18462709
-0,20571592
-0,16042623
0,2537322
0,28864223
-0,1283552
0,33133823
0,43576783
0,12267673
0,15205902
-0,31002128
-0,1634084
0,07476354
-0,2204377
0,12021357
0,49956614
-0,08454722
0,13101953
-0,03574744
-0,40501013
-0,45932344
0,21212405
0,13486683
0,38393176
0,49751705
-0,20048815
-0,40375277
-0,12403679
-0,08288744
-0,09936905
0,3772822
-0,2766738
0,41793633
-0,065567434
0,31047064
-0,060778767
-0,0231871
-0,10443464
-0,0517264
-0,31361455
-0,23588493
0,14366132
0,09900689
0,45330662
-0,42347243
-0,2727162
-0,25376588
0,07266295
-0,23740107
0,43097287
-0,43716228
-0,42153925
-0,485897
0,030843318
-0,3281932
-0,052405477
-0,021784186
0,30391937
-0,3479835
0,04554832
-0,30416238
-0,016279608
0,1071794
-0,20554224
0,18802822
0,23624235
0,23835391
0,35799694
0,3936097
-0,0789516
0,10858661
-0,43202975
0,3410101
-0,22790599
-0,23864827
-0,42471862
0,24155682
0,075933635
-0,41748434
0,18715161
0,31465018
0,22926736
0,37705678
0,47534138
-0,19461712
-0,12312171
0,35073715
-0,11416724
0,039593637
-0,041274905
-0,20075977
-0,48612508
-0,40823728
0,045721292
-0,33522347
0,07013196
-0,3659848
-0,38558856
-0,01677975
0,12625319
-0,2503727
0,3298493
0,33428103
0,015804112
-0,11448601
0,36486924
0,47483724
-0,45460832
-0,4514083
0,24853748
-0,30524063
0,06838459
-0,47112253
-0,44680282
0,36431044
0,120046675
-0,15920442
-0,40553775
-0,2323761
0,31905633
0,15348113
0,3769498
-0,26054204
0,49903798
-0,38196155
-0,44185677
0,28713256
0,38004833
0,0059421603
-0,21747252
0,16238862
-0,21383354
-0,36285
-0,30452955
-0,07498887
-0,38149256
0,30321282
-0,10950732
-0,26650363
0,27175355
0,1059131
-0,47626677
-0,18808857
0,26053333
0,0006672569
-0,039752066
0,49045593
-0,47525397
-0,01695922
-0,21293828
0,07005614
-0,2486606
0,23754776
0,39659244
-0,0088581145
-0,33927506
-0,30604386
-0,15032575
-0,32151547
-0,19120714
-0,041204005
0,09732312
-0,14481094
0,104076385
0,08482218
0,36930376
-0,0909684
-0,22547156
0,1985532
0,31829107
0,4935931
0,26746333
0,08560532
-0,43643853
0,3439774
-0,25566417
0,13631803
0,25890696
0,21509975
-0,26286304
-0,29304492
0,21466291
-0,28979605
0,34997135
-0,077326685
-0,004486352
0,15744847
0,1390993
-0,11394444
0,22299176
0,1143747
-0,49125656
0,09304994
0,020476997
-0,41615334
-0,18362844
0,09744018
0,44903666
0,3924396
-0,23825371
-0,31516543
0,053629875
0,21824223
-0,09821585
0,1922183
-0,32331634
-0,42835343
0,2616166
-0,46214142
-0,35907602
-0,33156148
-0,17539006
-0,33343047
-0,07065028
0,26255304
0,41933745
-0,25265664
-0,38201144
0,37444913
-0,33830142
-0,10966626
0,49826074
-0,08993268
0,47103673
0,30968106
-0,22320521
-0,41132984
-0,088003576
-0,381087
0,020316005
-0,07200289
0,095321715
-0,1324395
-0,0038134914
-0,45316982
0,18689173
0,12874913
-0,09816924
0,07278097
-0,38541746
-0,24754962
-0,25995982
-0,3453446
0,14464867
0,43530345
0,16293013
0,19589972
-0,2803478
0,16973919
-0,31733254
-0,32630786
-0,33407027
-0,45904613
-0,35699597
-0,12309587
-0,45553625
0,08154756
0,12091285
0,12496209
0,12673569
-0,48612922
0,37989527
-0,15043655
0,056391776
-0,48638025
0,4947167
-0,25594974
-0,36706984
-0,45142698
-0,27263653
-0,43367535
-0,43381637
0,20130914
-0,3479321
0,49184257
0,47528768
0,129435
0,02585268
-0,48776594
-0,41364264
-0,3226361
-0,22791311
-0,19311935
0,095314324
0,09883565
-0,14337608
0,25202143
0,46537733
0,48378515
-0,45530975
-0,42450342
-0,25169688
0,32671177
-0,058496356
-0,43361095
-0,14316595
0,43965876
0,16155314
0,16691214
-0,044956475
0,27608597
0,025546014
-0,1295619
-0,46033806
-0,16758892
-0,39306334
-0,36115485
-0,30371848
0,4382978
-0,027879208
0,21242201
-0,4915405
0,16369385
-0,17049193
0,3586439
0,08312547
-0,49338642
0,006288556
0,44290864
-0,2368415
0,21735096
-0,28481877
0,31734753
-0,09457052
-0,441335
-0,36494595
0,45191687
-0,41226134
-0,28267717
0,21939951
-0,1785591
-0,268987
0,4794464
0,2572887
0,100105226
0,1335913
0,42238396
-0,33517286
0,12842685
0,04462844
-0,46199977
-0,017893523
-0,08327928
0,4633696
0,12478924
0,38684
-0,2961468
-0,27856982
-0,49579254
-0,20078054
0,23425215
0,010952532
0,10750008
0,013091505
0,02646774
0,4771493
-0,12469849
0,09889859
0,11586422
0,32212186
-0,40017834
-0,38276827
0,37030536
-0,31053343
0,43611228
-0,036345273
0,40648693
0,08101821
-0,12911063
0,010338724
0,376351
-0,37510806
0,45156217
-0,10039383
-0,21800813
0,089166224
0,47427368
-0,18872184
0,49442327
-0,112722754
0,0073894477
-0,43088666
0,17378008
0,41492116
-0,48663798
-0,42596304
0,02549541
0,2246964
0,035775423
-0,44823188
-0,47797135
-0,1357339
-0,31565976
0,22551286
-0,3478395
-0,33586004
-0,21950185
0,18714827
0,15693337
0,39232707
-0,10984793
0,28499842
0,4679644
0,08709395
0,00808428
-0,103801906
-0,15309021
-0,17139277
0,32241327
0,14527929
-0,18619949
0,23212057
-0,23609051
-0,1448352
-0,2489936
0,44082415
0,2956158
-0,26850665
0,1518988
0,20937479
-0,30958825
-0,21633446
0,25305128
-0,03005001
0,43332833
-0,23822325
-0,34868753
-0,0866968
0,06602025
-0,43871027
-0,25379843
0,44983983
-0,49804735
0,14089239
-0,41765878
0,434884
-0,006077379
-0,21052417
0,42953956
0,041965306
0,1953752
-0,14195481
0,34485286
0,10881609
0,039813936
-0,37017795
-0,18098226
0,04343462
-0,25583637
0,39278096
0,40647006
0,40096354
0,24543262
0,32478112
0,33662415
-0,3454997
-0,05577323
-0,34814417
-0,25916195
-0,074028164
-0,24919188
-0,24028999
-0,15213445
-0,1370543
0,25985897
-0,2440109
-0,10582584
-0,30244702
-0,103449345
-0,25707996
-0,44700634
-0,19042635
0,37828797
0,080400646
0,23121196
-0,39935452
-0,20884153
0,44872683
0,40682465
0,291596
-0,16355252
0,005366119
0,42035586
0,43279642
0,48465532
-0,16684338
-0,32574362
-0,46723172
0,49687546
0,03901273
-0,14734486
-0,33861327
0,36124885
-0,18892458
0,17837739
-0,2585098
-0,48936325
0,21227205
-0,24000555
0,20318401
-0,06030917
0,28855968
-0,011208802
0,4329586
-0,08401361
-0,43971562
-0,20979264
-0,1467481
-0,19426501
-0,08363244
-0,49775022
-0,47600812
0,326586
0,4879824
-0,22187313
-0,10576135
0,01080066
-0,35689378
-0,05573672
0,45440316
-0,06433946
-0,035515964
0,20406526
-0,39144817
0,09276819
0,13817734
-0,33485645
0,4314072
-0,16709158
0,20350778
0,43464804
0,16093701
-0,3780818
-0,107088655
-0,22621557
0,17985874
0,4551595
0,26580304
-0,32652378
-0,4294195
0,19272292
0,110037684
0,41027975
-0,13516766
-0,09336054
0,14751995
0,18035936
-0,13577959
0,111789644
-0,27392533
-0,49771264
0,0070462823
-0,21311048
-0,2923854
-0,17774117
0,078871846
0,41703463
-0,35357136
0,16417521
0,24388778
0,2989077
0,03671837
-0,21238783
0,432262
-0,14299801
-0,42438987
-0,11743197
0,26273012
0,11180407
0,4740861
0,16218555
-0,16030446
-0,32897842
0,074355304
0,24237806
-0,08438143
0,35126138
0,2909307
0,0008862153
-0,18822905
0,23371243
0,014987409
-0,49477798
-0,25649053
-0,31464058
-0,49136457
-0,2755028
-0,22288617
-0,07643014
0,4460131
0,4434808
0,46840245
-0,047825128
-0,23377037
0,21680278
-0,26017284
-0,013974905
0,2521155
0,36645848
0,48905486
-0,47991085
-0,20610338
0,08744997
0,44066024
0,25424165
-0,48642018
0,45337653
-0,2409794
0,475729
-0,11982024
-0,03483376
0,13055885
-0,08357024
0,19499296
0,35501385
0,30997896
0,4475391
-0,3179308
-0,41983345
0,19079536
0,4073099
0,24946576
0,17657936
0,43683892
0,35819042
-0,2853857
-0,00662956
-0,21135461
-0,2051388
0,034063876
0,03789431
0,118667126
0,4084456
-0,07533416
-0,37721232
0,3075927
0,03342533
0,3230006
-0,35877144
-0,09926996
-0,23177746
0,31496823
-0,1659075
0,22162467
0,3756525
0,24885106
-0,2705788
0,38356805
-0,2537163
0,14972287
0,12699431
0,18420291
-0,22036865
0,2331549
-0,31251776
0,13102585
-0,12888765
-0,2413294
0,1794241
0,0749796
-0,47713962
0,13232464
-0,37980467
0,40406203
-0,36434326
-0,23446667
-0,18412465
0,4402367
0,042153478
-0,4923322
0,3842975
0,3444637
-0,31969455
0,2385211
-0,42383343
-0,123633444
0,111282766
-0,23727077
0,092095435
0,46600676
-0,46323055
0,28330445
-0,40759194
-0,29431403
-0,42600846
0,21659923
0,32794803
-0,35453928
0,26540542
0,36339492
-0,06108889
0,22321618
-0,26250654
-0,041262567
0,47663122
-0,23355025
0,060044646
-0,07304689
0,3530662
0,3709588
0,39270902
0,3840754
-0,078097075
-0,11841801
-0,4587976
-0,3173616
-0,33996904
0,28425825
0,3722672
-0,43054873
0,46014196
-0,19014663
0,20154846
0,46433437
0,046040952
0,3329404
0,3399806
0,013609111
-0,33963853
-0,31921017
-0,35106078
0,24892592
-0,49976134
0,13816237
0,0502519
-0,1750746
0,12342453
-0,0025985218
-0,4512108
0,30155528
0,32056886
-0,3358727
0,049049735
-0,12720901
0,26494253
-0,23526183
-0,11636788
-0,39948058
-0,06668258
-0,27922648
0,023066461
0,3561858
-0,3884801
-0,3465811
0,15063316
-0,423809
-0,3336855
-0,21929395
0,19859791
0,37957466
0,15065825
0,2768911
0,41758347
-0,13014689
-0,023609072
0,23988694
-0,2210043
0,2771474
0,31041986
0,33905864
0,31683975
-0,31278825
-0,3623351
0,16189724
0,06662142
-0,27883577
-0,2678607
-0,31464264
0,26223177
0,13129276
-0,28275657
-0,35884702
0,2476502
0,42394727
0,24254692
-0,49442646
-0,33171073
0,4443981
-0,4861168
-0,39568055
0,15627784
0,286079
-0,46603203
-0,16477391
0,07871777
-0,34268516
0,4894367
0,026307642
-0,016507149
-0,44655305
0,31737542
-0,48572937
-0,39655223
-0,14251265
-0,25650245
0,39800358
0,32215446
0,23418832
-0,49706742
0,094675004
0,185202
-0,41788995
0,3642841
0,45263028
0,36426812
-0,00818485
0,06623161
0,3139217
0,122056425
-0,13487837
-0,41908264
-0,0664233
-0,27558413
-0,39874682
0,11721337
-0,41428936
-0,42382178
0,4279077
-0,44519606
-0,26019847
0,3153444
-0,49766827
-0,38756102
0,03569269
-0,100718856
-0,18429503
0,15163374
-0,39501756
0,34057564
0,3922065
0,038736284
-0,04270652
0,26088887
-0,15309578
0,23725826
-0,42457908
-0,4518612
0,03565693
-0,49451888
0,39014858
-0,47971886
0,20567995
-0,39916748
-0,49751395
-0,16160598
0,04900831
0,22626269
0,4463756
-0,20287588
0,0942294
0,04104173
-0,3991655
-0,058201134
0,3124696
-0,2706291
0,1789611
-0,10532048
0,40861088
0,1525492
-0,4876134
-0,44237992
-0,1466307
-0,005387249
-0,19450259
0,49752855
0,380531
-0,42611286
0,27858996
0,46842295
-0,29474038
-0,4731136
0,04118991
0,11006385
-0,34094
0,14208734
0,31415385
0,37219912
-0,41285676
-0,24522191
0,05500394
0,29546565
-0,33930975
0,45587242
0,3898515
-0,16094333
0,033404052
-0,49049556
-0,48984146
-0,32042432
0,10880184
0,2378819
-0,08418968
0,39922255
-0,22701976
0,25006598
-0,20606226
0,23997825
-0,4052422
-0,046962023
-0,14520836
0,25162
0,18487
-0,30088753
-0,08296457
-0,20526287
-0,4917849
0,047228515
0,0494985
0,25058913
0,36444068
-0,38353822
-0,08834657
0,19118959
0,23766303
0,238325
-0,16598883
0,24564356
0,43301582
0,47230136
-0,43088543
0,12670696
-0,3490708
0,15312636
0,31174535
-0,35703582
-0,3453471
-0,33890253
-0,44381323
-0,20451614
0,44966578
-0,1679855
0,45528662
0,29475278
0,11745834
0,1581595
-0,21553636
0,3656841
0,49184942
-0,31753963
-0,04790798
-0,22600439
0,19077742
0,4532497
-0,49960083
0,21039069
-0,44446898
0,045589685
0,41971856
-0,44241363
0,22842449
0,02791822
0,20315313
0,4803949
-0,45228392
-0,13887262
0,47805476
-0,18416789
0,4544354
0,4243334
0,4873789
0,3894533
-0,33013
0,21516103
-0,3273661
-0,06889844
0,020286798
0,4810713
0,25821477
0,28420472
-0,4858482
0,42156827
0,031598687
-0,08422059
-0,33887935
-0,014873296
0,38978153
-0,23394996
-0,3733693
-0,40711647
0,041168094
0,028262794
-0,24189064
0,4870792
0,44739175
-0,32693273
0,06319761
0,26306534
0,15238547
-0,1754592
0,18613845
0,001323222
0,2388696
-0,008325189
0,20395392
-0,4809144
-0,4455878
0,34657252
0,3289615
-0,14585891
0,091257334
-0,42174327
-0,17115897
0,16156179
0,042104006
0,3078217
0,20733911
-0,24470517
0,4633814
-0,17688963
0,100483775
-0,13403276
0,30381954
-0,049463034
0,16761822
-0,35538656
0,19741678
-0,006272435
0,123363435
-0,2376242
0,3670398
-0,148538
-0,05773139
0,39987838
-0,25272477
-0,09837434
-0,12765992
0,007006407
-0,41151378
0,20917517
0,15654576
0,079224765
0,3201083
-0,0860765
0,43786436
0,18199664
0,23297775
-0,2315264
0,27101398
0,26549524
0,27700984
-0,044644207
0,47099286
-0,046880424
-0,41964817
0,29740685
-0,16721311
-0,1536744
-0,1965343
0,014790773
0,17626232
0,4603963
0,024775028
-0,27698717
-0,16994861
0,45770675
0,26558864
0,19882554
-0,24795589
0,40998495
0,2881515
-0,30644715
0,06918949
-0,27753103
-0,35230073
0,27659392
-0,17500687
0,38429272
-0,060314864
0,1597321
-0,10729703
-0,03463021
0,25796998
-0,49154204
0,2761022
-0,12982571
-0,024290025
-0,23473069
0,09603882
-0,4436307
0,49254173
0,42553115
0,122790515
-0,4261034
0,032335877
-0,001484379
0,21086937
-0,24312565
-0,26534396
-0,039405704
0,46075284
-0,08572793
0,47121257
0,24237728
-0,43363294
-0,18822056
0,021814108
-0,3198412
0,13833225
-0,22486284
-0,19864193
0,32213318
-0,4507801
0,4217124
0,27129304
-0,022000074
0,33932716
0,3143236
-0,24599835
-0,3658712
-0,3745159
-0,22134843
0,3690241
0,025092602
-0,0140583515
-0,06732792
0,3328755
0,06749886
-0,49931836
0,2483024
-0,4336846
0,47116947
0,43128735
-0,40118206
-0,033570558
0,22122562
0,23763782
-0,12536395
-0,105187625
0,27752024
-0,07983604
-0,058875978
0,4244944
0,25602144
0,111702204
-0,013759822
0,14722407
0,20957893
-0,027699709
-0,118178815
0,49746102
0,4050464
-0,14668494
0,34472853
0,07523435
0,21656495
-0,35146236
-0,16131032
0,26470512
-0,25795573
-0,08433941
0,4332406
-0,44667006
0,43355316
0,2898357
0,0076754093
-0,48660377
-0,19709712
0,36176008
-0,041281074
0,20823473
-0,46138862
-0,066874474
-0,07566935
-0,4663626
-0,017286956
0,15308017
-0,07200548
0,10811144
-0,45211646
0,26029658
-0,21905947
0,07892811
0,24193078
-0,46362764
0,34439647
0,011091292
0,03646344
0,23231727
0,18548119
0,24434191
-0,39267492
0,28951144
0,09662628
-0,3156911
-0,006979555
-0,45971423
-0,46684277
0,06763852
0,32902813
-0,021134436
0,101768136
-0,30850628
0,188658
-0,08301437
-0,33887178
-0,28750724
0,4953645
-0,47404417
-0,055285275
0,4795059
0,025302649
-0,29774472
-0,13627383
0,31283933
0,07381654
-0,07710099
-0,45891637
0,40282214
0,05735475
0,11647588
-0,020336658
-0,020103365
-0,023371547
-0,2160942
-0,102656245
0,3068664
0,37711704
0,35360312
-0,21277508
-0,37706727
0,03559792
-0,27338868
0,36779827
-0,21894786
-0,36683512
-0,24924126
0,2640735
0,034584343
0,46972847
-0,029841542
-0,45724803
-0,12089893
-0,13549766
0,4187984
-0,30400473
0,15798873
-0,41495618
0,23349977
-0,45377153
-0,0932346
-0,066892534
-0,21155974
-0,021116942
-0,36137682
-0,45238605
-0,17279977
-0,35327482
-0,28487277
-0,18321696
-0,10090208
-0,19981247
-0,08738807
0,43328798
0,21962541
0,08165556
0,07403982
-0,20975488
0,24147844
0,13209403
0,105210304
-0,2812438
-0,054798752
0,005761211
0,2569452
0,13237315
0,1729942
0,19733447
-0,23721224
0,0027416516
-0,022734493
0,22312838
0,43946254
0,13135302
0,3939978
0,022593021
-0,49082348
0,3395815
-0,1234
-0,46263006
-0,06285837
-0,4298222
-0,17690188
-0,22225198
-0,39180896
-0,1089769
0,38355553
-0,14021951
0,23447818
-0,107266456
-0,063786775
0,017524183
-0,4084145
0,1149559
0,38668174
-0,30230576
0,05441624
-0,36152878
-0,06686768
0,4837166
0,22123843
0,12253088
0,2975332
0,45598614
-0,39501858
0,31478047
0,095223844
-0,11440742
-0,25263032
-0,45105955
0,24586749
0,42657286
0,10383248
0,25354463
-0,47426534
-0,050372005
-0,42399788
-0,46858686
-0,0639621
0,46179867
0,039845943
-0,39045173
0,19989389
0,26890248
0,351898
0,18220866
0,18444693
0,10597974
-0,44366097
0,31953698
0,4331447
-0,19120717
-0,24434358
-0,02112028
-0,2510606
0,44273412
-0,081718236
0,06866503
-0,043591768
-0,2540602
-0,49637538
0,083958566
-0,19364709
0,37217683
0,38884282
-0,13303149
-0,07160801
0,13629049
-0,001789524
0,1215443
-0,47271883
-0,3585677
-0,32771122
0,05254656
0,2951343
-0,23653427
-0,36522174
-0,053830653
0,14585197
-0,2167142
-0,4692855
-0,43229285
0,48556298
-0,14907646
-0,03970036
-0,2959902
-0,32081607
0,3328696
-0,00017260014
-0,3760685
-0,4596496
-0,19895953
-0,23980609
0,033076048
-0,32968658
0,006822765
0,37187535
-0,40515825
0,17160708
0,037129045
0,29058462
-0,47843832
-0,071926534
-0,3397345
0,33931488
-0,21558955
-0,0697017
-0,29601902
0,32834584
0,49634558
0,26402414
-0,48234132
0,01034379
-0,07107961
-0,27062714
-0,2893616
0,024198294
0,064533055
-0,16543728
-0,29434508
-0,20570171
0,083320856
0,43724608
-0,14639148
0,110862195
0,07478851
0,29108328
-0,11847064
-0,29424572
0,17558181
0,10890341
0,11031073
0,45461738
0,17702657
-0,47571602
-0,072511345
0,013772249
0,3092935
0,15840149
0,11006874
-0,3293683
-0,055093914
-0,24997744
-0,30558032
-0,05588895
0,2737
-0,43708938
-0,3495078
-0,024027348
0,17322826
-0,21975636
0,023850322
-0,45579642
-0,17086083
-0,30311307
-0,013976008
-0,09067842
0,010489881
-0,23001942
-0,059167624
-0,33544773
-0,30687934
-0,15852407
-0,38586706
0,3342495
0,18203807
-0,10140589
-0,18517187
-0,30854842
-0,34241802
-0,119817615
-0,49445042
0,18841451
0,2844969
0,004674852
-0,1245482
0,3236401
0,062171876
0,466285
-0,08587459
-0,18191522
-0,40805173
-0,19153935
-0,18174455
-0,21749541
0,21990246
-0,2725979
-0,44444388
0,12785721
0,37129438
0,030623496
0,026323974
0,2469908
-0,012693167
0,42564195
0,35350686
-0,14511386
0,33386695
-0,23380998
-0,3270828
-0,16345865
-0,26536798
-0,09621799
-0,34571427
-0,31381553
0,35615605
0,26224506
0,250165
-0,17126685
0,42565536
0,1365245
0,39615327
-0,2538249
-0,29819617
0,30420583
0,07967913
0,33025408
0,31812817
-0,09189856
0,020483553
0,007146808
-0,48336074
0,17616832
-0,06406197
0,10989416
-0,028834552
0,23872948
-0,32590646
-0,11653355
0,20466024
-0,3577931
-0,10059938
-0,48590025
0,24244475
-0,054853052
-0,059446126
0,0056372173
-0,46158415
-0,17484283
0,24569017
-0,43761745
0,32667834
-0,095142275
-0,25816393
0,14820349
-0,16494659
0,2135899
0,020158947
0,4002412
0,18436158
0,32697397
-0,3083954
-0,4802623
0,43848908
-0,29067123
0,14038593
-0,43862194
-0,29349115
-0,32252783
0,047943115
0,29708892
-0,14525661
0,19427729
0,16845304
-0,3889934
-0,2982465
0,4109347
-0,25539163
0,45614833
0,1027329
0,12285423
-0,489229
-0,15333837
-0,17543417
0,3833043
-0,0009257806
0,23289281
0,4341396
-0,37041128
0,2631567
-0,49661052
-0,4930065
-0,23604205
0,123559654
-0,47698373
0,13853723
-0,42865282
-0,43305403
0,44268018
0,2926535
-0,28383616
-0,0643127
0,03152883
-0,07253432
-0,3374998
0,43061358
0,17406279
-0,26796442
0,4488005
-0,20766711
-0,17566067
0,24059463
0,032143712
0,056721985
0,12438011
-0,4766525
0,15878946
-0,33103144
-0,40168157
-0,31673712
0,16328502
0,1338402
-0,21606633
-0,25983125
0,22996104
-0,2756204
-0,46632215
0,36424518
0,16091025
-0,35661316
-0,38228503
-0,035627455
-0,40056342
-0,1258035
-0,47638574
-0,37337998
0,17424208
0,20116085
0,09123999
0,12575966
0,36320722
-0,13105491
-0,27334148
0,45974994
0,19657546
0,32514608
0,30534428
0,39931816
0,04150492
0,14602548
-0,17904434
0,40347058
-0,32481173
0,095406055
-0,27943325
0,39445192
-0,27454275
-0,069774985
-0,19616705
-0,30195385
-0,36310232
0,21816438
-0,26271868
0,4821366
0,45978117
-0,10682243
-0,07577491
0,04182172
0,36066145
-0,06134987
0,11985749
0,1990714
0,23920393
-0,3750949
0,4218269
-0,120945126
0,4094538
-0,4394578
-0,43896416
0,38348395
-0,46097445
0,30441052
-0,3307018
-0,29614943
-0,49076092
0,027950048
0,38089323
0,26001775
-0,17061943
0,46007878
0,0831964
-0,28603822
-0,4614119
0,15751815
0,15102988
0,15075606
-0,038437426
-0,008069435
0,45088
0,045479596
0,017570615
0,037241757
-0,1428613
-0,22049776
-0,22896153
0,26511455
0,1407941
-0,20821035
-0,4493353
-0,36937153
0,1773566
0,46987587
0,21210974
0,3739698
0,33267814
0,02571863
0,21824825
0,32957757
-0,16422251
-0,18749869
0,34822714
0,3149132
-0,019619137
0,15502018
-0,033385992
0,43548435
-0,22895601
-0,23154137
-0,10201639
-0,0022679162
-0,37848693
0,10786408
0,013999581
0,26575488
-0,45539
-0,36268884
-0,107242554
-0,40036336
0,09049833
-0,25045726
-0,35057095
0,4816112
-0,44527176
0,41418916
-0,48418525
-0,24568585
-0,40747476
0,10927415
-0,07029149
-0,37691978
-0,16044307
-0,33391994
-0,092711926
-0,10321748
0,0660851
-0,18968648
-0,464316
0,1190927
-0,358421
-0,34538865
0,033248663
0,39578062
-0,34993094
0,34595567
-0,20377517
-0,41642973
-0,46297565
-0,232918
0,21043402
-0,44140747
-0,22609201
-0,09727344
-0,3664218
0,020389259
0,022296429
-0,2697529
0,26494527
0,3413539
0,36876178
0,43970752
-0,051397264
-0,25156403
0,44457084
-0,025358498
-0,4474335
-0,4538081
-0,052799046
-0,15725604
-0,039372325
0,07806903
-0,27244604
0,4645154
-0,118209064
-0,37498146
0,26578635
0,044853866
0,40698272
-0,04090908
0,25120717
0,21567363
0,1805178
-0,11533207
-0,14159745
-0,07752845
0,07190037
-0,27108833
0,38557696
0,029352844
-0,11717075
0,44281226
0,027348042
0,3089593
-0,44712493
-0,21122852
-0,29690045
-0,23891166
0,2395311
-0,108446956
0,12182319
-0,23801485
-0,10291952
0,3377654
0,029013872
-0,12988564
-0,31789595
0,20953387
-0,10825038
0,20507365
-0,19930321
-0,40398255
0,024542034
0,35258508
0,2768618
0,4816
0,37982053
-0,3053941
0,30317336
0,15175444
0,49437785
-0,037289083
-0,42186826
0,21615654
-0,18939546
0,44632745
-0,3706944
-0,23478588
-0,14511982
0,0414353
0,05549693
-0,06648156
0,4059633
0,30545408
-0,48815066
0,03760135
-0,17419833
0,2286253
0,30963284
0,3268767
-0,08117485
0,041776717
0,26879704
-0,0406771
-0,33155084
0,3262232
-0,04860601
-0,23920518
0,030433774
-0,40264136
0,31073898
0,109957516
-0,29579875
-0,0058595324
0,21241385
-0,37008798
0,29690677
-0,4989808
-0,3755425
-0,019957453
-0,26097915
-0,15465572
-0,32426226
0,30271316
0,33645844
-0,20146519
0,08999312
0,41583866
0,4887178
-0,005837232
-0,08589104
-0,006883621
-0,1992408
0,37443078
-0,28214222
-0,053009212
-0,13640171
0,18864012
0,056601286
0,00035992992
-0,41429394
-0,11583245
0,14326507
0,3075626
0,43458217
-0,083594084
-0,3259348
0,42741567
-0,33795166
0,14444882
-0,26605123
0,09782064
0,33681488
-0,31984428
-0,1035015
0,17380667
0,40428382
0,42730492
0,28806204
-0,3198493
-0,1605528
-0,0009478756
0,40872908
0,33084804
0,16249543
-0,3145532
-0,035270065
-0,24508289
0,17836797
0,35640395
-0,20761198
0,10207069
0,22364694
-0,32243598
0,10446179
-0,38864347
-0,089512795
0,38030374
-0,009839922
0,23011655
0,4315279
0,26275814
-0,07147825
-0,44035342
-0,46207386
-0,09759423
0,44203532
0,46459073
8,626505E-05
-0,31934953
0,3667904
-0,46676722
-0,07209012
-0,23390466
0,43335932
0,40490502
0,12330681
-0,014467478
-0,03586477
-0,36967897
-0,37139368
-0,29155052
0,477297
-0,09375176
0,3470825
0,4895512
-0,39995626
-0,23808831
0,22964656
0,16711724
-0,4913036
0,13961422
0,31851166
0,03420919
0,38935047
-0,16837138
-0,0018853778
0,29368103
-0,31803575
-0,12829745
0,113238335
-0,03650722
-0,14136717
0,047756314
0,21116936
0,10793328
0,028153002
0,29618317
0,4180758
0,16755235
-0,18544474
-0,05976647
0,21278715
-0,26234877
-0,10292983
-0,019639283
-0,48642036
0,17925173
0,40611356
0,17397833
-0,29206443
0,33409512
0,18337804
0,045705378
0,41872835
0,034564137
-0,136168
0,10546619
-0,3359931
-0,4869053
0,18329483
0,059395254
-0,0029231957
-0,49148905
-0,03917995
0,17511666
0,30052835
-0,08003774
0,20020676
0,02682501
-0,3382355
-0,47208396
0,06775701
0,122202575
-0,4848072
0,43367577
-0,36733857
0,4458447
0,09973431
0,27424258
-0,03363648
-0,4563409
-0,20315778
-0,47115338
0,37191796
0,46170473
-0,32395524
-0,022527993
-0,36306992
-0,46884122
0,44394934
-0,21451059
-0,44759038
-0,43444943
-0,38996637
0,47645122
0,10791463
-0,49812442
-0,23899314
-0,17287731
-0,4655352
-0,17561254
0,41815495
0,23744816
0,47360647
0,041349888
-0,122336894
0,028296173
0,3384757
0,36226726
-0,33241606
0,41589254
-0,080783665
-0,19421387
0,34486693
-0,41436753
-0,4159517
0,0062943697
0,09997225
0,29943258
0,2937485
0,11310983
0,009287536
0,1645047
-0,3110385
0,12208861
0,2806211
0,18826568
0,27448547
-0,41845414
-0,33165944
0,39327067
0,40277177
0,15792078
-0,22756734
-0,17467642
-0,15156454
-0,41469377
0,4496355
-0,3795753
-0,44555908
-0,14112192
-0,24229234
-0,1337117
-0,1568391
0,064765275
0,17524344
0,05649674
0,14189929
0,07781047
-0,29234114
0,48819524
-0,4146368
-0,25308126
-0,097964466
0,39103025
-0,45851967
0,2842604
0,27682573
0,20672005
0,21740615
-0,18859547
0,18070799
0,0415408
-0,43616098
-0,23824343
0,39268905
-0,34943664
-0,10623941
-0,32347232
-0,39162046
-0,43752116
0,38002384
0,10381794
0,43859088
-0,21506488
0,40540957
0,13929725
-0,4466244
-0,40926498
0,2846663
-0,2367745
0,074596524
0,014167488
0,31561416
-0,27540272
-0,41916403
-0,20636752
-0,21928552
-0,09681034
0,24129051
0,44145316
-0,2158291
-0,024912477
-0,30873716
0,21970594
-0,15931058
-0,048145115
0,07918507
0,01052326
0,40831017
-0,13211629
-0,24791318
0,4840064
0,34094763
0,114195526
0,3186623
0,12406498
-0,31833273
-0,26875365
0,15109289
0,12694108
-0,056692988
0,2933712
0,36051774
0,2785098
0,2964579
0,0033397675
0,2573893
-0,3328157
-0,45488423
0,039276123
-0,4162821
-0,2837345
0,18237686
0,29011434
-0,35169733
-0,21152776
0,39182734
0,18644571
-0,25012064
0,079435885
0,15198773
0,37230712
0,21161968
-0,4946288
-0,0914942
-0,495423
-0,093818545
-0,08981842
-0,113732964
0,28958815
0,43006164
-0,27223194
0,3949147
-0,15879974
-0,08311844
0,23090893
-0,16748255
0,27542752
-0,42108372
0,1462915
0,19824511
-0,10176322
0,14414448
0,4012404
-0,08088428
0,4948622
-0,29000324
-0,343876
0,45387906
0,18041271
0,22005427
-0,113765985
-0,36898342
0,41638643
-0,3965863
0,27356428
0,041484594
0,1083889
0,011237204
-0,17050678
0,35118783
-0,13422868
-0,14898771
-0,14300072
-0,4392436
0,42631453
-0,1386106
-0,13064
0,2638262
-0,05236101
-0,15626797
-0,047665358
0,4276541
-0,07192725
-0,04645434
0,35462815
-0,3482573
-0,34810585
-0,44011652
-0,46904698
0,29136842
0,07230049
-0,48769885
-0,13589716
0,4410609
0,30076814
-0,47808522
-0,14277181
-0,11029956
-0,20499724
-0,28245297
-0,01404047
-0,33905786
0,43712926
0,0021484683
0,46498334
0,21404582
0,18503314
0,12978715
-0,08702198
-0,19743931
0,3957563
0,049792886
-0,36962092
-0,12998232
0,19985676
0,39914048
0,07169604
-0,031566262
0,28555602
-0,05126062
-0,118379086
0,49954826
0,18034154
-0,018094897
-0,26515958
0,32726532
0,08124077
0,21516293
0,4041909
0,42414922
0,41271544
0,49220133
-0,46806437
0,19210857
0,29778373
0,3429501
-0,22601715
-0,059797734
0,124821186
0,28358084
0,04888308
-0,053085417
0,49683523
-0,32846397
-0,14321649
-0,4341833
-0,46757352
-0,2580607
0,0039958037
0,38279867
0,3662684
-0,30586612
0,49424517
-0,3798271
0,06909847
0,064468265
-0,13781008
0,15106922
-0,08170703
-0,026043177
-0,09909749
0,41680372
-0,25779474
0,3042813
0,30265856
-0,0065513575
-0,19961804
-0,04314646
0,4683076
-0,09779072
-0,40637618
0,12896067
0,12268108
0,07884079
0,39675432
-0,0788295
0,105772436
-0,3648214
-0,0035364223
-0,34014994
-0,13400957
0,40192658
-0,44083622
-0,27695045
0,113520026
0,19715405
-0,35601243
0,4548043
0,19384879
0,25460708
0,49752605
-0,17572105
-0,28652322
-0,122683674
0,19901013
0,08280176
-0,14252049
0,06264639
-0,46730256
-0,37555292
-0,05297798
-0,1211395
0,10572606
-0,46952543
-0,106527776
0,40230393
0,39526206
-0,18226773
0,25954515
-0,31159556
0,41226226
0,49845493
-0,42048448
-0,43867907
-0,25628987
-0,39628828
-0,4030667
-0,479987
-0,12785304
0,3759907
0,2821592
-0,100192845
-0,14292309
0,3369459
-0,38328388
-0,22874925
-0,22508636
0,23495984
0,18638116
-0,301566
0,4187107
0,32669705
-0,22838742
-0,10990429
-0,14286137
0,0340873
0,24476099
0,10079819
-0,3141127
0,2306028
-0,48374474
0,15646738
0,23059356
-0,11398962
-0,2710212
0,28653663
-0,442449
0,33180308
0,28430736
-0,068799704
0,14089477
-0,043237954
0,004811595
-0,27136508
-0,38004646
-0,36263484
-0,1043655
-0,041853875
0,4251452
0,37949687
-0,18689618
0,2783795
-0,25126612
-0,01684314
-0,18700132
0,006824012
0,2596873
-0,09776896
0,09287518
-0,34394136
0,09188759
0,22337848
0,2527684
-0,12460148
-0,16178417
0,08358121
-0,40098864
-0,37881625
-0,38184154
-0,19344634
-0,4809639
-0,40629536
0,013586462
0,3250379
0,4617712
0,16755569
0,17071831
-0,33048725
0,032937407
-0,038773954
-0,16196388
0,28155333
0,3121702
-0,4461141
0,49374062
0,43079096
0,414917
0,10923797
0,4542166
-0,33567435
0,096720815
0,35605145
0,20375133
0,34280324
0,3584596
-0,44807568
-0,3241966
-0,31988493
-0,24763083
-0,48235422
-0,24365568
-0,20397776
-0,008033067
-0,12851208
-0,05073318
-0,36789948
-0,09954053
-0,1596868
0,3051985
0,018955052
-0,38814336
0,35510123
-0,32951552
-0,08908096
0,047386467
-0,004691303
0,10201573
0,45688248
-0,4582118
0,39996678
0,34735233
-0,48824108
0,24061197
0,24675906
0,47791803
0,34155744
0,19886583
-0,17341453
-0,16440776
-0,46393684
-0,29716286
-0,2863432
-0,3875457
0,35589522
0,1321699
0,09201306
0,015118301
-0,275671
-0,09777984
-0,11703861
0,09526986
0,13765746
0,04554081
0,3179196
-0,19047073
0,115890145
-0,24887574
0,045929253
-0,3502587
0,32263905
0,27960438
-0,4974962
0,38864726
0,4896462
-0,43479985
0,48652858
0,14745998
-0,1510945
0,35971355
-0,3233812
-0,23512381
0,003113224
-0,264354
0,43557447
-0,48297846
-0,3206303
0,40873015
-0,34495032
-0,011989921
0,18356836
0,24748498
0,43932736
0,26349896
-0,49566212
-0,09874359
-0,41318452
-0,27983403
-0,11822036
-0,1465626
-0,348034
0,24299586
0,3862068
-0,3531618
0,17926598
0,25495028
-0,36397195
0,26474816
0,27658886
-0,0058879773
0,4356392
0,17382771
-0,38347217
0,21020663
0,3918233
-0,06440732
0,14588797
0,050072312
0,026395082
0,40222257
-0,024983823
-0,12584189
-0,39855742
0,37703574
0,13705987
-0,31291264
0,07492769
0,06885308
0,088172495
-0,10415518
-0,29840273
-0,40619797
0,30419117
0,08600694
-0,21320325
-0,2225407
0,021493018
-0,111625105
-0,35691756
-0,19022897
-0,46832895
-0,45500287
0,42060184
0,27619684
0,4883849
0,09434557
-0,04051864
0,2768923
0,47384125
0,41276222
0,02877748
-0,18197528
-0,49458963
0,46351367
-0,4583513
0,24807203
-0,37538582
-0,42891967
-0,12481639
-0,3919896
0,23722345
0,3990476
-0,16454637
-0,120238066
-0,21634734
0,049039662
0,2182777
-0,11842698
0,2626868
0,36214894
-0,096859455
0,16451007
-0,3540577
0,14099824
0,06807363
-0,057246447
0,28632325
-0,25150156
0,40234226
0,2924652
0,34401727
0,20900899
-0,2721079
0,40954572
0,19128054
0,27467757
-0,41523442
0,3453074
-0,4414457
-0,2947232
0,41003436
-0,001536987
0,101836085
0,20607042
-0,16539955
-0,18236002
0,06595838
-0,45915934
0,10372347
0,109968364
-0,043736964
-0,04301226
0,355528
0,09371418
-0,085866034
0,1642878
-0,2462636
-0,46092182
0,04812932
-0,08415526
-0,07609612
0,039158702
0,3726871
-0,39980087
-0,2049526
0,34382433
0,25604117
0,031208098
0,48513943
-0,28421146
0,3246333
-0,19273388
-0,12746084
-0,358235
0,25215322
0,4517247
0,38147002
0,297791
0,17503965
0,4694795
0,21821159
0,4220413
0,3741005
-0,07677552
0,46407187
0,15417266
0,42667884
-0,216454
0,27486426
-0,25417686
-0,19226703
-0,24493
-0,20012835
0,13385749
0,37964255
0,23698479
0,08939159
0,30974323
-0,09255403
0,3193639
-0,23342195
-0,35259885
0,04053569
-0,03856343
-0,19440687
0,33671767
0,43152606
0,35889375
-0,29316148
0,309574
0,20272553
-0,18997759
0,20497316
-0,38501894
0,3240443
-0,33286047
-0,21695554
-0,4790967
-0,24635279
-0,07396826
-0,425595
0,06306237
0,24904889
-0,4532106
-0,33850324
0,45956397
-0,1670703
-0,4323841
-0,30411994
-0,4243411
0,21069032
0,019323468
-0,47352988
-0,11415243
-0,4399443
-0,44951406
-0,27372187
-0,120915174
-0,3392188
-0,45920688
-0,18062809
0,38280237
0,20511001
0,06712872
0,23462915
0,2746595
0,3539788
-0,10832137
-0,47842324
0,07326186
-0,16035366
0,43884236
-0,27161127
0,00013897741
0,4396246
-0,051908344
-0,35081902
0,11040783
0,41388702
-0,43405998
-0,436101
0,4967696
-0,41295087
-0,45421156
0,49467123
0,14197135
0,12842393
-0,22302225
0,02860719
-0,4743821
0,46125883
0,14825732
0,2721188
-0,17449269
0,23310602
-0,07895276
-0,40204996
-0,36403233
-0,36233008
-0,13332582
-0,19416377
0,2043255
-0,430901
-0,37596288
0,4989863
0,11066675
0,3092386
0,25820553
0,100666165
0,43495578
-0,10832119
-0,4435264
0,4536425
-0,42507985
-0,25008944
-0,33644724
-0,37128133
-0,39128822
-0,19100416
0,47262836
-0,1891981
-0,39748022
-0,29052803
0,24002486
-0,17738917
0,38539457
0,29111463
0,43542248
0,33463943
0,34433353
0,044515133
0,26291102
0,26331103
0,024567068
0,28800243
-0,089502126
0,035027444
-0,13458428
-0,31210467
-0,032527775
-0,21364608
0,36837405
-0,37386286
-0,3799846
0,27947164
0,15383017
0,40417606
-0,4417104
0,25449294
-0,055043697
-0,17213014
0,33333462
0,12917656
-0,1862829
-0,34302056
0,123263
-0,36732352
-0,46890724
-0,04763791
-0,09015456
0,15461367
0,35989147
0,26277536
0,040318787
0,18463784
-0,18482602
0,18840915
-0,33030242
0,22539955
-0,16409558
-0,12597787
-0,18212703
-0,33437097
0,4079259
-0,23873106
0,42752904
-0,091085404
0,23829764
0,32408375
0,029195547
0,16853964
-0,24633747
-0,29276913
-0,32151607
-0,18765461
-0,38152564
0,42568648
0,40593654
0,14791048
0,45123023
0,11116898
-0,23788974
-0,4066674
0,4973483
0,30960518
0,08489668
-0,31495216
0,23395348
0,22023916
-0,23282287
0,16835111
0,27405554
0,40179688
-0,14193219
-0,31565988
-0,023516387
-0,12531799
0,31401324
-0,44208086
-0,4111414
0,35811895
-0,17879549
0,4856338
-0,3458389
-0,3501869
0,38841408
0,12394267
0,43183088
0,41947877
0,4287312
0,46747047
0,2138707
-0,19064695
0,26301587
0,14194453
-0,07322517
0,4574321
0,11986762
-0,014413565
0,0673396
0,12912905
0,07354152
-0,46020404
-0,4242133
-0,17377213
-0,1534484
0,04930699
-0,1501222
0,4771554
-0,15201467
0,40380073
0,06169468
0,4567873
0,13258576
0,2583897
-0,22639802
0,22285688
-0,28954518
-0,36669296
-0,49729672
0,41394824
-0,4947177
0,02700895
-0,2135795
0,35888547
0,087447464
-0,44424435
0,0996573
-0,21496126
-0,3751549
-0,16809088
0,27135557
0,24498296
-0,24709705
-0,027849436
-0,094735056
0,48047864
-0,4379427
-0,12440556
-0,22089955
-0,11586651
-0,09910092
-0,491858
0,2958613
0,2240026
0,39454043
-0,27158034
-0,13599381
0,3821758
0,23934221
0,344346
0,4030549
-0,38620967
0,07458866
0,20668554
-0,16234052
-0,3332899
0,40767682
0,08071607
0,1683175
0,4238819
-0,16956168
-0,13931566
0,040664613
0,08571732
-0,35846788
0,36550456
0,20967472
0,25367284
-0,029483587
0,2707945
0,3506757
-0,4358745
0,37570113
0,46524775
0,4002958
-0,103634655
0,36268985
0,10483706
0,0946607
0,35822952
-0,20912024
-0,39199966
-0,099446386
0,34160203
0,019251585
-0,49177575
-0,21745026
-0,14457059
0,4727921
0,022088885
-0,30721468
-0,3053865
-0,01156798
-0,47945315
0,319071
0,029720962
0,08516806
0,3799327
0,15303081
-0,07537827
0,15385127
0,35780817
0,29912597
0,33715653
-0,40518683
-0,40124637
0,4891218
-0,47382134
0,15204245
0,34011316
-0,4417714
0,122983694
0,32794994
-0,46508068
0,28705508
-0,3372115
0,21962452
-0,43494034
-0,4897649
-0,115324855
0,2968167
0,43579328
0,16720968
-0,21990204
0,15291685
0,39582336
0,19819474
0,08347356
0,39102829
0,37044084
0,46919298
0,33349317
-0,4963571
-0,3950347
-0,053981304
0,36127704
0,2975645
-0,23019615
-0,23199254
0,06528491
-0,0018808069
0,07697672
0,12502694
-0,1313248
0,3125646
-0,2609027
-0,29092973
0,2939787
-0,39953494
-0,38718283
0,35506094
-0,23659012
0,19414008
0,29126543
0,37008762
-0,10802147
-0,31904286
0,2586589
-0,13043943
0,006340623
-0,32213253
-0,32618132
-0,46742162
-0,11311293
0,1541307
0,11234498
-0,21063048
-0,3293872
0,17105591
0,3937583
-0,3002149
0,07914555
0,45812052
0,2594561
0,14632905
0,17056793
-0,3297767
0,37755376
0,0039322376
0,40719151
0,36260772
-0,3131062
-0,20091787
0,3549897
-0,28798395
-0,15939501
0,1549105
-0,06135139
0,1425004
0,11104047
0,4693352
-0,26755393
0,46985888
0,39384484
0,10505676
0,17053837
-0,20271257
0,30338925
-0,18032601
0,47297806
-0,33663327
0,045238733
0,29502463
-0,18320525
-0,40084547
0,37724286
0,469714
-0,3038499
-0,416053
-0,46985772
-0,017393976
-0,40389264
-0,039159954
-0,40614527
0,47352487
-0,18177691
-0,0936836
0,27834535
-0,23213089
-0,35339788
0,06296903
-0,46765408
0,15154922
-0,42553937
-0,14333051
0,34590322
0,10297352
-0,0069728196
-0,45775685
-0,429185
-0,22983989
-0,14608029
0,29810536
0,24038762
-0,19033313
-0,07061994
0,17222476
0,35061443
-0,04936987
0,051044106
0,48331827
0,47656757
-0,29300958
-0,24758187
0,18571645
-0,2840221
-0,22300887
-0,28429466
-0,08086404
0,38731647
0,30177665
0,43852204
0,08978367
0,115057886
-0,062498927
0,4856704
-0,40437457
0,15703338
-0,18113685
-0,32631183
-0,043542504
-0,2803049
-0,4860529
0,04682684
-0,10899684
-0,4607054
0,16332245
0,17763418
-0,47137374
-0,0744271
0,08388275
-0,08538014
-0,4969716
0,49797028
0,06038922
-0,014635831
0,480174
-0,43102765
-0,30242485
0,36073488
0,09228158
0,31577873
-0,47741526
0,01778686
0,3065412
-0,1795873
0,17525965
-0,28825802
0,39578098
-0,45609304
-0,22233695
-0,209409
0,29039955
-0,2046974
-0,25725406
-0,24798611
0,28653502
-0,12679213
-0,004218936
0,31499445
-0,08621791
0,28861254
0,44596362
-0,19169077
0,37300974
0,06598711
0,49499124
0,16018605
0,36354655
-0,42653307
0,02888918
-0,1741156
-0,031817853
0,18665814
-0,105155736
0,4166227
-0,06448743
-0,10243639
-0,3987278
0,24010348
-0,2915654
-0,28010535
-0,011902392
0,0068751574
-0,019128144
-0,18726364
-0,27276528
0,47026688
0,488791
0,4419269
0,2079491
-0,12455565
-0,2288898
-0,049746215
-0,49925146
-0,28295958
-0,28868347
0,25757706
0,16895497
0,07439071
0,47834015
0,4689712
-0,10596642
0,3769021
0,24551183
-0,19217953
-0,005875502
0,1376282
-0,13259679
-0,2723822
-0,2116217
0,13558638
-0,22470742
-0,42100424
-0,30607334
-0,07344991
-0,30135298
-0,36684173
-0,057779282
-0,14152282
-0,3468979
0,11202437
-0,20267501
-0,17037764
0,1374942
0,26269716
0,42032266
-0,11483899
-0,37239784
-0,10304779
-0,032025427
-0,043759584
0,120337725
-0,24941799
-0,04365301
-0,4353214
0,35426384
0,27588552
-0,43650433
-0,07150051
-0,4198214
0,22106022
0,42920583
0,31700385
-0,20599878
-0,47453073
-0,09083411
-0,47980896
0,23808485
0,307257
-0,16038334
0,437186
0,120230496
-0,25676474
0,2992289
0,35369325
-0,16537225
0,047528803
-0,41197923
-0,38319373
-0,27276817
0,12483734
0,16833514
0,055725694
0,45025533
0,2021851
0,24429435
-0,088167876
0,07867283
-0,3635722
-0,15003744
0,13555533
-0,29896474
-0,1216065
-0,009156436
-0,08127022
-0,23027036
-0,0594247
0,033419907
0,23942292
0,39559639
-0,040782332
-0,29082426
0,28838998
-0,34490657
-0,16156933
-0,46895036
0,47168314
-0,37409186
-0,11088133
0,23644394
0,029271305
-0,019929916
-0,3534235
-0,31989843
0,41179252
0,44481486
0,138758
0,2895723
-0,28276366
-0,12474385
0,4034226
-0,37892553
-0,29293025
-0,32942694
0,43571758
0,10471743
0,24557304
0,20851439
0,2591403
-0,27949476
-0,34556398
0,08654016
0,07051712
0,32923734
-0,074734926
-0,36115628
-0,44702023
-0,1599254
-0,48734486
0,3291641
-0,034317076
0,3626734
-0,044723153
-0,33351085
0,10875666
-0,069450855
0,2646349
0,13766289
0,45655107
-0,32598776
0,18350309
0,20208973
-0,16142803
-0,14473194
0,23366213
0,24563605
-0,27432665
-0,11937004
0,08903611
0,43095273
0,11782932
-0,03000772
0,36945367
0,47086847
0,031780124
0,18066788
0,083811164
-0,22944006
-0,109538585
-0,03339401
0,3471064
-0,3875358
-0,47876853
0,37433302
0,34152037
0,22523886
0,31575
0,3372963
0,43614566
-0,26796764
0,24091822
0,20931524
-0,26829827
-0,11958352
0,34317768
0,29871964
0,22378904
-0,13096821
0,08519173
-0,009710014
-0,16401672
-0,029704303
-0,2947616
-0,21810147
0,068234265
0,1722278
-0,24262041
-0,24529809
-0,348311
-0,30687523
0,0445354
0,22488183
-0,16050091
0,0019042301
-0,23466724
-0,17762277
-0,05365044
0,40052378
0,4907409
0,350456
0,45753366
-0,21588251
0,11451274
-0,026838005
0,09078264
-0,020168066
-0,38920948
-0,0028005883
-0,29595476
-0,36003003
-0,1125468
0,34117097
0,27251327
-0,3465513
0,18344861
0,17567676
0,20843148
-0,12471482
-0,21212831
0,14070022
0,15578175
0,260319
-0,07631102
-0,44011417
-0,32907647
-0,46399686
-0,11215973
-0,42369545
0,27089512
0,26450926
0,04304862
-0,2930385
-0,14997444
-0,05265987
0,20034903
-0,3389023
-0,02097553
-0,38180304
-0,08968291
-0,3905767
-0,2586856
0,1644088
-0,25405777
0,3857774
0,031659126
0,46213984
-0,21570495
-0,22689247
-0,29303622
0,3739227
-0,4084653
0,39010316
-0,26946136
0,03939742
0,22773707
-0,17228127
0,3693238
-0,15207228
-0,20525026
0,4702453
-0,121634305
0,4381091
-0,32170382
-0,1837436
0,40341264
-0,23913738
0,29361415
0,37607765
-0,3042261
-0,34509194
-0,11405662
0,11766243
0,4601848
0,18955046
0,49841243
-0,36133844
-0,18335032
-0,4180124
-0,34582603
0,09612328
-0,26495397
0,21395361
0,2578308
0,41839695
0,27807438
0,153278
0,33022267
-0,20665255
-0,07071978
0,29640442
0,048945367
-0,0018463217
0,07551205
-0,43460342
-0,40023112
0,33859235
-0,033595264
0,022051096
0,23050392
0,42346025
0,2093941
-0,055813998
0,25376517
0,16879225
-0,36773306
-0,19193679
-0,35773402
-0,07699284
-0,15406823
-0,21528569
-0,16355604
-0,06744233
-0,24724776
0,25286323
-0,13554016
-0,00876534
-0,020438522
-0,17237955
-0,4963924
0,40324056
-0,43357205
-0,42400914
0,0366683
-0,12470928
-0,12548333
-0,131601
-0,4247828
-0,04511234
0,04527241
-0,1341924
0,10682309
-0,06997603
0,44488394
0,26443034
-0,33094567
0,2335974
0,119844675
-0,13521814
-0,46945208
0,057186604
-0,32504392
-0,35742685
-0,49557725
0,24208194
0,27334142
-0,2444404
0,21621478
-0,014763832
-0,18141887
0,49983895
0,22123444
-0,26910704
0,0025711197
-0,11687881
0,1456725
-0,07715601
-0,19683275
0,11571419
-0,4752022
-0,11469838
-0,49607128
0,23999971
0,39993054
-0,48495406
0,24096978
0,17583448
-0,24267253
-0,06098932
-0,36242276
0,104451
-0,44450042
-0,3892301
-0,26455802
-0,08019918
0,400613
0,251298
0,36060476
-0,38916606
0,416883
-0,40923482
-0,22317624
-0,30738822
-0,027410775
0,231044
-0,050717533
-0,4553854
-0,36897022
0,34240955
-0,15772232
-0,23511153
0,17740941
0,34128988
-0,2719938
0,15056866
0,013347685
0,31098986
-0,4692801
-0,050180435
0,32410282
-0,0053805686
-0,08700666
-0,43221864
0,058919847
0,18420625
-0,08756822
0,44949275
-0,22089636
-0,493961
-0,30485117
-0,35526335
0,20320225
-0,4432179
0,38947403
0,19369328
-0,31900007
0,09761238
-0,23096457
-0,48098832
-0,023526758
-0,2625425
0,17747557
-0,34729093
-0,23343259
-0,19263148
0,11241031
-0,29199558
-0,09138703
0,382321
-0,2201725
-0,3338257
-0,19660446
0,14072716
-0,06490016
-0,076505095
0,33365887
-0,24719894
-0,35941032
-0,092838615
0,015948176
0,43722153
-0,2712403
0,21109605
0,10820234
-0,06168905
0,48677933
-0,2520295
0,3490616
-0,30808896
-0,09527743
-0,22575048
-0,49986267
0,15412456
0,4271776
-0,14713815
0,38383162
-0,42539057
0,32889706
-0,2146442
0,25664043
-0,32033306
0,017376006
-0,42411917
0,15549612
-0,29074126
0,024173379
0,3190807
-0,08736384
0,27220625
-0,021782756
-0,02878499
-0,3468939
-0,4597573
0,05688727
0,12621617
0,17469871
0,126751
0,39860535
-0,039142847
0,11138952
-0,40279108
0,25522983
0,15203673
0,3124326
-0,0426825
0,25251913
-0,28444389
-0,15393385
0,16850013
-0,46788526
0,3812943
0,48286742
0,43516356
0,081540525
0,21063429
-0,12162331
-0,3788472
-0,40079445
-0,035085797
0,17760998
0,33568984
-0,4775651
0,36972082
-0,2769265
-0,18998122
-0,49356195
-0,14036879
-0,2396718
-0,1541067
0,02170211
0,022723973
0,22951019
0,39070052
-0,34559882
-0,44905323
0,16233766
0,08797854
-0,32927233
0,23544109
0,38670158
0,08731824
0,33097535
0,43982834
-0,47488847
-0,37644985
0,099537075
-0,4245678
-0,08702052
0,1590476
-0,1374479
-0,39448604
0,118425846
-0,15062517
0,47503793
0,107450664
0,40809703
0,34101206
0,060796022
0,273701
-0,15494636
0,23486894
-0,123447716
0,4642061
0,2848354
0,06879264
-0,12888786
0,14850456
-0,07329425
0,47051424
0,32399744
0,16169977
0,042412758
0,3038959
-0,38814598
-0,4411498
-0,17140397
0,44674385
-0,26730645
0,0026674792
0,32106006
0,45107818
0,27736503
0,074725926
0,45929962
-0,19065565
0,02693826
0,48585838
-0,21823844
-0,236108
-0,28531066
-0,31449443
0,08383882
0,12208831
-0,34659508
0,19496995
0,16528112
-0,38402924
-0,14648369
0,28510112
0,35245603
-0,33351964
-0,47392052
-0,46662363
0,3324563
-0,09394264
0,32130474
0,026878595
0,054038405
0,020822167
0,20799816
-0,40072924
0,32572818
0,042939246
0,47299343
0,12479246
0,31671077
0,35131872
-0,04248947
0,43944162
-0,42218518
-0,07304093
0,16855454
0,37845004
-0,36325908
-0,009514064
0,19348729
0,45962292
0,41916996
0,45877492
0,052743495
-0,038953185
0,0018439293
-0,12566274
-0,054153442
0,050572336
0,4707812
-0,30983174
-0,4339788
-0,04471296
0,14812797
0,001781663
0,32407773
0,060887575
-0,47205245
0,382882
0,34088695
0,11672592
0,12617391
0,38770634
-0,06827667
-0,021101803
-0,2650633
-0,028827667
-0,30371866
0,45397317
0,48285496
-0,32294506
-0,07444948
-0,46848923
0,17480046
-0,16852066
0,084025145
0,1141153
-0,32608855
-0,18208212
-0,37114322
0,14752728
-0,09975472
-0,3783179
-0,180626
-0,17666394
0,312069
-0,2056081
0,30563426
-0,22641107
-0,35677707
-0,40966547
-0,31366256
-0,017408073
-0,36566472
-0,37764078
0,4105199
-0,261477
0,061309576
-0,36825165
0,24369913
-0,062656105
0,08312482
0,078775704
0,3915162
0,17832565
0,42395192
0,27516443
0,42417943
-0,40610808
0,33232832
0,23637342
-0,1715714
-0,35812044
-0,046164185
-0,19447544
-0,10741469
-0,110449076
0,11281681
0,39278054
0,0079933405
0,4575557
-0,027579427
-0,15609905
-0,098364234
-0,028075397
0,053562403
-0,45983127
-0,27825388
-0,29210144
0,33160037
0,22495961
0,39007425
-0,27421492
-0,058096856
-0,47964415
-0,3143562
-0,3712984
0,35227102
0,22562009
0,43550187
0,2659793
0,37539464
-0,27752644
0,06805992
-0,20402393
-0,17526457
0,47340024
-0,4106959
0,29333383
-0,32103366
-0,16034639
-0,051733434
0,42669958
0,49978238
-0,24491256
-0,021746755
-0,3406117
0,25174564
-0,3747344
0,43656212
-0,4810244
0,0330351
0,12750578
0,1078642
-0,43091458
-0,014065921
-0,0013202971
-0,2529865
0,4090892
-0,37578058
0,014638007
-0,20699736
0,15212417
0,22333676
0,41268557
0,23269343
-0,097667605
0,19670123
-0,44412857
-0,41790617
-0,23248789
0,18548161
0,4794904
-0,33086234
0,36457598
-0,29153243
0,29609585
-0,314471
0,35493875
-0,100132585
-0,39568293
-0,30791408
0,05682814
-0,3016983
-0,2767286
0,4292817
0,26812834
0,15777826
-0,23034158
-0,4924399
0,23699552
0,44592845
0,23753673
-0,44108868
-0,3999514
-0,45931748
-0,30395374
-0,18011576
0,44751883
0,35628545
-0,15368092
0,10390538
0,31413
-0,48352593
-0,2248883
-0,39939067
-0,12688074
0,10553557
0,046496928
-0,40215805
0,09656519
-0,24641573
-0,042977035
-0,47024506
-0,4563621
0,3365686
-0,3070783
0,17828679
-0,41628996
-0,23181608
0,33881277
-0,21493116
-0,27788502
-0,38882437
0,4006318
0,39577287
-0,308235
0,43927902
-0,046872288
0,34302527
-0,49640086
-0,2661904
-0,03723538
-0,1156365
-0,17425406
-0,109038174
-0,3617394
-0,017954677
-0,096666425
0,39992404
-0,32824156
-0,3206076
-0,039485037
-0,21749657
0,45365846
0,2379967
-0,044109076
-0,013672918
-0,23068833
-0,21959767
-0,22183034
-0,37518963
0,28456622
-0,003186226
0,07241827
0,30757624
0,14511788
-0,2902518
-0,34610718
-0,13719061
-0,3547988
0,05773288
0,29070568
-0,23616967
0,14945567
0,17336887
-0,2423796
0,4715348
-0,16177678
-0,31581056
0,13745725
0,07919663
-0,3736853
0,3450625
-0,18350318
-0,34662935
0,00031714304
-0,3634903
-0,33850646
-0,12251204
-0,2325159
0,18440098
-0,3121
-0,3603814
0,24975616
-0,03717032
0,16923052
0,09423512
0,11787093
0,29211223
-0,49643123
-0,43771204
0,3408153
-0,26864752
-0,45105958
-0,06772575
-0,4172447
-0,18633834
0,36694777
-0,15623587
0,18786526
-0,44245186
0,17702913
0,49373436
0,1093843
0,4456691
-0,35320696
0,174568
0,044563115
-0,38977
0,12984401
-0,04878673
0,37279487
0,2341969
0,3430643
-0,3667535
-0,086854905
-0,10479802
-0,023522407
-0,037878484
0,4379809
-0,18742698
-0,34872085
0,4908375
-0,03763193
-0,48335987
-0,15683737
0,28270185
0,40405
-0,33335805
0,3479405
0,43053544
0,025189877
0,32762676
0,29272914
0,45090348
-0,28136533
0,20484626
0,033340275
-0,49281427
-0,24941519
0,35811454
0,14377815
0,036774516
-0,0031197774
0,2430566
0,31838477
-0,44370663
0,42787272
-0,18341109
0,40391564
0,45119023
0,23774576
-0,47725827
-0,23447132
0,4893533
0,033771753
0,28141785
0,46243125
-0,07083088
0,44660872
-0,19975373
-0,25315908
-0,06651792
0,48782563
0,37007296
-0,08811262
0,04270488
-0,38940364
0,34400654
0,43740183
-0,32853365
-0,13011041
-0,18612343
0,15604722
0,2910446
-0,049859792
-0,24287936
0,32551855
-0,070188016
-0,20259053
0,16319269
-0,27625328
-0,40013373
-0,04268667
0,3518206
0,27848923
0,14757282
-0,2889312
0,035683572
0,20141518
0,23510033
0,28822994
0,29661983
-0,18335283
-0,1450417
0,36404198
-0,4713603
0,34430087
0,11011857
0,21132666
0,47052515
0,21045405
0,4540391
0,18902409
0,12967813
0,14826721
-0,40144113
-0,13344905
-0,118673116
-0,37662154
-0,122689724
0,02231419
-0,34258485
-0,22733352
-0,08264324
-0,041672707
0,30559766
0,18102711
0,47812325
0,4377705
-0,033869863
-0,053389937
0,4374876
-0,073460996
-0,39232993
-0,32909065
-0,39464962
0,13468868
0,042227447
0,22829813
-0,49363682
0,28055024
0,4290979
-0,28462118
0,3573414
0,33724868
-0,41218325
-0,43364346
0,14338595
0,15744531
-0,113113254
-0,44407922
-0,088519424
-0,2931406
-0,2988425
0,47143805
-0,45911878
0,22046894
-0,17398557
0,38264352
0,047640085
-0,28391522
0,030409932
-0,4031802
-0,36345696
0,43047988
-0,12545457
0,35763657
-0,28584397
0,24041224
-0,22942328
0,24499178
-0,031833887
0,41973037
-0,008832246
0,3285833
0,08869994
-0,16773751
-0,14358729
0,48166043
-0,38750988
-0,28797168
-0,016891778
-0,4774419
-0,48142898
0,4464962
0,39793056
-0,033323944
-0,24133307
-0,4713654
-0,2775218
0,4499948
-0,2938395
0,21652251
-0,4479463
-0,49828953
0,14190114
-0,19651097
0,18652827
-0,42570606
-0,31367174
-0,45108658
-0,49823302
-0,19122514
-0,18045568
-0,2706129
-0,32765117
0,29068315
0,009739161
-0,16025525
-0,3036306
0,46946305
-0,3941735
-0,13942575
0,2439524
-0,24890983
-0,13902998
-0,13618338
0,4619335
0,22453636
-0,086729705
-0,0751172
-0,3402986
-0,017868906
0,48802644
-0,0237419
0,37366444
-0,499623
-0,1365687
-0,30492046
-0,15758207
0,21590662
0,28805876
-0,16273275
-0,36220914
-0,09202886
-0,093408525
0,34122807
0,3412879
0,40904057
0,10885447
-0,18340436
-0,4494825
-0,4664561
-0,11758298
-0,23345298
0,08841616
0,108334005
-0,19347924
-0,43783128
-0,21024245
0,12828898
-0,10593718
-0,29009473
-0,11225277
0,3504774
0,009132743
-0,35043973
0,25198436
0,2818433
0,17977113
0,021459103
-0,15975598
0,0065003186
-0,06387293
0,21692961
0,0076515675
0,018469036
-0,36225525
0,01583451
-0,0030587777
-0,23117572
-0,24184725
-0,34717083
-0,2919029
-0,20656422
-0,18436316
-0,3851427
0,4126907
0,2175743
0,103701174
0,2809137
-0,04224664
-0,40782088
0,11598176
0,41978216
0,21100098
0,24256372
-0,14484394
-0,32399815
0,39757025
0,2981912
0,14565843
0,23832214
0,24559993
0,48358893
-0,016460627
0,4074577
-0,0032758068
0,21360958
-0,3411361
-0,09000701
0,18571115
0,30737346
0,4129821
0,3955438
0,2250793
-0,1353755
-0,13397384
-0,025231391
0,2562787
0,12404442
-0,26127392
-0,23775893
0,49348354
-0,122107774
-0,4734301
-0,09079319
0,3337425
0,13417864
0,34986943
-0,12001884
-0,40627447
-0,28478938
-0,011450082
-0,23645061
-0,12934732
0,29754883
-0,27480435
0,24972397
-0,06511995
-0,31099603
-0,26462823
-0,22110042
0,001209141
-0,18500471
0,2809692
-0,15013382
0,17265743
0,40322632
0,41546267
0,21646798
0,1937328
0,18154854
0,051268578
-0,22401589
0,11894685
0,14211476
0,19244838
-0,33185875
0,27968854
-0,31430393
-0,47751024
0,23643231
0,3634898
0,03366375
0,19792187
0,4470116
0,14520168
0,464257
-0,1827389
0,04282546
0,3111514
0,47596312
0,0042202473
0,4785142
-0,24089536
-0,28550228
0,08287209
-0,02330339
0,13702679
-0,12530893
0,36116987
-0,16670942
0,3616742
-0,25137657
0,38801783
-0,22005609
-0,2901432
0,07970661
0,2808059
0,33810616
-0,27147514
0,306481
0,1891892
-0,33137336
-0,09366113
0,17065996
-0,27734068
-0,30974492
-0,31020296
-0,34191787
-0,19819382
-0,32778963
0,10334897
-0,12771004
-0,3396241
-0,28980985
0,1880517
0,18326145
-0,36659083
0,4132446
0,19776571
0,1072101
-0,00601238
0,23748696
-0,025869846
-0,31069726
-0,41576573
-0,3166221
-0,4916727
-0,22199222
-0,39946976
-0,09686509
-0,4007594
-0,13136443
-0,49923962
0,4081573
-0,24017459
0,20253205
-0,4038505
-0,2573035
-0,4296509
0,3841226
-0,4306463
-0,23281506
0,3032875
0,28620237
0,33284253
0,4943688
0,08077043
-0,23950538
0,15293467
0,13831764
0,016666353
0,31574827
0,22058183
-0,0129080415
-0,20212582
-0,47137183
-0,30030674
0,4902392
-0,10343662
0,120532155
0,39578772
0,036717355
0,47021222
0,25333405
0,22749424
-0,44894168
0,48667926
-0,48328122
-0,25392434
-0,14266172
0,014506221
-0,12481192
0,04475683
-0,38101876
0,46534777
-0,1334081
-0,44186127
-0,13875434
-0,302756
0,3939439
-0,0014506808
0,32665706
0,055337787
-0,011931777
-0,32975537
0,24407518
0,061894715
-0,32033932
-0,35667926
-0,48710868
0,308181
-0,4251919
-0,28263667
0,06676191
0,13821799
0,0010774754
-0,005072713
-0,49520597
0,4664147
0,455733
0,47399384
0,30537444
0,18418491
0,2638253
0,16473925
0,20676523
-0,07455084
-0,21904662
0,44917816
0,34418678
0,27517325
0,3345831
0,14151746
-0,4853472
0,43169045
-0,14634517
-0,45303413
-0,41944796
-0,31108102
0,36385345
-0,32986188
0,1367312
-0,33558935
-0,2165575
-0,08180791
0,16141617
-0,20642817
0,28360492
0,07967472
0,009757102
-0,28085092
0,33465648
-0,42206165
0,1878267
0,4374326
-0,47045338
0,18902898
0,2482441
0,1462835
0,066708684
-0,08531341
-0,05666718
0,0071516735
0,054415405
-0,21854803
0,3280663
-0,1843828
0,0049907244
0,46167475
-0,024569362
-0,10865694
0,19840133
0,4253232
-0,10701454
0,054597735
0,00030170724
0,07872099
-0,07454416
0,0031907684
-0,0292871
0,13964844
-0,17249995
-0,28068098
-0,034970254
0,1855591
0,40255892
0,120018125
-0,41738382
-0,2623202
-0,2666034
0,26955962
-0,15104508
-0,06947413
0,014693081
-0,36922246
0,37811834
0,022243977
0,15948969
-0,35774738
-0,11085752
0,058705688
-0,4618317
-0,2142221
-0,22416624
0,14199638
-0,23947474
-0,47535
0,084306836
0,16790462
-0,16679764
-0,3615662
0,48043877
-0,0921264
-0,026065767
0,4713173
0,3409902
0,43008965
0,45563644
0,41730112
0,17146564
0,23678821
-0,2910257
-0,4794975
0,13965333
0,0148691535
-0,42384
-0,0943214
-0,36095852
0,14117992
-0,33990496
0,34433842
0,17716688
-0,3902472
0,46349382
0,13806844
0,048475623
0,41676503
-0,30695915
0,003479714
-0,4062108
0,052805424
0,27560884
0,12581396
0,0015039459
0,08086252
-0,09820908
0,4415034
0,115614116
-0,11478573
-0,31346443
-0,1548186
-0,2849338
-0,17738226
0,2065475
-0,4889381
-0,3801098
-0,0018588254
-0,378161
0,025178432
-0,0033101598
0,4392448
-0,049677223
-0,25454172
0,44620878
-0,41116083
0,31143963
0,04893917
0,27752125
0,11887467
0,21473849
0,23997617
-0,19496283
0,010131419
0,43141848
-0,4851594
0,00906229
-0,39945188
-0,18834943
0,120605946
0,24207497
-0,18568534
0,07470429
0,36228776
0,3391086
0,38501298
0,11481136
-0,073070645
-0,4081484
0,41480303
-0,19098249
0,23275125
0,37337655
-0,40669793
-0,019073844
-0,46983376
-0,19329563
-0,30708516
-0,09968674
0,23961973
-0,35458666
0,046479523
-0,31112877
0,3917594
0,17123222
0,49134642
0,1366936
0,28580552
0,18399948
-0,0025459314
0,46992248
0,036447704
-0,15880635
0,009390831
-0,029750496
0,28743553
0,30973995
-0,32067785
-0,10354319
0,033072352
0,35829574
-0,07484618
-0,31060752
0,36449856
-0,32540876
0,49957556
-0,3126428
0,32012337
-0,36544302
0,48608983
0,46094632
0,39228612
-0,14283416
-0,26520443
-0,42493573
0,42207485
0,2723955
-0,4303511
0,13320148
-0,08199909
-0,38979015
-0,041696727
-0,1101149
0,015684247
0,4461071
0,4209805
-0,01905474
-0,35492527
0,17249227
0,16533023
0,14328259
0,111281276
-0,323699
0,25096387
0,19484878
-0,2174395
0,18622088
-0,3848905
-0,2182616
-0,089245826
-0,1729981
0,48044205
0,47536707
0,15970522
0,11834717
-0,37239826
0,2450546
0,3983701
-0,33944702
0,16463614
-0,28368428
-0,1114808
-0,1382342
-0,017740965
-0,47653034
-0,015867412
0,044545174
0,2980848
-0,1185413
-0,088154316
0,24475074
0,48700792
0,4797408
-0,052360684
0,13967276
0,4368863
0,18147254
-0,47626582
-0,12100738
-0,39073056
-0,19179448
0,49257618
-0,28786764
0,39227927
0,22395027
0,018819094
0,24913651
0,20486045
0,011638105
-0,1853036
-0,23564896
0,47217542
0,20748842
-0,4736084
-0,2475169
0,20519477
0,17852223
0,19547409
0,107319355
0,48564
-0,4039822
0,24926567
-0,020689726
0,40965194
0,105957925
0,030588329
-0,3777227
0,22362953
0,47622466
-0,35750893
0,26863605
-0,3690284
0,26847947
-0,259095
-0,18492189
0,49161988
0,4152466
0,43900412
-0,2896498
0,49385184
0,04121989
-0,12751812
-0,03459108
0,17267674
-0,46384653
0,21983868
-0,18919227
0,15006185
-0,4486233
-0,21763924
0,06779349
-0,24042508
0,30214924
0,22190982
0,3765955
-0,14135689
-0,2657807
-0,18996426
-0,09829745
-0,25373206
0,0731926
0,18887007
-0,041149616
-0,28409737
-0,45503205
-0,41107926
-0,35462707
-0,2439785
-0,24843928
0,43687814
0,42119408
0,38264346
-0,37329006
0,35904706
0,29429853
-0,345004
0,27916056
0,48525822
0,014627695
-0,44659767
-0,09302172
-0,09045854
0,27764928
-0,4871447
-0,2916983
0,019986153
-0,36483973
-0,27568015
0,45903492
0,11985642
0,2951088
-0,24580443
-0,051151246
0,41344368
0,09865904
0,21656853
-0,4948853
-0,06522325
0,3042636
0,13747585
-0,09939009
0,20168835
0,27192783
-0,16848153
-0,33745396
-0,45326048
0,21982265
-0,009087771
0,31274152
0,10510594
-0,25554588
-0,29504445
-0,15275276
0,28032047
-0,3024497
-0,25058198
-0,3610925
0,06060207
0,14271265
0,40588576
0,31234926
0,4088844
0,09857458
0,13243765
-0,26541835
-0,23854643
-0,19215915
-0,205791
-0,07992822
0,49071825
-0,39227363
0,3738917
-0,085101455
-0,33479074
-0,17937854
-0,10701436
0,4076448
-0,21301842
0,044266522
-0,08002427
-0,17432037
-0,43535239
-0,3110084
0,12563348
-0,36874735
-0,38136256
-0,47449258
0,2852773
-0,14937642
0,44652396
0,12882298
-0,30867076
-0,49434108
0,17657423
0,12534755
-0,24329767
0,45893073
-0,21179932
0,30434674
-0,16320792
-0,15610453
0,11059791
-0,030058175
-0,32699
-0,06638545
0,22581834
-0,35932666
-0,2784726
-0,07879305
0,17174208
0,04146868
0,24541533
0,35658437
-0,0062603652
-0,15710816
0,37618035
-0,01253441
-0,3680943
-0,20097667
-0,3590753
-0,09833196
-0,4000198
-0,2914223
0,14692944
-0,008642018
0,373778
0,17233431
0,2841342
-0,47502863
0,26027304
-0,049356937
-0,113363415
0,19311905
-0,45280936
0,35724664
-0,36076957
0,14025062
-0,34424478
-0,061070174
0,34831744
0,078425825
-0,22308254
0,1487655
-0,4205077
0,25471854
-0,4259486
0,35484385
0,02505356
-0,17983797
0,20412558
-0,2336134
0,48732048
0,3036229
0,1647163
0,4934172
0,18646157
0,29126906
0,02498895
-0,10691661
0,36753583
-0,4386779
0,08490157
-0,4516945
-0,3882164
-0,12511697
0,3960312
0,42122132
0,41804302
-0,18045723
0,28581762
-0,14649263
-0,33228076
-0,084187835
0,42381006
0,28055543
0,07253075
0,26998162
0,09885198
-0,45494297
-0,36809665
0,26778287
0,077123225
0,48307437
0,45310378
0,40330464
-0,28629136
-0,42910254
-0,15460941
0,49674147
-0,13932422
0,20405936
0,49739403
-0,23303843
-0,27060178
0,48837274
0,02068001
0,47837353
0,39805877
-0,31087914
-0,20748597
-0,3156883
0,25702316
-0,3782786
0,21389073
0,10684323
0,45103788
-7,047828E-05
0,46498954
-0,42083317
0,24891001
-0,08466929
-0,18994656
0,065197766
0,009239206
0,4887678
-0,09315887
0,46049333
-0,49407163
-0,12586376
-0,054584652
-0,44088188
0,36007226
-0,29922822
0,21062046
-0,4156905
0,20441186
0,11807352
-0,02618888
-0,2513588
0,23221958
0,05136335
-0,4065147
0,3948636
0,3596065
-0,104375124
0,23127693
-0,20609954
0,01987362
0,33681518
0,39945418
0,07663965
0,40613014
-0,44001952
-0,07603434
0,2100811
0,00568101
0,059242845
-0,2020905
0,44590342
-0,3108322
0,25464803
-0,34180173
-0,028012395
0,14241034
-0,2288894
-0,39892006
-0,22899717
0,23240978
0,24446827
0,45904863
-0,47330666
-0,42036784
0,4200142
-0,360357
-0,32886213
0,32737005
0,29541534
0,026023567
0,45637494
0,4979198
-0,122869134
0,43881547
0,11304939
0,1272152
-0,30533737
0,105558336
-0,16452304
0,3177362
0,22087115
0,06767678
0,3288026
0,05761236
-0,48395067
-0,21702838
-0,41647145
0,4377826
-0,008504212
-0,29291803
-0,13055879
-0,03401959
-0,3001156
-0,33181036
0,13015848
0,0048932927
0,44981855
-0,2979254
-0,0009542868
-0,45379192
0,016519785
-0,10146332
-0,4540187
-0,05606395
0,45302385
0,24497586
0,09595817
-0,49168783
-0,417529
0,3437636
-0,060034335
-0,05648622
-0,30166948
-0,49907306
-0,16067764
0,36251533
0,4179712
0,120987535
-0,38955408
-0,47992244
0,31319892
-0,23808765
0,3440671
-0,11358994
0,093223155
-0,2307809
0,2647493
-0,034389198
-0,16343966
-0,3480062
-0,2887892
0,18512636
-0,09786716
-0,12614813
-0,20179138
0,2679841
-0,07193455
0,2419768
-0,03259307
-0,34614724
-0,38400087
0,2469514
-0,3225069
-0,4814087
-0,10257715
-0,26789597
-0,030607015
-0,2672291
0,3875941
0,14929259
-0,40324995
0,30435026
0,0791167
0,16761571
-0,47114652
-0,29170415
0,065234125
0,37425536
0,32906955
-0,20205408
0,10079944
0,06647611
-0,4262488
0,18930668
0,014827907
-0,0702399
0,39871776
0,2737941
-0,19347104
0,46159035
0,073768556
0,20784843
-0,4988263
-0,48480135
0,3806525
0,099647224
-0,14901158
0,1702801
-0,39723447
-0,2650116
0,37552088
-0,22526082
-0,4784959
-0,12946701
-0,24864957
0,17563945
-0,48541853
-0,25748473
0,28296006
-0,2607457
-0,14979926
-0,2188127
0,36008382
0,2832541
-0,37430894
-0,25292748
-0,4478456
0,114400506
0,24124461
0,40680116
-0,30802733
0,11573106
-0,01660049
-0,45191702
0,19873726
0,4457984
-0,023795485
0,09349501
0,4428473
-0,42451155
0,2030775
0,25218445
-0,19223824
0,323861
0,013122201
-0,4401186
0,08286154
0,27520496
0,36011666
-0,47409433
-0,15404019
-0,1289193
0,36223024
-0,21259657
0,4631557
-0,0865303
-0,35690635
-0,24679983
-0,26765558
-0,18569079
-0,22479346
0,43664014
0,28767538
-0,24410814
-0,029344946
0,016490519
0,30904257
0,39905244
0,24025202
0,38968295
0,3644325
-0,41504964
0,3042072
-0,09691703
-0,37271684
-0,073812366
0,18036288
0,22948784
0,004881364
-0,41609228
0,14834547
0,44174832
0,2300002
-0,23763573
-0,19210464
0,37855136
0,44752282
0,12702686
0,35580862
-0,42346326
0,26768202
-0,13542697
-0,49777108
0,24780053
0,09556377
0,11391026
0,2268216
0,0031375259
-0,15185031
0,0026078902
0,4804827
-0,31669733
0,41408062
0,40913546
0,26693964
-0,03731501
0,18759137
-0,25060883
-0,05095175
0,2356298
0,059458017
0,38488793
0,46702927
-0,23937842
-0,16473877
0,30178773
-0,42453405
-0,40767747
-0,2939312
-0,33313406
0,19596851
0,23087645
0,41445744
-0,15542507
0,01406467
-0,27347612
-0,32891387
-0,30736914
-0,34520286
-0,25272918
0,45889342
-0,31230336
0,37235707
0,13168609
-0,43654555
-0,012344122
-0,4238978
0,39899933
0,46590436
0,1654129
0,08436692
-0,10005936
0,100605726
0,48837715
-0,29263562
-0,39642626
-0,30331546
0,4822293
-0,3407101
0,029536366
0,25191355
-0,4282419
0,31889933
0,4323002
0,34670377
-0,06669092
0,48382324
0,2959302
-0,17184022
-0,22423154
-0,34341216
-0,38753945
0,24611753
0,090596616
-0,020925075
0,2841286
0,290456
-0,3881958
-0,124994785
-0,13818485
-0,44674724
0,39865136
-0,11712414
-0,05332738
0,48309803
0,24428701
-0,1934531
0,07456231
0,126526
-0,4049068
0,32616925
0,32312447
0,49869734
0,48377794
-0,21896335
-0,1022701
0,042746782
-0,005928725
0,1592297
-0,110824525
0,478844
-0,13794899
-0,22710034
0,19673216
0,15092134
0,07465029
0,25488603
0,09363842
-0,2791165
0,29212314
0,085675895
-0,26407507
-0,026004523
0,4926718
-0,4459841
0,109309375
-0,42530137
-0,047653884
-0,0155738
-0,02765438
-0,08741999
0,40925223
-0,011379749
0,037382603
0,39611232
-0,306118
0,3696978
0,3683535
-0,11199242
0,4203506
0,27437943
0,16373253
-0,30550677
0,06557506
0,020920396
0,3842337
-0,12881348
0,06637299
0,021359444
-0,38502192
-0,19722655
0,0067410367
0,33795786
-0,27630037
-0,18982837
-0,2560634
-0,29668912
-0,052165836
-0,21193519
0,221959
-0,060626805
-0,34546334
0,37345833
0,0059001446
-0,31428385
-0,37281436
-0,07537979
-0,16730115
-0,26010185
-0,38492504
-0,055480212
0,3527081
-0,15537736
0,27834308
-0,038890988
0,10234904
0,2689063
0,43533814
0,4121679
0,24564254
0,23004228
-0,38505077
0,31068408
0,26836526
0,42814755
0,37197703
-0,45823812
-0,17783642
0,276304
0,23194069
0,26133662
0,22678268
-0,050648928
-0,1176056
-0,44290745
-0,1358861
-0,114821166
-0,440397
-0,1295355
-0,3993501
0,07175279
0,40920275
0,083776176
-0,46875638
0,2083751
0,17164737
0,36929017
-0,31050587
0,38821197
0,012590647
-0,1760248
0,21938932
-0,2143741
-0,14453375
-0,16358301
-0,37019962
-0,31771415
-0,25893015
0,14599836
-0,09685531
-0,050062507
-0,43351796
-0,40779343
-0,31217974
0,3665409
-0,3793252
-0,4974411
0,10102934
-0,063195825
0,47514266
-0,21781993
-0,3523219
-0,29208964
-0,023078024
0,08651632
-0,21201864
0,3297994
-0,28109276
0,07677245
0,021688282
0,29637766
-0,24966455
0,023682594
0,103746
0,26286435
-0,40185985
0,109885156
0,22888595
-0,23084837
-0,10921025
-0,313568
0,059809566
0,2809565
-0,2661575
0,43539876
-0,4364899
0,34113985
0,10372472
0,35022008
-0,45177254
-0,30544454
-0,49382654
0,22350252
-0,06400588
0,15092331
0,012935042
-0,46861959
-0,27262765
0,060753882
-0,27963352
0,44376016
0,4310367
-0,1714052
0,13139838
-0,3828181
-0,45802504
0,019438863
0,41465247
0,20786256
-0,21782163
-0,38755512
0,071243405
0,22619134
-0,43002144
-0,38537705
0,32387203
-0,3343617
0,08051628
0,42058814
0,124556184
0,42584598
0,41017425
-0,40542448
-0,063153595
0,0117737055
-0,41419286
-0,038356215
-0,32067057
-0,01642108
0,086284816
0,39443815
0,04266411
0,4220543
-0,20122093
-0,092320174
-0,1339136
0,10345864
-0,4486918
-0,00661242
0,06331396
-0,41045886
-0,32721162
-0,28584635
-0,48194343
-0,012199402
-0,16490683
0,0101518035
0,022547007
-0,12823543
-0,40244836
-0,10834569
0,4478929
-0,08582041
-0,4351447
0,33853263
-0,4939596
0,33988994
0,43959308
0,39196944
-0,13066936
0,17590642
0,08561593
0,48061097
0,018045366
-0,043844372
0,124543965
-0,1613324
-0,13181692
-0,41146404
-0,47768435
0,14457375
-0,11029175
0,4993918
0,23116678
0,44860637
0,39299494
0,41430235
-0,15492347
0,28824073
-0,09725681
0,31211722
0,06386864
0,32372493
0,4010082
-0,16837293
0,25713187
0,10269749
0,41268015
0,46087885
0,012362957
0,43656617
0,11717659
-0,04820475
0,15382725
-0,27024454
-0,4540824
-0,23132771
-0,4159078
-0,319969
0,32670617
-0,35627073
-0,35189146
-0,46372655
0,2851076
-0,30769295
-0,16118598
0,44751322
0,3602782
-0,2229062
0,4107172
-0,002255866
0,031145751
0,4450488
0,101549804
-0,44907102
-0,337947
0,28663123
-0,23677102
-0,12327671
0,023235202
0,19876695
0,4444812
-0,4584277
-0,108246565
-0,49697363
0,395988
0,4188624
-0,4122148
0,09842205
-0,44749045
0,09416342
-0,3771239
0,37143433
0,19153965
-0,29618812
-0,39429417
0,028091788
0,3374371
0,25001168
0,0628382
-0,08979389
0,16482586
-0,46819156
-0,19917762
-0,27568716
0,2636878
0,18500686
0,037555575
-0,17299864
-0,13233522
0,39225787
-0,2989446
-0,17617378
-0,419957
0,1125316
-0,13339463
-0,31128687
-0,28981566
-0,37884897
0,15255862
-0,48926255
0,4936887
-0,05951628
-0,17617777
0,22652864
0,21737003
0,011730969
0,17490625
0,102194846
-0,10150552
0,3032378
0,21716452
0,26832962
0,09468812
0,118014574
-0,24813935
-0,11809513
0,31552386
0,13515621
-0,4208939
-0,21731678
0,3429374
0,027261257
0,08455771
-0,46208364
-0,22725525
-0,30631858
0,47557575
0,47537863
0,27369308
-0,25455385
-0,46519667
-0,4530619
0,4225415
0,25555867
-0,25186878
-0,2971303
-0,18050164
-0,2907374
0,06395465
0,15459561
-0,30100113
-0,112344116
-0,17141902
-0,37623513
-0,14766073
-0,4248429
-0,06853253
0,17628384
-0,21945354
0,025071084
-0,20666799
-0,1587539
0,17556089
0,2477274
0,22660536
0,421512
-0,06402421
-0,35603964
-0,295618
-0,2611732
0,20461452
0,24471217
-0,3584394
-0,146016
-0,06550127
0,17133659
-0,17538175
-0,19425026
-0,45624903
0,33532667
-0,23824888
-0,145388
-0,48008126
0,15086174
0,2263959
-0,27095157
-0,42618573
0,47188276
0,10494548
0,40981847
-0,05705571
0,4780565
-0,086759
-0,3710972
0,3475678
-0,32336164
-0,47028372
0,21749175
-0,068612576
-0,38390476
0,28337723
0,39736116
0,48254788
-0,44783688
0,23753959
-0,27622035
-0,040742278
0,10108715
-0,19651869
0,22097164
0,46195245
0,45290083
0,387999
-0,090019315
0,36714
0,32578194
-0,40496385
-0,13291097
0,3271085
-0,33143607
0,27807546
0,36834067
0,34457183
0,071763515
0,23715234
0,25335652
0,16939294
0,43203145
-0,31091988
0,10004091
0,031599104
-0,4708621
0,42013812
-0,29023027
0,23558676
0,07062417
0,40421128
-0,49638653
0,49783117
0,40790802
-0,21057272
0,012182891
-0,47624326
0,15620339
0,1654017
-0,42668548
0,025895536
0,2977317
-0,018129945
-0,30022836
-0,34801215
-0,12394774
0,015485704
0,17311698
-0,42481363
-0,36639675
0,08706349
0,033818662
-0,06815755
0,47924477
0,38669676
0,33932197
0,03696984
0,071869195
-0,499151
-0,39111108
0,066851616
-0,22301713
-0,38547188
0,39896673
0,43909454
0,48791313
-0,4273297
0,46323854
-0,24672997
-0,3703082
0,12314695
-0,4238892
0,21839565
0,4963835
0,41711253
0,14191872
-0,21418369
-0,49933803
0,04971403
-0,19102713
-0,4691882
-0,10500896
0,06081617
0,06993121
-0,45023623
0,060774267
0,02365303
0,124082446
-0,42246187
0,16142231
0,21679103
0,4781018
-0,36361596
-0,18485919
-0,15407148
-0,47716442
0,37444746
0,35815126
0,47980917
-0,21417421
0,3218271
-0,3852182
0,31546485
0,23865181
-0,4114536
0,016336977
0,023953974
-0,033972025
-0,495522
0,21984434
0,08789897
0,26479977
-0,22815144
0,2139895
0,24153847
-0,23428807
-0,17124176
-0,42589802
0,043533266
0,34929335
0,4418705
-0,40988696
0,2429924
-0,014136225
0,39234012
0,38139558
0,14959913
0,18987238
-0,2554506
0,10310024
-0,14599267
0,35855508
0,49500692
0,46604186
0,46845716
-0,015961528
0,28781533
0,35382473
0,32183814
-0,27234775
-0,4543097
-0,007502462
0,13270772
-0,18596438
-0,043208033
0,15773171
-0,34791464
-0,112855315
0,43930286
-0,1884912
-0,09907627
-0,3794114
0,05073464
0,015552819
0,08630115
-0,008771241
0,31605178
0,40568155
0,08281398
0,37639856
-0,24974349
0,10644758
-0,10958567
0,39761215
-0,06791389
0,4412297
0,0671258
0,08710319
0,37852585
-0,39895087
0,024748802
-0,4404176
0,3859046
-0,34503633
0,30927223
-0,16468075
-0,10180485
-0,098786086
0,48009765
-0,060306847
-0,2182309
-0,24287474
0,4219119
-0,092288196
-0,20874733
0,1289621
0,294935
0,4222262
-0,206022
-0,030753314
0,076946795
0,48900026
0,055237174
-0,069173634
-0,082230836
0,20930886
0,45197642
0,1096825
0,117949665
-0,19568184
-0,16478881
-0,46596417
0,33378565
-0,13329151
-0,32426745
-0,43423688
0,17535233
-0,110488415
0,13758647
-0,16278994
-0,20063514
-0,31907684
-0,08961213
-0,46776524
-0,1337896
-0,44385228
0,3911625
-0,21126005
-0,2390258
0,24769062
0,098769546
0,30919033
-0,41234404
0,25786328
-0,105433315
-0,110173315
-0,23906934
-0,4023191
0,13219291
-0,48917577
0,21030039
0,40525627
0,01768744
0,2217927
-0,19346672
-0,20955878
-0,41627395
0,34054524
-0,35368705
-0,24401507
-0,03552419
-0,47474456
0,09124142
-0,34655437
-0,28311157
-0,057466418
0,41198218
-0,41995302
0,26124525
0,07327777
0,30242628
-0,05116269
-0,14786974
0,13314658
0,09340191
-0,2005767
0,41753918
0,18043596
-0,057922393
0,23515159
-0,3189827
0,11372477
0,21849275
-0,08533952
-0,46284235
0,191818
0,005139134
0,22603273
0,45698482
-0,19947419
-0,04032579
-0,3997202
-0,365211
0,37066066
-0,100768
0,4676916
-0,171101
0,4369613
0,47540152
-0,3045392
0,29963428
-0,113756865
-0,23069853
-0,18989354
-0,2718618
-0,25894165
-0,07858741
-0,43574864
-0,019094527
-0,4339577
-0,0835478
-0,06650409
0,09118396
0,016111016
0,22846329
-0,17072684
-0,39265853
-0,27917975
0,17431349
0,119368315
0,32175547
0,21229827
0,4995463
0,19014257
-0,08794549
0,05833721
-0,2696141
0,07526028
0,23808539
0,47136533
-0,37166786
0,12323755
0,2316786
-0,22181189
-0,18657783
-0,30358168
-0,10999933
-0,06641024
-0,22858438
-0,13360831
0,30598438
-0,34918833
0,26597363
-0,43460807
-0,10158339
-0,38151512
0,2627104
0,36537093
0,39184576
-0,15128177
-0,16032332
-0,23473743
0,22619241
0,21995038
0,26669514
0,42866504
-0,06467709
-0,043983668
-0,46405277
-0,40803266
0,11433858
0,039918482
0,26197827
-0,2294451
-0,2004408
-0,00401935
-0,45820463
-0,3871596
-0,23659983
-0,45056695
0,1416099
0,20455694
0,2741812
-0,3424062
-0,023792386
-0,15581134
-0,12015858
0,14272928
0,14222747
0,019297957
-0,02867794
0,40814036
-0,13096651
-0,3192824
-0,33156276
-0,20033282
0,24207616
-0,30532175
-0,32252944
-0,11784762
0,44641387
-0,06590995
-0,48680833
-0,12104443
0,05137545
0,29130685
