60
125
0,012002474
-0,01593599
0,010339225
-0,007871523
0,008051734
-0,002985183
0,011573021
0,016139435
0,051620837
-0,008085405
0,025329433
0,29944333
-0,0057835076
0,008127262
-0,015110935
-0,0030503026
-0,048958085
0,0049384646
-0,008296686
-0,012782572
0,04039778
-0,010874431
-0,289331
0,0018580483
-0,07955876
-0,031167353
0,014203794
-0,01405668
0,0018009468
0,013409179
4,4400458E-05
0,0025700694
0,010730657
0,009612589
0,022616759
-0,010449388
-0,0004725233
0,020557111
0,010246296
0,050371133
0,011685125
0,0323761
-0,011673328
-0,14418595
-0,4195327
0,005767586
0,0056074886
-0,00977063
0,024183577
0,04642361
-0,019714132
-0,41016176
0,0077289315
-0,0028620374
-0,034015957
-0,006538479
0,0095048
-0,013456832
-0,014785516
0,034795105
0,0077950233
0,31044012
0,017245
0,33033922
-0,011977157
0,0020644853
0,009711592
-0,017714174
-0,018308127
-0,01800359
-0,031424657
-0,017760403
0,021405268
0,0060651926
0,38270873
-0,036607195
-0,44448125
0,0051895687
0,004091998
0,0844732
0,016186096
-0,016366735
-0,016644783
-0,00975389
0,018800925
-0,016529875
-0,1929778
-0,005533205
-0,0031255947
0,21461701
-0,017088136
-0,009436742
0,029889831
-0,017385468
-0,011625652
-0,0028901363
-0,20247036
-0,0042769494
-0,008763313
0,00557744
-0,014580459
0,02195403
-0,3795142
0,0066013145
0,024244912
0,16762814
0,006167192
-0,021978747
0,2522111
-0,007409894
-0,008671556
-0,024357643
0,016364519
0,03457952
-0,01697134
0,002941505
-0,07681872
0,062279187
0,008321616
-0,015129616
-0,022319676
-0,011229813
0,029971542
-0,023852441
-0,033985052
-0,0135051645
0,0045867255
0,00075092586
0,05098453
0,008589741
-0,0044064275
0,001102683
0,024143396
0,022496348
0,0032596919
-0,3834661
-0,009493196
0,024831135
0,0382706
-0,20746821
-0,03936834
0,040218193
0,010046452
-0,006053275
0,002997844
-0,029026695
0,3812068
0,04712313
0,012316201
0,40339026
0,0018601199
-0,019674536
0,002750364
0,039989717
0,03824445
-0,013103584
0,008772887
-0,035655063
-0,0007001504
-0,014692136
0,026524395
0,021156162
0,0018804997
-0,025148418
0,00022990987
-0,0012684197
0,0040614014
-0,12313137
-0,0468873
-0,0056923125
-0,0051322808
0,04742043
0,0028698212
-0,025397245
-0,004689616
0,038044702
-0,2778093
-0,00269906
-0,0038913565
-0,27528575
-0,003457456
0,006905889
0,110946536
0,43734977
-0,016310403
-0,00089550565
0,0035693052
-0,01065853
0,25912532
-0,0029939772
-0,026008788
-0,4052636
-0,41847265
0,011479116
0,3634169
-0,010885059
0,017457448
0,0123099275
0,28021547
0,006990966
-0,048209306
0,002176832
-0,48487762
-0,016051441
0,0052661146
0,03325693
-0,004813651
-0,40589565
-0,029685695
0,00013700683
0,2768025
0,42007563
-0,011967275
-0,007537443
0,00795761
-0,010806309
-0,017291559
0,022512762
0,046968926
0,30146235
-0,4875478
0,021733731
-0,3019033
-0,0031608872
-0,33306754
0,025205918
-0,013155403
0,005507855
-0,008207004
-0,0012415098
-0,284148
-0,022694906
-0,025695281
0,035427794
-0,3314557
0,1555184
0,14066495
-0,018127924
0,028353173
-0,023764549
-0,024313793
-0,0061804475
0,29375717
0,032794155
0,08020641
0,037369154
-0,035344474
0,029948996
-0,024961406
-0,04124681
0,01231165
0,0027197374
-0,022188576
-0,015041574
0,16528898
-0,005244626
0,10968423
-0,009504289
-0,0043167016
-0,013144632
0,028932808
-0,0031456905
0,030970126
-0,04703501
-0,01748504
-0,36382112
0,012369391
0,31190166
-0,0034330974
0,04990566
-0,032245982
0,16361304
0,4700697
-0,035735145
-0,022827547
-0,024169132
-0,013106434
0,0615259
0,47934526
0,02375558
0,021131657
0,029488472
-0,00019616952
0,008603548
-0,01258967
-0,032532495
0,002187442
-0,010445356
-0,27169687
-0,015464441
-0,37049904
-0,25071955
0,30043817
-0,4443232
0,018032443
-0,015389084
-0,43051988
0,014948061
0,023620857
-0,017070845
-0,12860902
0,008344639
0,029850751
-0,18837547
0,005251334
-0,02100581
0,0077582793
-0,013618059
0,00012753824
0,0404996
0,028273493
0,010340245
0,04097806
-0,012005826
0,05273598
0,010679944
0,29061306
0,007895356
0,022077782
0,011912419
0,007998233
0,008078183
-0,024964135
-0,4494586
-0,026547475
-0,32793352
-0,11243725
-0,33066502
-0,10762618
0,008614559
0,0005565937
0,013324566
0,027186036
-0,020165805
-0,0043501034
-0,015997367
0,032895535
0,027845928
0,06647488
0,04483806
-0,021422923
0,00784084
0,009692048
0,025248853
0,040720005
0,03396344
-0,006372856
0,022656683
0,02896538
0,0013719375
-0,41377258
-0,038433064
-0,0035544063
0,02757728
0,022832474
0,014050232
-0,017457992
0,028695159
0,0116304485
0,018133966
0,0047286563
-0,020548929
-0,0032924525
-0,026745612
-0,00087645336
0,017096167
0,017089726
0,011024654
0,016969638
-0,028936751
0,35811934
-0,00018235459
-0,03332708
0,020109016
-0,1160679
0,00236498
0,0006567192
0,022279074
-0,0046107294
-0,038484298
-0,034876086
0,22747146
-0,078941025
-0,0059970794
-0,02235231
0,0016505378
-0,013748909
0,025100343
-0,027263807
0,0024504114
-0,29848012
0,0044345455
-0,04348466
-0,08111088
0,030101668
-0,0063826963
-0,042490967
-0,3764766
-0,0006966479
-0,028552799
0,00041661644
0,0044715987
-0,010019156
-0,021446474
-0,013512287
-0,005567606
0,37052113
0,016014492
-0,0018428521
0,013371176
0,011565227
0,018095456
0,0077858362
0,084064715
-0,3162496
0,0019787252
-0,019758966
-0,34877598
0,01410643
-0,01226921
0,024748072
-0,0011940738
0,023818433
-0,008023031
0,009819452
-0,03578725
-0,0008289033
0,03022812
-0,019613864
0,35163867
0,024531553
-0,019353261
0,0017077235
0,003887745
0,012146676
-0,011465872
0,34672958
-0,43365633
-0,028809141
-0,011727279
-0,03732452
-0,0019013127
-0,02003802
0,032321613
-0,001552274
-0,0020576054
-0,03548359
0,017427875
-0,2251078
-0,021083426
0,0048788977
-0,016100338
-0,033528563
0,100777015
-0,024019059
0,035455927
-0,15032007
-0,028770132
0,038887467
-0,027314426
0,0026443026
-0,00091667037
-0,46527085
-0,05279229
0,018680336
0,0013316636
-0,036776595
-0,35019642
-0,020803357
-0,0068940124
-0,007557143
0,036140528
0,44661617
0,026765991
-0,02844948
-0,05714794
0,011596505
-0,021222282
0,019588973
-0,0011741685
0,057065006
0,015771048
-0,00311649
-0,0060543804
0,02031043
-0,04556033
-0,013815249
0,358108
-0,006147791
0,0023577139
-0,021323707
-0,18667157
0,016450815
-0,33869693
0,00517348
-0,030705716
-0,054919787
-0,033305984
-0,0103528835
-0,040956967
-0,009408034
0,007316544
-0,031075392
-0,0018965763
0,006384859
-0,27601266
-0,027577944
-0,014927273
-0,008852505
-0,04147574
-0,012612156
-0,03992067
0,42181596
-0,0047398577
-0,0068376902
0,48123235
0,24687316
-0,006851717
0,009764374
-0,021540266
-0,027804367
-0,3269681
0,032299794
-0,15640697
-0,0062680054
0,0054164575
-0,009035646
0,4295383
-0,4915884
-0,010291817
-0,029735018
0,2567125
0,03447181
0,01783982
-0,15406318
0,012296388
-0,17644538
0,056137934
-0,027694844
-0,006400444
-0,049267925
-0,03476595
-0,030971782
0,03513655
0,012364669
0,030558886
-0,041447915
0,03688758
-0,010217573
0,02795167
0,019588506
0,006025027
-0,025331939
0,006575075
0,015117274
0,20292842
0,011762269
0,003964214
0,0039559826
-0,17348611
0,059548263
-0,027156414
-0,00026185147
0,05970467
-0,22519629
-0,034207612
-0,010278767
-0,006241332
0,04346413
-0,034574073
0,432822
0,0131407725
-0,0051981565
0,055479225
-0,032011174
-0,0002709713
0,09001311
0,005839133
-0,028724335
-0,089374095
0,021319099
-0,022548791
-0,3110578
-0,01618501
-0,012741677
-0,053381044
0,0008060043
0,030498017
-0,4743208
0,016400082
0,021596976
0,015438732
0,027400875
-0,0022133135
0,013468885
-0,39870343
0,05705119
0,0064832517
-0,05191074
0,02086903
0,43954024
0,00923222
-0,19991542
-0,0252524
0,00690297
0,015641436
-0,1086598
0,0052441955
0,021246592
-0,0023946844
-0,094219714
0,018116606
0,0017527606
-0,0064444398
-0,014148685
0,030518318
-0,00526928
0,003788918
0,008102646
0,35958993
-0,029596303
0,38603985
0,016206624
0,007675675
0,0011623559
0,037660327
-0,0067778337
-0,014513528
-0,05103817
-0,00360898
-0,014128223
0,0072214277
-0,36633608
0,01701268
-0,026152028
-0,017438035
0,007890238
0,015388565
0,025043031
0,005544882
-0,0040767496
0,0013354736
-0,005911791
0,017899154
0,0018243252
-0,011833718
-0,018154243
0,061600875
0,02876446
-0,018091112
0,0026013441
-0,018123815
0,008259219
-0,0071987687
0,025780618
-0,022062918
0,011828191
0,019360773
-0,018397335
0,013351955
0,0025829335
0,021936001
0,004295369
0,025900332
-0,28781378
0,0017116268
-0,0047397306
0,025958149
-9,979354E-05
-0,0119252065
0,024185102
0,008664552
0,009167721
-0,019346766
0,006792925
-0,014324072
-0,027344132
-0,038620226
-0,34106722
0,00010672529
0,025264952
-0,006487071
0,030108713
-0,006741703
-0,0044685095
0,45693532
0,0020560543
-0,0022836674
0,04078153
0,04900656
0,045814406
0,00681592
0,033419844
-0,038554367
-0,03898185
0,06491405
0,033729233
-0,023773436
-0,069153525
0,020625008
-0,04001321
-0,025447696
0,23130281
0,02109416
0,010680848
-0,0010201536
0,4917911
-0,010319264
0,007368996
-0,011497781
-0,0018791226
0,32330734
0,027363174
-0,081053555
0,006563814
-0,0075421664
0,032957945
-0,33760637
0,023941843
0,0006692485
0,027202869
0,0063232477
0,026754797
-0,02454169
-0,029658755
-0,030274073
0,001372914
0,016803885
-0,0018863516
-0,010038057
0,037256557
-0,044267174
0,008949618
-0,024297858
-0,14535628
-0,005284219
0,023440378
0,007173535
-0,012012762
0,0062200874
-0,035534617
0,012951861
0,028594999
0,00315323
-0,0035245551
0,018646043
-0,0089313425
0,0035584972
0,04709932
0,0081484085
-0,0026821962
-0,010438325
-0,018923694
-0,045251276
-0,014787083
-0,0018910166
-0,018565783
-0,025173116
0,0027170097
0,48183107
0,00898992
0,012599107
0,043424703
-0,046068743
-0,45462066
0,0054207495
-0,013377561
-0,0073820204
-0,019842885
0,054461908
0,0029206385
0,011892691
-0,006962035
0,013960073
-0,0041588764
-0,00504841
0,14758725
-0,0032772026
0,031466976
-0,036598586
-0,065936856
-0,017284099
0,010140278
-0,015630491
-0,0063373167
-0,014013508
-0,24176332
0,009226089
-0,020688845
0,030407948
-0,027901629
-0,020481525
0,04532889
-0,013496987
-0,28368253
0,003635995
0,01586783
-0,02761012
-0,101666875
-0,00061185186
-0,038141865
0,4730377
-0,0024546336
-0,027137285
-0,03046333
0,036713086
-0,024151653
-0,18525137
0,04645347
0,0031366276
-0,012928854
0,004321255
-0,0011078423
0,06554584
0,0025650852
-0,023217803
-0,02069092
-0,057394624
0,013371598
-0,032160215
0,015284621
0,29014874
-0,015865618
-0,014719281
-0,012816101
-0,0014765154
0,0025896705
0,4399376
-0,4997421
-0,034680057
-0,014687617
0,0007626451
0,3915542
-0,0058528734
0,025783118
0,012854706
-0,0036219794
-0,17205493
0,011295762
-0,0025494208
-0,029934693
0,027830957
-0,053794105
-0,39171308
0,01365149
0,008278746
-0,2969567
0,008148799
0,0075550373
0,053196423
-0,04070518
-0,0046933927
-0,34528568
0,017174207
-0,32597566
0,09158832
0,0034444786
0,031192502
0,0034376292
0,017483814
-0,018389093
0,013949249
-0,25978822
-0,00022553925
0,024546396
0,014639191
0,16972828
-0,0052476474
-0,01577413
-0,01994516
0,40638426
0,00019628831
0,016056756
0,005222655
0,032942403
0,018407423
-0,007816404
0,18267876
0,005595278
-0,011462731
-0,00369344
-0,00231136
-0,03124042
0,1799835
-0,26641676
0,37184998
0,010650157
0,021833647
0,01635833
-0,015204889
0,0019291895
-0,3132753
-0,48260486
-0,005722003
-0,004942692
0,010776938
-0,21046719
0,01129525
0,4565804
0,022483513
0,0037063835
0,023729071
0,012601281
0,027570449
0,0106549505
-0,0651789
0,0074472586
0,02154103
-0,029136753
0,046829965
-0,018946785
-0,034404904
0,063048206
-0,13658139
0,06145129
-0,02657933
-0,011967334
-0,041751184
-0,004724313
0,0013612866
0,024586087
0,010918481
-0,040445067
-0,48152754
-0,021910874
-0,017065806
-0,024225745
0,022504533
0,11246729
-0,0475036
-0,0016289083
-0,020638185
0,05133495
0,013175753
0,0056171254
0,023373237
0,01800149
-0,068203814
-0,0147899855
-0,04780649
0,4117577
0,013462518
0,002404488
0,14765213
0,4147026
0,027646376
0,019528473
-0,071404144
-0,07154848
-0,0076857805
0,3373298
0,065354906
-0,42670017
0,004930801
-0,032065753
0,025777658
0,050157346
-0,009654001
-0,042965777
0,02498419
-0,027875545
-0,11087811
0,0251154
-0,17784604
-0,0009529913
0,005812172
-0,4826392
0,01690686
0,45462036
-0,44810396
-0,43109623
-0,010571416
0,28602853
0,011276106
0,014810716
-0,006461968
0,02708478
0,017578943
0,018032527
-0,015845688
-0,4317236
-0,0037300151
0,010919724
0,011312756
-0,0027913041
-0,18398117
0,42012388
0,020433018
0,17909914
0,009659412
-0,003634852
-0,31787688
-0,097835496
0,114343725
0,0048007537
-0,0011322782
0,01559256
-0,007886077
-0,0011433766
-0,0011659965
0,0131516205
0,40740332
-0,2710589
-0,010914822
0,36427325
-0,43677282
-0,01139272
0,01462685
-0,007158338
-0,0057634586
0,0016644517
0,0040474012
-0,4540059
0,0074823513
0,457815
-0,30444852
0,1033138
-0,19971365
0,019242702
-0,019907415
-0,017403388
-0,27110896
0,0032336486
-0,0128018
0,036509458
-0,016234767
-0,0062664715
0,02702242
-0,017080683
0,023822885
-0,03270983
-0,018611414
0,019134417
0,003007914
0,03382565
-0,011327065
-0,021929525
0,015714439
0,025326198
-0,014131018
-0,021116814
-0,01097862
-0,021682156
0,043307226
0,037404258
0,018010784
-0,052228015
0,029000098
0,0441178
-0,0366851
0,11269499
-0,01027482
0,012507153
-0,017752461
-0,0058142273
0,009946682
0,0039351117
-0,036206193
0,0061690537
0,3232274
-0,0042618406
0,009208631
0,0004692492
-0,046047375
-0,0064713634
-0,36201158
0,0039573433
-0,021575596
-0,047459714
-0,28162268
-0,0049162637
-0,03449535
-0,01664945
0,04170302
-0,4283666
0,025530618
0,010047594
-0,020566583
0,007830032
-0,005065319
0,02019216
0,0033213838
-0,012160376
0,03038395
0,022938656
0,031423952
-0,012458036
0,031061482
-0,032380097
-0,023444353
0,017415296
0,01305884
-0,017254245
-0,004447218
0,008441659
-0,0037860682
-0,044471633
-0,011546744
-0,003018539
-0,024702206
0,06571411
0,003524732
-0,020846296
-0,090275064
-0,018843003
-0,00029888438
0,0049034893
0,009002644
-0,014386933
0,018803455
-0,022775557
0,0077207386
-0,0055583585
0,015247125
-0,09620196
0,0064482805
-0,00040224782
0,019005205
0,029220715
0,035060957
-0,016668804
0,02953798
-0,009575286
0,005379903
0,017325472
-0,025489477
0,108653635
-0,005685138
0,028101984
0,008791525
0,3729355
-0,021911938
-0,4431338
-0,0030545585
0,0031711035
0,021012457
-0,26423806
0,01137229
0,0037810775
-0,31413683
-0,04895699
-0,008785663
-0,04079244
0,039110765
0,43612078
-0,0018863915
-0,037060164
0,27878523
-0,01904572
0,0069255284
0,016645662
0,005517613
-0,006645133
-0,011461574
0,030058702
-0,02704668
-0,024189616
-0,021769011
0,20598355
-0,022213565
0,35798195
-0,008415416
-0,03803361
0,024917131
-0,040127322
-0,25464538
0,0017145354
0,32817152
-0,44412035
-0,019595848
-0,016228214
0,0116268955
-0,0017254787
0,023426572
0,032552153
-0,025751883
0,019902058
-0,19411722
0,006235641
0,009852878
-0,00415285
0,24178521
0,017849807
0,0024962053
-0,01650431
-0,008323353
-0,0028535265
0,001036497
0,0015343993
-0,014414626
-0,013754529
-0,018222518
-0,030130316
0,013559926
0,019298274
0,00072730635
0,012329577
0,043284692
-0,045640234
-0,008428085
-0,01608918
-0,0036973287
-0,01501637
0,02490223
-0,00011307592
-0,0118950205
-0,017522188
-0,016299361
0,5077209
0,025794663
-0,31695232
0,020594142
-0,01275647
0,1519613
-0,19360451
-0,02180022
0,02881646
-0,039095808
0,26481226
-0,037501737
0,048724264
-0,022399059
0,0067058853
0,0011152015
-0,026543297
-0,016849423
0,035989154
-0,023092557
0,0093945265
-0,0013260543
-0,21419312
0,17502967
0,009894334
-0,03589883
-0,030860415
-0,011946512
0,028762152
0,03351064
-0,0012613488
0,026595255
-0,029966608
-0,00097090093
0,032493975
0,060302474
-0,27356294
-0,0006594058
-0,35162354
-0,43012676
-0,28183436
-0,004888698
-0,0014236103
-0,029296663
0,015006185
0,002989882
-0,00040726588
-0,0022912784
0,5211227
0,0022607977
-0,031826295
0,034257907
0,014738578
-0,34921438
0,011755091
-0,012459329
0,008175696
0,013830615
0,16823529
-0,050442427
0,0017464526
0,0011254357
-0,020414397
-0,0030227485
0,01304048
0,012218355
0,03269045
0,0914298
0,042468894
0,0065892627
0,12931046
-0,011651708
-0,22555925
0,014478949
-0,14869398
3,208488E-05
0,007460053
0,015192495
0,27240285
-0,010531404
-0,015488584
-0,008008353
0,014253437
-0,015305546
0,02386731
-0,056503303
0,49659213
-0,010763132
0,04732128
0,017550178
0,045781318
0,0083573535
-0,027305504
0,0068893447
0,02914145
0,022154344
0,008120198
0,02357872
-0,018223757
-0,34259215
-0,25938904
0,22388282
-0,007192135
-0,02169385
0,0044375863
0,029194407
0,0010482236
0,039084557
-0,002675282
-0,008280403
-0,0063720364
0,04557877
-0,004597619
0,092273675
0,009527762
-0,048346385
0,19175497
-0,44952795
-0,0062384466
0,016990641
0,0022401705
0,021703875
0,019101916
-0,029890936
0,0040697204
-0,0067291064
-0,0037759987
-0,03018571
0,0075246845
0,027560169
-0,042709004
-0,0022898733
0,3328393
-0,12898135
-0,0010960136
0,33537394
0,10612786
-0,029296897
0,01618042
-0,016691959
-0,4039306
-0,011193685
-0,020257633
0,011138654
0,005334067
-0,011103162
0,017034242
-0,0007431318
-0,008351466
0,0054555717
-0,034103483
-0,00823903
0,015219281
-0,00616587
0,010787604
-0,032700226
-0,008087542
0,4080277
0,0056560687
-0,028131144
0,003476532
-0,013761654
-0,4342677
-0,002223218
0,3529441
-0,00069117104
-0,015227163
-0,0038359317
0,0037874402
0,016107129
-0,013456714
0,05413432
0,015632566
0,47205725
-0,023873055
-0,002744152
0,01354677
0,00049991504
0,00010916551
0,019816862
0,013584645
-0,014326713
-0,0056088795
0,008805802
-0,029182453
0,026602682
0,002968755
-0,011791932
-0,04019821
0,015223533
-0,031444795
-0,004891826
0,2813321
0,007972679
0,05330368
-0,010507088
0,029768636
-0,018329203
-0,010644978
0,018953955
-0,025172178
0,42602697
0,21473984
0,008881231
-0,010816899
-0,011624124
0,031817086
0,00564823
-0,0099855205
-0,3593924
-0,017939601
-0,012926
-0,0065842723
0,0015291121
-0,008420477
0,0075900685
-0,016009167
0,0013233101
0,23341335
-0,02344044
0,0050115846
0,024322184
0,21954253
0,027177673
0,23903848
-0,20083901
0,4080069
0,012503246
-0,0035510052
-0,50383824
-0,012949315
0,0062836935
0,016104106
0,032103285
-0,004769918
0,009751905
-0,012385895
-0,006243766
0,020661574
-0,4240104
0,010260289
0,0018550614
-0,033069476
-0,024982832
-0,0044180844
0,019224472
0,009727804
-0,398676
-0,012751266
0,027033912
-0,03230296
0,05183865
-0,009757637
0,0077923764
0,00081289554
-0,030280266
0,03034267
0,0068860585
-0,09835019
-0,012616576
-0,023065
-0,006036058
0,044540294
0,15469955
-0,34365633
-0,0017313646
0,05577136
-0,0092116
-0,012674962
0,021858461
-0,029149033
0,0048675546
0,04844583
0,014440167
-0,016755525
0,39105713
-0,012363087
0,03916868
0,024935087
-0,018707456
0,016496193
-0,007307748
0,005365154
0,03657384
-0,017718807
-0,017374769
-0,019467961
0,004550496
-0,02637334
0,005686219
0,08862553
0,004247915
-0,028323023
-0,031242695
-0,04383988
0,010643728
0,010316139
0,025135346
-0,01808904
0,15523626
0,012919813
-0,029966224
-0,037255317
0,009966015
-0,037896596
0,07372516
0,0035245612
0,013486614
-0,018056894
0,009527757
0,0006178103
-0,02307568
0,003869403
-0,38382685
0,5068887
-0,0017883048
0,014114089
-0,010237091
-0,016664417
-0,0046568117
-0,04461931
-0,017820258
0,15789832
-0,01564782
-0,022731176
0,24083205
0,016095292
-0,030798407
-0,059913207
-0,10394379
-0,033044904
-0,039623473
0,0242816
-0,0005299408
-0,030703383
-0,016390922
-0,04588583
-0,028799217
-0,24918596
-0,0026631905
-0,022776736
-0,010040794
0,017138487
0,022931427
0,46049967
-0,055835094
0,42482105
-0,0009530386
0,0065597533
-0,038660448
-0,0400677
0,0047181956
0,0021499998
-0,031677272
-0,021234285
0,00023413333
0,036966477
-0,009860662
0,20284949
0,023524318
0,0050194855
-0,028893568
0,021551536
0,006057215
-0,011430967
-0,013344227
-0,02571375
-0,015796233
-0,04765659
0,2432347
-0,012022163
0,0050104866
-0,0077985507
-0,0008322262
0,0065889903
0,371465
-0,02244888
0,006584262
-0,071948655
0,004511086
0,048764575
0,28600442
-0,008632295
0,0133806085
-0,019679511
0,004129781
-0,04101417
-0,005125755
0,0040420187
-0,01937346
-0,0018913796
0,12402076
-0,034993228
-0,004882102
0,017462367
-0,01566544
0,021325596
-0,033109352
-0,022894844
-0,024664827
0,048309583
0,016315103
0,009501801
0,006912689
0,004661863
0,03397547
-0,013097332
-0,22822978
0,005774061
-0,028117036
-0,012703069
0,01660158
0,25707683
-0,36183625
-0,009579084
-0,026470542
-0,10535641
0,013991362
-0,0015950236
0,009184347
0,0015968049
0,1585866
-0,417024
0,025512652
-0,00027372883
0,34245002
-0,060768317
-0,33398995
-0,005281832
-0,003338207
0,026572894
-0,41299316
-0,01450491
0,014234071
-0,103553705
0,0034806544
-0,43670782
0,03276936
-0,040514097
0,14962134
-0,022361018
-0,00961061
0,01175998
0,001577686
0,011006245
-0,0007231884
-0,001925062
0,012685282
0,008033473
-0,008432181
0,009489256
-0,011199815
-0,0029165568
0,0069467695
0,0029469233
0,017448163
-0,10338431
-0,023137612
-0,0026533916
-0,006383043
-0,017273026
0,025728995
-0,3180863
0,019324956
-0,013170587
-0,4556687
-0,02665018
-0,0015104511
0,021082625
-0,20823899
0,38181612
-0,0064020776
-0,008432546
0,015400241
0,007387999
-0,02294855
0,004657799
0,003286202
0,0116156675
-0,010103941
-0,027865285
0,021602986
-0,034581706
0,015898125
0,03087322
-0,0006814947
-0,039295144
0,011885615
0,29524702
0,010898639
0,0095628835
0,008368189
-0,07216093
-0,01523883
-0,027695045
0,0027345656
0,0075582387
0,025548007
-0,020127118
-0,0077237263
-0,018968355
-0,0026350908
-0,005681598
5,4530876E-05
0,021487795
0,03237536
-0,013602908
0,33889642
0,014859354
0,017341694
0,031157605
0,0028120608
-0,01871864
0,010519521
-0,046325374
0,013900952
0,029814975
0,0008884565
-0,0061283056
-0,28587782
0,0023368737
0,02207035
-0,0036602512
-0,041325092
0,0039840154
0,33887154
0,006155371
0,17243819
-0,0155076925
-0,0010024855
-0,2066244
0,03142782
0,016081855
-0,007887284
-0,0012829513
-0,009429555
-0,011205879
-0,028426848
-0,024879046
-0,0015999906
0,39145476
0,0030981207
0,014593708
0,008043485
-0,189199
0,0059220465
0,02721762
-0,24335334
-0,021730598
0,035217535
-0,016097499
-0,03352651
-0,024459267
0,022925988
-0,018648699
0,008213506
-0,3956343
0,011764389
0,0011864107
-0,03120691
-0,03064233
-0,026615303
-0,02340811
-0,021305464
0,012918888
0,060937442
-0,017151637
0,021873485
-0,015336082
0,010194865
0,04484835
-0,048230276
-0,005091363
-0,29064465
-0,0070043923
0,0050056004
-0,010208331
0,21389547
-0,013277202
-0,024077117
0,010312325
0,39367482
-0,015139822
0,0037384334
0,04062383
-0,022563849
-0,029567286
-0,019554514
0,3075719
0,012130878
-0,035812404
0,029450035
0,5137933
-0,004386198
0,017325534
-0,015853943
-0,043455593
-0,011924138
-0,39809144
-0,034302432
0,019075666
-0,014438764
-0,003663948
-0,2064381
-0,0010110032
0,02190356
0,009666555
0,014248577
0,35833254
-0,009934776
-0,021283647
0,01590475
-0,033833496
-0,0040327613
0,10643702
-0,04766548
0,0015162302
0,005942283
0,036342796
0,09954932
-0,05472772
0,018830363
0,22625686
0,0056485143
-0,05434521
-0,0013478291
0,04780812
0,010120046
-0,31874394
-0,0038135059
0,04023555
-0,008066498
0,02028688
-0,0010187055
-0,0062483
-0,023226762
-0,0139002
0,02520617
-0,0052258032
-0,2873365
-0,16176343
-0,2805433
-0,0049898764
0,002982203
0,0033262798
0,32313395
-0,005156611
-0,0022445319
-0,042168885
0,009702369
0,11766378
-0,0032255773
0,0063776453
0,030911097
0,0061672092
0,012746307
-0,0059047993
0,0077806916
0,0025465088
0,06264998
-0,033638302
-0,0051551256
-0,025584878
-0,25470337
0,012438309
0,005335885
0,0041630487
-0,20317616
-0,019409405
-0,004031252
0,0023815767
0,014142465
0,022724928
0,00017313773
-0,025021853
-0,008951608
0,0003029885
0,0034070427
0,0109137045
-0,0018038015
-0,00013650152
-0,0009988295
-0,012433438
-0,01997608
0,017756805
0,024471449
-0,014694206
0,0074968124
0,0036698375
-0,012468125
0,015908442
0,004577893
-0,35742962
0,24924584
-0,024710827
-0,005034278
0,055429272
0,0015620199
0,010406926
0,0059935614
0,0050481684
-0,0091764415
-0,024811864
0,0010822329
-0,003897161
-0,0028459304
0,008413069
0,0042539397
-0,23609339
0,0071780854
-0,0027482363
0,4624781
0,0095765265
0,014484863
0,0127276555
0,017247247
-0,38799986
0,005846654
0,011183723
-0,033913363
0,34798136
0,016564729
0,0018572449
0,020604432
0,43688425
0,019824225
-0,013512975
0,02529567
0,023840446
0,0058419798
-0,0077761104
0,015206147
0,0020393722
0,019914148
-0,12591857
-0,012323788
0,017023155
-0,019785227
0,060390104
-0,027670138
-0,047509473
0,0014767573
0,037624583
0,00030654337
0,0065221325
0,008654431
0,030315945
0,1469701
0,00952299
0,022795206
0,003313508
-0,007374547
0,015943002
-0,0011325809
0,028872872
-0,009871153
-0,008906404
0,02830764
-0,44249377
0,0059886253
0,04002464
-0,021840898
0,040226128
0,028725555
-0,3009869
-0,011034185
-0,3117265
0,0015696464
-0,021225216
0,0044112517
0,011761176
-0,002162492
-0,12817693
-0,027637368
0,015886972
0,005759935
-0,0012674977
0,46942216
0,0039591133
0,028738577
-0,003830419
-0,01478437
0,00928847
-0,01044375
-0,0042872694
0,008710446
-0,0006488833
-0,013539077
0,03665541
0,04376438
0,004756165
-0,03826909
0,02426265
-0,008642548
0,02473352
0,030829743
0,343694
-0,0011423514
-0,002610824
0,013038155
-0,1682429
0,011088799
-0,012800796
0,008057727
-0,2809595
-0,01902166
-0,0052178334
0,3252667
-0,45400605
0,4216173
-0,005075338
-0,0143616805
0,0128173195
0,03562742
0,0054954137
-0,024147771
-0,0041395975
-0,0148867825
0,012460186
0,0053498917
-0,009836493
0,004426328
0,031168874
-0,00538515
0,008333509
0,008571693
-0,007815018
0,00185203
0,027749378
-0,4796933
-0,29785615
-0,011187161
-0,014501119
0,14985856
-0,019026613
0,0057064053
0,015151784
0,0023424544
-0,014636998
0,0045283786
-0,016263995
-0,005751999
-0,3969214
0,008007907
0,014062657
0,015840756
0,02392207
-0,014416926
-0,018665563
-0,01997734
0,0071257344
0,0050292914
-0,0021454932
0,0046760743
-0,007594121
-0,0012021845
-0,01125512
0,017174441
-0,024534885
-0,00046556466
0,012266616
-0,018734977
-0,0037411982
-0,31533906
0,008930021
0,02765202
-0,007607776
0,0052435184
0,0073461207
-0,02537925
0,0016270297
-0,025386931
0,013780747
-0,007838275
-0,015653465
0,0058218865
-0,021315323
-0,022236051
0,0055647176
-0,00998325
-0,22633938
0,15027724
-0,0056617
0,007957403
-0,008679947
-0,006346807
0,44715336
-0,0040727607
0,017815346
0,003785703
-0,019337106
0,17102188
-0,13177371
-0,0046431185
0,03722649
-0,012942261
-0,021610197
-0,0033307855
-4,4309832E-05
0,16848014
-0,36095726
0,006344533
0,00013685778
0,044898275
0,0006317275
0,022037698
0,23080572
0,0042444034
0,0007730986
0,02973889
3,1501702E-05
0,010291938
-0,031076834
0,031091869
0,033609927
-0,009493762
0,01045622
-0,29867408
-0,4856091
0,03246136
0,028268872
-0,013321469
0,101212904
-0,007417908
0,007890333
-0,32948655
0,019765206
0,02089848
0,027038893
-0,035619758
-0,023951577
-0,0034070648
0,018152494
-0,20370102
0,029109448
0,19298519
-0,20979328
-0,008823475
-0,00548042
-0,01461724
-0,3934092
-0,0034931717
-0,0025463845
-0,18920843
0,026311563
0,00060624024
-0,017517252
0,0022663677
-0,46208096
0,006449777
0,007360214
-0,013956138
-0,019317647
-0,008273498
-0,017869495
-0,002269989
0,016442003
-3,363895E-05
0,0015979832
-0,0058543566
0,021028247
0,024729844
0,020462863
0,039082285
-0,012363178
-0,01288803
0,3612983
0,012259167
0,013969056
0,0060862238
0,26913133
0,0008297651
0,0031828952
-0,3364435
0,013705536
0,023934545
-0,0069735986
0,10832564
-0,0032519922
0,00863247
0,03836902
-0,0036044496
0,0020552482
0,018700842
-0,00063864037
0,007466164
0,0038996644
0,010479019
0,0019325603
0,264324
-0,013029218
0,17511074
-0,08725087
-0,15965249
0,0063851015
0,01686157
-0,29368863
0,3553956
0,007825612
0,010319263
0,0683687
0,01540659
0,023067253
-0,09389761
0,14315027
-0,01598345
0,0027605798
-0,0032785847
0,033750005
-0,11588882
-0,34068054
0,025028022
0,008235809
-2,5707466E-05
0,0022440704
-0,26557606
-0,029380376
-0,021309301
0,016222844
0,14336434
-0,39499456
0,0049841017
0,012985755
-0,0112462
0,027837085
-0,25877747
0,009892941
0,01242561
0,008513862
0,002916754
0,331522
0,032164298
-0,024426924
0,01766255
0,0017903605
-0,091735765
-0,009894038
0,0014025299
0,00014684201
0,30142108
-0,008287868
-0,0152029265
0,020159774
0,005144896
-0,0029564789
0,03604814
0,024822319
-0,008924008
-0,0021219417
0,006214179
0,31420296
-0,015037303
0,015959945
-0,0032572923
0,025444932
-0,022989664
-0,004626626
0,021492599
0,006468919
-0,14933243
-0,005004573
-0,017939452
0,015419682
0,015203854
0,012023215
-0,0060489993
-0,009353239
0,013450913
-0,018172834
-0,0007810571
-0,103844374
-0,011549963
-0,39654288
0,026742354
-0,010333347
0,043267168
-0,015101268
-0,01497454
-0,030093232
0,000728103
-0,03360309
0,005844072
0,018359417
-0,00634256
-0,4624012
-0,02836016
0,10255074
-0,018923907
0,013565668
-0,057953905
0,0054501332
0,28301287
0,03400089
-0,023839613
-0,007842891
-0,04599828
-0,025750136
0,029293265
0,16305766
-0,005235147
0,047441635
-0,00026295218
-0,007597738
0,00025519085
0,0021896646
-0,022191817
-0,03814538
0,009884157
0,29338956
-0,0150449835
-0,030967511
0,0023296094
0,305232
-0,02731919
0,011805681
0,0059285564
-0,024280412
-0,008546401
0,009069018
0,0017220714
-0,013322389
0,25059485
0,09056727
-0,0058335317
-0,009439928
-0,013509293
0,029699277
-0,0015723922
0,020056603
0,0011141766
-0,0077762334
-0,0022770176
-0,020333929
-0,013144312
0,023679541
0,027361408
-0,0059434287
0,027946448
-0,01715892
0,036474224
-0,054876685
0,00088778336
-0,0023924322
-0,008190492
0,0076629883
0,0004838897
-0,006737188
-0,04389014
0,007040489
0,009844054
-0,01985222
-0,008198782
0,058437385
0,00052262424
0,42950994
-0,009430013
-0,028656986
-0,01652335
0,017410764
0,0056879595
0,057139598
-0,2579892
-0,029312953
0,018922746
-0,014511804
-0,064798616
-0,029840073
-0,0022944855
0,011541068
-0,028660739
-0,02657248
0,014689138
0,023994932
0,01838636
-0,099782586
0,12375299
-0,30192015
-0,016740374
-0,017658139
-0,007930652
-0,007185152
-0,006218322
-0,003675608
0,06889562
-0,035702024
0,023104258
0,028945629
-0,011137024
0,030035013
0,4586413
0,002252906
-0,0048419344
0,010458448
-0,24280381
-0,15102443
0,11483122
0,00015002138
0,03588749
-0,02167392
0,020650841
-0,03490532
-0,029862944
-0,0050670584
0,025742732
0,0034896669
0,014434803
0,028296743
0,016944043
0,07304981
-0,022252781
-0,12709108
-0,018997002
0,035032067
0,02769469
-0,42601898
0,0014632688
-0,0031578366
0,0026609616
0,009169915
0,008778225
-0,010407537
0,020060422
0,00061585667
-0,021951104
0,016645689
0,008847973
-0,022475844
0,0096745165
-0,11605664
-0,023265367
0,009434951
-0,00019295627
0,018514212
0,033042483
-0,40819716
-0,010181138
0,0073883254
-0,021488067
0,013028917
0,058994554
-0,0036118175
-0,10292556
-0,42559558
0,029893853
0,005645655
0,008334951
-0,032568626
0,0033282486
0,043625645
0,0052684788
0,019540234
-0,010377556
0,0023610743
0,043339647
0,01381839
-0,028314743
-0,023238957
-0,03064277
0,43711415
0,00124854
0,020510582
0,14166327
-0,04575029
-0,011290336
0,031462796
-0,0043971506
-0,022498239
0,0062927604
-0,031424154
0,010804828
0,013829659
0,02445377
-0,024883166
0,016138839
-0,019084929
-0,053041384
0,018328689
-0,024250675
-0,03307051
0,033674095
0,27215096
-0,0061225276
-0,009840923
-0,018053686
0,016214969
-0,0032019375
0,028051399
0,0051461603
0,004883088
-0,06230406
-0,015549196
0,012269118
0,0026705058
0,012874988
-0,039433096
0,014771717
-0,0028711343
0,019582188
0,02569145
-0,014110676
-0,045629434
0,2193149
-0,0411997
0,0071207928
-0,016066913
-0,042852093
0,0019867742
0,017632527
-0,0050246846
-0,02373475
-0,16558796
0,015344458
0,007030044
0,013866969
0,019227521
-0,0030407347
0,076133095
-0,02979948
0,032291602
-0,0023258026
-0,02355269
0,014446972
-0,020457083
-0,027070295
0,007482925
0,20551383
0,025320606
-0,022576911
-0,01240174
-0,0016406894
-0,0060993945
0,009140539
-0,0015039095
0,00015201453
-0,031615786
0,0007057139
0,0040486897
-0,018965539
-0,008903528
-0,46258974
0,0470732
-0,039915625
0,014117723
-0,041480772
-0,3063784
0,002488759
-0,0014628102
0,04067647
-0,31279355
-0,037144456
-0,20069394
-0,020985087
-0,0035725886
-0,010873149
-0,12568083
-0,03773986
0,35287037
0,014845142
0,0056329463
-0,012277099
-0,022258112
-0,0057823984
-0,015035739
0,018470684
0,00887127
0,30918
-0,010901655
0,015571795
0,006196567
-0,007448044
-0,018477233
-0,0015997629
-0,022643713
0,0051601813
-0,025628207
0,0025483663
0,014488556
-0,0046755117
-0,010196054
-0,10742886
-0,011421536
0,011387535
-0,01585298
0,014367671
-0,0035462375
-0,014241094
0,0021412964
-0,011321102
-0,036350388
-0,028287418
0,0031280564
-0,028529542
0,0006157129
-0,0031125539
-0,40075284
-0,00013364255
0,0070517645
0,014592102
-0,39957806
-0,028658241
0,0013890825
-0,02277313
-0,014308046
0,006398315
0,01970786
0,057361353
0,4391713
-0,16251078
0,024254734
-0,00771203
0,027927402
0,28768647
-0,031453416
-0,017468099
-0,018920183
0,015300363
0,013934448
-0,006374639
-0,028689917
0,00957446
0,0067196796
-0,004330326
-0,02474651
-0,0152994655
-0,006035197
0,009680869
0,006457352
-0,005781841
-0,4816579
0,38419342
-0,045126215
0,016213648
-0,008518731
-0,022978352
-0,023640659
-0,011301048
0,024224926
0,030523699
-0,013979011
0,026622662
-0,013673469
-0,019891478
-0,0023033188
0,012931876
-0,048397772
-0,024967302
-0,039891034
-0,0013397374
0,002192705
0,0129763335
-0,029779589
-0,3516524
0,09621556
-0,050638955
0,015680943
0,021312464
0,023800783
-0,009720257
-0,12652357
0,020592757
-0,011494152
-0,0058067143
-0,0077495687
0,024543744
-0,036416065
-0,020928523
0,2428116
-0,009074052
-0,044999555
-0,0034747173
-0,06760495
0,44091323
-0,0019001699
-0,031259175
-0,023526104
0,005416693
-0,014100419
-0,034296
-0,0006102486
-0,0072102817
0,00028976877
0,053400412
-0,011749381
-0,0056096604
-0,014522176
-0,004768127
-0,01637204
-0,017749725
0,020471422
0,2490548
0,0029234618
-0,0046844985
-0,005294722
-0,05245607
0,019671721
0,0101632625
-0,021940112
0,09025971
0,007749576
0,012317132
0,04410748
0,0029838965
0,014414598
0,1689468
0,009984122
0,37177482
0,0066353492
-0,01942392
-0,045846954
0,017101008
-0,021403031
0,010353014
0,02782532
0,020645913
-0,015104723
-0,003569695
-0,0067522433
-0,05125423
-0,009800277
-0,014344134
0,03713065
-0,0029090194
0,0032222231
0,014507542
-0,0009595793
-0,00963145
0,036221694
-0,0007425604
0,029651305
-0,013412487
-0,018543763
0,4989231
0,03195258
0,010659825
0,0102281
0,0049284217
-0,013029655
0,36822432
-0,44088808
-0,011839065
-0,009143799
-0,2693707
-0,010780241
-0,21274804
-0,00012562038
0,009759799
-0,32043713
0,0034454905
-0,013198343
0,016223537
-0,034729492
0,00225497
-0,02589664
-0,060018644
-0,013275777
0,011382401
0,025224436
0,016879926
-0,011122445
0,01279841
-0,004951086
-0,0021005322
0,012468662
0,047642022
-0,009879314
0,010186325
0,10943763
0,04107675
-0,035657547
-0,0069953203
-0,01259373
-0,11115355
0,0015603049
0,034064773
-0,0070828283
0,027909392
-0,02582851
0,020888824
0,0016766846
-0,44587594
-0,025028551
0,13314822
-0,46245563
0,019945966
0,0009600074
0,056745782
-0,0009826414
0,006806375
-0,011165608
0,0059830123
0,004576123
-0,029030953
0,00799501
-0,017597571
0,0033302472
0,009604446
0,02152937
-0,03001246
-0,01461961
-0,009809139
0,030097192
0,00792385
-0,04144648
0,028569061
-0,22816084
-0,012233671
-0,007911837
-0,017609028
0,028966429
0,010355112
-0,011062132
0,029777683
0,0046588797
0,007049219
0,011692519
0,04635899
-0,004589913
0,018663716
0,014528202
-0,004453372
-0,39030215
-0,016616244
0,17800353
0,035133317
-0,004201496
-0,008262152
-0,41414705
-0,0038801315
-0,25510654
-0,30604813
0,026470147
0,032003194
0,06232324
-0,016092205
0,019921672
-0,3029084
-0,022090651
-0,031441487
0,055032466
0,003991344
0,0047744103
0,07207496
-0,0046564844
0,022469666
-0,011823372
0,026101084
-0,006757976
0,0034003796
0,002682012
0,032776304
-0,0041967095
0,041909806
-0,018034209
0,006481081
0,0107577285
0,107753225
0,0025373874
-0,0006226916
0,042170845
0,024538336
0,027831784
-0,27487078
-0,25994328
-0,03858404
0,01679257
-0,012933655
-0,22463188
-0,0076537207
0,0064290627
0,14839986
0,016036814
0,019088762
-0,02120017
-0,0017597814
-0,017340332
-0,024806317
-0,00052951206
0,031268768
0,00875349
-0,0010329493
0,015885772
-0,18492274
-0,024718415
0,0026674012
-0,01522134
0,020553539
-0,48619542
0,015730925
0,0164724
0,0010387488
-0,0081156
0,017239904
-0,031506572
-0,3751959
0,017101336
-0,012010401
0,033646084
0,012342579
-0,0039250706
0,013013505
-0,052338965
-3,1772164E-05
0,0046731723
0,029845525
-0,0011157097
-0,006967071
0,05108392
-0,0055019595
-0,02942881
0,004530437
0,01952583
-0,019477999
-0,0031106565
-0,000988129
-0,0125758415
-0,4044178
0,005866682
0,006504466
0,31528613
0,013502998
0,011684287
-0,005713412
0,004346432
0,0029770941
0,01632978
0,10969876
-0,003147678
0,015268361
-0,021797622
0,012651717
0,008639737
-0,0117777195
0,002039508
0,014145155
0,2836293
-0,3773962
0,2280337
0,027233604
0,017927824
0,0357521
-0,017251194
0,4002924
-0,042560134
0,08401838
-0,29093853
0,030455895
0,010683292
0,008166217
-0,0010550811
-0,44016945
0,0032181072
0,08069635
0,011104533
0,008098503
0,0023885164
-0,024458691
0,057737585
-0,116188966
0,012897094
0,0047871443
-0,0106898835
-9,017964E-05
0,40527397
-0,014690619
0,012215811
-0,0007696497
0,4877422
0,0025374847
0,3504701
-0,010471358
0,010985891
0,0017808386
0,005053615
0,031248689
-0,02654582
-0,1834921
0,0015361235
0,0015013127
0,48606744
0,0036750967
0,018865414
0,043275677
-0,022656444
-0,0014535433
-0,34480354
-0,017311042
0,0030475059
0,006346471
0,024757555
0,48090523
-0,004573194
0,34613147
0,4034539
-0,00649081
-0,010644953
0,23341058
-0,014323726
0,002759684
0,0031276469
-0,004773992
0,023554299
-0,012544878
-0,022845712
-0,00980073
0,33763707
0,028572587
0,22549453
-0,012089891
-0,0349345
-0,009825817
0,023812244
-0,01030717
0,29072386
0,012794327
-0,0056209425
-0,02694126
0,02053235
-0,009903408
-0,04343676
0,0997658
-0,0068645077
-0,033700112
-0,006014806
-0,017340261
0,028008947
0,23719546
0,02350764
-0,00888465
0,0029749565
-0,033476356
-0,056762353
-0,009474769
0,012396807
0,16261168
-0,04145606
0,019229196
-0,01762031
-0,017980423
0,0055790017
-0,41118276
-0,029444769
0,036498055
-0,036939487
0,016953697
-0,0039142417
-0,023904711
-0,017937128
-0,3974004
0,016825885
0,0066494113
-0,03319171
-0,011862237
-0,33068436
0,3637629
-0,001288645
-0,024384132
0,023023907
-0,0136339
-0,07888177
-0,03388491
-0,106756575
0,030792523
-0,11267071
0,0060511795
0,020071842
0,02118399
0,013121676
0,025861636
0,28734103
-0,3483257
0,018753052
-0,30738133
0,18742678
-0,09398154
0,019837275
0,13912617
0,19493529
0,0335621
0,011325492
0,012049152
-0,013460074
0,008350551
0,030309997
-0,0018227227
-0,011979137
-0,021932276
0,046223205
-0,039244633
0,014466783
-0,008587682
0,03503384
-0,031653576
-0,01057339
0,0084937755
-0,004242422
0,0027104688
0,43226016
0,051705405
0,0010770017
-0,033549294
0,006333212
-0,03437529
0,002618338
0,01973331
-0,013729704
-0,16116616
0,02474308
-0,15502827
-0,06349905
0,0056802128
0,015740305
-0,44375098
0,018323373
0,041522637
-0,13035987
0,1297607
0,0073140957
0,007995174
0,032617413
-0,096754
-0,0015969553
0,026712826
-0,030878238
-0,0033327418
0,016514614
-0,018953694
-0,0035284774
0,008281344
0,023199476
-0,02682223
-0,40478346
0,0020527581
0,012034132
-0,011726703
-0,017630018
-0,012445388
0,01759663
0,028050963
-0,4018004
0,43416756
-0,013792496
-0,01797126
0,011016198
-0,019460548
0,031383626
0,01124624
-0,013874192
0,011479056
0,00033328697
0,024766821
0,0130582275
0,027635217
-0,042912204
0,00037188033
-0,012587528
0,028935509
0,01907387
0,008541399
0,0033260912
0,026378822
0,016129648
0,14970617
-0,023942417
-0,038344268
0,0059679076
0,008283445
-0,29879817
-0,0053165588
-0,0021189135
-0,07801972
-0,008722632
-0,008636703
0,025390167
-0,3965478
0,013710742
-0,009540016
-0,016279181
-0,028183803
0,18964973
0,41787603
0,0056326473
0,25733754
0,005764845
-0,2018193
0,036360767
-0,017808298
0,115551434
0,4636825
-0,013662123
0,30881828
-0,051027816
0,042166784
0,0013673068
0,04650845
-0,00027826978
-0,46738228
0,18108892
-0,020992385
-0,0043834015
0,011797588
0,027224924
-0,45324397
-0,004785941
0,0021215708
-0,3980395
0,0013565344
-0,43438214
0,0006724371
-0,022538368
-0,012896353
-0,028560104
0,028119465
0,0029279327
-0,0049686404
-0,005320637
-0,009897871
0,004986413
0,007847864
0,012931056
-0,029559739
0,0023628445
0,011180513
0,004910066
-0,009852304
-0,010741129
0,39299756
0,3152526
-0,015084602
-0,0045388164
0,012791602
-0,019513274
0,016287703
0,4856067
0,017975373
0,011155535
0,00020242637
-0,029263586
0,018013494
-0,20831011
-0,46916485
0,024444867
0,0026293714
0,01513809
0,3042634
-0,019314488
0,079004385
-0,50684375
-0,016107725
0,0127645545
0,01371498
-0,36154535
0,2608704
0,024815932
-0,0305397
0,22692744
-0,01863193
0,025600892
-0,049687393
0,028693963
0,00048774696
-0,101973824
0,024165327
0,015973143
0,0015631819
-0,014008342
-0,03255423
0,020870434
0,014042553
-0,012133043
0,010173741
0,0011172526
0,049814258
0,01456442
0,31478408
0,11804261
-0,3529486
-0,002380587
0,023130892
0,009774497
0,026482053
0,008318758
0,17642109
0,009334783
-0,010058044
0,028922949
-0,014104291
-0,0032219596
0,026726432
0,32250813
-0,0021105134
0,021937545
-0,29676884
0,0042210864
-0,011586922
-0,00018433617
-0,0034148977
-0,0069682756
0,021609556
-0,01318699
0,022715814
0,01015118
-0,015549086
0,033507187
-0,005085453
-0,027967623
0,019772176
0,0032002863
-0,08835877
-0,22433785
0,009306638
-0,021156365
-0,021160146
-0,0100497445
0,0056703403
0,01884394
0,023023736
0,0058461986
0,003268739
-0,31145442
0,0066140667
0,4375834
0,0143537745
-0,0053416207
0,027554369
-0,0069560516
-0,022200126
-0,015266145
-0,0075326827
0,0019806323
0,120100915
0,001153746
0,1548581
0,0007743994
-0,008317951
0,0028670547
-0,015510312
-0,006317612
-0,009722593
-0,038434293
0,03246374
0,3787306
0,018575242
0,021469498
-0,0068879775
0,018940987
0,008704966
0,004954835
-0,0069521843
0,015338036
0,0030563602
0,0053908965
-0,011325145
-0,0032446228
-0,0154040605
-0,017806554
-0,01173099
0,013312997
0,0107689295
-0,01373066
0,0036470268
-0,016032767
-0,0041462895
-0,009822586
0,0175066
0,0040806956
0,11638908
-0,007073271
0,007941017
0,38210583
-0,078912005
-0,19531144
0,48676127
-0,019002361
0,0021435036
0,0010144913
0,020627003
0,017467454
0,02070376
-0,020865703
0,033628386
-0,008693525
0,2838881
-0,0065730675
-0,0063344636
0,019622365
0,2622366
-0,40561357
-0,014725366
-0,2632298
-0,023779456
-0,009369191
-0,012014834
-0,025645385
-0,0049744444
0,034417517
-0,0055490998
-0,0077280253
-0,032360934
0,007178124
0,013779645
-0,040829618
-0,011441974
-0,3985991
0,0028721264
-0,002087108
0,009903642
0,0049959645
0,3291724
0,028261391
0,31923032
-0,31084216
-0,023586748
0,029901441
0,010246962
-0,018309966
-0,027512964
-0,008249472
-0,0054345997
0,0074194614
-0,028964402
0,036374148
-0,0059097647
0,004862432
0,06259367
-0,0001526532
-0,0030982862
-0,030874405
0,04130793
0,013814911
-0,007873657
-0,46928936
0,008308106
-0,05318125
0,014301916
0,007854997
-0,027713407
0,0131986085
0,0069983215
0,39464873
0,0073641664
-0,047910612
0,009034596
0,007563135
-0,01517177
-0,009990541
-0,12972267
0,17770007
0,0073299557
0,41431952
0,013885062
0,03928969
-0,41444594
-0,25078842
-0,008131626
0,25742537
0,016926756
0,013823861
0,007157565
0,0019896035
0,025319906
0,19026491
-0,019553762
0,010871573
-0,30756748
0,2495816
-0,036372304
0,0058629024
-0,008884681
-0,03493716
0,004414705
0,005997393
0,24642538
0,42314202
0,039757155
-0,0058901873
0,020713402
-0,31468147
-0,0012668148
0,02486731
0,01861416
0,016913062
0,031214543
-0,011810762
-0,026507294
0,024811337
-0,039236624
0,017714383
-0,04460292
0,04312518
-0,008973273
0,02310821
0,3364517
0,052402556
5,571922E-05
-0,37594068
-0,00691324
0,0021493302
-0,110721186
0,09986048
-0,01582263
0,06794352
0,004309202
-0,025677616
-0,014177791
0,034096982
-0,25302276
-0,32774654
0,008192802
0,03237244
-0,03581088
-0,026840407
0,004169815
-0,04602516
0,00075267116
0,048781294
-0,083546795
-0,024427824
0,009959712
-0,24436072
0,028855603
-0,25543892
-0,032433562
-0,0033551499
-0,015646596
0,010896924
0,16489385
0,043222357
0,01594797
-0,028012123
0,025101645
-0,37200502
-0,004664938
0,043647554
0,037692636
0,01572684
-0,4784767
0,003955674
-0,010949556
0,014482917
0,0021327757
0,006541629
-0,011572526
0,010525777
-0,21135113
0,023740089
0,0035551193
-0,0031140805
0,020017723
0,0049348003
-0,44206184
0,009412735
0,0030745238
0,015487704
-0,0038785273
-0,0030223615
-0,015853925
0,014523127
0,005973251
0,2903398
0,31448993
0,057559025
0,021051073
0,004296817
0,022559332
-0,058260784
-0,03317162
-0,0007127031
0,33064395
0,021154309
0,26345065
-0,0144936135
0,033526633
0,0031569134
0,005707343
0,010766479
0,036966983
0,01355801
0,015099905
0,006220249
-0,022685254
-0,01816148
0,025587758
-0,0268974
-0,019549182
-0,44029897
0,027334731
-0,0018477554
0,21251352
0,026910996
0,0153881945
0,02323102
-0,006330969
0,08028293
0,008624156
0,012998056
-0,0071493248
-0,023176823
0,014451525
0,012906413
-0,008539854
-0,013420502
-0,022406202
-0,036995135
-0,006575669
0,30682427
0,020134598
-0,0023913193
-0,024870701
0,3728226
-0,018076759
-0,33470333
0,012580853
0,013678904
0,007543628
-0,08061388
-0,0054445
0,01578141
-0,009585152
-0,4972574
0,03607714
0,044794343
-0,012590192
-0,27494153
-0,019566856
-0,007239465
0,01783037
-0,0056444877
0,44168547
0,0065247263
-0,16471134
-0,010269903
-0,40447712
0,00015537249
0,02379727
0,00086169323
0,3007556
-0,018791249
-0,013664568
0,004620462
0,0009994005
-0,048553225
0,0042661014
-0,004560025
0,015241783
0,01389231
0,045420278
-0,024604656
0,015818495
-0,49030432
-0,029220367
0,013711278
-0,016554035
0,015963636
0,031922463
0,025882365
-0,0066550877
0,014433741
-0,015616803
0,021328026
-0,0027828861
-0,01410711
0,0005693555
-0,29761562
-0,048531707
0,4413368
0,0065798988
0,14316915
0,14143886
0,028666833
-0,4066407
0,0050001214
0,02460301
0,2162418
-0,21893823
-0,015575504
-0,023332752
0,041016504
-0,042422406
0,015736697
-0,15737508
-0,01686862
-0,0037335441
0,016928665
0,24037994
-0,007865506
-0,009385892
0,029541785
0,006333835
0,35290745
-0,005389246
-0,0064943223
0,3714017
0,010389851
0,020094007
-0,0137918955
-0,02787559
-0,019140242
0,021629134
0,12624362
0,00046589287
-0,020569017
-0,024981743
0,27827585
-0,17272997
0,007710339
-0,03265076
-0,012900269
0,023716317
-0,030265283
-0,38107848
0,008439831
-0,018943205
0,021481816
-0,0006095416
-0,0068394653
0,44152322
0,026851043
0,0011548902
-0,01196522
0,011920188
-0,030137185
-0,007000293
-0,034106314
-0,0076227565
0,35331503
0,0016065805
0,012621123
-0,43245733
0,0041199434
0,009973503
-0,49834797
0,0020518503
0,0062143547
-0,005894887
-0,005380218
0,0160096
0,007892745
0,007816776
0,12107548
0,02843404
-0,0038803574
0,00045926645
0,15995155
-0,0052485163
-0,019194271
0,0054035806
0,003870515
0,00401921
-0,041041344
-0,00013928312
-0,021821132
-0,0035785108
-0,29151645
-0,020744571
-0,005402452
0,4077721
-0,0020045137
-0,0070055285
0,026075158
0,0032360381
0,010244575
0,0025311224
0,008612501
0,027224647
0,25618544
0,3752888
0,05000206
0,008823317
-0,0050427825
-0,010894849
0,0056655044
0,0029711444
-0,026037408
-0,012230315
0,007269921
0,0014238001
-0,014847506
0,0014694396
0,43633288
0,005673592
-0,00493217
-0,008803775
0,020006819
-0,0120863775
-0,024411157
-0,06715929
0,021632217
-0,00043050217
0,014603468
-0,019920968
0,0024016553
-0,025346057
-0,021413796
-0,0047657276
0,014697899
-0,005982453
0,40015787
0,019525379
0,19442509
-0,0033116257
-0,020282848
0,011050054
-0,008376171
0,0146478275
-0,005495226
-0,049969845
-0,009054216
-0,019150494
0,011866864
0,0069157053
0,0046991
-0,0052090716
-0,0008609362
-0,00668693
0,01393676
-0,012969683
0,4057447
0,0003862956
-0,027341684
-0,45664984
0,015285901
-0,045230553
-0,015711788
-0,009146907
-0,020915708
-0,19544008
0,32728195
0,013204334
-0,025658948
0,0065513216
0,04034799
-0,45554295
-0,028105417
-0,23800084
-0,018829662
-0,016642276
-0,013588489
0,42747158
-0,0037490649
-0,004614024
0,028644538
0,024123328
0,0015154418
-0,027279135
-0,014910012
0,0012873772
-0,011276818
-0,024159033
0,0036414773
0,12074709
-0,16511595
0,17389968
-0,040477604
-0,0135217495
0,017522322
0,002830954
-0,010748305
0,0057645068
-0,011325487
-0,01793192
0,0067276424
0,27999657
-0,018268779
0,020699391
-0,017682366
-0,0153673235
0,022182561
-0,01227664
-0,2694122
0,0035741823
-0,026743406
-0,039151426
-0,00043547575
-0,026515972
0,34835178
-0,014239383
-0,022387521
0,28700203
-0,04177421
-0,012341616
-0,009014798
0,31190884
0,42060232
-0,023812028
-0,00454677
0,00081477343
-0,017197467
-0,022131056
-0,029068137
0,35752764
-0,013443655
-0,006132996
-0,43098417
0,50210655
0,011225554
-0,0139000295
-0,20646857
0,44121593
-0,0021397555
0,0129601415
0,012453504
0,004829984
0,009255847
-0,012634041
-0,011578244
-0,024376076
-0,008186333
0,013791121
-0,008774313
0,008689916
-0,0061660903
-0,006138334
-0,03388339
-0,0122634685
0,008633483
0,009396458
0,0027989654
0,014255267
-0,0047908956
0,01380451
0,03480061
0,011239342
-0,0012767186
-0,00450024
-0,015207798
-0,057455555
-0,02355161
0,006689799
-0,00882502
-0,026263775
0,004149467
0,009722158
-0,1766097
-0,018062856
0,013533394
-0,00045083076
0,001383911
0,22863284
-0,0077890656
-0,008051735
4,7419504E-05
-0,01802362
-0,0031068618
-0,005142392
-0,013650301
0,01251101
0,009194752
-0,0070085754
-0,001032567
-0,02945448
0,0070212944
0,0070692147
-0,054645043
0,012609666
-0,022802949
-0,007421116
0,2880089
0,014998577
0,014777805
-0,0040923515
0,005188062
0,029894436
-0,041894864
-0,33916578
0,00228857
0,00013724681
-0,01569798
-0,43045992
0,030778838
0,024931934
-0,015087259
0,00074968283
-0,0027323123
-0,0066647027
-0,008026241
-0,20862335
0,02850677
-0,012621708
-0,29306647
-0,010965933
-0,0066440916
-0,014445775
0,007999822
-0,003397119
-0,4017099
0,019333592
0,024615955
0,00055666093
-0,004529554
-0,020098548
-0,025339326
-0,0025705332
-0,003546154
-0,0055289133
-0,009069945
0,004604367
-0,008223326
0,012128484
0,021497872
0,01270242
-0,014089176
0,006018205
0,004716697
0,009156344
-0,011732852
-0,3074563
0,015873771
0,0008779272
-0,001229655
-0,0059867804
-0,025284214
-0,0030563262
-0,010157651
-0,004047383
0,02253094
0,00070747855
-0,02469232
-0,011042934
0,006537805
-0,0065378495
0,0026829194
-0,0011667651
0,004761977
0,004769899
0,0041232216
0,022051938
-0,01725824
0,00095271645
0,019149201
0,27805632
-0,00021702873
0,0039083664
-0,026342804
0,023086792
0,015395029
-0,024911279
-0,009507211
-0,009841253
0,0066730347
0,009098498
-0,00722317
0,008522758
0,0008621205
0,0073194066
-0,015884401
-0,004594984
0,0021047145
0,00323691
0,1197165
0,0016864943
0,014331302
-0,010880324
-0,23481134
0,008193396
0,015452402
-0,014176155
-0,0009781506
-0,4604983
-0,022274053
0,010239811
0,0016550138
-0,47091806
0,023429835
-0,009968415
0,029695991
-0,011161377
-0,0067379405
0,011667054
-0,010748137
-0,06957913
0,011960324
-0,0031797548
0,010446075
-0,028191289
-0,0020025827
0,0062006717
0,012628878
0,03060364
-0,013592951
0,025177976
-0,019271458
-0,026274828
0,025141286
0,00079404894
-0,005688635
-0,0012509414
-0,0025712154
-0,0035825192
-0,003311008
0,010814819
-0,02405246
-0,0054474873
0,025116049
-0,021088645
-0,007288555
0,029194992
-0,0051749535
0,01767734
0,0027377831
-0,0064657703
-0,015427476
0,23791997
-0,004434252
0,016299428
-0,0024068335
-0,0015401556
-0,015496225
-0,016633363
-0,018076422
0,021392075
0,008369176
0,023786683
0,013981649
0,007230921
-0,05762883
-0,3961369
0,014301628
-0,02170922
-0,009632381
0,15664418
0,018725965
0,029341053
-0,0054873293
-0,008764168
-0,017939042
0,031624395
0,0018889837
-0,02909463
0,012645221
0,0024296069
0,022660226
-0,00489849
-0,0123852715
0,006160781
0,023281924
0,012262627
-0,004923021
-0,0072380165
0,002261508
-0,010963083
-0,023508439
0,02343889
-0,014226629
-0,008604043
0,03287373
0,017533619
-0,007853681
-0,012505653
-0,0052669835
5,686016E-05
-0,0070806015
-0,0049253004
0,02065137
-0,17854664
-0,07570712
-0,007693018
-0,011818185
-0,019288506
0,02645708
-0,35920447
-0,0012119191
-0,000813101
0,003715466
0,21568678
0,009451918
0,0042625456
0,020567318
0,0030686683
0,016220002
-0,003206501
0,36093003
0,010134216
0,025325805
0,003406695
-0,012501042
-0,17596684
0,009416009
0,024000611
0,10185545
-0,02420133
0,014514599
0,009050649
-0,021621669
0,010412924
-0,032606497
0,021694593
0,19342564
0,008048543
0,44233352
0,008664945
0,14007512
-0,011445966
0,003254847
-0,010741709
0,00843442
0,0068877996
-0,017755587
-0,007601317
-0,007987249
0,0035931866
0,04222514
0,0008601845
0,011605191
0,03691641
0,021403456
-0,27154934
0,4171974
-0,0052442383
-0,38729984
-0,045915294
0,026994875
-0,033015683
0,040676408
0,019593595
-0,025459262
-0,36865908
-0,01417875
-0,03734159
0,3595445
-0,0076224157
0,32798108
0,007180438
-0,016330574
-0,0050803167
0,013745429
0,038643178
-0,00787141
0,004416993
0,020981042
-0,02584396
-0,025325075
-0,08056906
0,001910321
-0,19524308
0,010855025
0,37895674
-0,004176186
-0,024036497
0,011007841
-0,031196717
-0,041417606
0,03800179
-0,022100726
0,010371447
0,04430566
0,47048232
-0,024775656
-0,0013393854
-0,27041197
-0,23247565
-0,02991273
0,0280607
0,02236852
0,012897787
0,010155635
-0,03067768
0,013080812
-0,023868183
0,0072827707
-0,30236232
-0,023019135
0,02378952
-0,021692494
-0,0146492245
7,801137E-05
-0,0061950227
-0,006013163
0,017773794
0,0035050428
0,027472967
-0,027594488
0,023030065
0,0014672378
-0,0026478309
-0,025524203
0,021557681
0,014886804
0,51085466
2,4185127E-05
0,010185798
-0,023806628
-0,027210558
-0,12382942
-0,005198827
0,011338105
-0,012201904
0,0047213556
0,027791146
-0,3718165
0,0026943528
0,021018563
-0,00353913
-0,10984488
-0,026644208
0,0015270225
-0,029589398
0,018177124
0,014363827
-0,0019888352
0,023410821
0,42752248
-0,0972083
-0,0061949836
-0,01453015
0,008168271
0,0046339915
0,019732516
-0,013867961
-0,038279776
-0,4619539
-0,35359284
0,0067621437
-0,0054297852
0,018098129
0,012492678
-0,26825166
-0,0068083764
-0,021084469
0,28993767
-0,17885117
-0,012130771
0,022424426
-0,016682768
0,0057223383
0,2729018
0,20224336
-0,020691602
0,028795654
0,0032690053
-0,00817132
0,2286468
0,02587642
0,004133902
-0,0103739165
-0,46164396
-0,017011946
-0,0022373626
-0,016502967
0,023325916
-0,00069572555
0,013079719
0,00039564242
0,022319589
-0,00090590585
0,014294406
0,018832562
0,013032816
0,014724605
0,008801994
-0,007984398
-0,025135053
0,018200932
0,016273726
-0,3595024
-0,009279829
0,012648591
-0,2824652
0,023005486
0,026766472
-0,011434514
0,009910467
-0,008763695
0,38836575
0,005223095
-0,0072174966
-0,00039582574
-0,00048588405
-0,005735926
0,052867
-0,0064859972
-0,0007182749
0,020360658
-0,0112290615
-0,026669523
0,018534007
4,666016E-06
-0,21852602
0,004689997
0,012625262
0,40059987
-0,1590298
0,02444655
0,0066378014
0,01665878
-0,0010413787
0,008006943
0,0030805075
0,00892995
-0,01037014
0,1704695
0,013051966
0,42580447
-0,20019032
0,01096431
-0,1299113
0,2526972
-0,00902443
-0,0050863214
0,015541048
-0,006325238
0,013532028
0,26345447
0,0013490155
-0,014127761
0,17976664
0,035416298
0,00050662534
0,021949751
-0,015522445
0,007392723
0,010859109
-0,011932087
-0,26516923
0,0058451835
-0,0071752155
0,37534428
0,02316161
-0,0101636
-0,0012667591
-0,30700058
0,009569482
0,010329859
0,003166954
0,017081417
0,013826704
0,007743495
0,017577115
0,21175376
0,21291167
-0,4966426
-0,005942255
0,02564169
0,048763562
0,036272373
0,07772722
0,26034665
0,32737604
0,012396193
0,0004853508
0,0026216558
-0,045702334
-0,028864922
-0,013946851
-0,019895365
0,0018592406
0,0070400517
-0,34089386
0,0046458463
-0,002989069
-0,14111674
0,0010039946
0,03384707
0,042688243
-0,013073097
-0,010130002
-0,0010773838
0,0111209545
0,034374733
-0,016314592
0,013104837
0,0003647634
0,0053592385
0,033367027
-0,22060637
0,0287358
-0,034040265
-0,3498057
0,0071295644
0,037822396
-0,010269608
-0,00019855199
0,025415454
0,50819045
-0,013652321
-0,005942169
0,0054151155
0,018105308
0,0009766383
-0,00047350794
0,09535747
0,013800918
-0,48005962
-0,014124624
-0,32629904
-0,024558907
0,031132447
0,03467917
0,007438374
-0,0016630315
0,004396854
0,047366757
-0,023439186
-0,020373134
-0,0009785589
-0,010906624
0,005947337
-0,021223487
-0,026023993
0,02191312
-0,004717472
-0,0016000448
-0,40773362
-0,007732491
-0,04145972
-0,0024480522
-0,025820062
-0,0031577325
0,0015292341
0,12939525
-0,0050532487
-0,023487074
0,046759095
-0,22548625
0,0065833447
-0,1363829
0,042171057
-0,027762951
0,0016130467
-0,009177676
-0,016820492
0,00785005
-0,015066039
0,12776943
-0,008177638
0,2432831
0,01876275
-0,00421877
-0,0048984955
-0,024905408
-0,0027425983
-0,00409019
0,1441033
-0,018745005
-0,0061582765
0,447326
0,17944705
0,004502694
0,027006036
-0,0023304475
-0,014071803
0,011896097
-0,1987979
0,0039219907
-0,004337024
-0,010025399
-0,011821008
-0,0062293704
-0,0027511735
0,102682896
-0,11654518
-0,008805746
0,0014243551
-0,0254066
0,009315246
-0,39674452
0,024901275
-0,019994544
0,020121323
-0,01465435
-0,0053295232
-0,03060059
-0,007209807
-0,03204632
-0,0013366321
0,009873012
-0,013874362
0,3998835
-0,14608228
0,28793892
-0,0440746
0,02954193
0,0028037855
0,03598673
0,13769704
-0,026003012
-0,027776845
-0,028620603
0,004135116
0,007439522
0,13980058
-0,024964655
0,0014939526
-0,02236303
-0,009624979
0,029802522
0,023169009
-0,20831604
-0,4461067
0,022350645
0,00013001094
0,00066502404
-0,011595636
-0,027884068
0,016050912
-0,0123018315
0,07640108
-0,010777031
-0,016569048
0,43071264
0,003121916
0,0051449942
-0,029581212
-0,029387536
-0,038058404
0,0073294165
0,13117157
-0,27539644
0,011439827
-0,015670981
0,02671534
-0,009865109
2,5305557E-05
-0,0021803908
-0,03714519
-0,093729526
0,0008704369
-0,00012113001
-0,039464727
0,0058291433
-0,2393397
-0,45481062
-0,010330728
0,047995623
0,003954737
0,015233265
-0,001819607
-0,069624595
0,08739901
-0,3836767
-0,0148368785
-0,0019659868
0,009731257
-0,0188638
-0,0042208917
-0,0036205265
-0,09177542
-0,042410146
-0,0018397542
-0,01756572
0,00690983
0,044526357
0,35388288
-0,0017463989
0,009450619
-0,010311094
0,0012976257
-0,0004620436
0,0017032699
0,009705724
-0,014245732
0,019225413
-0,01008429
0,020560557
-0,40256268
0,046572827
-0,012563302
0,014290524
0,22974595
-0,01800519
-0,010042136
-0,026546888
-0,0025178303
-0,40591717
0,49731746
-0,00035823195
0,019009558
-0,0711489
-0,0071659936
-0,20283501
-0,013396948
0,023274153
-0,01505171
0,028435856
0,020130226
0,007137811
0,26317927
0,004547541
-0,004821017
0,04696881
-0,025385836
0,0012950044
0,018413953
-0,06920476
-0,018425819
0,029003318
0,0091261035
-0,0030227578
-0,0017934934
0,01241317
0,011031758
0,015532243
0,018995639
0,012124564
0,18198384
-0,028839502
0,20412154
0,016586903
-0,077213004
-0,45646366
-0,3870438
0,007968777
-0,013976148
0,1690755
-0,016345344
0,0117407525
0,035618063
0,0035324267
-0,46036214
0,017929174
0,016130513
0,033799063
0,00979955
-0,021817034
0,0025470764
0,013336248
0,015059566
0,016414965
0,019601488
0,010690834
0,01929027
0,013435065
0,03959489
-0,22040254
-0,16568303
0,010062419
0,024131969
-0,3002654
0,007984528
-0,018092528
-0,002571435
0,2984042
0,008428525
0,010797981
0,010405372
-0,43416387
-0,0127929
-0,0006953993
0,012912393
0,23462385
0,14799356
-0,009393412
-0,28653097
-0,020858878
-0,0065399017
0,03750203
0,0224626
0,012344114
-0,01285441
0,0006522527
0,01813967
0,004282462
0,02244848
-0,0009924253
0,002997928
-0,023037072
0,012436346
0,3337028
0,01581323
0,01497915
-0,2380087
0,008547982
-0,01410478
0,012401369
-0,023129838
0,015432934
0,0405006
0,012402301
0,021588236
0,016624264
0,017130498
0,05569175
-0,002092593
0,45411384
0,026860787
-0,016346103
-0,021388482
0,02827747
0,025424752
0,00892077
0,020351402
0,014894866
-0,0020486156
0,0005907627
0,0070908507
0,003925974
0,031969197
0,013102858
0,0004912512
-0,02240758
0,39314324
0,0036030905
0,005824467
-0,0357062
0,2608485
0,009420304
0,00597768
-0,0075155655
-0,018046634
0,0005934822
-0,025672873
-0,27537376
0,024309771
-0,0038359084
0,007854643
0,02644878
-0,015342251
-0,012803083
-0,25782883
0,022986835
-0,04625599
0,03674719
-0,041200943
0,4326195
0,3775405
0,46418187
-0,011951548
-0,029315172
-0,010865652
0,0031383042
-0,027905472
0,024705952
-0,004242974
-0,027834157
-0,032917194
0,019332105
0,01259885
-0,021184046
-0,0011586217
0,044033747
-0,009740473
0,008166981
-0,028742306
-0,033716485
-0,27614057
0,022573967
0,004197783
0,008656903
0,45519203
-0,19065228
-0,0065417537
0,4368681
-0,032942522
0,0025402084
-0,0040253084
0,019732915
0,017221076
-0,2632592
0,0056209792
0,19375421
0,34874356
-0,019994311
-0,0001923148
-0,0051128264
-0,0021948698
-0,005861832
0,25261387
-0,011590829
0,009119881
-0,026828116
0,024903886
-0,23709257
-0,022784228
0,017727846
0,006099775
-0,03803065
-0,035083156
-0,009491078
-0,014869247
-0,0013040656
0,09926189
-0,014463778
0,036998466
0,013829065
-0,009494107
0,02640256
-0,0033984373
-0,00883146
-0,022468667
-0,32767582
-0,22957246
0,011112011
0,032058924
0,0049168984
0,14175224
0,17249791
-0,37573218
-0,024834616
-0,0061609168
0,40537712
-0,020643875
-0,050077997
0,005402422
-0,008333512
0,32936534
0,018995635
-0,011149479
-0,026846025
0,033451237
0,013194898
0,0052491003
0,07071862
-0,15471753
0,038475037
0,0043604174
-0,06668854
-0,014970432
0,012585549
-0,030632012
-0,004954891
-0,015262031
0,012968996
0,43748224
-0,027965587
-0,015365814
0,1491555
-0,008821311
-0,009772575
0,020252036
-0,24377713
0,21304938
0,023511188
0,023604965
-0,024519304
-0,005106656
0,043863803
0,4051992
0,0019607453
0,028932663
0,013159076
-0,015150637
0,02869432
0,013583875
0,022732897
0,010087688
-0,0015548561
-0,016475942
0,0032767018
0,0056161927
0,016558073
0,14346257
-0,009615576
-0,46150547
0,35648552
0,021883257
0,0050413823
0,032247495
0,037403382
-0,2391775
-0,023230752
0,0153677035
-0,00020153896
-0,005951158
0,00882318
0,04052315
-0,0021433947
0,004435559
-0,00069617986
0,018193476
0,013716811
-0,0151056275
0,015088027
-0,02185712
-0,007741306
0,0054792273
0,0054423995
0,01027594
-0,016252248
0,01675325
-0,010532681
0,008456236
0,024237288
0,0006040374
-0,00046480045
-0,024342857
0,1426834
0,0016257087
0,0077770012
-0,0057004434
0,29808152
-0,01825028
-0,11538095
-0,00087879953
0,022519775
0,022188405
-0,015977623
0,0030210156
0,0036700654
0,003369788
0,019265357
0,0032915021
-0,026628679
-0,0139636565
-0,018618032
-0,0045211823
0,0021176573
-0,33732605
0,00013406773
0,015916472
0,004820058
0,26132065
-0,03585827
0,0014740124
-0,09998146
0,013324968
-0,00038836137
0,016976181
-0,005137696
-0,0111481445
0,0018717294
0,026735637
0,017962448
-0,017843377
-0,0006429176
0,1248341
0,010109937
-0,0041151764
-0,00059374364
0,46949452
0,23698223
0,38894904
0,0067992373
0,005468311
0,009507802
0,00285402
0,18724371
-0,0031436037
0,004813322
-0,01641143
0,15221334
0,3131274
-0,0021634388
-0,008076069
0,010435114
-0,0031228906
-0,0075200447
0,014282839
-0,3395542
0,14582865
-0,018116757
-0,48846447
-0,33568636
-0,016094504
-0,00446456
-0,0051656207
-0,007726949
0,011824449
0,011992626
0,022651581
-0,03607069
-0,012235471
-0,0064302264
-0,0103285555
0,0032812676
-0,0039896998
-0,00680899
-0,0052111736
0,0010260367
-0,39881712
-0,024647737
0,016653158
0,0026565723
-0,008240963
0,0029331301
-0,0055325856
-0,0019402689
0,0030190472
-0,010943134
0,006219304
0,0050343606
-0,015061958
-0,0054133055
-0,0045425175
0,018468535
-0,011912021
-0,012648813
0,0052270223
-0,29648182
0,122966886
-0,005139757
-0,021106973
0,0011649
0,0027592685
-0,012632562
0,025167376
-0,0026011213
-0,01910639
-0,0024919952
-0,012324246
0,026300555
-0,0012092222
-0,011875864
0,0146547705
0,09495275
0,010373769
0,07432564
-0,017988687
-0,0021956381
0,0036483172
0,008701346
0,00076143007
0,012739413
0,0050160973
-0,002573895
0,0027154193
0,26378784
0,36228526
-0,024139749
0,001825979
0,023697697
0,024144728
-0,009957346
-0,14796425
-0,011903861
-0,010133564
0,011399977
-0,00033674072
0,025264073
0,0003744733
0,006660364
0,013873531
-0,0045504323
0,008564855
-0,0029772448
0,008469573
-0,005027723
-0,01990114
0,011063095
0,15882015
-0,0011866287
0,011382779
-0,0069463756
0,006031125
-0,005178824
-0,004202826
-0,0073188697
0,024098134
0,18756896
0,0075141713
0,0016601065
0,0030449235
-0,0026320252
0,031986143
-0,0042670234
-0,0094387345
0,0038706453
0,018179877
-0,0014374896
-0,17962638
-0,0012684669
-0,012050288
0,0043357527
-0,008019785
-0,011121602
-0,018647637
0,011588651
0,017805574
-0,0035514585
0,009221005
-0,4089348
-0,0038847055
-0,019082012
0,36101496
0,019096278
0,012354928
-0,0018961679
0,00353128
-0,0009840513
-0,007908238
0,005446401
-0,002330359
-0,1654546
-0,019403594
0,0107395295
0,011629462
-0,049639504
0,022555409
-0,015034085
0,3789133
0,0007316669
-0,011212843
0,04871639
-0,011564777
0,49565977
0,0010100425
0,002989363
-0,09062279
-0,017419843
0,0019923353
0,008004668
0,02184669
0,011042851
-0,010854815
0,0020615691
-1,7605134E-06
0,011671268
-0,005650876
0,019956775
-0,01490344
0,26025832
0,06916404
0,0042722635
0,001023045
-0,4709688
0,0051640947
0,0053141424
0,034131203
-0,012034972
0,0047143707
0,005155474
0,0018433289
0,0071150246
-0,009628949
0,3124967
-0,039675046
-0,016707473
0,029155843
0,018395364
0,023797173
-0,014257075
0,016611477
0,0790419
-0,10942995
-0,5038265
0,015242534
-0,0031332828
0,0011819383
0,021308966
-0,017761791
0,0032891987
-0,035057206
0,026253661
-0,013772723
0,04020166
-0,016058914
-0,0017741505
0,021405887
-0,020519637
-0,0012766416
-0,021243483
0,009053453
0,046028122
-0,0016758514
-0,01139926
0,01008174
0,0015583178
0,00796027
-0,032339834
0,3245792
0,01042941
0,23508312
-0,027105033
-0,023631101
0,0045092306
-0,011765113
0,009541122
-0,29739982
-0,019713964
-0,033092856
0,002916003
0,005431293
-0,035224937
0,010589236
0,009083711
0,0058289575
-0,0038351454
0,016995497
0,0015966147
0,43057135
0,035028026
-0,025075482
-0,008774207
0,003604108
0,1573077
0,009221436
-0,02101406
0,017695064
0,0247805
0,007801531
0,004556956
-0,0071891695
-3,1801697E-05
0,011231042
-0,031685136
-0,006509054
0,119263574
0,013222396
0,0049745534
0,009429809
0,008482092
0,19225708
0,016778983
-0,0014002469
0,0114633925
-0,011458794
0,0024392027
-0,0068833716
0,013106178
-0,007172669
0,010170221
0,015648767
0,0047348444
0,0006896382
0,0017430661
-0,009137494
-0,3646787
-0,21323657
0,011507056
-0,0004999752
0,0033377884
-0,022196388
-0,013790093
-0,0116879195
-0,17154768
-0,010096767
-0,073386714
-0,0026403146
-0,4966913
0,015285136
0,027839253
0,013440802
0,017722594
-0,27357614
0,0063353144
0,0038153916
-0,005027913
-0,027118837
0,013371506
0,016183252
0,004766291
-0,005333657
-0,0350937
0,010195282
0,00294731
0,0011846591
0,014124212
-0,0024647503
-0,036460716
0,010380722
-0,021852951
0,005475047
0,36629036
-0,022011064
0,010118074
-0,26421213
-0,010391281
0,2960805
0,25909886
0,005644165
-0,0021073022
-0,022161545
0,003986612
-0,019590314
0,0017973036
0,006174057
-7,5886896E-06
-0,0145638995
0,0027453594
0,4101841
0,0070053358
-0,0042883954
-0,020791553
0,060830217
0,44180578
-0,00042682712
-0,0023265164
-0,022241058
-0,014920329
-0,14706907
0,0074529885
-0,004030825
-0,008610626
0,0122209005
0,008002194
-0,48585036
0,0035683026
0,003818495
0,23725629
-0,018690007
0,29459542
-0,0032032046
-0,011181775
0,0027148935
0,36597055
-0,0073206467
0,012481493
0,0070552896
-0,014286967
0,3202969
0,021061776
0,007472252
0,02142527
-0,021499304
0,35386753
-0,17856751
-0,015550711
0,012425427
0,019089466
0,48809168
0,032027457
-0,026755972
0,017517772
-0,02069914
-0,0088865105
-0,008053305
-0,0072469297
-0,48040247
0,02046186
0,5290199
0,0059716073
0,014088111
0,0025123865
-0,22179507
0,01797515
-0,0013830592
-0,2987871
-0,022445465
0,007317826
0,021781556
0,0071643037
0,0019685593
-0,0052130832
0,026750278
0,01793883
-0,0016745513
-0,03766534
0,36761856
0,015175607
-0,02287843
-0,03288341
0,0052032815
0,016946513
0,29391474
0,004911708
0,48084295
0,0038575914
-0,007018171
-0,013561937
0,018281937
0,025397992
0,000872974
-0,3070439
-0,35657874
0,018693825
0,49418494
-0,029515391
0,44588932
-0,22410028
0,015084289
-0,0072884355
-0,027418502
-0,45790038
-0,22944383
0,0098821325
-0,02677614
-0,0049154526
0,12517676
0,006168457
0,012676221
0,008421589
-0,016895624
-0,3357818
0,0045758034
0,02038029
0,025115857
0,006732768
-0,033911373
-0,00752223
0,017444352
0,015102327
-0,0153531935
0,029754775
-0,032247134
-0,010369659
0,014204977
0,025417052
0,008706541
-0,00821061
0,02388803
-0,0046737962
-0,001182079
0,0072027864
-0,45755193
-0,0061159427
-0,023248482
0,11829932
0,021857122
-0,02327129
0,003060301
-0,014632943
0,15407637
-0,02374641
-0,008479234
-0,01937984
0,15922256
0,0063185585
0,006352602
0,037130915
-0,022867862
-0,13969572
0,011420642
-0,008436782
0,011252395
-0,008098889
-2,2861286E-05
0,008792376
-0,25903475
0,00051340956
8,871998E-05
0,031002369
-0,35492286
-0,007951683
0,37025425
0,0025559682
0,011749486
0,016884003
0,08475547
0,0016619494
0,027779052
0,03214493
-0,008641771
0,013494217
-0,010565395
-0,019728858
0,005786845
-0,039567236
0,021310436
0,0005098713
-0,1320767
-0,008478127
-0,39942366
0,37892982
0,02071814
-0,0018155753
-0,013785931
0,011734631
-0,019750275
0,042600323
-0,0015053344
0,03880203
-0,12010382
-0,06162768
0,0019955449
-0,25041622
0,008183678
-0,03278005
-0,021187462
0,05375293
0,0034286417
-0,011343001
0,034344237
0,0060365456
0,0052922373
0,006209687
-0,01790293
-0,02265376
0,008789793
-0,014302877
0,020038282
0,3605163
0,25451797
0,053837657
0,032179754
0,013930471
-0,34721655
0,30659157
-0,045921125
-0,008768283
0,019049106
0,17503287
-0,012478974
0,016886538
0,0059722597
0,008816321
0,015734399
-0,008963475
0,013297238
-0,0038208691
-0,0138230715
0,01110329
-0,023996383
-0,031252872
-0,0057305237
-0,021536037
-0,014729593
0,0028447763
-0,016979342
0,010781214
0,0073367544
0,0006695795
-0,30258688
0,011588972
0,020454494
0,0069121486
-0,35359246
-0,016123729
-0,012135224
0,0019467187
3,5903966E-05
-0,003570448
-0,0053328723
0,014394388
-0,015487759
0,013834227
-0,029165361
0,025379429
-0,007360267
-0,4409968
0,010367778
0,016731935
-0,029648233
-0,028110165
-0,0039191707
-0,3432539
-0,017632404
-0,3791915
-0,004949608
0,00064454856
0,0051931185
0,025251111
-0,0038939219
-0,010701823
-0,021388227
-0,005170138
0,0026448881
0,26421168
-0,016600303
0,0169413
-4,045151E-06
-0,0011812731
0,00081497565
-0,016172968
-0,011013946
-0,023748798
0,4497591
0,20446418
0,0024037757
0,44025448
-0,010063258
-0,0145217925
0,0031877933
-0,025297627
-0,019225534
0,0067615346
-0,0050800988
-0,3551615
0,0014813102
-0,2700387
0,025107613
-0,48465464
-0,06710542
0,025927968
-0,029522976
-0,0074207326
-0,0011134405
0,44080576
-0,023128893
-0,014401959
0,018678432
-0,017563473
0,0028673783
-0,0066838227
0,060412526
-0,0037437957
0,003258018
-0,30793944
-0,030538525
-0,02343029
0,008400916
-0,0020542212
-0,019909447
0,020777944
-0,019540096
-0,019114736
0,019356817
-0,041766167
-0,38545662
0,21272218
0,34869424
-0,027536264
-0,0027760821
0,075888544
-0,038312167
-0,027553067
-0,31106073
0,0146750165
-0,004654134
-0,47499666
-0,014264218
0,02346283
0,040644247
-0,33576885
-0,037016377
-0,03771608
-0,021281881
0,017604603
0,023510847
-0,021208247
-0,0012467889
-0,028469006
0,43953133
-0,048302535
-0,013616161
0,0111222705
-0,04081257
-0,0031928278
0,021015396
0,0021065269
-0,052405454
0,025251592
-0,0049726353
0,0023834282
0,0023853716
-0,41187403
-0,14907077
0,0039011363
0,004854777
-0,028653681
-0,022243872
0,39932457
0,0042572045
0,04114452
0,022284044
-0,010486919
0,014334825
-0,0045699477
-0,062975965
0,42710745
0,20866267
0,015102089
-0,031271856
-0,035956535
-0,015664166
0,13799676
-0,013741302
-0,004133044
-0,04597032
-0,4875091
-0,003707892
-0,02082286
-0,0012093583
-0,021168891
-0,017071886
0,018937701
-0,007930564
-0,04240047
0,2867422
0,41802725
-0,01253927
-0,0005982404
-0,0029283115
0,01830221
-0,041162297
-0,0035424675
-0,0103835855
-0,0037197042
-0,0052040713
-0,006442749
0,015299447
-0,4793482
0,0036936365
-0,03212907
-0,02505435
-0,0051129456
-0,005514618
-0,0281204
0,0077142636
0,00133997
0,01721701
-0,0059595285
-0,0060881395
-0,0038592734
-0,23546389
-0,011315372
0,26498854
0,0015404328
-0,008841853
0,015620295
0,015775926
-0,09767995
0,010478851
-0,057142578
-0,0029080438
-0,0037314876
0,0055981525
-0,009361829
-0,025785372
0,0037597895
0,31395605
-0,024541374
0,47683766
-0,00621787
-0,015000021
0,0062625716
-0,023523342
-0,009797032
-0,009946168
-0,014444548
-0,02187062
-0,010930833
0,001004325
0,021742133
-0,1393884
-0,010147477
-0,0032158075
-0,014674682
-0,01807212
-0,00834984
-0,012008934
-0,009505937
0,0995585
0,033523392
-0,23740633
0,0064245523
0,002818585
0,13922139
0,0189205
-0,02331565
0,012952895
-0,027834905
-0,00037090344
-0,013118525
-0,018616626
0,017166933
-0,08739122
-0,016821548
0,010759599
0,03572009
-0,00061209407
-0,002422675
0,16525857
0,0053169862
-0,006800225
0,028029654
-0,011680617
0,0049726497
-0,022653436
-0,40196994
-0,014740437
0,02112153
-0,31047153
0,0024705885
0,008208901
0,011154417
0,0037145924
-0,007657421
-0,019384982
0,1668533
0,0067126653
-0,12230761
-0,0096104
0,2827049
0,0143302
0,037224054
-0,013140535
-0,0024165823
-0,0027804484
-0,03113974
-0,0019310947
0,00047033792
0,005732416
-0,28856814
0,08561937
-0,3919103
0,014458552
0,38782215
-0,033683494
0,018556925
-0,40906394
-0,008571012
0,024140943
0,027883198
-0,015796034
0,006497909
0,0048666866
0,00771441
-0,018190257
0,00075801933
-0,008087144
0,020985484
0,0001547734
0,2173094
0,0023534778
0,02979275
-0,26404122
-0,006823904
0,0011998476
-0,16345732
-0,016792161
-0,36244607
0,018885463
-0,0054246467
-0,26363805
-0,02756102
0,09027569
0,011119003
-0,081370436
-0,13938935
0,0067708045
-0,35927966
0,010211029
0,04135468
-0,004271841
0,24265729
0,011893347
-0,028142327
-0,017883923
0,018523434
0,015929848
-0,26906744
0,002962906
0,0075057526
-0,024768949
-0,0007288627
-0,0078074876
0,031074937
-0,009192993
0,007667998
0,0052091777
-0,0052021802
0,0037851047
-0,02017005
0,0025909336
0,013376293
0,015635014
0,0072923345
0,023728304
-0,030639695
0,014938384
-0,011341307
0,0010227002
0,02681453
-0,014831336
-0,0361831
-0,042153392
0,02207889
0,04551926
-0,035631113
0,004676502
-0,028060026
0,013766782
-0,03218634
0,41901475
0,024221487
-0,013245225
-0,016484117
-0,0074856975
0,014068626
-0,038866047
0,027582081
-0,0062348964
0,0005730105
-0,0011542757
0,040890194
-0,008000749
0,008950807
-0,18838501
-0,029930722
-0,027071781
0,027003737
-0,013942817
0,028338648
0,026237704
-0,018206168
0,013173743
0,0022821124
-0,02959263
-0,015577783
-0,012367422
0,013799616
-0,0063390452
-0,027499339
0,38847268
0,022926804
0,0078049805
0,015076704
-0,012267491
-0,02061795
-0,006031988
0,0070772
-0,25750744
-0,0079862345
-0,03822322
0,009498495
-0,017418783
0,017810596
-0,46405172
0,023292514
0,007959631
0,002384771
0,013515726
0,009927463
-0,018956907
-0,009731975
0,0004587985
0,0074797813
-0,005029568
-0,4387919
0,003307329
-0,011125546
0,012024056
-0,0020243798
0,00033862126
-0,3447389
-0,0087621445
0,17101626
0,023758996
-0,01566706
-0,002334009
0,01138031
0,025745189
-0,4770185
-0,22735399
-0,061053585
-0,002802203
0,0023171084
0,021440094
-0,2829464
-0,44679186
-0,025279488
0,012209147
-0,0020457099
-0,0019376522
-0,05616051
0,010155202
-0,00048591112
-0,010754939
-0,000560113
-0,42344433
0,019732261
0,0027957403
-0,012238321
-0,01386538
0,008124909
-0,0024171933
0,00021902905
-0,017350253
0,011279603
-0,0023848952
-0,013011745
-0,004429748
-0,014697879
0,08553534
0,0015896488
0,0039418684
0,009869351
0,028007295
0,00032775174
-0,0005347649
0,0031597265
-0,105411135
0,0090695955
0,24882732
0,032178506
0,015698865
0,047413096
0,013069313
-0,032946248
-0,04376955
-0,13179733
0,014554865
0,38102677
-0,444701
0,22897394
0,013854418
0,013612022
-0,19861689
-0,26661453
-0,4553454
-0,056172416
-0,0094918525
0,41143695
0,18799144
0,002743909
0,033957653
-0,009031751
-0,11336715
0,011494597
-0,049812667
-0,012550171
0,013270504
0,045389697
-0,017661393
0,03428912
-0,028334547
-0,017898712
0,039961148
0,02632492
0,025686806
-0,37529126
-0,03401642
-0,023431405
-0,017005237
-0,011414554
0,032006275
0,028250799
-0,23424813
-0,0067463536
-0,006738486
0,037891377
-0,0538908
-0,025073724
0,016320119
-0,0006049185
0,23614763
0,011178077
0,18047456
0,4109993
0,018995546
-0,021643156
-0,012650428
0,15072991
0,014327271
0,21109828
-0,015747111
-0,12087224
-0,0032976747
-0,0077433605
0,023414223
-0,013355024
0,0013615316
-0,012998109
-0,008533238
0,00982769
0,008085546
-0,009861305
0,36130318
-0,009644322
-0,014540292
0,015323
0,010450512
0,39764097
-0,26818594
0,010843549
-0,004880379
-0,0063111754
-0,0072961827
-0,34859145
0,008583861
0,0048092096
0,0038352872
-0,032090675
0,016327413
-0,009204848
-0,15563558
-0,024068162
-0,012536905
-0,008677244
-0,020723771
0,0030040496
0,02872063
-0,4246023
0,012561382
-0,017299436
0,012036102
0,34105334
-0,008802215
0,010643996
-0,13747789
-0,030652186
0,047285583
0,0138517395
0,26832652
-0,0027253798
-0,03845406
-0,007472778
0,00919494
0,022224838
0,020479253
-0,12449186
0,012263042
0,032166053
-0,0118292775
0,0043634623
-0,02733443
-0,01705139
-0,008187342
-0,022117894
0,016598461
-0,009491051
-0,0075269938
-0,0042865705
-0,037048575
0,0020009826
0,01057566
-0,041843876
-0,005087874
-0,014526363
0,25541973
-0,010150078
-0,018388856
-0,008942608
0,015566591
0,2605802
0,004361467
0,015601506
-0,03009971
-0,0015172362
0,00922051
0,0121526485
0,00031901884
-0,064891316
0,01705341
-0,0027446186
-0,002439888
-0,01193903
-0,24890855
0,0016180541
0,0025689967
-0,03959342
0,207729
0,005134768
0,0039390563
-0,021312296
-0,017599128
0,0014416506
0,047175627
-0,00640741
-0,02401912
-0,007482946
0,02209825
0,022170464
-0,040481362
0,015685538
-0,024732517
0,019071907
-0,048869513
0,3861409
-0,030140428
-0,34203893
0,0061772773
0,0365601
0,0034323202
0,0067690085
-0,009988604
-0,10414627
0,019749226
-0,01781144
-0,013034269
-0,008379156
-0,029680021
-0,023611227
-0,004160555
0,046200722
0,27471024
0,027641011
0,013098842
0,04897503
-0,008104093
0,0059310663
-0,05189684
0,060308963
-0,020791242
0,019787265
0,47892633
-0,020759588
0,3469054
-0,05360376
-0,0030508658
0,009632954
-0,010252866
0,03343039
0,008750807
-0,35312074
-0,026087053
-0,012138645
0,03901713
-0,015968312
0,013807213
0,020986035
0,00036024465
0,07552523
0,00936646
0,033679493
0,005382533
0,009351158
-0,021007309
0,017058725
-0,17659101
-0,014120871
0,019044027
0,33543688
-0,0030010454
-0,0043435865
0,011438428
-0,44964188
0,0074043362
0,014776269
0,031942002
-0,10073258
0,0067061577
0,019895004
-0,13720979
0,06214876
0,013200637
-0,02955357
-0,04499191
-0,3031793
-0,41207525
-0,31554246
-0,01185753
0,03888021
-0,0389099
0,024589615
-0,0014652561
0,008508869
0,01417061
-0,19822182
0,028744502
-0,011857251
-0,015802542
0,39843366
-0,024595547
-0,05241604
0,024045851
0,019915499
-0,2950953
0,0070734685
0,06361021
-0,025889428
0,014157104
-0,07581948
0,07194413
0,006203836
0,006887986
0,021897983
-0,3432852
-0,018635552
-0,026734259
0,2498682
0,02800059
0,06433085
0,0029134278
-0,053956494
0,004268776
-0,00854174
0,33925152
-0,31429875
-0,36015838
-0,04583695
0,045312848
0,024217103
-0,015962832
-0,014785022
-0,005350003
0,032364406
0,46215385
0,029371712
0,021400878
-0,029489392
0,024904445
0,02867673
0,2756666
-0,04408554
0,0035963452
0,025445398
-0,011995922
-0,0012507986
0,013333663
-0,021190818
0,041061204
-0,021374011
0,004328085
-0,012383692
-0,2375709
-0,09669931
-0,1273062
-0,023944495
0,026035124
0,011798447
0,05836146
-0,007813723
0,009148941
-0,069423415
0,019486932
0,02607802
0,022429397
0,047945075
-0,00053537235
0,10507182
0,055655282
-0,0101935705
0,2483209
-0,0049585844
0,024455864
-0,0246485
0,014885446
-0,04782417
0,013329781
0,059228897
-0,025010409
0,44521043
-0,5478889
0,025408652
-0,0013063947
-0,0038855562
-0,040126193
-0,0008736552
0,34094718
0,0010877376
-0,008505975
-0,19701527
0,0012750024
0,027619356
0,058523264
-0,013491969
0,120239936
-0,03871483
-0,001199332
0,028745215
-0,018511364
0,02910996
-0,015699478
0,07385791
0,009895046
-0,0058904174
-0,012717438
-0,022330651
0,027362648
0,0055486155
0,027132355
-0,36274847
-0,060634747
0,026997756
-0,014771361
-0,040616285
0,017996155
-0,17963782
0,015267616
0,0014873863
0,0008227155
-0,2714341
-0,19715495
-0,019981205
0,01947804
0,029224928
0,002201512
0,029404089
0,03919041
-0,13338074
-0,0028010719
-0,053998012
0,022898646
0,010275988
-0,24063872
-0,006176082
0,004552375
-0,01677924
0,0026180036
-0,037393186
0,044133235
0,019631028
-0,0037967018
-0,0034140886
0,025674248
0,33886498
0,044280674
-0,010773475
0,18904598
-0,019905029
-0,19729649
0,03567545
-0,008694931
0,39674512
0,26724246
0,059863914
-0,01181214
-0,016794434
-0,0035566306
-0,0056075854
-0,01400572
0,053864248
-0,091450214
-0,40354815
0,013089384
0,018584887
-0,015589176
-0,4963957
0,09828966
0,07769299
-0,010356394
0,042802103
-0,035755858
0,010712524
0,0035899417
-0,0037362103
0,01832338
-0,029212292
0,019634642
0,35756177
-0,46294785
0,0134230275
0,0081214905
0,009496425
0,016018188
0,03962218
-0,022375256
0,30686006
-0,01013799
0,015883315
0,0042544818
-0,007646
0,03784218
0,018336631
-0,014159775
-0,0035500757
-0,01939149
-0,11302856
0,022384478
-0,0049435697
-0,00086346397
0,0013363549
0,036127
-0,0064400723
0,021655995
0,01918612
0,004336342
0,49175224
0,012436635
0,015352562
-0,006244364
0,021299694
0,029778855
-0,41051382
-0,0049858103
0,04180094
-0,00030661543
-0,017754963
0,002966306
-0,41077626
-0,0035058253
0,019200347
-0,006390743
0,03209018
0,0006934696
0,04832862
-0,030408518
0,02225725
-0,04834391
0,026172495
-0,023700371
0,03765438
0,053332146
0,03797882
0,008274119
0,30633625
0,040708765
-0,0006352062
0,24149019
0,005029482
0,022151917
-0,0036083756
0,0029196038
-0,05163726
0,034620326
0,0040049297
0,040216878
0,20493974
-0,013913324
0,019796772
-0,008055165
0,02447864
0,15508357
0,023016103
0,0056318995
0,006827645
0,012037693
-0,3456266
-0,363932
0,024677994
0,0076536196
0,050069325
-0,023710843
0,0052724546
0,00015094999
-0,38621694
-0,029138643
0,041521486
0,06209865
-0,0061040265
-0,019318694
0,018385984
0,010350474
0,038388416
0,035016567
0,023123162
0,042914066
-0,4265488
0,0032871433
0,17673688
0,018072536
0,011307208
0,01672773
-0,0021406137
-0,013921783
-0,02238845
0,3764044
-0,0034843213
0,0096366005
-0,007428763
0,0018639269
-0,010991809
-0,017717768
0,021779992
0,40193632
-0,050161354
-0,036299765
0,016901666
-0,004440467
0,018286338
-0,017438306
-0,0030713158
-0,014660257
0,0057396125
-0,23428385
0,0074289385
0,3867455
0,48003912
0,15915172
3,028701E-05
-0,00896769
-0,019337378
-0,0064479755
-0,008717479
-0,0052482975
-0,027623234
-0,02616817
0,18144706
-0,00703003
-0,036728416
0,18442374
-0,0026005236
0,0032209533
-0,020069037
-0,014520346
-0,002103319
0,40554807
-0,009272954
-0,024543833
-0,02082392
0,016738895
0,005601828
-0,003175458
0,0043778075
-0,02597423
0,0021424228
-0,02314315
-0,014715331
-0,006546406
-0,0022534726
0,0013045634
0,015299669
-0,011522134
-0,017043425
0,06421969
0,014402158
-0,03327014
-0,03627775
0,024759691
0,019566385
-0,0070159356
-0,047852267
0,021778397
0,2070157
-0,07105202
0,014729043
0,0009327556
7,2972434E-05
-0,014812643
-0,42899075
0,04594312
0,40476915
0,0056919027
0,004267786
0,00796694
-0,028833058
-0,032049954
0,051769923
-0,0024462338
0,0027534214
-0,033543956
-0,03308902
-0,005866783
-0,19623867
-0,02000049
-0,3318852
-0,0570579
0,026815185
-0,008993349
0,08946981
0,012090704
-0,029388817
0,035572123
0,017166015
0,011775951
-0,41244826
-0,014855157
-0,0060396562
-0,10339387
-0,0013417571
-0,15771808
-0,0043176087
-0,024986554
0,10742816
-0,062383767
-0,021519354
0,024465045
-0,03566961
0,026271401
-0,49209252
0,038081944
0,008020302
-0,030290963
0,017933484
-0,102107026
-0,31469935
-0,024238367
-0,047800567
0,00015057136
0,045656625
-0,008964415
0,010968624
0,3941914
-0,017079938
0,018954966
-0,39026347
0,028803675
0,011945409
-0,011687044
0,043890577
0,032068938
0,022863898
0,3396578
-0,022882747
0,018347915
0,23983765
-0,012431126
0,048022367
-0,0004620409
-0,2426413
-0,008086208
-0,006543764
-0,0038027498
0,023439344
-0,012405416
0,0076740724
-0,010460287
0,28677177
0,29388696
-0,021885842
0,026590304
0,029662466
-0,19767807
0,4302884
0,037543744
0,006016134
-0,01604411
-0,0005723044
0,034575
-0,34147814
-0,003987928
-0,0073477193
-0,017891668
0,024044244
-0,003158015
0,03063629
0,022599187
-0,043064117
0,03269784
-0,028843615
-0,00045290776
0,046270683
-0,026658796
0,007192231
0,0026308866
0,2959932
0,015300578
0,0146587575
-0,014027099
0,019191576
0,12256441
-0,013333163
-0,013218116
-0,024530683
0,108754754
0,008923179
-0,0062294547
0,41170397
0,26122612
-0,038380742
0,0018237173
-0,022410976
-0,4178531
-0,0049151285
-0,022004511
-0,019907067
-0,43640438
-0,013780249
0,006639476
-0,020289335
-0,002733369
0,018193189
-0,0017319262
0,011817799
-0,008834097
-0,0060543115
-0,009843674
-0,03325376
-0,007079367
0,018723875
-0,010743345
0,017618928
-0,44442815
-0,016145518
-0,010726134
-0,32109123
0,29541028
0,008669458
0,010771208
-0,019863063
-0,0119705405
0,008414262
0,015083225
-0,008812738
-0,0061978735
-0,015007257
0,02953231
0,010053438
-0,01906326
0,11465447
-0,029695205
-0,01715209
0,0084975
0,0050325342
-0,008059974
0,0045421408
-0,0007240455
0,01663924
0,077169925
0,0046953293
0,0059752977
-0,013647648
0,0016410305
-0,3667228
-0,0044576814
0,02026955
-0,005250288
0,022286614
-0,0031676984
-0,01456558
-0,0107753975
0,001961299
-0,46719602
-0,008813504
0,009102059
-0,17129092
0,0043583945
-0,0068826624
0,019096704
-0,03103272
-0,0025956412
0,011938645
-0,010548531
-0,0038092893
-0,031248137
0,0026636876
0,018615095
-0,012581784
0,001352047
-0,01710982
-0,01843914
0,03646683
-0,017660836
0,0056999926
0,013585689
0,00014872
-0,012161489
0,0008346282
-0,00040866807
0,0062981746
0,46014914
0,43390676
-0,009597719
-0,007907689
0,063376196
-0,13134108
0,0038904874
-0,30404347
0,0033171116
0,013201723
-0,015487051
-0,008673535
0,012544902
0,034411874
-0,0021473027
-0,0090617575
0,059099216
0,011974449
-0,0021637084
0,021073502
0,0037743913
0,010417363
-0,017980238
-0,013915341
-0,43852723
-0,0047389274
-0,32128528
0,0033167102
0,18928742
-0,021522451
-0,011130172
-0,011089941
0,0029172893
-0,015204045
0,015812973
0,18043639
0,24267599
0,00829983
0,028929148
-0,016689977
-0,0055979774
-0,463655
-0,0029110666
-0,010114356
-0,02343956
-0,0065357904
0,0059757214
-0,018537967
0,0069811638
-0,020494822
-0,003482572
0,018769728
-0,5026684
-0,033490162
0,009846865
-0,009479005
0,015370705
0,44299346
-0,0131954
0,00254677
-0,007120981
-0,003845102
0,49407673
-0,0152639495
-0,014763183
0,012348882
-0,008670029
0,034054358
-0,02318683
0,0036851368
-0,010966807
-0,012356239
0,023693737
-0,0059071286
-0,020756327
-0,015526074
0,019941246
0,03711924
-0,00045686399
-0,18151544
0,004531657
-0,008461617
-0,017255293
0,026858697
0,029473502
-0,010911842
-0,037801802
0,017379578
0,0180975
-0,030928893
-0,039438553
0,009092463
-0,46166113
0,027746372
-0,00088952744
0,020985179
0,01370194
-0,012988121
-0,016218169
-0,003636253
0,014309303
0,076688446
0,44324312
-0,01159061
0,0014485542
-0,021292776
0,0010308537
-0,019442013
0,02200956
-0,023759097
-0,06896728
-0,03168605
-0,00939138
0,0043313997
-0,04539452
0,03898457
0,010546043
0,27071273
-0,02708333
0,071890995
-0,03190002
-0,03744448
-0,019319724
0,0011543283
0,027683653
-0,015192844
-0,016099468
-0,004308437
-0,017603822
0,054375377
-0,00095172756
-0,023437642
-0,29223883
-0,025961548
0,40376753
0,0018391546
0,008168575
-0,0078854365
-0,0041374248
0,00983293
-0,008195122
0,0037196307
0,015055825
0,018274348
0,0062012733
0,00092145836
0,48146886
0,0030479215
-0,01657222
0,04203637
-0,0015484574
0,0088098915
-0,4428951
0,0120854555
-0,015251282
0,00520803
0,02735679
-0,058552176
0,00044645794
-0,008966821
0,4995129
0,03011681
0,06489116
-0,13723531
0,37534508
-0,42444456
0,002915936
-0,14948572
0,0018013135
0,00379761
0,007323276
-0,014903342
-0,02487776
-0,0004621437
-0,018598273
0,023583176
-0,0027734805
-0,007418109
-0,014830325
-0,009134154
-0,0006898659
-0,02242298
-0,47652742
0,03177737
0,23582539
0,013571578
0,019575527
-0,012979849
-0,010932707
0,017913088
-0,019358473
-0,25128558
-0,0006709507
0,0069717597
-0,0037486476
0,018566962
-0,031195784
0,006412085
-0,44675532
-0,002857877
-0,03526168
0,028698295
0,015517958
0,005887191
0,0073270993
0,0103009185
-0,032918133
0,026982829
0,02808423
0,022178825
-0,027182313
0,02108874
-0,015412082
-0,015767222
-0,016284958
-0,0024170128
-0,009074454
-0,002370643
0,071703315
0,00015822679
-0,018174032
-0,029810391
0,011750848
0,0051401057
0,006827349
0,011038389
-0,014157083
-0,01048428
-0,031307746
-0,043733753
0,041958712
-0,07132016
-0,04022675
-0,014350191
0,0065874252
-0,029194117
0,041011762
0,0015859776
-0,2824745
-0,0011232293
0,41924244
-0,24202639
0,0067219185
-0,0032692421
-0,051859885
-0,031406604
-0,0013866307
0,0020557996
-0,48894998
-0,4790282
0,030366806
0,014054669
0,21480012
-0,009593043
-0,006668632
-0,013076603
-0,016502418
0,017759625
0,029491238
0,032683052
-0,023544567
0,30671218
0,006670249
-0,027789576
0,45712084
-0,15708342
-0,37876835
0,0036820848
-0,010429709
0,004702307
0,024193358
0,22945361
0,003817191
0,011976209
-0,0022777468
-0,013383884
0,0035980782
0,013853669
0,013828018
-0,3306716
0,05518991
-0,0016574982
-0,0047559687
0,009989662
-0,011737326
-0,0072746864
0,008988491
-0,37685475
-0,003896011
0,00045691765
0,0012767687
0,040074177
0,006171437
-0,015253482
0,38409844
-0,0138193015
-0,0031375969
0,025318094
-0,0016151697
0,00016193518
0,030595755
0,23835702
0,026220148
-0,009136874
-0,0057146326
-0,013789315
0,0074071405
0,014972523
0,020954465
-0,18305092
0,3675078
-0,0022143386
-0,010208705
-0,12815659
-0,019184522
-0,014911064
-0,0039664283
0,013325668
0,0017432001
-0,014722072
0,2713891
-0,030522838
-0,00532843
0,016755093
-0,015157719
0,0036597762
-0,027870823
0,0057753264
-0,025924107
-0,00043218408
0,44537112
0,017461466
-0,028661
-0,013940542
-0,023712546
0,0012779251
-0,00057836587
-0,018143058
0,39963907
-0,010039985
-0,0064426605
0,03323236
0,3880876
-0,0127960965
-0,023223767
0,47326788
-0,0068989876
-0,041427508
-0,021615041
-0,010214235
-0,014887067
0,009552918
-0,006200645
-0,017350893
-0,012355815
-0,17518403
-0,028602226
-0,0017183415
-0,021408144
-0,020457745
0,010307087
-0,36906797
0,010764528
-0,0038889237
-0,030978618
-0,027948039
0,0032454857
0,014486373
-0,004769874
0,0062319683
0,37973702
0,36126366
-0,079002716
0,15517953
0,001653291
-0,28349003
-0,0016430332
0,02047359
0,0026554759
-0,00085704966
-0,013930943
-0,004231499
0,011692527
0,24692984
-0,0008528163
0,00053945626
-0,007928995
-0,011529799
-0,007294919
-0,010609299
0,013918779
-0,005858332
0,00928823
-0,28124437
-0,007789011
-0,0036768687
-0,12440759
-0,00031818988
0,00055870897
0,034024864
-0,4330506
-0,03731261
-0,016655186
-0,0032830304
-0,007065374
0,00988312
-0,20443656
0,016491277
-0,028608494
0,010460133
0,0009265553
-0,009317161
-0,22528878
-0,02240513
-0,0035709455
-0,031722322
0,007223256
-0,011222415
0,014948164
0,017409608
0,0056986054
0,008923999
-0,0064097173
-0,0034147366
-0,0035698612
-0,040189914
-0,018382488
0,022711148
0,011872682
-0,026667235
-0,022635637
-0,37834764
0,0062736385
-0,020267334
-0,4100526
0,02178899
-0,0735098
-0,0116045475
-0,015902624
0,0009896441
0,33987635
-0,0034426588
-0,01782796
0,026973166
-0,02413627
0,02452195
0,0068160514
0,09538329
-0,01846097
-0,009031003
-0,007371835
0,47381333
0,0026424094
0,042635087
-0,02706696
-0,01610719
0,0076874015
-0,02499176
-0,034204546
0,11984142
0,0011304977
0,047583003
0,002009465
0,0055987695
0,00892179
-0,0045015034
0,0013570866
-0,0032339105
0,0065009044
0,025901642
-0,031426817
0,13843812
0,001167934
0,015642151
-0,031571034
0,03441983
0,11625989
0,004996026
0,2704984
-0,007835174
-0,019450665
0,19789322
-0,3765095
0,008166948
0,014368742
-0,001161542
0,030487886
-0,09515696
0,015875425
-0,010946441
-0,0067618005
0,008503184
-0,0151738655
0,02077922
0,016932663
0,23035048
0,013702398
-0,45895514
-0,005030333
-0,00782146
0,020118399
-0,12243978
-0,013506619
0,3158624
-0,07279881
-0,009327543
-0,005809538
0,017367112
0,0017677889
-0,0042521325
0,38626185
-0,021515492
0,0006993342
0,000103857674
-0,0053588655
0,016766282
-0,016654534
-0,0127530545
0,009017051
0,019095298
-0,31733796
-0,26164466
0,025587108
-0,013391662
-0,005181944
-0,0005656
-0,021209648
-0,008748844
0,0086926995
-0,0030576808
-0,3463669
0,004430587
0,011225904
0,017364353
0,00045524453
0,0022407596
-0,0069008144
-0,0024260783
0,012776609
-0,0026122567
0,18014297
0,020367969
0,42846787
-0,016705608
0,004318895
-0,49570522
-0,016260086
0,01250566
-0,00807375
0,1924258
0,015682112
0,007072939
-0,0029732957
0,031303994
-0,015931997
-0,004700958
-0,021487443
0,31644186
-0,006285168
-0,013906884
-0,37182578
-0,029885542
-0,30536112
-0,018368455
-0,010005477
-0,027567295
-0,0017835131
-0,069591515
-0,0077042165
0,43733227
-0,005696718
0,0073727076
-0,439458
-0,034936097
-0,0260149
0,39274225
0,024598598
0,030804817
0,023618696
-0,048548587
0,01869797
0,23379269
-0,16663967
-0,00089906604
-0,051327024
0,0035495255
0,44603246
-0,025207344
0,02364397
-0,017558971
-0,043871798
0,011011707
-0,04084865
0,4479983
0,0039433255
-0,0124259
-0,041465417
0,0005223757
-0,036378324
0,0055764453
-0,031684592
0,176873
-0,018287962
-0,014529806
0,11863818
0,42656413
-0,018830758
-0,037655838
-0,01872272
-0,41395906
-0,04445649
0,014308276
0,0028510287
