60
125
-0,025375925
0,01328743
-0,23722725
0,03694938
-0,011765209
0,032103546
0,02695102
0,016034445
-0,04881037
-0,39006636
-0,011005892
-0,0018719385
-0,037729096
-0,020502409
0,01698403
0,010861
0,02238539
0,0007997841
-0,00031807114
0,31154397
-0,10252502
0,025940044
-0,019994562
0,02622368
-0,00083278347
0,006566738
-0,010189129
0,016248886
-0,009738844
0,43502262
-0,26647338
0,007084664
-0,01765388
0,011267102
0,0009901385
-0,018482381
-0,021204025
0,008838335
-0,01784095
-0,007971414
-0,15723078
0,028500335
-0,011257851
-0,2644772
-0,0016387653
-0,011805187
-0,012256436
-0,3290851
-0,032031395
0,004253508
-0,0151274465
-0,0044745347
0,0051911813
-0,02649134
0,013567849
0,003799145
0,05333825
-0,012448175
0,026118793
0,027789036
0,0036259203
-0,0038745361
-0,024587037
0,25080094
0,0014006847
-0,04157022
-0,008670675
-0,020604117
-0,0051303385
0,4259813
-0,003385267
-0,007548232
0,43593508
-0,007337778
0,1141829
-0,0056492076
0,0003972902
-0,018044587
-0,017243693
-0,0045691486
-0,015910808
-0,015702177
0,00086624577
-0,005924784
-0,018817091
-0,003195319
-0,026519468
0,50026214
-0,032234468
0,40776223
0,018716777
0,01350481
0,0487955
-0,018860592
0,26469454
-0,02792891
-0,013920777
0,412886
-0,011114952
-0,008150556
-0,024293875
-0,012031443
0,008974009
0,17183739
0,0059008976
-0,0038905784
0,036626495
-0,020597134
0,003724991
-0,0049476214
-0,027107224
-0,007483664
-0,011071362
-0,018304456
-0,027634889
0,0155768115
0,006552259
-0,0003530385
-0,15487249
-0,02238433
-0,022841256
0,012439839
0,02225172
-0,011234561
-0,069328636
0,023228263
0,006838187
0,0037018796
-0,01508965
-0,0009603027
-0,3901132
0,00512544
0,0037934792
-0,011952214
0,023077473
0,013175664
-0,0012413083
0,057929818
0,034395307
-0,002041057
0,024558088
-0,012102429
-0,10434455
0,0028251782
0,013529266
-0,01853972
0,009240065
0,109786905
0,010553864
0,29904905
-0,015370986
0,0036688535
0,30745366
0,0048569394
0,030893728
-0,4141635
0,0039092884
-0,007690307
0,03101358
0,019379828
0,024631148
-0,0032300684
-0,3193132
0,011875614
-0,01970685
-0,40367585
0,02335776
0,021576647
0,0025104522
0,0050680954
-0,24382015
0,0053787464
-0,2688809
-0,0032474906
0,007670228
0,04534357
-0,5017939
-0,015107045
0,011930901
-0,07335685
0,006086819
0,004464878
-0,007346522
0,006104015
0,011955753
0,39242157
0,14553216
-0,004297116
-0,018879827
-0,006251556
0,00035185597
0,005249969
-0,004860552
0,025724929
0,029858833
-0,00753003
0,13993414
-0,2760456
-0,0024080316
-0,010179006
-0,29311723
0,012834916
-0,25805843
-0,015226982
-0,01704042
0,018484458
0,014780482
-0,019025438
-0,010717881
-0,38246557
0,024940088
-0,01638357
0,00061797106
-0,022704817
0,004875801
0,0071132737
0,009701031
0,010896605
0,0082020955
0,01597618
-0,458985
0,016086904
0,0039953776
-0,27820727
0,007417262
-0,009654347
-0,18819863
0,019160163
0,0070613753
-0,4087591
0,014948853
0,0031349035
-0,017020252
0,02584262
-0,0146993855
-0,087808765
-0,020427557
0,027185962
0,00757231
-0,046676133
-0,046625026
-0,01222078
-0,3059396
-0,02954719
-0,42126426
-0,3888244
-0,13039765
-0,024612589
-0,021763738
-0,021764534
0,003079562
0,015019028
0,39032057
0,016191117
0,008587854
-0,0008506924
0,036829
-0,018402535
0,017045906
0,15214178
-0,019501682
0,004721439
-0,023150463
-0,021295678
-1,6263215E-05
-0,025424916
0,009770768
-0,0446965
-0,039141066
-0,23642707
-0,018955253
-0,013036562
-0,0153222615
0,009218078
0,033424538
-0,22331645
-0,026774777
0,22490475
0,025140274
-0,0046430756
-0,010186606
-0,0006844082
0,0406717
-0,008445319
-0,4369135
0,013590736
0,33687067
0,0055483608
0,01180708
-0,41126645
0,0057967436
-0,029538514
-0,011820068
-0,15937759
-0,016720349
-0,011390502
-0,03290765
0,4297272
0,004184748
-0,009171368
0,010009026
0,011922064
-0,14541446
0,04433901
0,010173882
-0,2008543
-0,049634
-0,026659904
-0,021877075
-0,3436782
-0,03172893
0,017005073
0,010677148
-0,21462786
-0,0041094427
-0,0063831382
0,2225528
-0,022934726
0,009383018
-0,23843648
0,012244386
0,26733887
-0,00089207385
-0,0019337106
-0,0073184944
-0,036939
-0,00073036784
-0,0037211238
0,047343064
-0,022432428
0,04118732
0,0041988804
0,02430437
-0,33182174
0,23432674
-0,24617064
0,02976613
-0,019292304
-0,012084309
0,17410374
0,025096504
-0,029084938
0,009255998
0,0039062756
0,00067542406
0,007006027
-0,011417067
-0,022020554
-0,022684272
0,031041658
0,01906642
0,037112333
-0,0069488403
0,0526197
-0,0074506765
0,027806107
-0,030337973
-0,0007032124
-0,010525976
-0,0059994417
-0,002487847
0,006959757
0,020298973
0,12800185
-0,024154302
-0,20939836
-0,0039064935
0,0013031209
-0,009814349
0,026183028
-0,014116868
-0,015693126
0,022614256
-0,0027883279
-0,0004765829
0,02854847
0,002509959
0,018915707
0,022374874
-0,0014325371
-0,15204644
-0,31000748
-0,012386036
-0,01343092
0,0066940947
-0,024778344
0,0025274742
0,03515105
0,0393816
-0,015460232
-0,010174532
0,3206489
0,014238532
0,02036512
0,022900315
0,0039769276
-0,022105768
0,18684697
-0,007992776
0,029651862
0,029790971
0,023584431
-0,0015279127
-0,021996958
-0,0070942277
0,0206071
0,016077794
-3,734994E-05
-0,014001512
-0,001224197
0,0033956177
-0,0040125754
-0,007708507
0,5120071
0,5159649
0,029479947
0,00041111305
-0,002458336
0,015833886
-0,003516829
-0,024395635
-0,017046731
0,004384463
0,0095114065
-0,030743519
-0,015866818
-0,013719267
0,0052147745
0,045208286
-0,011370854
-0,002433376
0,027348425
-0,0155076245
0,038062137
0,088774756
-0,04269588
-0,0032239207
-0,024311908
0,015416973
-0,016023314
-0,039506216
0,41365108
0,008138481
-0,008380826
-0,011095359
0,02673704
0,19095984
0,01020076
-0,41387603
-0,19322093
-0,027267735
-0,23720708
0,2870036
0,0007663685
-0,026008716
-0,007858275
-0,013551514
0,00042564847
-0,03007352
-0,01980711
-0,29988176
-0,0053045326
0,38597354
0,02343597
-0,013478968
-0,0255694
-0,5063668
-0,008001712
-0,01839159
-0,026358435
-0,028503789
-0,022138905
0,012731521
0,122033805
-0,0117802825
0,25456482
-0,12551574
0,017996503
0,027564649
-0,04429054
-0,008517452
0,00017446198
0,004253578
-0,2767475
-0,003912594
-0,020627908
0,25319657
-0,0080560045
0,016528003
-0,0074493038
0,019357193
0,33456495
-0,19204971
0,022658983
-0,021841625
-0,00372095
-0,003215573
-0,019602776
-0,39670828
0,009295503
0,002216533
-0,014332203
0,007476251
-0,16088152
-0,008218618
-0,019312311
0,009058436
-0,025833143
-0,01983658
-0,0009541402
0,03855661
0,0037280398
0,15821739
0,03792096
-0,0051893163
0,003386163
0,011596173
0,012666952
-0,008333307
-0,0024817535
-0,006145769
-0,29412252
-0,03160131
-0,005788817
0,013484767
0,0130573185
0,003338374
0,006279168
0,024562154
0,013550652
0,010956302
0,0002698357
0,0071875993
0,026405154
-0,029223533
0,005584637
0,016979452
-0,002032759
-0,01039352
-0,030098539
0,007842453
0,017481336
0,0032716852
-0,0015024765
0,09553854
0,01969902
-0,019109983
0,013628775
-0,02658065
-0,1786806
-0,024571314
0,01022646
-0,0069726696
0,0022172232
-0,49035168
-0,0057947147
0,0022727298
0,021714024
-0,08926441
0,012669547
0,014324652
0,012711019
-0,02043421
-0,008658784
0,010646012
-0,014106031
0,006251841
-0,24829426
0,020817494
0,020767827
-0,047894683
-0,015259477
-0,047340136
-0,026795762
0,010334533
0,43839282
-0,11170743
-0,012427331
0,019862058
0,0052185925
-0,42245018
0,019272648
-0,020243384
0,0009924126
-0,0014466929
-0,013689219
-0,0006615266
0,0042290925
-0,03611677
-0,0025058107
0,009556943
0,004604149
-0,01148312
-0,0050218725
-0,16063932
-0,5144246
-0,02322242
-0,0035448123
0,008454386
0,018292258
-0,11866069
0,01000035
-0,005673321
-0,0045249546
-0,01151008
0,02005596
0,026256964
0,016578507
-0,02489975
0,019349143
0,020020992
-0,00044485292
0,31013656
-0,01445149
0,014033775
0,018562542
0,32422197
0,0028806697
0,012002921
-0,014245498
0,01876715
-0,0056938357
-0,010166662
0,014509458
-0,002320056
-0,0028563826
-0,011777089
0,012558637
-0,018728238
0,02150964
-0,020496204
0,025578303
0,0051767854
-0,010272527
0,34074163
-0,014903321
0,32308662
-0,0009691008
-0,012379557
0,038878243
-0,003879015
0,018164353
0,0033037192
-0,028058127
-0,007732176
0,01235675
0,003890344
0,03286971
-0,0065716957
0,05740054
-0,017817656
0,26631773
0,011864606
-0,010078752
-0,023471622
0,449724
0,002877866
-0,4652514
0,011081863
0,02104679
0,31575653
0,02232927
-0,008817464
-0,16840015
0,0013531714
-0,009572779
-0,05887278
0,20500448
-0,043752477
0,02050084
-0,4115631
0,004893246
-0,018242503
0,001458712
0,018740205
-0,016347535
0,0049267546
-0,004397917
-0,014583634
-0,018244898
0,020997442
-0,023701372
-0,03499217
-0,0020127331
-0,0042503914
-0,006328498
-0,15946773
-0,4459126
0,12309806
0,0038996981
0,00020478183
-0,10343134
-0,024719344
-0,029623266
0,0012179741
0,0029886472
0,0020187532
-0,43528894
0,007565274
0,0019437026
-0,007146765
0,50988024
-0,007113593
-0,017632904
-0,013616028
0,003231281
0,009546315
-0,0019975055
-0,01770155
-0,0009921188
-0,05865514
-0,014489045
-0,021847928
-0,0053874915
0,0034587106
0,019299647
0,008963665
-0,0013175803
0,011055322
-0,030255686
0,025009753
-0,062588654
0,041668575
0,00070949184
-0,018718071
0,004583102
-0,022932896
-0,01587964
0,061702624
-0,05344153
-0,0008543651
-0,015887411
0,007743746
0,054903597
0,04361126
0,087851286
-0,39774457
-0,038704503
0,021576963
-0,021548903
-0,070377044
0,34092036
0,012515528
0,47242567
-0,022765195
0,0020499122
0,03554598
-0,015820168
-0,0056110234
0,03288355
0,008681318
-0,25438485
5,0684503E-05
0,039376706
0,011850144
0,00039337424
-0,025755562
-0,0070277737
-0,48648027
-0,057421286
0,05345826
-0,04785682
-0,03757914
0,034270007
0,023869177
0,0046284148
-0,025054265
-0,006314355
-0,0020644544
0,031912982
-0,025468064
0,003446682
-0,025667073
0,020583767
0,0053824494
-0,015493164
0,010493152
0,019222941
0,0034717
-0,04788206
0,011643189
0,005383573
-0,0056847334
0,31924438
-0,002940891
-0,0042612813
-0,029936666
-0,019397534
-0,020766933
0,18272401
0,011395362
0,0027379072
0,018821392
0,026465539
-0,027668877
0,0053041195
-0,0022538048
-0,0010552853
0,015643433
0,0072285477
-0,006592449
0,0031812445
0,31958196
-0,017820075
-0,0009249686
-0,03224159
-0,0032936884
0,00032669617
-0,009820907
-0,017281214
0,018568173
0,45197415
-0,4919277
-0,09115793
0,018177887
0,024735274
0,008043301
0,026110617
0,0045680394
-0,22332145
0,0013304374
-0,0042595714
0,43072423
-0,0049204966
0,010638448
0,007496903
0,015283578
-0,0052911425
0,019782668
-0,0034863607
0,04178948
-0,006838593
0,2838676
0,012067061
-0,021230523
0,0036395565
-0,022028588
0,0031579786
-0,007868322
-0,005727814
0,0035574723
-0,009078143
-0,0060331067
0,0054759933
-0,007875972
-0,0115891555
-0,01637764
-0,223969
0,0065793153
0,22968194
0,00389545
0,030057529
-0,34752375
0,14203742
0,022984546
-0,02896542
0,37721488
-0,019614583
0,023577718
-0,0013687267
-0,13304573
-0,016903793
0,0021602751
0,0032096724
-0,016819432
0,020669602
0,009222261
0,022719897
0,0055954326
-0,002443664
0,010191809
-0,0059777126
-0,001562279
0,0049115783
-0,41202286
-0,017148567
0,001688465
0,0092270505
0,0006678846
0,37878692
-0,002479176
-0,20327333
-0,0021911531
0,01116203
0,020328134
-0,016526986
0,01974844
0,005159924
-0,046862207
0,012731785
-0,0034452751
0,06991564
-0,024458999
0,02551759
0,15152538
-0,0034853674
0,037431203
-0,008948465
-0,17352335
-0,03423889
-0,01694958
-0,008501051
-0,030733265
0,008311009
-0,022549156
1,2529219E-05
-0,0043027396
-0,0060645663
-0,3557763
0,5004082
0,055406384
-0,0041455003
0,009819963
-5,526857E-05
-0,016758535
-0,022983784
0,0018202622
-0,016830299
0,0029265769
-0,14281902
0,0015990556
-0,016534012
-0,023481863
-0,003113389
-0,022119327
-0,39558277
-0,015245819
0,018744163
0,019253707
-0,026931843
-0,010101985
0,01801113
0,3292411
0,007278445
-0,01809849
0,026108364
0,016414966
0,2712474
-0,02141093
-0,0070752953
-0,0010548192
-0,0323872
-0,0021452822
-0,023820007
0,013655051
-0,5015974
-0,05003359
-0,01821919
-0,0062295427
-0,025562208
0,44631428
-0,0009811893
0,02567496
-0,0023122258
-0,0032565086
0,0017870344
-0,0011597887
-0,0055494113
0,029669726
-0,001574708
-0,0044381884
0,012170857
-0,0059582363
-0,39253744
0,0017120374
-0,03748052
0,011815034
0,0034404034
-0,05002945
0,030346192
-0,31854558
0,013164663
-0,03443315
0,013225779
-0,0031105625
0,0014099666
0,018099792
0,014917472
0,25311747
-0,23344955
0,013770252
0,04704109
-0,019051109
0,015013401
0,0065619145
0,0008542312
0,44637677
0,4200672
-0,0056467913
0,032582846
-0,006366398
0,020255886
-0,029410461
-0,041766856
-0,01766082
0,011117747
-0,027251327
-0,008790632
0,0011836055
-0,004307649
-0,024546813
0,010205123
0,003731474
-0,37240353
0,02573171
-0,32987097
-0,034143474
0,007723458
0,47421607
0,032821506
0,014511853
-0,015672326
-0,009073042
0,01902033
0,019764327
-0,00081513304
0,02046598
-0,0077881194
0,0046740146
0,007083545
0,007998992
-0,0020863751
0,019308541
0,04854951
-0,04886161
0,01537762
0,006372641
-0,30888522
0,010201789
0,0088630635
-0,00039897856
-0,0022261338
0,010378075
-0,4436748
-0,031080462
0,02332933
0,030531565
-0,30155617
0,003164554
0,013380889
-0,001121351
0,01575648
0,017810637
-0,14789116
0,005557697
0,0030625905
0,008615663
0,17311688
0,007334093
-0,012460823
0,010412364
0,014984755
-0,00023883824
0,024835171
0,0028183055
0,009017379
-0,4684855
-0,042634808
-0,022425015
-0,01562507
0,004917186
-0,48794562
0,0053379275
-0,0034652092
-0,43125376
-0,00068258634
-0,40584627
0,0030837136
0,01535468
0,004120134
0,007259373
0,019645026
0,007096863
0,016493224
0,0150158955
0,009228386
-0,22274949
-0,017573843
0,013826663
-0,08836487
-0,025617147
-0,021070555
0,03203714
-0,0004296663
0,15876196
-0,031727955
-0,014990923
-0,025877912
0,021563988
-0,02156852
-0,027839793
0,05406706
0,24106173
-0,0030386655
0,020905368
-0,0014693831
0,21723752
-0,018741151
0,019826192
0,00049010944
-0,0066564325
-0,10064538
0,008241688
-0,031786323
-0,010795547
0,008047732
-0,0012514305
0,07591042
0,03423169
-0,013175821
0,02412205
-0,009915334
0,05918827
-0,037532546
-0,19211136
0,003526742
0,054512236
-0,033579182
-0,0036397565
0,016049849
0,003458295
-0,009824255
0,008515083
0,0035072975
-0,020264143
0,12674522
0,1555508
0,0051539033
-0,0244919
0,25709715
-0,44007495
-0,027237548
-0,0019207611
0,14106
-0,02118349
-0,022331025
0,018656207
0,017817121
0,00038945558
0,3358007
0,3711212
0,0035402807
0,038211986
0,022086129
-0,017267395
-0,028568743
-0,0057457993
-0,0114444615
-0,011282233
-0,0054006893
-6,581421E-05
-0,006069492
-0,010801622
0,3563576
0,014058158
-0,015951106
0,01109161
-0,02325879
-0,004486276
-0,026972955
-0,0048709065
-0,008750444
-0,010341458
0,39914516
-0,00721217
-0,00060103484
-0,0016648888
-0,018005097
-0,0040625734
0,108645454
-0,016751053
-0,015299691
0,009366669
0,23041554
-0,002099459
0,021795008
0,0016257471
0,0071699643
0,109769955
-0,24818286
-0,005552335
-0,005976145
0,015796449
0,01626545
-0,2500759
-0,0052556703
0,2168527
-0,046300005
-0,0013750952
-0,0048683574
-0,02635212
-0,011366484
-0,15304887
0,007711777
-0,022172472
0,006237247
0,019588217
-0,2788971
0,013974341
-0,016497053
0,022808857
0,0059467275
-0,30405927
0,006043767
-0,09079289
0,0037528174
0,0053117215
-0,44542027
-0,08143424
-0,407728
-0,0073627727
-0,019689469
0,0072018565
-0,030110054
-0,017346468
0,004702368
0,0032265654
0,021529468
-0,017746361
0,018646324
0,008313793
0,015199379
0,010298274
0,016414281
0,0064391987
-0,010748542
-0,0050165122
0,0201078
0,16662095
-0,008540164
-0,0049000513
0,016967436
0,017375393
-0,0124479635
-0,002098871
-0,0036572895
0,0057237498
0,0062612547
-0,026602335
-0,0068041794
0,47178108
0,45676816
-0,008455021
-9,4147654E-05
0,01805664
0,01255882
-0,031165024
-0,0118633555
0,009233606
0,4602149
0,009291126
0,013796863
0,013262112
-0,01706296
0,020038778
0,011279798
-0,008902921
0,42679873
-0,01648546
-0,22372012
-0,04146751
-0,035722785
-0,020109093
-0,025598656
0,013711631
0,3168029
0,029872557
0,0035112747
0,015789226
0,40960857
-0,011130273
-0,036389217
0,012837637
-0,004040748
0,07308429
0,01238962
-0,34189135
-0,055442374
-0,00089117687
-0,037727058
-0,030513164
0,015101695
-0,009386657
-0,00799372
-0,005052836
0,04083344
0,011790189
-0,032143157
-0,04152364
0,017413797
-0,015103469
-0,027483154
-0,010147399
0,03271696
0,0008144606
-0,019572485
-0,017765062
-0,009827125
-0,026311304
-0,028178887
-0,028970199
-0,021421827
-0,02056698
-0,016847232
-0,015673792
0,010451831
0,16519013
0,0039006562
-0,004733018
0,017271325
0,20119259
-0,00082908
0,002762931
0,005172219
-0,021022836
0,054625914
0,06857066
0,00088288874
-0,019316327
-0,0021912002
-0,02906233
0,15865797
-0,047921333
0,09910552
0,06066272
0,027280025
0,011736112
0,0008369135
0,028825248
-0,36536574
-0,0029218863
-0,006137228
0,0065763956
-0,053794403
0,033843655
-0,00544014
0,0052709305
-0,03806355
-0,03554976
-0,0054779225
-0,051913816
-0,25458413
0,0066157095
-0,00799506
-3,0428591E-05
0,023116322
-0,27378723
-0,05160869
-0,035195157
0,024586208
-0,008333315
-0,028916992
-0,0022035649
0,052055795
0,007284058
0,0029004791
-0,034914423
0,29409426
-0,0046759224
-0,021972746
-0,0013577444
-0,016943483
-0,03337721
-0,0150136
0,43066218
-0,2368094
-0,020802403
0,008378399
0,0005325679
0,031610277
0,00054768944
0,01644661
-0,06880512
0,20306045
-0,0074774385
-0,016461102
-0,00033008808
0,25175276
-0,032590475
-0,0021372393
-0,020873189
0,0022478907
-0,0023520088
-0,020505894
-0,022124961
-0,0018798275
0,018761087
0,009716829
-0,035178028
0,0071029007
0,06180372
-0,036353823
-0,016707245
0,009357327
-0,025031328
0,0010577255
0,017814158
0,024245873
0,017794706
0,0015469383
0,012328484
0,2510089
0,00567726
0,0199736
-0,0012747435
-0,01214089
-0,043315828
-0,0043008337
-0,035864975
-0,018296551
-0,022367794
0,03129153
0,023735002
0,004887765
-0,08741675
-0,01214866
-0,12079612
0,04110122
-0,0043481663
0,018775845
0,0062519945
0,01421783
0,013392408
-0,008342649
0,009773461
0,014496466
0,0032296388
-0,010353241
0,0508793
-0,033574983
0,008599607
-0,020964358
0,004506587
-0,022731207
-0,0430925
0,019225067
0,124551214
-0,004432352
0,12490123
-0,015087932
0,0018113074
-0,016808014
-0,041413702
0,007156873
0,018310772
0,021351889
-0,101345174
0,0019076198
-0,009948096
0,03178015
0,10383624
-0,013309124
0,14030874
-0,0054043685
-0,0011967181
-0,0069074873
-0,20910335
0,024539353
-0,027281644
-0,029359438
0,0065684584
0,00519527
-0,07060353
0,011645337
-0,017521758
0,017280037
-0,010610563
0,019654613
-0,0065872986
0,011282397
-0,0016032744
0,010156047
-0,010957018
-0,026827456
-0,0057832384
-0,02222297
-0,026348107
-0,011142497
-0,010661234
-0,12158186
-0,011510797
-0,0051165307
0,031949505
-0,0437136
0,40652588
-0,014491908
-0,011717284
0,017302474
-0,014357071
0,21606754
-0,004553567
0,01952175
-0,011644614
0,0029433714
-0,014039233
-0,1328209
-0,0017991363
0,0008734703
-0,019237123
0,00033625538
0,027124768
0,016321331
-0,0009227179
0,0012556214
0,021829434
0,008779413
-0,022903375
0,25343457
0,013301386
0,021329442
-0,020289976
0,013138178
0,028760787
-0,0019403005
-0,0038121042
-0,015202111
0,007894039
-0,009939331
0,0018426816
-0,021196464
-0,45911705
-0,009702259
0,00012278557
-0,41372225
0,016756969
-0,013141146
0,0037975833
0,010959272
0,04377846
-0,034076057
-0,34756023
-0,48971882
0,13548054
0,019511504
0,019092403
0,04371319
0,016914664
-0,020600896
0,013614734
-0,01449895
-0,36352873
0,00061062427
-0,3307746
0,026130093
0,4153838
0,005582067
0,012878498
-0,41354385
-0,0038943868
0,010163012
-0,0034316985
-0,22279583
0,004420464
-0,0031017552
0,037154894
0,037691046
-0,006129323
-0,006063043
0,001888393
0,30499536
0,016959174
-0,49315858
0,0059904996
-0,007698512
-0,02832376
-0,009531477
0,00010931445
-0,009731844
0,25582856
-0,01187768
0,008528044
-0,0013025001
0,0077008465
-0,3804178
-0,029852131
0,020879531
0,01688177
-0,4035498
-0,015089792
7,930946E-06
-0,35704225
-0,03229434
-0,030604716
-0,0034955814
-0,002808642
0,0045193676
0,0002579877
0,007420648
-0,014824089
-0,006029002
-0,010797592
-0,01695235
-0,025905993
0,0035471937
0,061376546
0,48855576
-0,008271476
0,015100856
0,026875095
-0,06892223
0,029183036
0,023683129
-0,01331191
-0,46981776
0,010870381
-0,013297509
0,011761769
-0,010415995
-0,04499316
-0,020308867
-0,019223122
0,46874264
-0,028865885
-0,007462953
0,2986686
-0,00591388
0,00049972895
-0,026282871
-0,1238573
-0,031548914
-0,02404893
-0,028002491
-0,0033813354
0,018646723
0,03277759
0,005481864
-0,007499179
0,020769136
0,07126458
0,0042144037
-0,03910207
-0,023211192
0,004080101
-0,39083526
0,46692696
-0,04497309
-0,014470041
-0,064672954
-0,055029865
-0,018520731
-0,03432489
-0,0024125262
0,021562653
-0,012624004
-0,0133531755
0,028543366
0,0067318096
0,010160405
0,00989194
0,005239335
-0,032346357
0,003810011
0,014189122
-0,012884515
-0,009332934
-0,02618613
-0,018399071
-0,027732259
-0,0065058367
-0,026680944
-0,011024628
-0,009070857
0,4569733
-0,011721537
0,34457967
-0,0028076647
-0,051188115
-0,018147595
-0,010151857
-0,00089571485
0,31531107
-0,17399287
-0,009774568
-0,026362028
0,055382375
0,0071446067
0,010985677
0,16326176
-0,024431882
0,013097287
-0,0018841741
-0,0075910725
0,0071313004
0,0061644386
-0,0062530404
0,0045131347
-0,0025744587
0,035897315
-0,035856497
0,011246075
0,03316565
-0,04023081
-0,017779414
-0,008697067
0,005901324
0,009476512
0,015538735
0,01772688
-0,016439797
-0,010725791
0,0058389283
-0,004778556
0,00025230224
-0,011896203
0,3607996
0,0046716435
-0,0093739405
0,04571004
0,004634768
-0,010269104
-0,023548318
0,0061617075
0,005084296
-0,022392403
0,009272523
-0,003747054
-0,005430022
0,012628354
-0,0013919193
0,023077961
0,017196368
0,007891655
-0,0052577886
0,0026340387
0,02494699
0,0027026064
-0,010309609
0,018925792
0,01635152
-0,032548476
-0,01429242
0,010724246
0,4759472
-0,035127178
0,0020722155
0,035326608
0,11954328
-0,007259057
-0,24285156
-0,05170791
0,01741817
0,0013030194
0,014321417
-0,030356752
-0,019292364
0,0068610897
-8,5116124E-05
0,0031878003
0,0076644886
-0,0019376806
0,0015635592
-0,33639935
0,018935828
0,037640583
-0,008349944
0,003743413
0,3449597
0,014770168
0,083280526
-0,0041434844
-0,0012781358
0,008956784
-0,014298012
-0,023069585
-0,0021406263
0,009834592
0,010188319
0,0046192934
-0,1603559
-0,011816289
-0,004057984
-0,0072246254
0,15708643
0,002338309
0,01015268
0,023536727
0,009890872
0,0041416683
0,018307853
-0,1440113
0,017517883
0,01747745
0,0021138662
-0,008074433
0,0023082145
-0,010015021
-0,36418757
0,013163825
-0,25605398
-0,21802358
-0,0011818457
-0,3195042
-0,0008569746
0,5119258
-0,0034284557
0,111809686
-0,43936637
0,016632952
0,02612839
-0,014415615
-0,019127712
-0,004399708
0,017093776
-0,01705678
-0,029994197
-0,003342166
-0,47495657
-0,005301904
-0,017987816
-0,015142611
0,016962139
-0,009986038
-0,46032798
-0,009158575
0,28302857
0,007138615
-0,0101584
-0,04233802
-0,08858601
-0,51460797
-0,019195165
-0,06243715
-0,15099765
-0,011958407
-0,010643841
-0,23090406
-0,009014419
-0,0057076104
0,001048596
-0,007863005
-0,014413902
-0,002495534
-0,20998397
0,01506488
-0,030500164
0,0074808286
0,09040531
-0,015369939
-0,024929024
-0,010048954
-0,0396772
-0,029493243
0,027779292
-0,018289587
-0,02254847
-0,013664013
0,35020047
-0,007436214
0,01410924
0,0045488505
0,33384666
-0,037437227
0,00070465775
0,48320237
0,40436578
-0,0006873946
0,4447257
-0,005080544
0,01707842
-0,025882723
-0,015372126
0,028725903
-0,14716314
-0,0052910345
0,003019363
0,020197704
0,023641104
0,0020522454
0,004833044
0,0058267824
0,019832414
0,035307683
-0,012466574
0,19904356
-0,015215137
-0,014106329
0,020355657
0,4397538
0,009363139
0,03881483
0,42691112
-0,17419049
0,008660778
0,025467707
0,01630131
-0,0028080822
-0,0041831722
0,0016937561
-0,023175677
0,0069754887
0,0035382286
0,038672056
0,010077276
-0,30416745
0,0025170508
-0,15654063
0,0068043624
0,019978711
-0,018305091
-0,0073486
-0,024930995
0,00511447
-0,065695755
0,27889562
-0,0052153417
-0,004333045
0,0063019698
0,025929116
0,007967423
0,024953026
0,049069203
-0,0053331004
0,0038924438
0,0045915623
-0,05177935
0,00065526174
0,0074296235
0,37246796
0,00021529081
0,008307812
-0,01827171
0,041324385
-0,019513076
-0,0007861358
-0,24731639
-0,036163647
0,043162998
-0,009087415
-0,004947741
0,0039618737
0,019473989
0,034090202
-0,0009221091
-0,015073756
0,01874536
-0,46832597
-0,03588159
-0,036467206
0,054190725
0,016254976
0,18384762
0,051299766
-0,022519957
0,02942637
0,009625306
-0,00652457
0,049491704
-0,008597552
0,010878946
0,016828204
0,016650576
-0,063348174
0,027171422
0,006632028
-0,013862466
0,0053080735
0,4913288
0,0011308661
-0,022714484
0,012761501
-0,04341887
0,019418297
0,0123470165
-0,13855709
-0,034734186
0,027383719
0,031646576
0,16708288
0,011598856
-0,19014737
-0,24452308
-0,042670928
0,036759563
-0,009661684
-0,021937447
-0,20567766
0,020793404
0,021808062
0,027003419
0,03739649
-0,020963058
0,009880642
-0,34293577
-0,45571876
-0,00750792
-0,008857142
0,0025932044
-0,006383512
-0,031929426
0,27757293
0,023429275
0,017589392
-0,0184389
-0,021853847
-0,020864712
0,012002587
0,023283806
0,2414567
0,00043783826
0,01278406
0,0015744548
0,0124542285
-0,00029804566
0,0027354513
0,09109818
0,01871208
-0,015047644
-0,02584417
0,13470477
0,0118052
0,4277196
-0,0032398347
-0,011544078
-0,001560895
-0,022742879
-0,18012187
0,0047452208
0,0065816245
-0,0076593207
-0,22635855
-0,11000986
0,0025135675
0,21926574
-0,0013511599
0,34492397
-0,028808102
0,0041793785
-0,20815617
-0,014099136
-0,009904513
0,008056423
-0,008739358
-0,0032023452
0,013444904
-0,04527046
-0,01790282
-0,0014927007
-0,0012039057
-0,010655742
0,34883332
0,0011140016
-0,016546415
0,025899263
-0,13642542
0,0059828144
-0,02827938
-0,014201749
-0,46096072
0,038815927
0,31506947
-0,0039215153
0,0065447446
-0,46825796
-0,008997746
-0,18626757
0,024124593
0,24537222
-0,040011313
0,459433
0,2222714
-0,025855146
-0,13206013
0,004084781
-0,014754469
-0,015801305
-0,028883267
0,012967203
-0,027888535
-0,034068935
0,032430217
0,010921613
-0,0019360582
-0,004296106
0,005507181
0,13383903
-0,32100525
-0,00080113916
0,020179788
0,024405919
-0,28976998
-0,012282012
-0,028399153
-0,034394804
0,04428008
0,0041917134
0,031347655
-0,0069465637
-0,030032745
0,019534294
0,034615558
0,16479667
-0,021437742
0,02569792
-0,4055578
-0,0011060366
-0,0053672115
-0,010379814
0,008788785
-0,017353738
0,022437373
-0,011012172
0,014296656
0,46031922
-0,08726651
0,017616466
-0,032225564
-0,23816784
-0,010807707
-0,0004771002
0,005052604
-0,0016051343
0,018032327
-0,010070385
0,0039851526
-0,012329194
-0,26708975
0,003504552
-0,018725922
-0,10751405
-0,011664945
0,000416888
-0,042705674
-0,012938531
0,015063404
-0,0019280447
-0,013996525
-0,0055424506
-0,3188157
-0,008479456
-0,014603655
0,022953188
0,25376907
0,009244251
-0,019599745
0,18391794
0,37293223
0,12405114
0,007855269
-0,0032080542
-0,015398598
-0,016270986
-0,0037510106
-0,020042755
-0,0028404281
0,0043173013
0,019616297
-0,017361721
-0,012075431
0,01863283
0,3975898
-0,005834566
0,35381448
-0,4187237
-0,00830445
-0,016320318
0,02356861
0,010636622
0,076582655
-0,001226373
-0,0010375379
0,35499707
0,4375455
0,07097493
0,1840883
-0,1944265
-0,0026517129
0,024156097
0,0375489
-0,05299603
-0,036196906
0,010829084
-0,0012437267
0,00854299
0,019271461
0,012209492
0,02111182
-0,026597092
0,029251777
0,036929745
0,42167607
0,022755228
-0,016146732
-0,023306161
-0,009904762
0,013425721
0,009630977
-0,0067032687
0,003318532
-0,0034142903
-0,013780073
-0,024273662
-0,48260432
-0,38126197
-0,028668946
0,0027913495
0,007912907
0,035293095
-0,011714676
0,02522782
0,20026237
0,0074303835
0,033157256
0,007472017
0,0017898595
-0,022062555
-0,0107179815
0,05283669
0,03760998
0,018735321
-0,0471404
-0,035630688
-0,5295506
-0,17358594
0,004683992
-0,0117376745
-0,002981399
-0,027779827
-0,0255253
0,04647528
-0,00039708344
-0,011131362
0,4184301
-0,013906195
0,0055228933
-0,004524639
0,44412726
-0,38616815
0,15446115
-0,00457938
0,01561413
0,009959741
0,028158115
0,013356353
0,024292054
0,025778575
-0,03535031
-0,0046408693
-0,0146616325
0,013440313
-0,00556536
-0,029250836
0,012211394
0,014226674
-0,010062271
-0,0040226555
0,026972314
0,018210907
0,012229726
-0,2854589
0,022718959
-0,0117546525
-0,0066689225
0,010051698
0,00976879
0,0011485907
-0,03791502
-0,010739487
0,024553033
0,008172546
0,024122493
0,0040418515
0,012602308
-0,009258507
-0,24194802
-0,0056815986
0,021443693
-0,0013918558
0,026209466
0,023340194
-0,019365449
-0,0036675462
-0,0003619982
0,0021459812
-0,017526167
-0,016159847
-0,013533116
0,008246395
0,010495995
-0,0027926234
-0,0023314203
-0,055347122
0,0060899756
-0,23764291
-0,017173812
-0,004387498
0,0014945809
0,4361404
0,42232135
-0,013153709
0,028627975
-0,40396407
-0,0023385887
0,37110817
0,010175527
-0,036542073
-0,3026846
0,19348599
0,009775337
-0,013129629
-0,27876964
-0,0025490478
-0,057725884
0,31360832
0,040355057
0,0031431145
-0,0123438975
-0,040707592
0,012629996
-0,01610358
-0,01319963
-0,009808438
-0,3830643
-0,0068850038
-0,025215663
0,014631294
0,00096429867
-0,004573291
-0,015267881
-0,016304804
0,019844536
-0,010767062
-0,0069074687
-0,008626338
-0,052997634
0,0041255667
-0,00023198487
-0,027789982
-0,0013023774
0,007503006
-0,015012967
0,006594488
-0,0024195435
-0,014818908
-0,01670255
-0,04158526
-0,24962547
0,0035934446
-0,002348776
0,01691715
-0,0061437604
-0,0051474385
0,0062955436
0,019335117
-0,00058786175
-0,004116757
-0,011673968
-0,047034677
-0,26428902
0,030445548
-0,43860734
0,0042136246
0,028191952
-0,0070007164
0,016863469
-0,026107047
-0,01364537
-0,27551427
-0,34925175
-0,31376722
0,016352652
0,49303427
-0,011701492
0,004183612
0,39745924
-0,026495066
-0,00019662279
-0,008219341
-0,018005013
-0,008416471
-0,0050605196
0,014925097
0,12215596
0,023403425
-0,28436074
0,45622814
0,010385296
0,06248926
0,0018562576
-0,20183356
0,03205852
0,011899517
0,46920964
0,0042793155
-0,009372834
0,0037858533
-0,014975513
-0,0158783
0,0073669786
0,009090398
0,008872087
0,02355593
-0,0076006325
-0,0114931045
0,02121467
-0,41266754
-0,011561381
-0,004451286
0,013978093
-0,003394345
0,00706123
0,0087114675
-0,03696318
0,00672647
0,07497418
-0,027404549
0,00724158
-0,012485979
0,006650217
-0,00606223
-0,020708147
0,20611537
0,012952424
0,007027437
0,04583364
-0,035074104
0,005024399
0,016396424
0,017927112
0,0063917944
-0,0108701205
-0,024352344
-0,00432538
-0,18509531
-0,44308913
0,0020141203
0,0025316079
0,016285218
0,009751141
0,24209876
-0,008933489
0,02342654
-0,0075127454
0,23705353
-0,011140261
-0,03298535
-0,010761218
-0,0077684023
0,013560102
-0,022807764
0,022029335
0,011316738
-0,0010437213
0,006514421
-0,038331497
-0,0058671455
-0,0118610915
0,0041787005
0,5259132
0,021356564
-0,25335976
0,035840757
0,45339683
-0,015325928
0,059438247
0,031827126
-0,024108395
0,014828081
-0,025339624
-0,22123174
-0,054698784
0,014239768
-0,003324672
-0,044227425
-0,0142794745
-0,26530027
-0,3591035
-0,024175048
0,023510583
0,013221716
-0,039911315
0,005765892
-0,015995383
-0,009432904
-0,008176894
-0,032150894
0,019027203
0,07621163
-0,34441093
0,004630522
0,010046829
-0,018263323
-0,33332902
0,0043616984
-0,009936585
-0,00918505
-0,0043659587
0,006892087
0,001618616
-0,030282471
0,018756274
-0,08208901
-0,01468141
-0,013071454
-0,34390917
-0,0046647554
-0,018152885
-0,053799532
0,00028028144
0,1879791
0,0137338005
0,00560487
-0,3516308
-0,014585303
0,020504626
0,008996521
-0,0065498245
0,00011619797
0,020576997
0,17569488
-0,010036012
0,46385056
-0,0120592695
0,32750517
-0,012619425
0,0085605765
-0,0014401984
-0,023426492
-0,010321291
-0,122314975
-0,009243259
-0,015833102
-0,014853196
0,017298441
0,02318618
-0,0031785644
0,25267845
-0,009687108
0,005260695
-0,0064764447
-0,17948116
0,004473977
-0,0031600334
-0,031714268
0,02337602
0,011056061
0,36647862
-0,044274002
-0,013548203
-0,23617549
-0,014324126
-0,027500028
0,27256542
-0,0013327792
0,010095501
0,19779061
-0,023741068
-0,4148623
0,027760904
-0,0075172493
0,026868576
0,003175086
0,0127452025
0,031011175
-0,01843559
-0,011151407
-0,0022704555
0,021359364
-0,0031708612
-0,0349508
0,13021886
-0,011026314
-0,50481963
-0,03262118
0,08008405
0,0057606436
0,0039295554
-0,014582116
0,001623735
-0,006081909
0,35435897
0,0077382526
-0,4236273
0,031538874
-0,0065948707
-0,009991812
0,0018220244
0,00014393954
0,3390843
0,017579433
0,02098789
0,028240481
0,028461546
0,0042685443
0,023869855
0,36171678
0,006571251
-0,029834356
0,013100835
0,025408685
0,007760897
-0,06111891
0,020867338
0,0046141325
-0,013769316
-0,04213792
0,007147229
0,012597828
-0,010319918
0,23338671
0,4874168
0,17575863
0,033655617
0,0041236295
-0,0032133749
-0,009102862
-0,021765346
-0,120472394
-0,0018670569
-0,15441774
-0,42339894
-0,19000308
-0,0030044774
0,026769498
0,01408642
0,025458913
0,008450871
-0,46403855
-0,0056341267
0,0027438255
-0,0037500013
0,025707932
-0,4907002
0,23899174
0,042774953
0,01847551
0,012280404
-0,020878071
-0,03310058
-0,02491417
0,03367284
-0,032397076
0,010485595
0,03519625
-0,012644152
0,04139471
0,043020014
-0,000592214
0,0028776056
-0,024796953
0,03846374
-0,4564477
-0,4997466
0,31245893
-0,471525
0,020493569
0,01763838
0,008585961
0,010119185
-0,33222142
-0,010587728
-0,010632512
0,2550133
0,016256735
0,005710158
0,043703213
0,005185261
-0,0106498925
-0,20540038
0,015830541
0,44148377
-0,012782535
-0,019653205
-0,43509927
0,006074113
0,022702131
0,02691056
0,029053804
0,004417609
0,025709542
-0,47417107
0,029745959
-0,11252647
0,01895226
0,02644177
-0,019009003
-0,3632373
0,037918184
-0,0054038432
-0,016629143
-0,0029103986
0,46856657
-0,010025893
-0,035772588
0,02587623
0,010054524
0,009048868
0,00065282587
0,045441188
0,002923856
0,020284036
0,25452328
0,018962346
0,014399836
0,012925126
0,042154066
0,00022061414
0,52348065
0,009897755
0,012433423
0,0010964336
0,32208487
0,1965711
0,03817025
0,0050540217
-0,2244013
-0,028760364
0,01080807
0,029960122
0,0038447448
-0,03370468
-0,0064734463
-0,010790499
0,02626039
-0,0028383487
-0,01819519
-0,3098066
0,0009814054
0,021552363
-0,1626154
0,006591506
0,0113202715
0,04046627
-0,50170064
0,0031727923
0,0085970145
-0,12445967
-0,047656983
0,00376123
0,12056585
0,025865985
-0,39752218
-0,016538056
0,062083527
0,01446349
0,003012646
0,19401793
-0,013484702
-0,13703452
-0,00850178
0,0032055276
-0,1109729
0,13113192
-0,007947801
-0,3946588
0,019335944
-0,028285867
-0,019767344
-0,0065702195
0,065109186
0,006570931
-0,012893215
-0,001706247
0,03144575
-0,028531631
0,51638556
-0,02295137
-0,025120035
-0,0029020205
0,031217268
0,025255926
0,023710987
0,47778416
-0,020729901
0,029731551
0,013742627
-0,0055075954
-0,014485558
0,017444678
-0,004117295
0,014428429
-0,04556578
-0,0227357
-0,011936459
-0,01341702
-0,0018938779
0,0041648787
-0,008054416
0,0030399987
0,0030532742
-0,0053927545
0,029522154
-0,011686839
-0,0068376707
0,012754289
0,00032630964
-0,010476814
-0,022194937
0,044893004
0,06632647
-0,0059372582
-0,013496149
0,014387775
-0,0109786475
-0,048260428
-0,018029377
0,008838439
-0,34971437
-0,025106821
-0,013085928
-0,030781962
0,010704737
-0,0011906439
-0,39303997
-0,001390099
-0,01623669
0,0027012737
-0,014632375
-0,3227443
-0,024210462
0,00923267
-0,023555506
0,004386017
-0,010395963
-0,0020631114
0,04323887
0,0051719462
0,017501386
0,29770407
-0,00581984
0,016155865
-0,018302653
-0,1041344
0,36814684
0,017281814
-0,022436883
0,46318752
-0,005856924
-0,015648464
-0,0012814366
-0,0046617477
-0,018486138
0,084019974
-0,011281921
-0,46076632
0,013615848
-0,005903564
-0,0009146655
-0,017273825
-1,2593398E-05
-0,0057644434
-0,008893638
0,3616528
0,0023401028
-0,020777533
0,26315176
0,0036904977
-0,002174728
0,003237375
0,017238902
-0,0032847966
0,3953553
-0,017365262
-0,024085267
-0,0050618662
-0,008050833
-0,015971402
0,29860333
0,026508564
-0,021321362
-0,023301179
0,0072009703
-0,02450779
-0,0047376724
-0,23671083
-0,013496709
-0,015639966
-0,009711501
-0,01037332
-0,030619552
-0,28622526
-0,014964535
0,3719061
-0,018131018
-0,001866441
0,007997767
-0,014539205
-0,005746706
-0,00836629
-0,0070489524
-0,013185564
0,002255414
0,013231063
0,0009364787
0,008513973
-0,012990596
0,01945957
0,021106312
-0,010018817
-0,007176835
0,30922756
-0,046901282
0,008836845
0,02148758
-0,0016715005
0,0025490078
-0,014146428
-0,24443318
0,09458426
0,0012787454
-0,0070522646
0,041976925
0,012264867
-0,36178094
-0,006312952
0,026537465
-0,48115745
-0,013305327
0,005355348
0,011340038
-0,006618406
-0,01766774
0,0029195289
0,3161275
-0,016884513
-0,01634234
0,0045262016
0,011870436
-0,04694191
-0,028897136
-0,017577091
-0,011396161
0,010215521
0,025458092
-0,026548756
-0,04056154
-0,024121558
0,005314364
-0,016916838
-0,0418253
0,0061753364
0,0016512433
-0,017850744
0,013390272
0,023371143
0,0043717925
-0,009131497
0,0076700887
0,4622868
-0,052582476
0,014042399
0,0062331697
-0,0035543882
0,0061526336
0,057617337
0,41240847
0,0069652605
-0,022232955
-0,033596564
-0,51667386
-0,010801828
-0,043617934
-0,010304811
0,0033375847
-0,0066746133
-0,37995037
-0,0056336396
-0,0072555896
-0,021455703
-0,010448912
-0,01901427
0,010496855
0,2184036
-0,026848001
-0,029429479
0,48732802
-0,011912489
0,23022932
-0,0021408435
-0,0010181095
0,012423516
-0,0046373657
-0,03357713
0,08775092
-0,028767444
-0,0065410677
-0,018793706
0,345898
-0,01618247
-0,0037003495
0,004051105
0,017195076
-0,10305242
-0,012170817
0,0055297157
-0,033659898
0,2935028
0,04103045
-0,017135423
-0,047389116
-0,0013452184
-0,0040443134
-0,014635754
-0,029923059
0,040405326
0,02979871
0,004474948
-0,026607089
-0,018836623
-0,0020736756
-0,3519787
-0,014214902
-0,016605219
0,020016877
0,044664696
0,012555288
-0,08568846
-0,025199441
-0,12178443
0,01697595
-0,053708814
-0,010702005
0,265487
-9,8144264E-05
0,034996957
0,012457956
-0,008619263
-0,0072478345
-0,010717452
-0,0033320447
-0,0022914947
-0,0027245027
-0,016958738
0,0139227165
-0,012830432
-0,006428099
-0,49098104
-0,014788148
-0,019287348
0,014546562
-0,0062222662
0,011036996
5,6756868E-05
0,041255884
0,004553101
0,042511582
0,0066836
0,030586645
-0,3764065
-0,016506586
-0,0072574983
0,043624293
-0,020384997
-0,02299246
0,02772067
0,43161872
-0,08908751
-0,019680386
-0,045981236
0,013787978
0,008078667
0,013406569
0,017857121
0,0064164824
0,27536443
-0,0015875719
0,011354396
-0,26449677
0,025479896
0,0022454022
-0,27113467
-0,010906052
0,019629564
-0,039055493
-0,13086745
0,02195285
-0,00981069
0,01390075
0,026926788
-0,05350951
0,01215716
0,03383031
0,43082803
0,197552
-0,026185174
-0,025422422
-0,022428144
0,0057055033
0,007852104
-0,14420192
0,004145405
0,0010017514
-0,0064424286
0,00605058
0,06163928
0,0060934876
-0,0031921775
-0,042704154
0,0142398225
-0,010530958
-0,005153733
0,0029224793
0,039158616
0,015989082
0,014582691
-0,030712113
-0,014759687
-0,022136165
0,011223984
-0,5011216
-0,04149204
-0,050396442
-0,021170367
-0,00037830012
-0,02283603
0,012566853
-0,005285473
-0,037614025
-0,0076017384
0,013083641
0,017989999
0,017196614
0,019482076
0,011615691
-0,009923775
-0,02752273
0,026533138
-0,020011771
-0,022665817
-0,014952672
0,012486429
-0,015421609
0,005267528
0,028280847
-0,018022507
-0,07769447
-0,00666664
0,00566
-0,009001891
0,45207986
0,40661547
-0,01189521
-0,0036006586
0,15206355
0,004282538
0,0076176105
-0,07538421
-0,014500058
-0,00451156
-0,0006314972
0,0019888275
0,48540875
0,24221261
0,39635074
-0,010006635
0,0032472475
-0,32716146
0,00019037786
0,0006923336
-0,013311462
-0,023250995
-0,010321092
0,2431297
0,0016287066
-0,004906357
0,008756568
-0,10704621
-0,014756403
-0,005941541
0,014440391
-0,4018278
-0,0153079275
-0,018682055
-0,01427962
0,25572345
-0,02975007
-0,28652075
0,2751143
0,3324703
0,0130373705
-0,15040582
0,0024339953
-0,011809608
0,06272093
-0,002797934
-0,014734441
0,010991082
-0,019133182
-0,019597746
0,0006964745
0,008429291
0,017632522
0,43545395
-0,036765095
-0,3294371
-0,0077248365
0,0011042035
0,25740525
0,0016682695
0,059597123
0,0381142
-0,019217428
0,0010698041
0,049485546
0,0031577363
-0,030791001
-0,017613227
0,004881893
0,032364786
-0,029475074
0,009812381
0,020816484
-0,022858595
-0,0101540955
-0,45551807
0,0012258744
0,014335052
-0,34238145
0,010971888
-0,0054851198
-0,040767685
-0,009922793
0,022388192
0,013457217
-0,11374255
-0,0019374528
0,4917936
0,027754368
0,0081959115
0,026672518
0,026281253
-0,0052541643
-0,016512603
0,0003869461
-0,035359472
-0,015310618
-0,009748879
-0,0054192776
-0,021976633
-0,17218624
-0,016643276
0,030207878
-0,019772848
0,008365482
0,003270331
0,013695933
-0,016151965
-0,005444843
-0,000923535
-0,0050656353
0,024154527
-0,11705084
0,012624175
-0,030912807
-0,01815541
-0,00037884072
0,0017465757
-0,04004832
-0,01836669
-0,003823118
0,03865547
-0,029471273
0,004910907
0,020676019
-0,0014265835
-0,013472171
-0,013781886
-0,0006472925
0,01581303
-8,2710445E-05
0,25725743
0,020751638
-0,014543638
-0,013604684
-0,015141743
-0,48180705
-0,0058186105
-0,00800491
0,031824946
-0,0018111322
-0,025948074
-0,004845987
-0,0047688573
-0,020945912
-0,03211515
0,0017411122
-0,005045762
0,034743793
0,02689213
-0,13285743
0,050624255
0,36125335
-0,2624693
0,47976527
0,009325739
-0,068960235
0,022164565
0,0053262124
-0,012812696
-0,019588985
-0,01864615
-0,0016014765
-0,0019035173
-0,44280374
0,15169528
0,015508453
0,008843608
0,0020083322
-0,06887258
-0,0027979135
0,2722781
0,028878855
0,032357756
-0,021861318
-0,04671101
0,0065525803
-5,7409743E-05
-0,008632554
0,0186115
0,20353445
0,012494386
-0,19818681
0,038591653
0,029873379
0,010986312
-0,025455883
0,0040122215
0,0032199782
0,004753382
0,021502873
0,03642152
-0,036751855
0,0134663675
-0,016521174
0,022520872
-0,22854728
0,017690526
0,022991946
0,007897943
-0,044668004
-0,012022891
0,3706279
0,08739897
0,009692602
0,02029519
-0,04177111
0,005344751
0,00047237688
-0,41492593
-0,0075698826
0,0020791236
-0,34992045
0,3999326
-0,0016154399
0,01817041
-0,010541524
0,30678344
0,029947406
0,024673762
0,0025893224
-0,001428434
0,0027315423
-0,21775734
0,024742981
0,042327963
-0,0063758404
-0,0042014285
-0,14376575
-0,013733331
-0,023594854
-0,014725764
0,023857296
-0,028401695
0,021856992
0,02863975
0,0070268717
0,0018805475
-0,35818866
-0,14873445
-0,31092048
0,012879871
0,0046326867
-0,00016403916
-0,001086743
0,29226074
0,0027744658
0,0071228286
0,11217987
0,007337272
0,011709443
-0,24899393
0,026238402
-0,00035344905
0,013048133
-0,0076360186
0,0008754295
-0,0063388078
0,004706587
0,032177202
0,0128058605
-0,22757033
0,012027771
0,003209679
0,021040242
-0,020873116
-0,16307706
-0,0015330503
0,01631168
-0,0006101565
0,0072175786
-0,30584258
0,011886006
0,030386746
-0,24542582
-0,010303395
0,008152627
0,009128828
0,026632098
0,007306056
-0,004325166
-0,0018368111
-0,0028127169
0,01589087
-0,0024162952
0,004026584
0,007934007
0,033901196
-0,01403706
0,0025124203
-0,035042413
-0,08102077
0,0057484396
0,0011083258
0,0046036984
0,0022615672
-0,004285525
-0,004709811
0,018566499
0,008998062
0,023006646
0,020785185
-0,0072233356
-0,011744429
0,003420466
0,013465632
-0,017386938
0,008302808
0,0004445297
0,02355285
-0,0059490586
-0,018928738
-0,0038908487
0,09560056
-0,00534355
0,44078246
0,003708579
0,021573327
-0,026626773
0,025817396
0,03075484
-0,009308552
0,006915312
0,0042465185
-0,006794239
0,009308275
-0,015345723
0,010161005
-6,3685045E-05
0,4539514
-0,013713198
-0,0060192086
0,0023681128
-0,011211846
0,016008822
-0,3121473
0,020982806
-0,022564257
-0,022760285
0,34981802
-0,023890318
0,0074676024
-0,42239976
0,018391442
0,018464403
0,021443121
0,0010897162
-0,20068379
0,0167667
-0,0021164187
0,0075751245
0,003271259
0,0023116788
-0,0007755666
0,0076714884
-0,046835907
-0,017212974
0,008305956
0,23415413
-0,007657575
-0,01748191
-0,14179815
0,42678434
-0,4228635
-0,008996956
0,1423787
-0,029350339
0,025666488
0,003474565
0,016918983
-0,002911649
0,0030184283
-0,020036465
0,025687518
-0,014426075
-0,22322118
-0,013159958
-0,38124484
0,005145207
-0,010279837
-0,041507
-0,0065351697
-0,36094913
-0,01065553
-0,05832832
0,33056617
0,009194801
0,008164419
-0,016940232
0,010841505
0,014505397
0,009667719
0,0039044304
-0,026888678
0,009780011
-0,0027935866
0,42095476
-0,013478442
0,32020617
0,4231241
0,021872627
0,3728463
-0,012044823
-0,01962705
-0,0059766355
0,0060161413
-0,01449047
-0,008481242
-0,029071711
-0,0044787712
0,0052764066
-0,029579245
-0,2926895
0,09857204
-0,01556059
0,012967973
0,0024691457
0,026749052
0,008850786
-0,00027389688
0,4892322
0,008751852
-0,004022081
-0,0011760197
-0,016028285
0,014496106
0,004718009
-0,0024774582
0,009114698
0,001083513
-0,0039126747
-0,004411049
-0,008637697
0,024660816
0,011116316
0,07850423
-0,011419887
0,0050364137
0,010438014
-0,0033944813
0,08325449
0,023149356
-0,0060593435
0,0054371567
-0,0009111533
0,029377855
0,0066548954
-0,006418693
-0,3869399
-0,02156189
-0,0053857663
0,009162681
0,012747099
0,010118419
0,015104378
-0,046758592
-0,0043119392
0,004834127
-0,003938087
0,021956919
-0,01646082
0,019427182
0,06660744
0,4618193
-0,011417688
0,024332657
-0,18059279
0,023145922
0,0052484483
0,015135533
-0,008892039
-0,007677105
0,010156149
-0,37090373
0,003072342
-0,0006694444
0,013075545
-0,006773115
-0,010573761
-0,010692423
-0,10728107
0,022985162
0,002951378
0,043645624
0,029768832
-0,01577636
0,04761986
0,0035686474
-0,022024425
-0,021394378
0,0025775312
-0,0031709292
-0,009855432
-0,13610393
0,009604116
-0,020985669
-0,00956915
0,0153179
-0,2810963
0,2554099
0,007354499
-0,0043061157
0,027521923
-0,0043647075
-0,010795494
0,0019907753
0,002167417
-0,018355316
-0,33236673
-0,17550974
0,33683065
-0,09044989
-0,0015571832
-0,013647869
-0,0003751393
-0,3418446
-0,017999785
0,021661932
0,020340253
0,017236825
0,006837934
0,016574975
-0,004495553
0,024607921
-0,03777792
0,012272381
0,005275908
0,028803915
-0,16538548
0,0444551
-0,019799372
-0,0009687386
0,0338754
0,020594059
-0,012895506
-0,4304671
-0,3131301
-0,067899056
0,101477735
0,01574222
0,024723332
0,0048063383
-0,2906385
0,4702525
0,23395467
-0,015140134
-0,0020048097
-0,030519715
-0,0071732546
-0,00451756
-0,00011869286
0,005550987
-0,4256937
-0,012085908
0,016155131
0,011117716
-0,0042703464
0,018096834
-0,015489412
-0,2795639
0,017585019
-0,34128588
0,0074876035
0,0065312297
-0,20961985
-0,3347967
-0,019914556
-0,016071174
0,012037101
-0,03708917
0,01620906
-0,0021858856
-0,000115076655
0,01661966
0,01466301
-0,01732599
-0,019341514
-0,021037173
-0,015329799
0,012030212
-0,030765526
0,015816173
-0,0123855835
0,020346755
-0,01020617
0,011434749
-0,00029051618
0,008671173
0,013370147
-0,011075629
0,0076338616
0,013805467
0,006560682
-0,008016652
-0,022311674
0,008779757
0,0021193074
0,005565359
0,010400532
-0,014657347
-0,021729406
0,3559855
-0,00524626
-0,024727028
-0,22378936
0,026535705
-0,03080539
-0,40552753
-0,0022172756
-0,0067375116
0,27414432
-0,010261029
0,03437725
-0,005936157
0,0073578185
0,024770118
0,19966678
-0,011465288
-0,47631866
-0,016719755
-0,014927755
0,01515537
0,01755175
0,0037076562
-0,009321769
0,12717453
0,016758597
-0,0011539256
-0,29874206
0,0005333225
0,0002490854
0,038488995
-0,11860366
0,030463686
0,020543616
-0,040459696
-0,21050628
-0,39086136
-0,0042902515
-0,012163947
0,013590583
-0,40925932
0,017070998
-0,013292129
0,006323888
-0,4344774
-0,02786491
-0,019064836
0,16231082
0,019949216
0,0022921977
0,013289472
0,0010144287
-0,008315561
0,019272888
-0,0019593444
0,013902524
0,012735669
0,0028098112
0,0016063582
0,08064896
0,005048557
-0,035337392
0,01931835
0,01650091
0,016799334
-0,040494155
-0,039157692
0,00088164466
0,046568662
-0,3122407
0,28530747
-0,009414441
0,020563498
0,010140309
0,015907919
0,13896564
-0,036507368
0,01417427
-0,011676016
0,008150938
-0,009648604
-0,011302606
-0,41426703
-0,0032913813
-0,15379094
0,17098798
0,117358245
-0,49057838
0,008077526
-0,04087605
-0,023273999
-0,005691154
0,0022939676
-0,33653867
-0,35553622
0,014525168
0,01020202
-0,030795021
-0,031522095
0,017406372
0,017827401
0,012861853
0,0004389321
0,03559935
-0,0062234285
0,046187725
-0,00948465
0,015966784
0,003673399
-0,10778047
0,013407313
-0,02343413
-0,0038936576
-0,03301884
-0,04998278
0,0076691015
-0,0012249303
0,008053094
0,09186153
0,012687571
0,011616465
0,0072944704
0,007995298
0,016635297
-0,014039577
-0,01611482
0,006424291
-0,017351506
0,026622826
-0,012246571
0,001400653
-0,013376283
-0,027156802
-0,016206935
0,003491326
0,021342535
-0,016672276
0,0022015856
-0,029561602
-0,44403282
-0,014398538
0,16085589
0,002745355
-0,0028448387
-0,0006192559
0,37197337
-0,23104785
0,01793229
0,3837754
0,00024178777
0,027497537
-0,030875532
-0,019396856
-0,004917728
-0,26342943
0,08098977
0,014198152
0,016501077
-0,024954285
0,0066813324
0,0043919464
0,01815131
-0,011959022
0,011080768
-0,0070287865
0,45986098
-0,02667099
-0,024720991
-0,0034812654
-0,40540895
0,015688997
-0,05943161
0,012191887
0,30813912
-0,44132864
0,0075935465
-0,44420904
0,022718491
-0,02485269
0,00693246
0,03472804
0,022851268
-0,035129108
0,010579701
-0,35753587
0,012698522
0,0251949
0,02244769
-0,006589848
0,049700495
-0,046004225
-0,0039638625
0,0031205923
0,021040617
-0,0035181358
0,0032699134
0,008809646
0,0014620632
0,020681238
-0,00204019
-0,008387615
-0,0035259791
0,015612036
0,022362005
0,030004025
0,02171338
0,017927032
-0,3304472
0,1554585
-0,1960518
0,27695602
0,06578348
-0,22325541
0,024391651
0,0026024804
-0,0052944794
0,027447442
-0,2622858
0,02719069
-0,45595366
0,013487785
0,03926003
0,00853409
0,018294808
0,012766338
-0,04012439
0,029647596
0,0060245176
-0,002690811
-0,011126952
0,012817846
0,0064405478
0,0082164705
-0,011990565
0,06383671
0,02288857
0,040259976
-0,10820437
-0,0057109618
-0,053973474
-0,0012772256
-0,014936585
0,0298034
-0,032443404
-0,024167381
0,05405118
-0,0020779215
-0,10723122
-0,023767035
-0,0023973156
-0,013607004
0,047904447
0,034223687
0,01914925
0,009319201
0,007210668
0,04504549
0,017506007
0,015684947
-0,0011216168
0,4853581
-0,20024969
0,006753645
0,25190836
0,07040152
-0,048040245
-0,2993708
-0,007526157
-0,03081293
-0,012917251
-0,010851234
-0,02605523
0,022348588
0,042113017
-0,002413208
-0,032745328
-0,010184334
-0,0018857359
0,024964781
-0,03311071
-0,27916038
-0,43700394
0,015962739
-0,019349117
0,013391967
0,14015871
-0,07742526
0,018417927
0,00336909
9,347322E-05
0,025616957
-0,030949945
-0,001221708
-0,02603306
0,002224415
0,013121536
0,01933426
-0,0065206285
-0,025064139
0,01503533
-0,0057523143
-0,022922968
-0,0009151876
-0,0058002127
-0,0096404925
-0,023548534
-0,013981014
0,0039567845
-0,03178026
-0,029409925
-0,008157168
-0,013927446
-0,0037853413
0,040580068
-0,027246246
-0,2601969
-0,0013739362
-0,20593753
-0,04048806
-0,046329573
0,021948325
0,0039062784
-0,2630455
0,011753183
-0,004990597
0,01799021
-0,044044815
-0,023077024
-0,4487749
-0,36224657
0,00847392
0,020939626
0,0058575696
-0,015454389
-0,028484583
0,07831929
0,018024256
-0,02576408
-0,0019628438
-0,03361926
0,010440816
0,0014209421
0,0031401378
-0,025678007
0,37193716
-0,017594997
-0,0045200535
-0,0014081554
0,01030329
-0,044086717
-0,002544789
0,03391534
0,014288978
-0,23103246
-0,033455703
-0,013041045
0,23147732
0,01315144
0,025491603
0,2463865
0,0029486888
0,018124847
-0,025597906
0,04544479
0,12834126
-0,03806527
0,46305448
0,021998812
0,035245165
-0,0226121
0,007372665
0,019425083
0,0055164155
-0,01755497
-0,07992141
0,023094216
0,028191483
-0,0078003826
0,006890361
-0,022962827
-0,03837299
-0,010309797
0,010243816
0,0069483956
0,01675177
0,10503679
0,013199964
0,0016449813
0,0164118
-0,0029758248
-0,0029944596
-0,006937165
0,0027586264
0,009452201
-0,0043863775
0,016263545
-0,020635705
-0,013979065
-0,010870774
0,03267067
-0,05065069
0,009926025
-0,0048337462
0,02537531
-0,0031241374
-0,008572776
4,231935E-05
0,008690978
-0,4888672
0,01140955
-0,0023319696
0,029053632
-0,007535426
0,011762161
0,010389391
0,26559788
0,42129824
-0,00033111995
0,4947474
-0,0059483973
-0,4387238
-0,0124162175
0,010019592
-0,010975093
-0,023282198
-0,010172894
0,004291188
-0,0099561075
0,0050971005
-0,007998338
0,0052186754
-0,008753275
0,014923678
0,0015457114
0,014307859
-0,0008675629
-0,0033419512
-0,005984462
0,014531151
0,01603931
0,0058993846
0,023719836
0,34295982
-0,021970414
-0,0035466044
-0,0240253
-0,016546726
-0,31726208
-0,054286506
-0,045382623
-0,095858455
-0,01553068
-0,015850756
0,0055422042
0,008390138
0,0130582545
-0,024559766
0,005693657
-0,0032961715
-0,040128425
0,017710568
-0,012293919
0,015431955
-0,4566072
0,014996552
0,021091895
-0,008260318
-0,019222235
-0,016795538
-0,007398173
-0,00093662343
-0,2778382
0,0026173282
-0,008765603
-0,008795626
0,015301299
-0,42976788
0,006852593
-0,0041470374
-0,026763657
0,38192686
0,035411008
0,046052054
0,011721286
0,019058837
0,03999179
-0,44456547
-0,19168095
0,023183113
0,0042217225
-0,010448897
0,0082297735
-0,01954683
0,009580866
0,00540778
0,36486894
0,012620259
0,004292687
0,004572025
-0,011046925
0,009372532
0,03341004
0,006919426
0,018453898
-0,020811766
-0,005303177
0,0076382253
0,00081112876
0,011627268
0,010390116
0,03380697
-0,0015037328
0,026322925
-0,13349895
-0,0062419875
0,017060844
0,008879359
-0,13496044
0,01677676
0,02940744
-0,48531577
0,028305495
3,1794407E-05
-0,0028218494
-0,48793945
-0,19418746
-0,0006304635
-0,47630152
-0,002190904
0,018770717
-0,0053855265
0,010195339
-0,018500116
0,038661238
-0,024277795
-0,016421372
0,097075485
-0,049942527
0,0010294708
0,031308927
-0,04108316
0,004430781
0,0024539088
-0,0038597428
0,008362907
-0,04813908
0,015488322
0,12433757
-0,20087151
-0,009856909
-0,0031458691
-0,02180013
-0,035531607
-0,021031218
-0,052828223
-0,030244438
-0,046300244
-0,005200528
-0,01900167
0,0077377544
-0,0351392
0,3732666
0,08374283
0,017630901
-0,37943912
0,015136648
0,026596539
0,028675232
-0,26890388
0,030584646
0,07094618
0,028645812
0,15347809
-0,026431613
0,016425261
0,019485923
0,40666467
0,39138046
-0,008370032
0,037166014
-0,03608952
-0,018662713
-0,055417586
0,033663217
-0,024345208
-0,019552032
-0,23780072
-0,028864004
0,0044138064
0,060387786
0,013590776
0,03548943
-0,022021338
0,38205934
-0,001363159
-0,02857109
0,03229337
0,4311344
0,011370641
-0,01565754
0,016374657
0,016874427
-0,003207847
0,00011262826
0,068833224
0,0017651104
-0,026587406
0,009440622
0,030628717
0,027217701
-0,016810011
-0,0028647494
-0,3567581
0,1767597
0,019289931
0,0041616624
-0,011204865
-0,1687355
0,042659122
0,050878514
-0,011762217
-0,009984722
-0,3301977
-0,018718528
-0,11126106
0,0059226495
0,16001634
0,016536834
-0,013403183
0,45792082
0,00075429206
0,032673333
-0,011175867
0,024403717
-0,038974665
0,025052685
-0,04501051
-0,38494217
0,017077021
-0,4507863
0,031545132
0,026178159
0,03964645
0,010988072
0,13878247
-0,16690506
-0,011376708
-0,0063997423
0,10860577
-0,35594997
-0,033077512
-0,32212827
-0,026826927
0,018100232
0,020487042
-0,014335799
0,008082109
0,00887274
0,28183177
0,01653342
-0,0064086244
-0,1226102
0,019000513
0,06614918
0,029751109
0,033675283
0,003856572
0,021792218
-0,008398011
0,005223505
0,4294287
-0,027308114
0,011753718
0,011492518
0,016687658
0,45192662
-0,01372279
-0,023643883
-0,008356339
-0,008286399
0,026343057
0,40321648
-0,009123178
0,014751844
0,013819948
0,01831858
0,010367554
0,01192184
0,024114707
0,013203508
0,01587361
0,025998387
-0,004298548
-0,012391196
0,03767019
0,027549045
0,38265467
-0,024289884
0,013235885
0,00030644189
0,026145883
0,007919281
0,014115399
0,021533726
-0,020307422
0,018850092
-0,024002856
0,026672136
0,025084706
0,020207917
-0,44765386
-0,0029572737
0,0205282
-0,012887113
0,013976873
0,008536218
0,022654012
-0,0091531575
0,05131894
0,032512955
0,012412309
-0,004397716
-0,018442554
0,03212794
-0,019995028
0,009211758
0,0133774625
0,017047228
0,03193549
-0,031293612
0,03228442
0,04637435
-0,0048114588
0,0062298155
0,2611776
0,010889983
0,024125418
0,0083840275
0,020198256
-0,037294928
0,0052912435
0,35122168
0,041930646
0,016316498
0,00045056638
0,010612054
-0,017764226
0,00074146
0,008054154
0,037363306
0,008855671
0,016555704
0,27782992
0,010755932
-0,0275636
-0,022644073
0,026719775
0,25727117
0,051124
-0,4194616
-0,018278077
0,011348378
0,038026504
-0,029930823
0,4848064
0,051744197
0,007629515
-0,03369648
-0,17032868
0,019949436
0,36478108
0,03101531
0,0026224325
0,01774572
0,013801552
-0,01134114
-0,058146685
0,010747128
0,0045440863
-0,03975657
0,44423875
0,04419842
-0,009287511
0,014538181
0,15640971
-0,03128795
0,0100409575
0,1620903
0,010769622
0,012131564
0,39164886
0,010236616
-0,014925425
-0,001227484
0,02452359
0,0004667294
-0,0032240623
-0,025321543
0,028393244
0,021938253
-0,029996281
0,041702956
0,010035023
-0,00048869615
0,008422511
-0,040446606
-0,2873415
0,017944936
0,016231786
-0,026679741
-0,04104124
-0,024373315
-0,46129856
0,04588832
0,33243078
0,011926481
-0,0063567846
0,0290077
0,005735802
0,012822194
-0,03742124
0,024415098
0,027196411
0,011841372
0,016130054
-0,042345993
0,0096592
-0,013316346
-0,028094556
0,255556
-0,41387746
-0,015238878
-0,457065
0,02908664
0,0014467897
-0,046766195
0,0040172674
-0,01959238
-0,20101419
0,023219803
-0,0028837756
-0,02352466
-0,0072465152
-0,02309356
-0,013586973
-0,042468965
-0,0009870172
-0,001994561
0,015224916
0,057200372
0,007787041
-0,016257681
0,4574913
-0,14092034
-0,00053096446
0,41678637
-0,027692497
-0,0027546706
-0,01816503
-0,011852015
0,008631913
-0,46160883
-0,0007254038
0,40215993
0,021759443
0,0046879426
-0,009601781
-0,06855621
0,004439648
0,00620633
-0,0048734024
-0,0065287156
-0,0076061254
-0,021197103
0,0060534324
0,0029782145
0,16755511
-0,038428646
0,031393
-0,0035396882
0,027685322
0,43221793
0,39719892
0,0063329632
0,00041154434
0,017776838
-0,011966089
-0,02498518
0,039366733
-0,010834134
0,021175299
0,020788195
-0,012529994
0,028695555
0,23605908
0,0006680291
-0,009064334
-0,21734796
0,3109821
0,017527062
0,33560404
-0,013365942
0,0035039643
-0,007368823
0,025422439
-0,03168017
0,014702175
-0,0034319588
-0,00062449777
0,015567444
0,011079072
0,03379062
0,00274554
0,031375915
0,0040019727
-0,0068730395
-0,01743189
-0,00011501988
-0,011523339
-0,0159628
0,03156223
0,03413917
-0,15120992
0,021373592
-0,0034639614
-0,004104661
-0,020075943
0,0026279306
-0,005381797
0,0033780867
0,017781837
0,027574997
-0,14788719
-0,012956162
-0,2290846
0,01393416
-0,0032447507
0,4531766
-0,006065609
0,004918958
0,019649947
-0,25498295
0,0010357288
0,0112513285
0,0055494513
0,0071969125
-0,30281693
0,013883533
0,0048960466
-0,005108717
-0,006018252
0,018619161
0,010267961
0,029265558
-0,4512007
-0,2364148
0,011808201
0,029318007
-0,0040666466
-0,03803704
0,011547649
-0,028536882
-0,001990527
0,0065645147
-0,2858294
0,008950155
0,013068411
-0,14025402
0,18938145
0,03885478
-0,020029848
0,022320766
0,01841874
0,23112836
-0,015082596
0,021434138
0,0022259364
-0,015489475
0,030000096
0,032694947
-0,4631095
0,4593983
-0,011283298
-0,014592801
-0,022367558
-0,18235646
0,021320917
0,20796973
0,024101406
-0,008848314
0,0040915078
-0,013470825
0,008522774
0,0126253655
-0,41302967
-0,022776444
0,14269279
0,018316204
-0,019564968
-0,024980504
0,011778422
-0,07503612
-0,024869835
0,00400644
0,018200396
-0,014043183
0,0046592485
0,01923766
0,0028391492
-0,29432285
0,010433163
0,028895402
0,18962295
0,036051508
-0,017506752
-0,04609936
-0,02233411
0,023598783
0,34762755
-0,118174635
-0,04405435
0,00839292
0,00054924836
0,00062084844
0,012305051
-0,03962939
0,0044148355
-0,43564525
0,03510769
0,002066985
0,019312056
0,021634841
-0,022517473
-0,0046461383
0,00056427805
-0,33105057
0,0072764554
-0,02488743
-0,0040076883
0,0061904425
-0,027159661
-0,013837253
-0,02761664
0,0025841983
-0,0022938943
-0,022500085
0,18859191
0,01627812
0,101873696
-0,012599825
0,4410124
0,015126766
0,018782826
0,0010514794
0,038485512
0,0036359418
-0,04346235
0,023843357
-0,003614152
0,008646226
-0,044818006
-0,009925571
-0,0063928654
0,025280109
-0,03159111
-0,021920368
0,26143867
0,022813499
-0,010544142
0,019470379
-0,045595493
0,07263758
0,04733516
-0,021649847
0,29066178
0,18508637
-0,022245448
0,0051674517
-0,0033737638
0,023560323
-0,3372149
0,0027185995
-0,036435492
-0,0014037028
-0,042825665
-0,0433617
0,019492738
0,016280651
0,084154345
-0,005788599
-0,39664543
-0,017426036
-0,01027244
0,050379347
0,016628424
-0,006955431
-0,004564218
-0,025833318
-0,0027085769
0,022608992
-0,12650664
0,008438001
-0,37703103
0,032517888
0,029580005
-0,010986105
-0,035918754
-0,02437311
-0,014119948
-0,3192955
-0,022295265
0,0058674817
-0,016658325
0,004335476
0,017656565
0,011409897
0,01972837
-0,03364987
-0,023062017
0,011374774
-0,024313202
-0,007892912
0,03912534
-0,0028086018
-0,024630943
0,012792608
-0,44371456
0,007873141
-0,0121872155
-0,029457575
0,007519488
0,02536904
0,013048305
0,3498641
0,025137892
0,010960034
0,0077237114
-0,0066326237
0,012134789
0,01160119
-0,37801588
-0,19908966
0,031033112
0,0043211277
-0,005132811
0,004622178
-0,00017434859
0,023469161
-0,011257354
-0,035887703
0,02286632
0,013268799
0,03209563
-0,044138733
0,0033844425
-0,007812204
0,045248777
0,03139306
-0,022718897
-0,00055902626
0,037056226
0,029507617
0,0008442435
0,017895194
-0,33787164
-0,033198595
-0,018163878
-0,0026221403
-0,009455801
0,0039599277
-0,5167242
0,015781306
0,037943963
0,008017619
-0,0022212884
0,012896164
-0,011155057
-0,008684495
0,023071973
-0,14301226
-0,27464134
0,0028509516
0,027323512
-0,0030665584
0,00352845
-0,07782932
-0,019527592
0,01884269
0,26706535
-0,024584368
0,2928901
-0,0016700986
0,0029707332
-0,00072852784
-0,01854639
-0,3874944
-0,00038741733
-0,0077537876
-0,0066682887
0,002632626
-0,0034888997
0,018904136
0,007940486
0,018438727
0,02488852
0,23986436
0,013147999
-0,023997966
-0,025505496
-0,24518847
-0,011691841
0,025655169
-0,32973233
-0,042608242
-0,01293662
0,0024303736
-0,00918485
0,0008833877
-0,014507048
0,010099277
-0,0034660194
-0,008499536
-0,0041521373
0,009709578
0,008156171
0,023237765
0,039367713
0,04235217
0,023893965
0,0042384393
0,0349824
0,015634084
0,012965592
-0,024031708
0,043614283
-0,012711621
-0,28428572
0,031368963
0,0065668067
0,003945681
-0,0079553565
0,017289234
-0,028093882
-0,36129537
0,0036169912
-0,22669774
-0,004857318
-0,021051006
-0,47257692
-0,12153102
-0,28105697
0,011049821
0,055867016
-0,021654064
-0,031594034
-0,0011466135
0,028594164
0,035634838
0,0046010707
-0,017544951
0,015799817
0,03390619
0,003173697
0,015557556
0,0010770138
0,01614009
0,00035378494
0,0025300793
-0,39722332
-0,006161991
-0,009607418
0,024055613
-0,0015957122
-0,013426044
0,009274305
0,012301416
0,019468764
0,0067762407
0,44980752
-0,02495635
-0,009823756
-0,5137858
0,0053700116
0,016930204
-0,002593264
0,018151388
0,015570683
0,022790495
-0,0055217436
0,018714456
0,03081404
0,004380676
0,012334102
0,02452782
-0,01595905
0,020616353
0,005258516
0,01205352
-0,03147485
0,017471455
-0,023416117
-0,015379776
-0,0011538862
-0,23886861
-0,01857527
-0,010481054
0,023732722
0,008336763
0,013460154
0,030905422
0,00077995
-0,007148936
0,004348377
-0,02751083
-0,017319985
-0,22248119
-0,2070878
-0,008786115
-0,0123737715
0,009385954
0,000664947
-0,009843581
0,34645793
-0,13937558
-0,0009927447
-0,013426367
-0,014833953
0,0015637563
0,1478056
0,0066979295
0,023975419
-0,021632921
0,023069525
0,0075673275
0,36574292
-0,0074029453
0,005000398
0,025102526
-0,019174453
-0,039805252
-0,364759
0,028536672
-0,010274256
-0,030112645
-0,014727497
-0,0017757796
-0,012234868
-0,002503737
0,01622377
0,23383078
-0,002653804
-0,019140959
0,49198645
-0,011927441
-0,0033423186
-0,12420313
-0,010933253
-0,0038648318
-0,14400521
-0,39254355
0,018323231
0,025734872
0,48688394
-0,022895591
0,019935677
-0,41021624
0,38918635
-0,008811696
-0,004448057
0,020024119
-0,012828607
-0,00996012
0,011662634
-0,015344525
0,009374702
0,023108577
-0,003930237
0,018097498
0,00023428249
0,018487003
-0,011960184
0,018985733
0,5152029
-0,010999886
-0,0070209126
0,026185099
-0,031833377
0,0064670537
0,006529817
-0,027924243
0,005193367
-0,0006713282
-0,018969037
-0,27191576
0,01967123
0,010307788
0,01549901
0,0037918196
-0,023154391
-0,42580545
0,034881577
-0,0024122
-0,20254762
0,37904134
-0,011356802
-0,25491595
-0,024858072
0,031014005
-0,013197134
0,033908088
-0,017363966
-0,010531791
0,20590258
0,16033763
0,017442534
0,028001511
-0,29094908
0,3274738
0,0071588187
-0,007711042
0,115292266
-0,003645267
0,29765463
-0,0055193747
-0,1326274
0,023306455
-0,015488702
-0,0034707575
-0,3288113
0,023934279
0,016300216
-0,025847021
0,018455474
-0,025328536
0,0049506593
0,02068787
-0,38518772
-0,0378911
-0,010596478
0,19444565
0,0016268393
0,056914993
-0,46988827
-0,010183133
-0,025377646
-0,0022163058
-0,06534307
-0,0010167706
-0,01078984
-0,04330442
-0,001731688
0,27850395
-0,045061674
-0,20864558
-0,011379635
0,017681511
-0,0037238344
-0,00264605
-0,21132477
-0,4095219
-0,014396455
0,42061666
0,0025395167
0,004916224
-0,045323968
0,012641891
-0,014907851
0,018472582
-0,038957763
0,021064017
0,42982325
0,0071976725
0,0065715807
0,049197566
-0,03805844
-0,02826089
-0,012461218
0,0019944084
0,15687032
-0,03605502
0,012094377
-0,033960342
-0,003903931
-0,03839849
-0,21471284
0,004453173
0,23226497
-0,022670036
-0,0028092547
-0,015183623
0,2787068
-0,00525572
0,40063518
-0,022336422
-0,0029245007
0,018671328
0,0028898392
-0,012629114
-0,016727919
-0,0018000974
0,011312885
0,082032114
-0,37458435
-0,021407213
-0,01789163
-0,0016077829
-0,12147321
0,36765128
-0,0034843
-0,0299585
-0,023009306
-0,0064508994
0,0050320937
0,0037060506
0,014923859
-0,0030805138
0,012543078
0,006524713
-0,008416797
0,009145361
0,0018470831
0,0048668887
0,18933763
-0,048218705
-0,007059957
-0,25224498
0,003237013
-0,01793158
-0,02540315
-0,008289364
-0,036440115
-0,0240459
-0,038392175
-0,27853188
-0,036594436
0,0024636518
-0,025538255
-0,0030140246
-0,0002553356
-0,03229547
0,027178025
0,1149663
0,027543822
-0,03092039
0,027938465
0,0021451954
-0,0065603266
-0,33582854
-0,009489413
-0,028848618
-0,01926664
-0,032151416
0,008490211
-0,030884452
0,055257317
-0,008845808
0,021721948
0,005927587
-0,024425823
-0,028535841
0,02738155
0,01172994
-0,010202053
-3,7558675E-05
-0,0047173593
0,01436232
-3,5122426E-05
0,015942683
-0,016832266
0,008793036
0,32270333
0,16421786
0,00076137553
-0,014232175
0,0070950175
-0,00797371
0,004587461
-0,020009574
0,017773902
-0,0009580394
0,00022865881
-0,010290118
-0,04010743
-0,015891427
0,014821367
0,005465934
-0,0061444524
-0,0027893977
0,014915695
-0,22907145
0,09332405
0,0028893081
0,00022577161
0,01828534
-0,025149496
-0,018401545
2,2870554E-05
-0,0036202974
0,4025274
-0,014795647
0,0015885503
0,027533012
0,0049468395
-0,01018317
0,016297571
-0,015388075
-0,0061083483
-0,0039868685
-0,0022119603
0,0027037035
0,0035179185
-0,039432015
-0,2035521
0,011924326
0,022268733
0,013582446
0,0058195163
-0,009804106
-0,028913738
-0,00062787434
0,02584441
0,017245464
0,016281247
-0,012844894
0,016523134
-0,30686206
-0,0022464322
-0,014970987
-0,023243273
0,014395843
-0,040077332
0,31969354
-0,005390702
0,0018276417
0,40584236
-0,1970722
-0,0016474171
0,0053734006
-0,01821059
-0,0055245375
0,01771595
0,016656198
-0,33768326
-0,07354976
0,0008903811
0,027962377
0,0019482467
0,054776665
0,0036800636
0,025299925
0,4998104
-0,010235371
-0,0032297724
0,012341411
0,38215828
-0,004766834
0,019925764
0,012593129
-0,004016911
0,0041223546
0,038778443
0,40597358
-0,3580421
-0,010565727
0,025471184
-0,010425592
0,1828432
0,0068032024
0,027086874
0,00676096
0,0025375856
0,016129948
-0,22867909
-0,0059821634
-0,20854428
-0,0005220733
-0,016114717
-0,022438765
-0,012389506
0,014033151
0,0071814796
0,019900672
-0,3701464
0,01822307
0,0253681
-0,010226741
-0,016280735
-0,31974342
0,008579973
0,015172156
0,03002608
-0,0026377076
-0,011779601
0,008132297
0,0040449915
-0,005444701
-0,0058009485
-0,008011443
-5,7695175E-05
0,017733455
-0,04120743
0,033285998
0,018291311
0,03762121
0,004961466
0,004035963
0,016745541
0,023885492
6,743733E-05
0,023719788
0,018775878
0,016861372
-0,0056512314
0,0133059
0,0011999558
0,012919492
-0,26523662
0,0028491605
-0,41695428
0,01547537
0,00041350638
0,024318637
0,007352713
-0,30057615
0,014812769
-0,49723437
0,023941148
0,020272728
0,02823615
0,0074492507
-0,018791368
-0,31623435
-0,0017268916
0,019682558
-0,023407353
-0,022973437
0,004841444
-0,001800943
0,018729994
0,014496932
0,040154655
0,017770657
0,41391766
0,0071917567
0,004984001
-9,4631374E-05
0,056179807
0,0010309822
0,016059862
0,026331307
-0,005840199
0,23109046
0,010773269
-0,007783576
0,001426986
-0,018467456
0,0068675433
0,0049290303
0,03973417
-0,0017779033
-0,003357935
-0,019267814
0,34792426
0,06391736
0,040801786
0,009041841
-0,0029054314
-0,011765982
0,02744304
0,020475177
0,02136055
0,022567648
0,0083944015
-0,28602514
-0,0020181974
0,023568634
-0,015253723
0,0044131917
0,012984746
-0,0023052325
-0,013169716
-0,018739441
0,4458833
0,008371079
0,011984499
-0,0012821042
0,016448168
0,0049866685
-0,0169117
-0,16084377
-0,0036105998
0,03597025
0,0006525789
0,029993333
0,02032201
0,008758389
-8,549886E-05
-0,0035751574
0,009736511
-0,012599225
-0,019184282
0,008920707
0,0087267
0,028941546
0,035619017
0,2675158
0,0034867362
0,00486586
0,0013447244
0,035236288
0,05245082
-0,015401433
0,032847703
0,035204154
-0,35751855
-0,26556787
0,018765375
0,0015294328
-0,00090087677
-0,011288306
0,026513929
0,030714156
-0,03133294
0,026704581
0,02778382
0,00020088743
-0,025626324
0,012129647
0,012828383
0,036290552
0,014395895
0,021469522
-0,008141427
0,020686535
0,061754495
0,0068045463
-0,0042072977
0,040478256
-0,37597662
0,015560461
-0,0015956002
0,13096716
-0,16537675
-0,27883574
0,022559037
0,48062754
-0,008470717
-0,02696969
-0,42511937
-0,008567093
-0,0040435046
0,008421944
0,005472736
-0,011269565
-0,008281188
0,019580467
-0,0021274285
0,02165708
-0,03234847
-0,020289687
-0,37970158
-0,0062008775
0,008316655
-0,49708572
0,011017862
0,016375273
0,0118433805
-0,2517177
-0,010194915
-0,49021837
-0,039190207
0,025729952
0,15550476
-0,026196796
-0,0022700552
0,015667193
0,010392353
0,0036742047
0,011462849
0,002066023
0,012480951
-0,0030505576
0,005633457
-0,047846604
-0,02860862
-0,017470798
-0,13413344
0,0070780544
-0,39382857
-0,013533892
-0,013900462
-0,033828974
-0,0023017987
-0,0055172937
0,0016392798
-0,019075548
0,0028967373
0,31740418
0,0014360767
0,26615354
-0,30975413
-0,0682534
0,00064771087
-0,2193378
0,006389784
-0,0030917237
0,35164443
0,018248176
-0,020263763
-0,50325555
0,0071119717
-0,013180754
-0,0060704276
0,016222801
0,003712961
0,003690017
0,00529329
-0,21735153
0,010906814
0,0180428
0,14317122
-0,032449566
0,0031582077
-0,009076845
-0,022636509
0,013117112
0,007893326
-0,021534678
-0,019006062
0,4222319
0,0019412357
-0,02539311
0,4003692
0,0038432232
-0,0054802597
-0,018258676
-0,0021893291
0,025153853
-0,0035863556
0,0027258063
0,030923216
-0,0042173984
0,23352012
-0,046033345
-0,25115082
-0,024040917
-0,023200678
-0,04185127
-0,00563484
0,009486613
-0,009341648
-0,024090966
-0,006874429
-0,010143817
0,11062954
-0,023735015
-0,003957655
-0,0009961987
0,15605144
-0,027015474
0,029830888
-0,0085593555
-0,012405532
-0,0141060725
0,031249002
0,024645438
-0,022005323
-0,3737161
-0,0017790494
-0,032435745
0,0074056443
-0,413557
0,0640073
0,2683299
0,2959522
0,055163212
-0,016166339
-0,15669107
0,16191322
-0,038391154
-0,118367404
-0,00088840484
0,016971033
0,48054436
-0,046782237
-0,40466633
-0,32186264
0,021106366
-0,01186281
-0,010934215
0,21665879
0,038349632
-0,005348862
0,0055212444
0,02333325
0,013894129
0,0070196646
-0,14867362
0,014351429
0,032939196
-0,0036685127
0,01153124
0,15871364
0,019386953
-0,08602432
-0,27002668
0,00011379828
0,013618349
-0,021783866
-0,014750416
-0,032632016
-0,37129247
-0,00061295106
0,019740338
0,023026
-0,31106153
0,016037507
-0,0030741233
0,11785991
-0,0066578044
0,021034244
-0,021802973
0,04058374
-0,020814555
-0,020759784
0,23265125
0,047718678
0,00648045
-0,007919409
-0,006525186
0,012775008
-0,0024786906
0,016898116
0,033368763
0,0164173
-0,010527723
-0,012897506
0,0035753667
0,029538723
-0,014251893
0,10540386
-0,041480802
-0,004464007
-0,01501244
-0,035847716
-0,07077246
-0,01233329
0,03532166
-0,0054264753
-0,023753652
-0,009161347
-0,011324422
0,040228188
0,0036767507
0,00028960293
0,018113663
0,0073474706
0,0060072527
0,27931458
-0,27107114
-0,016286315
0,14142244
-0,04104522
-0,003124912
0,015047304
-0,026609262
0,468332
-0,016074136
0,17249556
-0,0063762423
-0,073939465
-0,01904549
-0,010901391
0,009854359
0,015011377
0,006816784
-0,024665596
-0,010545565
-0,0035772438
-0,03712811
-0,010259207
-0,04237845
0,03544745
0,014926891
-0,002514759
0,0002778268
-0,0013327629
-0,013460712
-0,032383494
-0,33621198
-0,0031722938
-0,034984387
-0,015424667
-0,019388648
-0,044982947
-0,04001789
0,032442983
-0,0020356071
-0,2303386
0,18902956
0,12863469
0,020652855
-0,020036884
0,00077993283
-0,010108577
0,009987867
0,012410417
-0,014351617
-0,0019046718
0,008919911
0,0027003863
0,012033394
0,003033969
-0,038888857
-0,009984385
-0,016974432
0,07206666
-0,01274822
-0,024176314
-0,034235533
-0,016325686
-0,034137607
0,00019505889
-0,008122143
0,015175016
0,013834158
0,020468518
0,019177895
0,022451162
0,008879761
0,032597557
-9,645312E-05
0,277105
-0,28313348
-0,034250095
-0,007578003
-0,00038859353
-0,0020458358
0,10235495
0,14035518
-0,00997121
0,028423322
-0,03245704
-0,001944262
-0,016015144
-0,01897299
-0,035297852
-0,017068898
-0,0063349744
0,013189512
0,01611767
0,002681623
-0,04260663
0,052886482
0,023520647
-0,0008482547
-0,040614583
-0,08513466
0,065192446
-0,011176547
0,20926805
-0,008702862
0,011393755
-0,028336486
-0,04219602
-0,022143945
0,2860297
0,10735116
0,27975288
0,004949639
0,034886524
-0,49970135
-0,050008316
0,037981596
-0,012153483
-0,011072484
-0,03135597
0,0042835176
0,00029190042
-0,2334711
0,016376995
0,012408144
-0,029644992
0,45848605
-0,040838726
0,37486103
-0,0225693
-0,024629794
-0,10173852
0,024583794
0,19235756
-0,00097058254
-0,019004654
0,51176924
0,0043142196
-0,015964134
-0,06782329
0,046063654
0,018656673
-0,018397156
0,017560562
0,07350097
-0,1771722
-0,024490947
0,09554596
0,3522509
-0,027665764
-0,06400072
-0,05308807
-0,018048627
0,027080707
-0,023207659
-0,008347169
0,0035069226
0,0075032464
-0,022869801
0,003391265
0,004417293
0,007449087
-0,0070790197
0,003476677
-0,010400202
-0,0067796083
-0,024908325
0,124279395
0,0012770455
-0,026813481
-0,004823927
-0,013647581
0,0041183718
-0,0025484385
-0,021746261
0,006091817
0,08604679
0,013091206
-0,41195533
0,32063293
-0,011255502
0,017329628
0,015941838
-0,0028081364
-0,48516423
0,21720411
-0,03198783
0,01237804
-0,44554976
-0,014157746
-0,052253988
-0,021290006
-0,017229315
-0,040544838
-0,02919784
-0,02665093
0,010551028
-0,021292273
-0,026528478
0,4145198
-0,018270958
0,0028608218
-0,4449532
0,015897151
-0,0061311275
0,0019705403
-0,02055214
0,022190887
-0,00428501
0,08040771
0,0007905341
0,43091184
-0,0020442163
-0,012909257
0,19081269
-0,017371405
0,021710133
0,07656214
-0,021102896
-0,103487216
-0,00022273025
-0,0187462
-0,011349366
0,41692698
-0,00303711
0,08436635
-0,48978797
-0,0006775078
-0,043852113
0,006767498
-0,0075237434
-0,18725616
0,0510326
0,0015940812
-0,0017639172
0,00042239638
0,010295561
-0,019109672
0,32702845
-0,025800496
-0,0114227105
-0,01268854
0,4723665
-0,017522367
0,0051571024
-0,31751052
0,0051329937
-0,021405669
0,01677236
-0,0048579304
-0,022633808
-0,008813988
0,0012041458
0,026540723
-0,018457465
-0,008739309
0,02417599
-0,013244447
-0,020435758
-0,0059146117
0,011462235
0,005667187
0,01635033
0,017154375
0,017077707
-0,037769284
-0,009107403
0,019089488
-0,029319663
-0,007907682
-0,027541455
-0,0043842136
0,00099811
-0,0033548952
0,025260596
0,039676324
0,22262967
-0,048584234
0,030636093
-0,022378836
0,39507344
-0,0057687415
0,022012481
-0,1397741
-0,01656085
0,005412929
0,23569119
-0,003136868
-0,07003992
-0,043642092
0,024074571
0,047784183
-0,496862
0,0145282755
-0,25750777
-0,04144264
-0,02823805
0,028458059
0,02187608
-0,014912804
-0,026889304
0,009062288
0,0065617315
-0,024735058
0,3058273
0,03735686
0,04515687
-0,022358295
-0,0026005656
-0,0067088082
0,01925403
-0,0068441085
0,0026599828
-0,09353871
0,0017422879
0,0015233718
0,0072572334
0,0023934657
0,0014885175
0,0008949912
-0,020329908
-0,036667217
0,0053873793
-0,3065139
0,020607453
0,013919808
-0,00032239922
-0,010240181
0,009940377
0,02167002
0,01780255
-0,011706718
-0,012258945
0,010695952
0,054900654
0,020619104
-0,037652515
-0,051867455
0,0059790355
0,008896878
0,12998982
0,014853821
-0,34268746
-0,46265092
0,042411197
0,012533247
0,0076309773
0,05662901
-0,00911295
-0,42917198
0,017825797
0,0066192485
0,032771565
0,005550523
-0,0013656967
-0,0023575241
-0,012596377
0,22888596
0,0029220441
0,0023992031
0,0024003522
-0,14364383
-0,07040736
0,012691378
0,012426677
0,04141181
0,019739395
0,017515456
0,025795998
0,017679533
0,019432405
0,047958467
-0,24368805
0,039967544
-0,017654909
0,20027922
-0,0023481112
-0,031091386
-0,17078803
0,035629693
0,08378116
0,04298841
0,05186216
0,0026626592
0,028537389
-0,41780463
0,020255195
0,012493104
-0,042643778
0,012916422
-0,03169656
0,0004131148
-0,0007865085
-0,0054980135
-0,20332651
0,0064658625
-0,03803854
-0,010955752
-0,10433347
0,44213164
0,0071385955
-0,019801648
0,21910755
0,020681173
-0,0034863902
0,024783622
0,018823933
0,020187834
0,078612134
-0,01050487
0,002408301
-0,008023734
-0,0023767727
0,016824517
-0,0033842453
-0,094511464
0,001416595
-0,0015583477
0,0048483983
0,013688144
0,004703482
-0,01125771
-0,019416662
-0,01592777
0,028489312
0,45049176
0,027186677
0,0018382383
-0,00857122
-0,0040049795
0,0064798947
0,0061720205
-0,017577987
-0,0017407027
-0,016877161
0,01401091
0,0040997644
-0,021808801
-0,010981754
0,006616915
0,002530894
0,0057364525
0,016227394
-0,32537463
0,029695755
0,0011592046
0,24429291
0,020575702
-0,02673777
0,00034572027
0,01766518
0,00064516056
-0,019659333
-0,0076141176
0,011184448
-0,016676165
0,015629789
0,00747868
0,17186989
-0,011511096
-0,034161154
0,0010485743
0,44636762
-0,019065596
-0,018309563
-0,30527627
0,0075041465
0,009325737
-0,019962607
-0,017696729
0,34405687
-0,0052395267
0,42121527
0,0003948273
0,0070950896
-0,010029902
0,0055981465
-0,02668072
-0,02356052
-0,0032238949
0,0050696465
-0,00899373
0,18162592
-0,01749648
-0,008269564
-0,015622433
0,0015468987
-0,00973937
0,0037842288
0,008314326
-0,0068419105
0,1413453
-0,001600662
-0,014290404
0,035465654
-0,0044222507
0,38820276
-0,016597468
-0,0054221572
0,020774866
-0,000941939
-0,013050451
-0,0033919541
-0,0131872175
-0,0051948605
0,004190561
-0,011035929
0,013829653
-0,0071982457
-0,0030405982
-0,028446423
-0,007982083
-0,009274899
0,023943847
-0,044380113
-0,0127396565
-0,022333587
-0,00815468
0,002282963
0,027563626
0,016486116
-0,0056689936
-0,008014036
0,011246805
-0,016705068
-0,01754276
0,19391863
-0,39000317
0,26962772
-0,0026298743
-0,005162814
-0,017582487
0,003966439
-0,0151410755
-0,008534158
-0,003930738
0,00033075907
-0,0038512421
-0,004728155
-0,005066831
0,40935886
-0,0023091435
-0,4555116
0,0091999015
-0,018777272
0,008223408
-0,008959856
0,008982867
0,025578748
-0,022356777
-0,028561791
-0,011720309
-0,0037367905
0,0027384236
0,006756724
0,004772053
-0,019497681
-0,026203953
-0,016794564
0,018187037
-0,017522717
-0,007606227
0,09427429
0,01115977
-0,01268295
-0,006258947
-0,009699594
-0,026892092
-0,0033981213
0,01023225
0,008902445
-0,006996576
0,0002475638
0,0027630725
0,0075261667
0,008083211
0,007904687
-0,009551461
-0,010181721
-0,0084427
-0,013331021
-0,44879332
-0,010779683
-0,0095425425
-0,018752605
0,011683404
0,032454446
-0,13323803
-0,005366038
-0,008658732
0,0047317664
-0,3521404
-0,019923888
0,007980129
0,006916388
-0,003331863
-0,02960404
-0,015406214
-0,308005
-0,0023945938
0,020925662
-0,009820251
-0,19357051
-0,018394139
0,0053177937
-0,005358058
0,002349265
0,00076038786
0,007704894
0,19971159
0,009789688
-0,504054
0,02673269
-0,0015075919
0,005490686
0,29062688
0,010273247
0,009967371
0,35701686
-0,0035185642
0,009761497
0,10768248
-0,0031297128
-0,3334521
-0,014236868
-0,0033125328
-0,0037879862
0,009921918
0,0038704805
0,0070877587
-0,020312175
0,00022966694
0,4372846
-0,0068326355
0,0054572253
-0,027299145
0,016673503
-0,0025767977
-0,015151335
-0,0015341281
-0,010039559
0,011005622
0,0013745202
-0,01346475
0,040224038
0,0022039346
-0,0040177563
0,029130416
0,0037521215
-0,011139812
-0,0008711444
-0,01586744
0,003938975
-0,008187398
-0,03313411
0,012246912
0,013104545
-0,077282615
-0,0055074636
-0,20535387
0,0065680807
0,0042853197
-0,020654669
0,29601634
-0,0035061978
0,0054792515
0,3334946
-0,007900341
-0,0014399617
0,012469818
-0,19892411
-0,013747689
-0,033472095
-0,008637823
-0,34519416
0,001149036
-0,024511203
-0,011229651
0,0058810674
-0,0013846309
0,0023380616
-0,21547803
0,017528445
0,009739098
0,0026047807
-0,3988824
0,014958895
-0,0066021043
-0,022227747
0,012388568
0,015453171
0,007817155
7,3838986E-05
-0,006073715
-0,015354649
0,008926323
-0,027059669
-0,007282819
-0,014062193
0,0020969769
-0,013891107
-0,02069857
-0,029590413
0,0017284177
-0,09599147
0,028219813
0,2023012
0,04402982
-0,010340869
-0,011527026
0,0069946107
0,0037408909
0,05156276
0,29985136
-0,053003658
-0,013691625
0,002160417
-0,004436723
0,45348743
-0,030846138
-0,0017218585
-0,4027114
0,009780464
-0,46414697
0,033579946
-0,002769543
0,0010983743
-0,013135705
0,012883552
0,3196254
0,02154338
-0,05318152
0,28004935
-0,10358348
0,25868896
0,003710138
0,004105827
-0,040706947
-0,0011803309
0,19673133
0,036433212
0,036186036
-0,0003070994
-0,12181908
0,08254175
-0,008806281
-0,018397039
-0,032428637
-0,04264172
0,0035558648
-0,004760649
0,0075412896
0,09471567
-0,3944228
0,50404596
0,0012805425
-0,026434831
0,024278348
0,37648338
-0,002918614
-0,11112072
-0,018230697
-0,022162953
0,0065202946
-0,005758905
-0,0017459635
0,019181648
-0,0038214778
0,018669324
-0,012288787
0,0069167293
-0,029894069
-0,014976221
0,005212756
0,21918769
0,04392142
-0,0074762045
0,007658841
-0,013649587
0,019835701
0,003912483
0,013103275
-0,0027203292
0,00803607
0,0046745883
-0,0062660826
0,27945665
0,015906582
-0,013585043
-0,030969568
-0,017689163
0,0051314607
-0,42067644
-0,036156133
-0,012848178
-0,012109042
0,014562977
0,023048148
0,00078134116
-0,0013096153
0,0031496566
-0,02534204
-0,028041769
0,008419832
-0,005372091
0,029402941
-0,0291073
0,027166674
0,006320537
0,004858606
0,45724806
-0,0021939557
-0,023938604
-0,01928128
-0,017113917
0,03219105
-0,00468322
0,07623399
0,023984503
-0,009925719
0,08705974
-0,005733042
0,023213632
-0,02847948
-0,039827004
-0,20385604
-0,055408217
0,055328313
-0,032577112
-0,043970164
0,034645643
-0,0015256878
-0,039201066
-0,44142485
-0,007028868
0,0036101723
0,022000356
0,3174673
-0,0034490079
-0,048277583
-0,008527081
-0,2991052
-0,012075055
-0,10446131
-0,0053545255
0,00827434
0,028145459
0,019649202
0,017362066
-0,013243149
-0,017342323
-0,010395604
-0,019291125
-0,060269415
0,016032532
-0,02812083
-0,027695382
0,02000723
0,012255092
0,0010275857
-0,0637486
-0,04078783
-0,025315993
0,5014913
-0,010269416
0,037909698
-0,0013610669
-0,047338665
0,45882288
0,020156544
0,01308865
0,012972828
-0,030292297
0,0029723288
0,025938163
-0,43721002
0,09547048
0,03609411
0,017371776
-0,014377921
-0,36921895
-0,02032994
-0,0027840405
0,2897843
0,4544892
0,010617233
-0,02714284
-0,20657706
-0,44599164
-0,0037203825
-0,40952194
0,13045828
-0,017849416
0,00066625274
-0,06422907
0,41557324
0,029534915
0,033263918
0,014021379
-0,026134863
-0,0037111195
-0,033890277
0,14699736
0,019516092
0,019110415
0,32876253
0,07212642
-0,0066580293
0,28107443
0,0004727135
0,0011839801
0,015507779
-0,00430273
-0,0015137016
-0,026285676
-0,009669753
0,026593339
0,009637123
0,01988683
0,019040583
0,0024995944
-0,021570958
0,03908758
0,010651033
0,017316226
0,002757423
0,026758552
-0,01658833
-0,034791958
-0,0128224045
-0,013864019
-0,0036217514
-0,015473358
-0,3661559
0,033624563
0,0023289926
0,0029933753
0,038666327
-0,41464266
-0,045650437
0,0045820563
0,0141832465
-0,00907247
-0,010240356
-0,010386011
0,029845132
-0,010965904
-0,036209162
0,14911345
2,5646657E-05
-0,084495775
0,105014235
-0,032234017
0,048873506
0,0126518365
0,32288966
0,006820667
0,023793163
-0,00783201
0,0062656985
0,00948558
-0,0014777929
0,007348828
-0,19351235
0,032358617
-0,0061601587
0,017344946
-0,1373248
-0,05002003
0,1633556
0,037421558
-0,0058995523
-0,0064603942
-0,023139464
0,44319767
-0,0014927472
0,032476556
0,020024842
0,047640488
-0,017304076
-0,0066263597
0,014021418
-0,019485505
0,17012885
-0,0027767608
0,021400366
0,025799401
-0,01297248
0,008790931
-0,03640861
0,005060506
0,0004992526
-0,023354158
0,023159184
-0,034827486
0,037514843
-0,03304218
-0,0118708415
0,044900417
0,03215948
0,004903751
-0,03368709
-0,023274804
0,026888516
0,016809719
0,022082169
-0,0007841242
0,01632628
0,038046815
-0,011583107
-0,00046551312
0,0057163336
-0,01883113
-0,010076575
0,010746432
-0,018107394
-0,0340257
0,022141937
0,072724916
-0,024701854
-0,030801836
0,41897547
0,016414212
-0,022973372
0,00084537675
0,05650533
0,00029429648
-0,0012593506
0,003914677
0,03962741
0,018631767
-0,016647702
-0,020582499
-0,006010501
0,1996346
-0,032433636
0,008330468
-0,029570438
0,2146234
0,0061579864
-0,0077888635
0,007262798
-0,014883878
0,010714433
0,04414535
0,00671822
0,46793967
0,024578817
-0,013416017
0,008088867
0,008954648
-0,012073338
0,016280593
-0,024114454
0,025609462
0,0063876803
0,009169958
0,015891526
0,0081613455
0,061807424
-0,03476404
0,014979461
-0,0076943263
0,0060639745
-0,015757274
0,009563735
-0,007054834
-0,007810476
0,017041543
0,015498214
-0,015277811
-0,03465844
0,02087916
-0,00035795628
-0,28261235
0,025767557
-0,0010741393
-0,000601041
-0,14018321
0,01053619
0,007472541
0,033204183
0,39827308
0,008630149
0,0319145
-0,010191382
0,20024092
-0,20474444
-0,038620222
0,0032509973
-0,02580393
-0,027283464
-0,008594847
-0,0018357316
-0,0032460897
-0,017985988
0,009992691
-0,013398196
-0,0047244597
-0,021682147
-0,0015007413
0,01672604
-0,03722287
0,030351691
-0,011017132
0,04522139
-0,017783027
0,05325716
-0,00016935825
0,011011019
-0,0025048445
-0,009436498
-0,014464783
-0,005102337
0,011879599
0,014237688
-0,009056639
0,004818856
-0,003790359
0,011574281
-0,37959862
0,4847145
-0,013924804
0,019014562
0,3502287
-0,004180243
-0,098922044
-0,0016597012
-0,013408052
0,012016173
-0,29872426
-0,36679855
0,41095755
-0,018837947
0,024914483
0,444002
-0,001109157
0,19645087
0,022036733
0,00855959
-0,028083535
-0,011039862
0,006126301
-0,017409783
-0,25365314
0,0013740179
0,013198576
0,00073981774
0,0062614083
0,018302463
0,035757177
-0,0024450463
-0,018192962
-0,0012172052
-0,002699806
0,0044050743
0,035725437
-0,01574072
0,011800943
-0,019730886
0,00025014326
-0,026131094
0,082195036
-0,016532902
0,0054031406
0,021793012
0,02616302
0,014487245
0,0001486541
-0,01111659
-0,010015779
0,011022522
0,16843839
0,010358539
-0,0041282563
-0,028543254
0,019142168
0,3730006
-0,11173419
0,024993477
0,01412104
0,040538326
-0,0054160776
-0,31801876
0,048759684
-0,18108219
0,025384717
0,5293055
-0,026537908
-0,013407262
0,01230239
0,048324104
0,013158982
-0,039819863
-0,042991977
-0,2684181
-0,15264203
0,00030824507
0,014730584
0,01361544
-0,0096701505
0,039110668
-0,021211682
-0,049182385
-0,025992095
0,003595434
-0,01634867
0,04455535
-0,13614662
0,047899835
0,007471687
0,022005385
0,00021355061
0,023701893
0,01219371
-0,015992317
-0,019556183
-0,045048494
0,027679767
-0,026019283
-0,3383453
0,038022697
0,033197507
-0,014547998
0,013218533
-0,009091267
-0,080463365
0,042925335
-0,034891028
0,01672495
-0,33984208
0,0040251045
0,03910657
-0,04516583
0,24102396
0,003153478
-0,0007882363
0,029192932
0,24557942
0,002307452
-0,0047556832
0,014630351
-0,0035335
0,07653562
-0,041937057
0,009077685
-0,32599142
-0,007935492
0,2871611
0,0033419952
-0,008992349
-0,44354588
-0,017814487
0,012708852
0,0256168
0,015674848
-0,0115290405
0,0057584536
0,0059424373
0,0019830947
-0,017715057
0,0036488986
0,025249325
-0,0040801624
0,01399942
0,022418946
0,020167029
-0,030161588
-0,022149673
0,004462354
0,017677749
-0,027647208
-0,33940932
-0,017241832
-0,0053072697
-0,005245726
-0,007722987
-0,0046691457
-0,011553184
-0,017683208
0,12752952
-0,0055514746
-0,37729487
-0,098235995
0,11365464
-0,005332423
0,0101512745
-0,32491824
0,0206393
-0,3006989
-0,0010035335
0,0025794695
0,0017467242
0,02485963
0,021955319
-0,0018754231
-0,36331475
-0,049023524
-0,0014552536
0,010020738
0,111241974
0,00856154
-0,0057383976
0,0017708986
-0,0013041113
-0,39321136
0,030639825
0,0023340425
-0,012718633
-0,00023953443
0,012919847
0,0012498478
0,0043863226
-0,0019064854
0,0019557083
-0,3851735
0,0133050345
-0,018419383
0,015899288
-0,40250912
0,01571537
0,008081026
-0,003425201
0,33691296
-0,17851791
-0,012228069
0,016191699
0,008447992
-0,0040843617
-0,0049061044
-0,005945757
-0,014998593
-0,02049069
0,033109907
-0,01377518
0,0060258796
0,03143807
0,00477649
-0,027925069
-0,011535321
0,056065936
0,024702825
0,0030601188
-0,010468884
-0,004455109
-0,03023635
-0,19030866
0,22547212
-0,106548056
-0,0047275173
0,0053556347
-0,0038945477
-0,005610452
-0,39129493
-0,47706354
0,040666446
-0,4967805
0,00551249
0,030067464
0,0076657822
0,010305888
-0,015600322
-0,18801305
0,04513249
0,03409142
-0,0064882203
-0,005281615
-0,014874744
0,01894292
-0,0030347167
-0,18730465
0,0027554354
0,0012937754
-0,028791744
0,029317401
-0,017111845
-0,007949404
0,47556567
0,008339552
0,29007396
-0,002718886
-0,00672914
0,4304988
0,009574194
0,0004710275
-0,33049947
-0,019359302
-0,0032215205
-0,3929566
0,0033862356
0,011512093
0,022792561
-0,39388832
0,028120317
-0,007461738
-0,010072468
-0,007024154
-0,07460815
-0,13680361
0,37954766
-0,005976961
-0,019067047
0,020355769
0,011869519
-0,0017847448
0,034918986
-0,28377396
-0,02005283
-0,013398883
0,026956478
-0,45241338
0,010013676
-0,0050241644
0,28963858
0,022140319
0,004356916
-0,13436928
0,044957805
0,022283375
0,028920911
0,0012656626
0,0027681421
0,17677659
-0,39012802
-0,018079873
-0,010700087
-0,012113917
-0,006229361
-0,21510173
0,0048721787
-0,0032231007
-0,0042360956
-0,017054861
-0,026460087
0,0128520625
0,028828278
-0,010142083
0,01849193
0,008116222
0,0073019494
0,009917035
0,38761967
0,0028806808
0,051531807
-0,023204632
-0,003871825
-0,024008034
0,3605885
-0,0098366495
-0,022894615
-0,030017843
-0,008893202
-0,014831961
-0,027914934
-0,328637
-0,009658892
-0,009976589
0,017392088
-0,003445076
-0,0038764726
-0,005490419
-0,009184706
-0,046726786
0,04048739
-0,2516071
0,02514615
-0,010121893
-0,0022455878
0,052504476
-0,000858012
-0,006424291
0,0008753359
-0,011016437
0,011807475
0,01926942
-0,013868659
-0,017869845
0,016908795
0,0021400827
-0,010369149
0,011305904
-0,017637553
-0,023753453
0,022196861
0,007134323
0,011600069
-0,010140855
-0,21183603
0,026438208
-0,006659672
0,021449173
-0,025637902
0,014080801
-0,2564605
-0,005329863
-0,3741091
0,08466957
0,029217664
0,006232661
-0,006495075
0,012966428
0,015644073
-0,0039349846
0,0204087
0,42141297
-0,01272313
-0,01147408
-0,31432274
-0,013124382
0,006559529
-0,009108036
0,18155415
-0,003249793
0,0007675138
-0,0035769574
-0,0228188
0,009689799
-0,32340106
0,0034098632
-0,0055392575
-0,012503215
-0,22945471
-0,027594594
0,44040737
-0,029727062
0,029465895
-0,3948518
-0,31433252
0,003111388
-0,016971627
0,04386203
0,0045778514
-0,005938777
-0,015465867
-0,33870536
0,009305
0,27764845
0,23371834
0,027207935
-0,036708616
-0,04016594
-0,025442088
0,020997033
0,008173488
-0,019726448
-0,062001724
0,0068285684
-0,000650152
-0,0070016016
-0,016324695
0,47452572
-0,009204689
0,0054259407
0,0112581
-0,032404974
-0,025474606
-0,13873854
-0,025257718
0,44390616
-0,028733095
0,0015640033
0,44621626
0,024208432
-0,02373136
0,047023088
0,008808793
0,042470384
-0,013144759
0,009457671
0,007151528
0,45825395
-0,01696371
0,0036755183
-0,01626814
0,005753743
-0,031040607
-0,01774601
-0,019912686
0,006314962
0,026696144
-0,014971338
0,0024687913
0,32719007
-0,14670868
0,029919615
0,024720088
0,0016536395
0,0008583738
-0,009652125
0,051180094
-0,022861397
-0,0009724146
-0,519428
0,015248001
0,022848438
0,0030409286
-0,2401751
-0,029225767
0,013862907
-0,008375504
-0,028898884
-0,033699807
0,014444641
0,040424775
-0,0115598375
0,030343464
0,022493007
0,016704801
0,01999738
-0,0012846146
0,23693284
0,4098829
0,0072460743
-0,46233436
-0,0441535
0,014208256
0,16990556
-0,31047335
-0,012681138
0,00823225
0,026448319
0,0053740665
-0,03545506
0,0009768562
0,042626157
-0,0071262745
-0,0179511
-0,02423012
-0,014001144
-0,0059845266
0,018071268
0,009114924
0,001807133
0,02613164
-0,020653142
-0,036011193
-0,012876839
-0,0056827697
0,0140657555
0,00019089921
-0,00037223814
-0,0034877202
-0,021017548
0,022129824
-0,0029756257
-0,0084485365
-0,002449972
0,041815154
-0,0020635563
0,011148728
0,007938101
-0,12002019
-0,031508572
-0,020158138
-0,022999844
-0,00586161
0,015733369
0,41595134
-0,007802404
0,009654176
-0,004827307
0,012878008
-0,0040790164
-0,017858401
-0,03295242
0,009437787
-0,060395774
-0,017298972
-0,29625833
0,26088586
-0,0114195375
0,0037608852
-0,010640592
0,00043420223
-0,105789416
0,020153513
0,011910907
0,008689732
-0,014192331
0,0007861533
-0,0106543405
0,13052875
-0,018089546
0,04766228
-0,014114986
-0,0076665077
-0,012287722
-0,02058959
-0,03330916
-0,15763496
-0,028716417
-0,016271614
-0,015594258
-0,007497235
-0,007468423
0,003700338
-0,010209472
-0,008587517
-0,009635317
-0,030129205
-0,09962658
0,002198431
-0,048743162
0,04727475
-0,01614308
-0,3797228
-0,0129227135
0,004242898
-0,3018175
-0,023264846
0,020585254
-0,012134051
-0,012091715
-0,0744146
