60
125
-0,029706866
0,2370426
0,40216267
0,12223989
0,32732534
-0,028832495
0,41283053
-0,27607596
0,084873974
0,14566118
-0,39735502
-0,47823668
0,18545419
-0,2717027
0,46912837
-0,09579015
-0,33063918
-0,11682755
0,26631272
-0,40862685
-0,35717604
-0,40229937
0,049331307
0,38792843
0,41241777
0,2918384
-0,33424667
-0,22967249
0,33329946
-0,2662819
0,12646931
0,4668287
0,16693795
-0,119448036
0,35495472
0,33593577
0,3703658
-0,23681527
-0,09428823
-0,40838376
-0,17953235
0,08547956
0,07164878
0,19915771
-0,32854247
-0,015041411
0,30948454
-0,2879414
-0,4231974
0,25315452
0,02728039
-0,01312238
0,28990263
0,26986438
0,2988574
-0,037756443
0,27453822
0,36284465
0,30362886
-0,13970074
0,058329284
-0,4291345
-0,27110726
-0,18391639
-0,33495325
0,04762155
0,22476017
-0,035624832
-0,40576476
0,34574473
0,08171767
0,46361464
0,15670449
0,04110515
-0,41597113
0,04618126
0,122050285
0,33524835
-0,08597544
0,2154634
0,38012618
-0,022231221
0,30515546
-0,37577406
-0,464575
-0,29362947
-0,11690873
-0,48635176
-0,031722993
-0,15378693
0,07184827
0,19750941
0,47941637
0,1026935
0,3726985
0,18431848
0,18270409
0,3775488
0,48161668
-0,0862838
0,46939212
0,3550312
-0,29131776
0,374937
0,1399185
-0,45071903
-0,44058794
-0,4065607
0,07382923
0,0577783
0,4156009
-0,39690632
-0,38295037
-0,12657288
0,08116889
0,48895
-0,07589194
0,0797565
-0,4278159
0,49203706
-0,108930975
-0,0057738423
-0,13872021
0,29961634
0,031723738
0,3643657
-0,2171981
-0,16523916
0,09079206
-0,24858668
-0,36432034
-0,0013230145
-0,4976853
-0,23272842
0,030182242
-0,43701482
0,38488662
0,007512212
-0,030836523
0,29034913
-0,06769991
0,16751176
0,12363762
-0,48304084
-0,45405802
-0,22607926
0,049556255
0,11976242
0,27547944
0,121484816
-0,043349534
0,10208541
0,31503934
-0,23948216
-0,49086478
-0,38697273
0,4530928
0,20936853
-0,23061234
-0,39702415
0,029715478
0,039575458
-0,16361764
0,4170912
-0,25879666
-0,13889706
0,07876456
-0,46174538
-0,4860634
0,24584967
0,43152052
-0,19635364
-0,33647668
0,24066508
0,42313266
-0,32124776
-0,3715888
-0,36744004
-0,26551017
0,08498037
-0,310144
0,28719813
0,42846042
-0,08269769
-0,25579882
-0,022547692
-0,10077694
-0,25070995
0,25252295
0,17920405
-0,25514057
0,16399896
0,19804198
0,25554258
0,068038166
0,121966064
0,05730486
-0,3169309
-0,07784256
0,3624494
-0,41014332
0,07532209
0,055448234
-0,15212798
-0,06906861
0,46116102
-0,38897616
0,30801606
0,23305619
-0,29710162
-0,25844783
0,38913286
-0,46177638
-0,4532007
-0,44194204
-0,33561707
0,013392091
-0,12770453
0,48617893
0,4501766
0,19664454
0,056238115
0,45104206
0,1427145
0,20565659
0,47531253
-0,013596654
-0,33314595
-0,17260489
-0,0784592
0,034430206
0,16966593
-0,32111245
0,16799158
-0,2586081
-0,2289854
0,13381982
-0,4275013
0,020575047
0,097824216
-0,27675897
-0,25313994
-0,1968028
0,10201645
-0,3884399
0,051236093
-0,18527266
-0,36862698
-0,40086088
0,43670672
0,3409825
0,47373217
-0,13126191
-0,41304263
-0,08705899
0,49775064
-0,08384469
0,07642639
-0,19064331
0,4764467
-0,38030532
-0,07658604
0,31261736
-0,12142125
-0,45637155
0,03754109
0,4316883
-0,08853388
0,28314775
-0,31025204
0,39162213
-0,08742425
-0,014289349
-0,45611855
-0,3610609
0,42166388
0,19388276
-0,270738
0,104776144
-0,21164995
0,32446128
0,46027058
0,17280954
-0,3959143
-0,043768585
-0,27051377
-0,0062550306
-0,49707606
-0,17171046
0,10800952
0,4379251
-0,24043205
0,01971656
0,14594615
-0,392012
-0,24498099
-0,29121596
-0,34621686
-0,36835843
-0,48903617
-0,41641116
-0,33620647
-0,25012758
-0,29026473
-0,38968962
0,082582474
0,2941531
-0,03563431
-0,27944332
-0,48517147
0,21389526
0,22700113
0,3226403
0,31724888
-0,044095933
-0,388992
0,05325061
0,27424425
-0,37223136
-0,4710869
0,4668761
0,40473163
-0,21814767
-0,12211439
0,38369292
-0,2626469
-0,45812097
-0,39980602
-0,38561803
0,077537835
0,07497525
0,06207955
-0,3446771
-0,16258138
-0,21531317
-0,092056036
-0,4669677
0,30391794
0,07710415
0,44086027
0,41673702
-0,0367845
-0,28157762
0,20478368
-0,14080384
0,41685832
-0,43817198
-0,21743706
0,49560422
0,47555947
-0,06917837
0,1661951
0,306975
-0,4504425
0,002770543
0,20359915
-0,324004
-0,41669422
0,3416667
-0,005005479
-0,44581708
-0,25515544
0,019509196
0,10687137
-0,22302815
-0,36077806
0,41091937
0,26400346
-0,3796457
-0,33690006
-0,4466919
-0,08578029
0,22624576
0,080643356
-0,3420046
-0,3755852
-0,17497373
-0,32692468
0,40831816
-0,4082898
-0,20947877
-0,1684595
0,3530957
0,2710945
-0,30159712
-0,476299
-0,031838983
0,43135822
0,15135843
0,3874101
-0,3568827
-0,18428078
-0,28570932
0,49040127
0,49799383
-0,35421452
-0,26513323
0,08082676
-0,21844903
-0,30520746
-0,09693158
-0,41105095
-0,13229373
-0,1580225
0,11030722
0,06169945
-0,28648812
0,07701945
0,07207984
0,23659098
0,046103
-0,3724869
0,08667952
0,0037368536
0,48983228
-0,29776803
-0,07374406
-0,13874316
0,26520526
0,42781115
0,33537722
-0,045721143
-0,20498309
-0,11335763
0,0073047876
-0,49316123
0,3884951
-0,1131036
0,42061096
-0,3514803
-0,025957018
-0,050990105
-0,3047248
-0,35777345
0,18126369
0,26570582
0,20556664
-0,3221118
0,27259487
-0,05463484
0,05095905
0,16082853
0,39050108
-0,21947697
0,0711931
-0,36437458
0,26820952
0,25875568
-0,27536583
0,46047455
0,4810145
0,17255741
0,4263366
-0,18427894
0,32332122
0,10924518
-0,14215475
-0,4519888
-0,28489536
-0,27738622
0,052277863
-0,43950826
-0,26217705
0,25977963
0,38403606
-0,12328908
-0,2642497
0,11873484
-0,45069364
0,4998479
0,27405703
-0,27507764
-0,41447657
0,37833703
0,2242313
0,0836364
0,2700327
0,38105595
-0,21264467
0,4181757
-0,13543212
-0,28935266
0,115813434
0,20266557
0,25819224
-0,35516006
0,4519812
0,42209917
-0,42800587
0,14523953
0,14529663
-0,14209473
-0,4367976
-0,2312504
0,4740122
-0,20174009
0,4330147
0,4972012
0,22970289
-0,4439736
-0,11698863
-0,32666907
-0,09796825
0,04421091
-0,2598123
0,20801139
-0,028320909
0,45349032
0,19144851
0,24529815
0,0674575
0,14762902
-0,23417646
0,12399441
-0,18311962
0,45420748
-0,4277522
-0,32078418
0,038793683
0,08613306
-0,35868412
-0,035698712
0,46563476
0,046373248
0,16733342
-0,4522969
0,21533799
-0,47406092
-0,11571485
0,34987974
-0,11844188
0,089850426
-0,48688367
0,12987942
-0,25917527
0,00026845932
-0,25344557
-0,47812298
-0,11723161
0,42878205
0,4374596
-0,2720881
-0,07235494
0,40208662
0,29708147
0,22274673
-0,17182288
0,07037699
0,47251576
0,3577016
-0,12098712
0,074002564
0,44235933
0,39287734
0,21195996
0,20442086
-0,05181834
-0,064457804
0,44872224
0,017766356
-0,13102663
0,38750154
0,21252328
-0,22805342
-0,30798388
0,17053503
-0,4613973
-0,13855514
-0,15605012
0,19066751
-0,3374102
0,3010127
0,41672152
-0,44155025
0,41828465
-0,42606044
0,47425812
-0,44409418
-0,092012346
-0,089322776
-0,48741692
-0,3437689
0,41444123
0,047701776
0,16075873
0,07182181
-0,14875966
-0,22481474
-0,1811952
-0,12497398
-0,11100805
-0,113747805
0,2797271
-0,40181607
0,29983222
-0,2546161
-0,35309696
-0,2592593
0,3341459
0,09886545
0,3241555
0,45680028
-0,4590849
-0,3779755
0,46457487
0,16643888
0,2798208
-0,24201113
-0,099821866
0,34332186
0,47656476
-0,43828428
0,07885039
-0,481546
0,23317581
0,43011892
0,03371185
0,18885928
-0,35412842
0,38841408
-0,37137794
-0,44617295
0,35652536
0,29589593
-0,29822642
0,005723655
-0,49395052
-0,19026265
0,051335514
-0,18607083
0,4242044
0,48790985
0,019457519
0,12866747
-0,22709352
-0,13115382
-0,32081667
0,0843181
0,3916446
0,34899294
-0,19537029
-0,46688962
-0,43210608
-0,32486898
0,00090557337
-0,40605128
0,1771028
-0,32036322
-0,45584583
-0,13027805
-0,13913327
-0,15615383
-0,39770523
0,05541879
-0,4177183
0,06774199
-0,4339707
-0,23423642
0,16887504
-0,16886538
0,4894954
0,15003127
0,4371401
-0,42234227
-0,021026164
-0,18073067
-0,47566587
-0,22947744
0,33619833
-0,01684001
0,37998205
0,4646278
-0,4604328
0,12163156
-0,39499444
0,302065
-0,4900999
0,20597059
0,2866044
-0,37527862
0,06671929
-0,35159698
0,03254515
0,41404527
-0,39931372
0,31388402
-0,46860433
-0,13853559
0,18173379
0,43644893
0,05016625
-0,4174882
0,075555384
-0,41363794
0,43982095
-0,4585323
-0,29076785
-0,20917028
-0,25191683
0,25180978
0,13674039
-0,46088102
0,348957
-0,16867748
-0,029823989
-0,11170763
0,36762887
0,26831627
0,0981828
-0,24016973
-0,26634428
-0,2184464
-0,056655288
-0,20993617
0,2636196
0,09537637
-0,2059325
-0,29588956
0,11304903
-0,3788234
-0,06897801
0,27011997
-0,30739552
-0,044113427
-0,4817043
0,35025042
-0,09714919
0,38433218
-0,18685636
-0,45069453
-0,45087284
0,19494486
0,09679347
0,116469204
0,09893763
-0,35579872
-0,3003751
-0,37584412
0,48829007
-0,04025653
0,4963761
-0,15508893
0,20557171
0,491229
-0,2449604
-0,21900684
0,29570884
-0,11139938
-0,060447365
0,103194
-0,39571688
0,11396009
-0,25027972
-0,15708989
-0,42045504
0,49114913
0,20350325
0,23556018
0,24936944
0,38487864
0,13754207
0,40285933
0,21797955
0,09390694
0,22811818
-0,4454669
0,3511582
0,31285965
-0,39874247
0,43279767
0,2989155
-0,15697491
0,41478688
-0,41296458
-0,35215545
-0,018709242
-0,03204733
0,49386847
-0,0031029582
-0,053731203
0,2461223
0,20496625
-0,1538541
0,08245635
-0,4721679
0,3455661
0,16565424
-0,23629105
0,47691816
-0,4198837
0,3880304
-0,46200818
0,19761133
-0,4343376
0,45069188
0,34213108
0,25421786
-0,23568618
-0,2668527
0,026589334
-0,040894866
0,24357015
-0,40076372
-0,14016062
0,34037507
0,40003794
0,4892913
-0,39622247
0,36166513
-0,29607183
0,005716622
0,15305483
0,23877382
0,30151665
0,3735087
-0,01787895
0,058018923
0,4219876
0,2503305
-0,45656154
0,02492553
0,3272515
-0,17447829
-0,4122428
-0,37892473
0,17633706
0,46567518
-0,40205494
0,22859472
-0,03527546
-0,24682233
-0,2234075
0,154486
-0,21440971
0,2601915
-0,08967519
-0,24757066
0,286799
0,27348793
0,09330928
0,061721206
-0,31939834
0,38742954
-0,458369
0,3835345
0,43603462
0,06763959
0,13666177
0,42534733
-0,4226387
0,40745658
0,05254513
-0,19518393
-0,13030535
-0,26790124
-0,45973632
-0,40945935
0,21604651
0,25273824
0,27369952
-0,4742444
-0,32322875
0,35040468
0,37633568
0,06284994
0,047555566
-0,29227245
-0,33923638
0,012270033
-0,13744667
0,13651156
0,4416293
0,38893867
0,14597881
-0,04599297
0,15170246
-0,1088295
0,0063001513
0,44711626
0,1405921
0,023717225
0,10854936
0,330985
-0,13316122
-0,0489946
0,44286513
-0,38518223
-0,46375793
-0,14513049
0,35304147
0,41974926
0,057950735
0,44062358
0,49200875
0,23958707
0,033415258
-0,2517079
-0,08078119
0,11686289
0,45239478
0,36565715
-0,043970823
-0,39870816
-0,36671555
0,2280531
-0,1200721
-0,19391474
-0,0570167
-0,082965225
0,43960762
0,29235983
0,48673815
0,40243936
0,060619235
-0,058437914
0,12650001
-0,22380906
-0,30893388
0,036223352
0,11900419
-0,41903195
-0,13648412
-0,22048602
-0,303675
-0,29059976
0,48044968
-0,23999324
0,2968176
0,23816615
-0,291175
-0,45239246
0,35611767
0,27557164
0,07249755
-0,24674538
0,124102175
-0,3852135
0,44814217
-0,38190544
0,15207595
-0,38494945
-0,26076895
-0,25901863
-0,35767734
-0,41173083
0,48096126
-0,039078295
0,27468973
0,11088699
-0,35662234
-0,28144544
-0,05808872
-0,4081527
-0,39584053
0,40041578
0,33032298
0,049871564
-0,13235608
0,12659049
0,032941997
-0,25197285
0,1841107
-0,01066795
-0,18883312
0,064465046
-0,40345657
-0,49987927
-0,2934885
-0,30450827
-0,39467502
-0,11273295
-0,31840074
-0,42204195
-0,347448
-0,020194381
0,038657546
-0,35857683
-0,116140455
-0,44556913
-0,24724787
0,1203658
0,064923465
0,41357815
-0,031220317
0,397802
-0,21223587
-0,15106508
-0,2685544
0,41935682
-0,34226605
-0,43550146
0,14840096
0,14071667
0,3817631
0,20015126
-0,29956806
-0,1187253
0,43087333
0,42004752
-0,28453025
-0,07395661
0,049765885
0,3778453
0,46442622
-0,18607032
0,071222425
-0,30154133
0,04253906
0,17290759
-0,062061876
-0,18866688
0,37222278
0,49446446
-0,42318854
0,23672378
-0,20627668
0,04993707
-0,35639313
0,19865543
-0,14444745
0,4465425
-0,45790526
0,072262585
0,17033434
0,070803285
-0,09269187
-0,0028182864
-0,37807983
-0,022641629
0,26486188
-0,069827676
0,08573145
-0,28737378
-0,0811837
-0,07957059
-0,34761834
0,45629108
0,21945727
0,4264056
-0,07658592
-0,33956075
0,18420815
0,31554472
-0,30724496
0,1754058
0,05144936
0,013577521
0,0015465021
0,28193128
0,40261745
-0,22207344
0,47880322
-0,22344285
-0,46574834
0,33824295
-0,02395603
0,027114809
0,3729636
-0,13933781
0,11022806
0,20495087
0,20959508
0,23842257
-0,05643055
-0,27998912
-0,085404366
0,4391029
-0,4027214
0,35628784
-0,40268052
-0,39546165
-0,0040659606
-0,45167363
-0,09235498
0,062159896
-0,26635438
-0,41467363
-0,30305886
0,39238173
-0,33931738
0,25760007
0,30803496
-0,2537555
0,28730297
-0,32196885
0,34576374
0,4684853
-0,25648856
-0,1228227
-0,38183302
-0,25988
-0,1822694
-0,13862306
0,24036455
-0,027475327
0,10157597
0,31066775
-0,112552285
0,48787016
-0,14087725
-0,31117547
-0,2636282
0,22236168
0,36324495
-0,40654683
-0,21872118
0,036567867
0,005502045
0,23540992
0,25211364
-0,050195903
0,33802032
0,1726951
-0,45220342
0,3321746
-0,3486475
-0,48004642
0,4751591
-0,21516278
0,030715585
0,026118219
0,08462685
-0,0051875114
-0,16582865
-0,17604047
0,49763834
-0,24195263
0,4202907
0,345594
0,17614686
0,4130246
0,3398171
0,30764204
0,0031237006
0,37112886
-0,44281346
-0,10202572
0,06430006
0,1435731
0,2494725
0,2795949
0,1331281
-0,3608157
-0,09658432
-0,07973778
-0,21118939
-0,21964383
-0,3883377
0,28128493
-0,15625891
-0,08991191
0,08678788
0,025663793
0,49524158
0,04689008
0,48155582
0,07948083
-0,3510333
0,23621112
0,49782622
-0,25706238
0,10514498
-0,016331136
0,38378817
-0,0073126853
-0,22808942
0,192464
-0,29957855
-0,13005441
-0,14411202
0,24563795
0,108449996
-0,07196036
0,4678744
0,30183017
0,32257336
0,1881566
0,059966147
0,31158936
-0,10582471
0,47093332
0,14343822
-0,1773974
0,23821229
0,1306045
-0,10058108
0,45289737
0,3987764
0,24399507
0,29711205
0,15188336
-0,17046171
0,22680855
0,19748402
-0,13153604
0,059197605
0,08325982
-0,30451518
-0,20432934
0,16919607
-0,36625308
-0,20552084
-0,43033996
-0,21889332
0,13711327
-0,46211866
0,30472624
0,31641698
-0,1792722
0,30774283
-0,06312248
-0,43013698
-0,24144667
-0,25409794
-0,033919305
0,07010651
-0,28493148
0,4097855
-0,043503523
-0,113984555
-0,21071011
-0,18340233
0,21392566
0,48963434
0,25330406
-0,10821667
-0,4921734
-0,40682894
-0,05352789
-0,1969921
0,002139032
-0,42307964
0,12641871
0,069382966
-0,28901356
-0,032682866
-0,38461345
0,14025241
0,19286996
-0,15732414
0,2453813
-0,009765625
0,3576774
-0,36643466
-0,30654126
0,43074715
-0,10281694
-0,33470798
0,111564755
0,30748785
0,2666598
-0,32489556
0,39394122
0,029025376
0,009141147
0,012655675
0,43811393
0,24273843
0,43567425
-0,2814091
-0,23589784
0,2763669
0,05352813
0,084780276
-0,1434817
-0,17021433
0,2148323
0,14748937
0,48790568
0,19944578
0,36191124
0,29133987
-0,31990302
0,48682088
0,38440782
0,39556217
0,1948793
0,47374648
-0,25060457
0,13233739
-0,075012505
0,13033211
0,21719533
-0,37182784
0,0077586174
-0,3308745
-0,44448355
-0,16284868
-0,3098239
0,18118227
-0,086616874
0,13107389
-0,3647328
0,41847068
0,4780066
-0,1581172
-0,44516996
-0,20902449
0,23425686
-0,35074025
-0,054472864
0,038927495
0,28379554
0,20628071
0,03372222
-0,4475991
0,2132904
-0,45448875
-0,06771305
-0,37977794
0,12630689
-0,19444579
-0,34015673
-0,314299
0,13479066
-0,22275695
-0,14416736
0,16880614
0,23130894
0,16838229
-0,18009415
0,27771384
-0,4606597
0,40653718
0,32245213
0,29497343
-0,056641698
-0,3732499
-0,37569016
0,3351845
-0,14155671
0,23330814
-0,41564
0,21676427
-0,17218778
-0,4151529
0,387352
-0,12338582
-0,4492199
0,2869079
0,072107375
0,12661886
-0,028942227
-0,11049032
0,43847132
0,2271471
0,32146674
-0,033678323
0,1807568
-0,41340822
0,39798677
-0,27204773
-0,2952873
-0,30071646
0,19838852
-0,016208977
0,3754756
-0,07781842
-0,18655187
-0,48159394
-0,09336716
-0,029029727
0,09137058
-0,006945312
-0,40731776
0,31228453
0,1969778
-0,11306536
0,45644927
0,3594188
0,41216415
0,35343224
-0,15879065
-0,42321378
0,4200123
-0,39336705
0,41603816
-0,33995673
0,003199339
-0,05893451
0,3209957
-0,07864469
-0,011958182
-0,13365841
-0,2712816
0,21390313
0,103483975
-0,052162588
-0,45905742
0,25832444
0,33455974
-0,2903152
0,21330345
-0,435879
0,17544985
0,4299249
-0,097981244
-0,19436973
0,3850966
0,20972872
0,28167027
-0,103465885
0,3512035
-0,34989607
0,23598033
0,4875862
0,1716187
-0,29902732
-0,07933298
-0,022169173
-0,3966603
-0,08600223
0,2833702
-0,45985776
-0,07654512
0,19320893
0,3521871
-0,25772673
0,07234138
0,014804244
-0,3194453
-0,18937135
0,43491167
0,031724453
0,46443468
-0,08023384
-0,119806916
0,43865407
-0,24301898
-0,08193207
-0,48158464
-0,24696684
-0,039548606
-0,4485949
-0,022133142
0,41124654
-0,029250592
0,15052694
-0,34115058
0,29961407
0,13114631
0,2924888
-0,31976646
-0,21177256
-0,22675139
-0,39019883
0,37449622
-0,14808416
-0,25118497
0,28827268
0,4784919
-0,0055357516
0,39514655
-0,42568883
0,44596142
-0,24670333
-0,46965212
0,24422175
-0,38869604
0,18433177
-0,11876598
0,47180247
0,45637417
-0,18677509
0,033358395
0,45896983
0,038098633
-0,20228246
0,30635613
-0,33497602
-0,3135872
-0,41860598
0,4432761
-0,31473112
0,37542635
-0,20329002
-0,35884738
0,007065773
0,43625706
0,1957848
0,22249508
0,15998656
0,106912374
0,19122463
0,29171026
-0,2829
-0,25225636
-0,32362825
0,14706951
0,41570652
-0,31473523
-0,046013236
-0,03922096
0,012325883
-0,14181247
0,22772944
0,27393085
0,105987966
0,40933937
0,39042437
0,4795323
0,42535752
-0,39546973
0,16423583
0,20350772
0,05493331
-0,1761465
-0,030822635
0,38684016
-0,49681416
0,26025075
-0,30253434
0,3758241
-0,18792948
0,24381387
0,05522126
0,045544803
0,40490764
0,15779799
-0,33156866
0,48735642
0,33668345
0,17387384
-0,16330427
0,31085718
-0,24348772
-0,3956726
-0,299411
-0,3270265
0,32293934
0,46846247
-0,34954602
-0,015168965
0,20163918
-0,12959003
0,073051035
-0,12864867
0,098894596
0,27710128
0,41277742
0,46375006
0,13437289
-0,33003762
0,13060611
-0,15817454
0,29163188
0,08506477
0,18367332
-0,38639122
-0,14329022
-0,016069442
0,39276296
0,19817013
-0,24811828
0,13744342
-0,46089965
0,11136192
0,43551093
-0,26784632
0,20669681
-0,016005695
0,0171538
0,1499803
0,04221964
-0,24350893
-0,14925024
0,13146049
-0,26911354
0,42462742
0,32723427
-0,3787228
0,43101913
0,05525613
0,11434448
0,047957003
-0,14858884
-0,059723616
-0,23550817
0,0740087
-0,34653148
-0,3247394
0,44938076
-0,41793662
0,15181214
0,12484902
0,31922817
-0,38454297
0,034990847
0,46387434
-0,0015304387
-0,21943581
0,37671888
-0,014723152
-0,2931132
0,22177726
0,42271364
-0,436212
-0,28452206
-0,32802916
-0,36728308
-0,03509134
-0,38227245
0,29378486
-0,36251113
0,2829916
0,4419446
0,4441108
-0,32700157
-0,21103662
0,061857224
0,11350876
-0,08156851
-0,2551893
0,42002153
0,05258578
0,13638628
-0,46110594
0,47577608
-0,016305596
0,08716476
0,24461132
0,4894861
0,40342128
-0,13555515
0,11390382
-0,43319008
-0,4861249
0,08788681
-0,10817963
-0,12150288
0,47669482
0,1961295
-0,21212918
0,47020394
0,2327987
0,073411405
-0,41755056
-0,40580744
-0,391874
0,4731186
0,4536237
-0,49174276
0,49440897
-0,41420698
-0,30724925
-0,0266217
-0,3119201
-0,13250116
0,34167176
-0,12770179
-0,17250574
0,0031304955
-0,32060093
-0,39825803
-0,30505043
0,19646966
-0,35956088
0,011465013
-0,3179098
0,2548712
0,23670363
-0,28404593
-0,027394801
-0,376245
0,39048266
0,49315
0,037926137
0,29551733
-0,03954968
0,03283137
-0,091653526
-0,2960531
-0,11349195
-0,030260414
-0,18394116
0,16425365
-0,44338116
0,040932477
0,39851385
0,25976145
-0,4266867
0,38647294
0,38420922
0,13006586
0,33124954
-0,354945
-0,071813375
0,2257269
0,24998778
-0,14439765
-0,22887075
0,13513696
-0,37262046
-0,25121194
0,14195001
-0,23337087
0,37060308
0,13916117
0,044649422
0,24576181
-0,45704496
-0,074511826
0,41747832
0,44851083
-0,39897954
0,4924454
0,33655953
-0,026375145
-0,28938526
0,22617453
-0,21898308
0,10345656
0,42655265
0,37165844
-0,45267263
0,43654162
0,020560324
-0,08409533
0,18606085
-0,007097602
-0,40319413
-0,38637868
0,16818285
-0,22944161
0,13815176
0,19662422
0,26234126
-0,27768344
0,31783617
-0,47536793
0,47018617
-0,09222165
-0,23145187
-0,19497275
0,19893003
-0,010838509
0,07486516
-0,09843537
0,48125154
-0,23970753
0,48985744
-0,11046958
0,03161913
0,110419154
-0,34946397
0,17751801
0,25656664
-0,35446557
-0,07904741
0,47723287
0,21232665
-0,27867272
0,2952525
-0,42931667
-0,33062392
-0,2328237
-0,39473104
0,15577716
-0,23777089
0,3031897
-0,36186355
0,3826859
-0,26476365
-0,4118709
0,09768945
-0,2751078
-0,26698118
-0,32432574
0,4957564
-0,15480503
0,47477984
0,114840984
0,020386517
-0,41927117
-0,29081833
0,35226095
0,49523264
-0,015532017
0,2779352
0,20762366
-0,38581723
0,26122063
-0,0015447438
0,36905682
-0,44139686
-0,3877329
-0,2593226
0,25421882
0,07913792
0,08097011
-0,40106943
0,058766186
-0,01611939
0,07403684
-0,1248551
0,14976978
-0,17175558
-0,23016268
0,16111785
0,052159607
-0,13192731
0,21312469
-0,39693165
0,06321055
-0,40787214
0,0023719668
0,4930629
-0,1422568
0,061336637
0,4313084
0,20318073
-0,47242853
0,3169822
-0,27053237
0,43144113
0,38012356
-0,06143582
-0,22111964
0,27559406
0,18074137
-0,31593037
-0,291708
-0,25552118
0,19083929
0,025928617
-0,004095763
0,43796247
-0,2689079
0,22816294
-0,3355382
-0,47628975
-0,30193862
0,28221625
0,3410737
-0,26899803
0,4178372
-0,3845315
0,23248112
-0,00043192506
0,39889008
0,25277847
-0,19413772
-0,1072284
0,26725012
0,2524929
0,22349203
-0,47404137
0,16344446
-0,15723497
0,1915204
0,46810287
0,38202924
-0,1393908
-0,15402561
0,0963127
-0,15282968
0,3683114
0,45247197
0,2226249
-0,018205523
-0,023438364
0,12653899
0,20460486
-0,08229819
-0,45465028
-0,42047733
0,32473028
0,19714642
-0,08605468
-0,13543099
0,25281054
0,47525167
-0,49232334
-0,074083865
-0,34212598
-0,41966665
0,14953375
0,020405173
0,1796931
-0,019795597
0,47612423
0,12363744
-0,49099258
0,27026808
-0,38180307
-0,16265002
-0,090613425
-0,12745693
-0,22145978
0,036631167
-0,03621006
-0,34839094
0,29047477
-0,05345872
0,009972692
-0,04853365
0,36670858
0,1051932
-0,40425897
0,14218765
-0,23634729
0,1435656
-0,31041276
-0,08954969
-0,35410365
-0,38781115
-0,05857548
-0,1824671
-0,3169635
0,4144411
0,05097747
-0,48726395
0,3788014
-0,38728717
-0,07164794
0,3405251
-0,40435085
-0,41832298
-0,4238509
0,23756391
-0,05270961
0,37610573
0,021769047
0,15044469
0,19690424
0,23787129
0,47213042
-0,48688075
-0,12045008
-0,10648948
-0,2768749
0,3818841
-0,24310634
0,43698013
0,42724395
0,393409
0,34664375
-0,4259779
0,26865453
0,10009885
-0,05356285
-0,14628676
-0,18042544
0,15680146
-0,05051458
0,42033148
-0,10738289
0,08417475
-0,47417513
-0,27239093
-0,41744554
-0,22806805
-0,4767419
0,033640087
-0,40333283
-0,0980213
0,19177264
-0,19909763
0,4052614
0,040936172
0,33492213
0,28439933
0,07246345
0,24910676
-0,4419437
0,37008274
0,21764362
0,1520558
0,24183244
-0,35830882
0,49230838
-0,08368325
-0,31964332
-0,49947363
0,09837866
-0,2789423
0,22044998
0,023365855
0,087254405
0,3148858
-0,10900316
-0,048568726
0,19322842
-0,4340138
0,09701902
0,054416955
0,45633876
-0,47438088
0,07138622
-0,26000807
0,4366027
-0,016319811
0,33855313
0,27445912
-0,011887372
0,4724753
-0,48511338
-0,24086043
-0,32139486
0,18612278
-0,4850094
-0,100051045
0,1686976
-0,291745
-0,4133812
0,17170334
0,25643414
-0,28469157
-0,18226632
-0,2034978
0,37960637
0,014678001
0,3873614
0,24895036
0,22544521
0,45790446
-0,21304598
0,447195
0,39483356
0,2722329
0,29373395
0,46002007
-0,3499506
-0,095703274
-0,43705645
-0,097635
0,19235772
-0,44777337
-0,1477224
0,27967912
-0,47556847
-0,35393435
-0,21022624
-0,043543935
-0,1014514
0,15605503
-0,3961168
0,03725648
0,44634992
0,1522991
0,405636
0,20019597
-0,37508297
0,11105299
0,2378282
-0,4392748
0,031700075
-0,40477926
0,49564958
-0,45001826
-0,37069568
-0,06361562
0,4199623
-0,43624288
-0,31926283
0,27409828
-0,07691115
-0,47447538
0,49054104
-0,31159806
-0,4105895
-0,3651864
0,2622522
-0,38528615
0,4770298
-0,059811205
-0,16076472
-0,0053976774
0,40212405
0,46423376
0,26479298
0,32288527
0,030931234
-0,42169994
0,4464103
-0,2579874
-0,2674998
-0,2182402
-0,08518502
0,09418368
-0,33474833
-0,41174313
-0,2101236
-0,026153445
-0,0046340227
-0,045799136
0,41722232
-0,4474615
-0,36329496
-0,3375859
-0,059607953
0,24261695
-0,2899071
-0,32616025
-0,20649642
-0,33084944
-0,17579815
-0,3984388
-0,105956376
-0,30333185
-0,27123123
-0,45612755
0,021979034
0,14364314
-0,45533594
-0,28031912
-0,05871764
0,12944442
-0,40055943
0,39363468
0,4246245
0,49051684
0,036226094
-0,20627871
0,06245643
-0,11311889
-0,28697687
0,31405383
0,29490262
-0,35650656
0,39216202
0,40347737
-0,03123939
0,4736476
0,115347445
-0,24089345
-0,45614696
0,39723742
0,35775924
-0,41405457
0,20471281
0,15037805
0,4558676
0,04760033
-0,36550045
-0,24220407
0,41517735
0,4174798
-0,032228112
0,2682075
0,11601013
-0,24106967
0,33193195
0,17945826
-0,4445306
-0,046724558
-0,4059055
-0,11927745
-0,49895087
-0,121474415
0,3629108
0,3714279
-0,08207002
-0,11100611
0,46372688
-0,4557753
0,3916353
-0,3125102
0,036369264
-0,15741509
0,19918227
0,24966848
-0,29704762
-0,1008243
-0,15517434
0,48006558
0,13609463
-0,33591753
-0,032988757
-0,11685002
-0,36964148
0,46363878
0,41104847
-0,40768018
0,40786391
0,32422417
0,28344858
-0,3153876
-0,12849203
-0,27197063
-0,0561153
0,31293726
0,3009677
-0,17187166
-0,0076161325
-0,40696117
-0,4781379
-0,21904427
-0,3357129
0,39550745
-0,12746978
0,07066637
0,09964824
0,2465862
0,41819578
0,09333837
-0,03821343
0,19903356
-0,06223741
0,27229613
0,49793726
-0,25622696
0,48991936
-0,2570648
0,20784324
-0,45278975
0,18711668
-0,24836627
-0,17560408
0,24592078
-0,46423668
0,08685583
-0,045042276
0,42082983
0,43891048
0,004206538
-0,12849599
0,2880463
-0,4265477
-0,29525098
0,2347132
-0,48570186
0,48717958
0,005681336
-0,012539983
-0,110005975
-0,3210441
0,42703992
-0,4626034
0,2848652
-0,068782985
0,4246062
-0,005541742
-0,41956776
-0,42303503
-0,45104054
-0,056006998
0,18660015
0,046501994
0,41430146
-0,00730446
-0,005288601
-0,0009316802
-0,4333984
0,28247285
0,06800622
-0,08135453
0,060807645
-0,19934103
-0,0638181
-0,33759826
-0,3893606
-0,11377025
0,27909958
-0,33562607
0,4297328
0,4103449
-0,4770328
0,17177701
0,3279704
0,48545212
0,03507346
0,2658136
-0,3809278
0,2854848
-0,3639431
-0,28432813
0,13357252
0,033928394
0,31952304
0,0847131
0,015898645
-0,3928489
-0,14655128
0,27926427
-0,28606188
-0,05294329
0,3501591
-0,48125076
-0,012660712
0,2750908
0,22084403
0,24757755
-0,23004946
-0,45359108
-0,49319518
-0,19479644
-0,36199218
-0,44114888
-0,48497248
0,24164802
0,29326946
-0,44095433
0,2450797
-0,12389487
0,44463444
-0,26377827
0,20207435
-0,15869409
0,008145928
0,16082579
0,1413703
0,081453264
-0,15760931
-0,21103734
-0,49710363
-0,43440542
0,039554298
-0,25594074
-0,42831522
0,42079508
0,041308463
0,2669971
-0,056968242
0,47076106
-0,38152507
0,45064598
0,28180265
0,33335662
-0,29783502
-0,31445062
-0,4338436
0,44826627
0,09370124
0,31556606
-0,24093154
-0,07984629
0,27796978
-0,32721788
-0,070350885
-0,44803974
-0,1922772
0,3080235
-0,11274648
-0,32689196
0,150648
-0,3398347
-0,37686896
-0,16394576
0,27088183
0,2946626
0,39277345
-0,22476584
0,228365
0,33043247
-0,020458937
0,033696413
-0,38592592
0,08902806
-0,29436982
0,2853828
-0,023825288
0,18088645
0,09197503
0,23460639
0,4337445
-0,39269912
-0,1584883
0,37636858
-0,22122854
-0,22910431
0,3787462
-0,058764994
-0,06065926
0,48529232
0,003157556
-0,023686409
-0,32215992
-0,0663909
-0,4213207
0,39311022
-0,26497632
0,17818063
0,36672145
-0,37479693
-0,1648035
-0,33609885
-0,06585604
0,47669703
-0,3593651
-0,038178176
0,45026904
-0,40713727
-0,17067322
-0,18310231
-0,35417166
-0,073128015
-0,24754304
0,16861594
0,42759115
0,42287886
0,028713703
-0,15580508
0,21584135
-0,14234188
0,07564378
0,36679417
0,49405855
-0,04054925
0,43107378
0,23130894
0,16401899
-0,35230306
0,23067677
0,119672835
-0,31381607
0,17899436
0,17086005
0,045597434
0,11322844
0,14580244
0,47199064
-0,40339506
0,035684705
-0,3238114
0,2172873
0,4868188
-0,18082541
0,15146714
-0,37408674
0,31171668
-0,373693
-0,2223221
-0,20153803
-0,009213716
0,348594
-0,32162398
0,46182108
-0,24732026
0,13435799
0,36561632
-0,08497965
-0,2885446
-0,2786064
0,35604882
-0,41065785
0,027507722
-0,28269458
-0,28514254
-0,16845286
0,23547018
-0,09715727
0,14825219
0,16428691
-0,407341
-0,2981771
-0,39594918
0,34889615
0,358011
-0,110251606
-0,4309242
-0,0378851
-0,12215483
0,29466873
0,29333204
-0,38354012
0,041166246
-0,31760672
-0,40457702
0,28649813
0,2723866
-0,18410277
0,41628098
-0,34090656
0,42223966
0,47072226
-0,0424338
0,03705573
0,06842655
-0,17279267
0,3362041
0,37340993
0,11029035
0,057069004
0,35726517
0,3951506
0,09371412
0,41618705
0,43049014
-0,41309282
0,19495803
-0,4034716
-0,12864363
0,4957896
0,3890847
-0,3501801
0,17626965
0,08924723
-0,42990986
-0,17857763
-0,19675875
-0,29062778
-0,48709655
-0,09630594
-0,050868094
0,36946964
-0,41291022
0,14923918
0,16418195
-0,3802387
-0,18799454
0,1642127
-0,1456227
0,38674182
-0,37116605
-0,1884129
0,1261872
-0,22866294
-0,21780056
0,061012864
-0,4606762
0,016135871
-0,472128
-0,09274343
-0,30617237
-0,023245603
-0,46944547
0,014424384
-0,37517482
0,22823626
0,45443922
-0,14048749
-0,43677157
0,15757829
0,3378014
-0,4967991
-0,20368817
0,18828261
-0,35748953
-0,38491377
-0,24998486
-0,18496764
0,012960136
0,05930531
0,21728641
0,31198794
0,06724149
0,029148698
-0,33967018
-0,42030415
0,45764804
-0,14609787
-0,3433649
-0,35485962
0,16684157
0,4439957
-0,36010212
0,15550965
-0,013479263
-0,43795604
-0,02956751
-0,3656463
0,18768245
0,2822225
-0,11173549
0,4488505
-0,15246892
-0,18742225
-0,021524787
-0,3103192
-0,0012174547
0,08349973
-0,3479547
-0,32240683
-0,13723224
0,39261764
-0,35483718
-0,07817772
-0,32880896
0,08131713
0,31308073
0,0033296943
-0,14469808
0,35077864
-0,13586143
-0,118319035
-0,005584419
-0,08544111
-0,36457753
-0,40568388
0,11297268
0,306782
0,10520995
0,15762341
-0,48533773
-0,20461965
0,3372758
-0,4244634
-0,2988336
-0,021090865
-0,13584518
-0,17324391
-0,09075555
0,03734106
-0,26940483
0,42272723
0,21153718
-0,4850756
0,42385018
-0,20813537
-0,19964987
0,19759142
-0,2744766
0,34962958
0,023279667
-0,32447618
0,112294376
-0,09881845
0,0105035305
-0,016443342
-0,3656056
0,17707396
-0,14021519
-0,3054157
0,43202847
-0,11212203
-0,3205386
-0,37419063
-0,38257232
-0,2771803
-0,25489357
-0,11805731
0,08973336
0,11897731
-0,33143878
-0,36758035
-0,47126547
0,28284264
-0,25271875
0,3750121
0,018264115
-0,3701989
0,15477216
-0,28769323
0,4634304
-0,3624189
0,24595356
0,17293727
0,020217359
-0,07999247
0,012571096
-0,129462
0,3715678
-0,22568813
-0,101953864
0,28683645
-0,099054575
-0,13678971
0,48692054
0,36868876
-0,08052376
-0,13162985
-0,03989446
-0,0869284
-0,36081657
-0,07425019
0,18740219
-0,3267031
-0,42648816
0,10861254
0,0018502474
-0,3889184
0,040652037
-0,03093946
0,49194872
0,35264748
0,060856164
-0,42320678
-0,47397476
-0,18259186
0,03272277
0,2619351
-0,4249853
0,27938652
0,3429159
-0,3940987
0,25009763
0,18895155
-0,1520915
-0,47149292
0,10154647
0,45912755
-0,3594377
0,105487645
-0,058639795
-0,48172885
0,039746284
-0,42829174
0,43922758
0,31116205
0,11305368
0,46316075
-0,22551253
0,071602166
-0,3933263
0,38833702
0,411694
-0,1715211
0,1947844
-0,43331134
0,056438267
-0,08909801
0,27280766
0,33723003
-0,07916424
0,10770613
-0,17869583
0,27600116
0,3681425
0,47638297
0,30845326
0,49235314
-0,11702883
0,42061722
0,3413775
-0,13053346
-0,15682495
-0,45574823
0,27024984
-0,2815603
-0,4031797
-0,2905883
-0,34965056
0,09308195
0,090762794
-0,12637556
-0,22940493
-0,04777053
-0,0728071
0,3209027
-0,4552176
-0,47604066
-0,2122119
-0,034819514
-0,0945265
-0,32752478
-0,45293826
0,4826982
-0,23329589
0,2849909
0,16952312
0,26357222
0,46143264
0,08543432
0,15544665
0,061928272
0,05310452
-0,25041834
-0,47237754
-0,29168627
-0,17815068
0,14646363
-0,055362403
-0,28888044
0,11494964
0,13519591
-0,19545406
0,2395336
0,44514334
-0,10625017
-0,03570026
-0,12423167
-0,3207903
-0,1510458
-0,1653747
0,41783726
0,0071334243
0,30958414
-0,49502435
-0,3350919
0,31434733
0,1733113
0,0036875606
0,2043196
-0,2161268
-0,43936104
0,3541119
0,39163774
-0,14174154
-0,26164395
-0,0675492
-0,28661716
0,4713564
0,23701906
-0,3778704
-0,36380562
-0,20650685
-0,256674
0,4398988
-0,42263734
0,45827925
0,38707715
-0,3731389
-0,17555884
-0,47197944
0,29958105
-0,03396231
0,46838033
-0,42042145
0,28791726
0,49692494
0,012247384
0,13803774
0,47362494
0,35764992
-0,48175833
0,34582156
0,23253387
0,24807656
-0,018015206
0,39949572
0,08238912
0,12572813
-0,008744597
0,13975132
0,40152675
-0,18777907
0,06665808
0,3081661
0,029607952
0,2665252
-0,041879416
0,3273676
0,056587756
-0,19479167
0,104076326
-0,46936703
-0,25257558
0,47229868
0,11866468
-0,4386056
0,38063985
0,059794962
-0,09785533
0,33475536
0,2591657
0,27554387
-0,24487802
-0,37273777
0,26721627
-0,14298588
0,34505206
-0,07558048
0,41630304
-0,42035225
-0,36357984
-0,41901383
0,18852717
-0,46058878
0,18044275
-0,20147172
0,06855619
-0,04499042
-0,39367568
0,27287716
0,23832679
0,07803005
0,07283044
0,4089458
0,04353714
-0,23359418
-0,010831803
-0,2243307
0,4778908
0,455284
0,47183764
0,121248126
0,08292651
-0,33303344
-0,22850218
-0,0021886826
-0,28591672
-0,43097916
0,2930801
-0,4737519
0,05817169
-0,2519402
0,36458594
0,2648269
0,0350734
0,15454435
-0,29829153
-0,19413155
-0,19803137
-0,3826539
0,21298134
-0,30048567
0,24492931
0,093414664
-0,37291792
0,13267636
-0,46511292
-0,40347746
-0,3458085
-0,15158063
0,31687695
0,481394
-0,12863171
0,3889802
-0,44765735
0,29637498
-0,31455445
-0,11750546
0,2358371
-0,2404773
0,02761817
-0,1492621
0,20617932
0,2974
0,02610296
0,13441575
-0,2376236
0,052395463
-0,24949786
0,26653588
0,19855893
0,29102194
0,20251626
0,017486632
0,026681423
0,20850158
-0,10166356
-0,20455295
-0,22427559
0,30378366
0,3483603
-0,37253988
0,47908163
0,37785524
0,35843557
-0,3597957
-0,18784004
-0,303602
-0,3106526
-0,4331056
0,13529682
-0,45287555
0,36570233
0,3832596
-0,006991744
-0,23167992
0,44672054
-0,37374228
0,1366061
-0,15867436
-0,26628676
0,14580345
0,4526685
0,1704762
-0,48481238
0,3575526
0,005218029
-0,016695917
-0,015840262
-0,4547296
-0,36737505
0,06386316
0,27894598
0,18331909
-0,18001533
0,454449
0,08499342
0,24419343
0,18660223
-0,096601725
-0,4216163
-0,08800873
0,10451591
-0,20316485
0,36629438
-0,14013636
-0,45979175
0,02862686
0,34496439
0,09420133
0,31167275
-0,4032118
0,03600639
0,40392995
-0,083586335
-0,07854572
-0,48649535
-0,17197004
-0,066646606
0,27608263
0,4881612
0,48819947
-0,35895574
-0,15743706
-0,41211137
0,21882153
0,22188371
-0,07975188
0,30790377
-0,39801872
0,1500724
0,19984078
-0,38824743
0,38341093
0,20059144
0,20427996
0,11109859
0,075434625
-0,36974406
0,40640205
-0,2608086
0,07807219
0,11103028
-0,08054498
0,019453764
0,21127522
0,05495143
0,0089844465
0,25948423
-0,28799957
-0,47108296
0,3885982
0,22801834
-0,3577915
-0,40073082
0,024989545
0,38953578
0,47063917
-0,22050539
-0,13678226
-0,011520296
-0,10206041
0,22706151
0,4430138
-0,070256025
-0,0124518275
0,1963188
0,45610642
-0,18281421
0,44930184
-0,21594003
0,044001877
-0,20150498
-0,123680115
0,25815552
-0,019483596
-0,35867852
-0,43795618
0,35757434
-0,30371186
0,18300486
0,33469313
-0,004377395
0,19356436
-0,34354007
-0,19824299
-0,07496178
-0,13259861
0,07272279
-0,48100623
0,46876562
0,13517696
-0,17326432
-0,1172716
-0,14099863
0,4829579
0,16415942
-0,03676188
-0,021537513
-0,39596125
0,052873075
0,33931774
-0,39559597
-0,37401682
0,3301534
0,40376824
0,3787521
-0,10735729
-0,09865853
-0,27342194
0,27607763
0,14471346
0,21883571
-0,25779694
-0,12211886
0,43306535
-0,06586242
0,2979166
-0,15139058
-0,3263747
-0,059537947
0,19569975
0,11434126
-0,26436126
0,20181292
-0,23096693
0,010814965
-0,12561998
-0,29432073
-0,4412338
0,08645892
-0,49964762
-0,007329911
0,44887102
0,21475917
0,14861512
-0,33527118
0,3457936
-0,42600778
0,163804
0,039161682
-0,49733827
0,26930904
0,3711546
-0,25749242
0,43410027
0,28497374
0,14637184
0,28004473
0,16588682
0,46045572
0,36910695
0,46257126
-0,10512406
-0,1366531
-0,11699
0,2760592
0,47191048
-0,0037721097
0,3798173
0,24143702
0,20564657
0,45572227
0,33133578
-0,13455084
0,36191505
-0,22804433
-0,38765904
0,31372648
-0,08459896
-0,043950886
-0,4881287
0,14149255
-0,0051060617
0,18420458
-0,24178857
0,03318858
-0,39388344
-0,41585633
-0,20440274
0,28411412
-0,19060004
-0,33554912
0,099259436
0,2986887
-0,14650908
-0,15190038
-0,41040137
0,36523068
0,1608854
0,06401491
-0,081668764
-0,17944428
0,15572065
-0,28118306
0,17556816
-0,13685003
0,025548458
0,4530365
0,1896556
-0,06507298
0,022340715
0,05116713
-0,2486074
-0,04258144
-0,38219523
0,28021145
0,017038107
0,2577924
-0,3059324
-0,4669676
-0,3517015
-0,014120638
-0,28756744
-0,3321077
-0,13629791
-0,37308288
0,4647193
-0,063434154
-0,32710946
-0,16702235
-0,11919391
0,35884267
0,29594672
-0,25628233
-0,45289296
-0,47805652
-0,2681064
-0,3201515
0,35090613
-0,2814541
-0,29496807
0,40309554
0,23535174
-0,27066797
0,20062155
-0,3880881
-0,328735
-0,4381399
-0,2522332
0,1616931
-0,3974527
-0,10453668
0,2489286
0,27293897
-0,18339238
0,011105657
0,07251346
0,33341104
0,26063597
-0,20587438
0,43686777
-0,48015815
0,4339649
-0,33305085
0,1354354
0,003507495
0,091851175
-0,008710861
0,04264784
-0,13762337
-0,21240634
-0,27577484
0,19332445
0,1673466
-0,17144462
-0,14444649
-0,1689341
0,10686815
-0,46219864
0,07197684
0,069627285
-0,0046378374
-0,120578945
0,13099176
-0,023516387
0,31565577
0,1110698
0,19771534
0,45883453
-0,13569048
0,09495723
-0,061718494
0,28659523
-0,3152225
0,2590953
-0,47039226
0,48780352
-0,30574512
-0,49191162
-0,47647637
0,20000201
-0,3791647
0,06413275
-0,097726405
-0,2659402
-0,0735566
-0,35031885
0,48297852
0,43011767
-0,38723552
0,10148311
0,17907584
-0,32795802
-0,46678188
0,26164794
0,3994755
0,32244462
-0,47520503
-0,14341518
0,30220258
0,36547184
0,3717937
-0,24508664
-0,033851832
0,3262961
0,0013760924
-0,012793899
-0,08165312
0,41175777
0,010024667
-0,15167493
0,23283285
0,038950026
-0,2893247
0,14643359
-0,19383505
-0,18667898
0,3364448
0,0043399334
-0,22556373
-0,3133241
0,4417581
-0,2640149
0,4704886
0,21492743
0,49784362
-0,1714629
0,26322925
0,26220876
0,20245439
0,39198095
-0,13515317
-0,24149758
0,33251023
0,107834876
0,2267012
0,38657683
0,1804353
0,33350807
0,3906052
0,024362683
-0,22382292
-0,042460084
-0,4011572
0,062671304
0,10526681
-0,33242387
0,08853066
0,30754507
0,059638858
0,24786758
-0,16278765
0,39069748
0,12387395
0,23733866
-0,1490171
0,29100287
0,22510159
0,12834835
-0,44806254
-0,062310696
-0,17303306
0,076024294
0,4884919
-0,4186153
0,49371946
0,4535243
0,31536472
-0,009346336
-0,22839391
-0,21186069
-0,2327685
-0,19606018
0,39698523
0,03889376
0,38491315
0,23691255
-0,18814206
0,30582726
-0,3987369
-0,17632023
0,09564024
-0,44982213
-0,11200237
-0,2917081
-0,27575016
0,2996065
0,22497445
-0,010564566
-0,091535
-0,46275967
0,4377852
0,4599129
0,15887421
-0,30007964
-0,31645364
-0,2315169
-0,35290545
-0,18205476
-0,40761924
-0,32465196
-0,1172767
0,25229597
-0,18579692
0,13676912
-0,3566108
0,32056385
0,11516154
-0,08471465
-0,24185386
0,044149995
-0,35318404
-0,3372026
0,3816654
-0,33993936
-0,27465665
0,055628896
0,38277256
-0,35769635
0,012699008
-0,309824
0,2794199
0,17606688
-0,021182805
0,24213141
0,39482337
0,48113173
0,4254319
-0,4291262
-0,37328422
-0,20787835
0,46083617
0,027496755
-0,4134472
0,20536864
0,36139458
0,17304248
-0,26452738
0,12162286
-0,36853534
-0,47633636
-0,038163602
-0,3325367
-0,18176764
0,15429085
-0,3400102
-0,3717654
0,16887194
0,23709661
0,21084696
-0,23403221
-0,10899317
-0,3721019
-0,24681598
-0,34885514
0,010727525
0,078213155
0,15350676
-0,38869977
0,49961323
-0,21902108
-0,22644457
0,29585862
-0,37594622
0,07016879
-0,028714955
-0,09720546
0,054872334
-0,18093392
0,43674636
-0,0026055872
-0,18723795
0,015747309
-0,27922142
0,23627347
0,24926907
0,38223606
-0,24489215
-0,46785605
-0,1347763
-0,20474327
-0,16071156
0,04673183
0,06623459
0,3862033
0,1529358
-0,4208851
-0,35988575
0,015392721
-0,38462895
0,44852495
0,48639303
-0,010840327
0,29734695
-0,28990057
0,19372874
0,33285683
0,43285662
-0,14371845
-0,17837566
-0,22738665
-0,38600332
-0,055096805
0,32855684
0,29717445
-0,055642605
0,49152553
-0,22233868
0,057717085
-0,38089886
-0,2161828
-0,39220276
-0,41344017
0,21430182
0,27887386
0,03344977
0,09943706
-0,42667815
-0,02888301
0,42390758
-0,12257835
-0,003926009
-0,008699
-0,017154515
-0,0025859475
0,28452158
0,06752545
0,11950928
-0,38828516
0,4861589
-0,30067107
0,48985136
0,37169927
-0,37119186
0,43437773
-0,37383527
-0,15490064
0,09275031
0,4242416
-0,28699213
-0,20955846
0,39218962
0,24469173
0,08979589
-0,15951374
-0,097524345
-0,017676502
-0,095708996
-0,09226331
0,26961672
-0,3610255
0,14472908
0,16012871
-0,21815675
0,11876553
0,01877302
0,11612862
0,42596787
-0,089841545
-0,46408665
-0,3897862
-0,08698732
-0,05925101
0,08733153
-0,11841944
-0,19649085
-0,49364105
0,14374721
-0,01720038
-0,1487669
-0,22878107
-0,42878273
-0,26587707
0,4225691
-0,3332519
0,37368685
-0,33639106
-0,24451941
-0,21644205
-0,011745721
-0,4369451
-0,37940234
-0,02421388
0,45703208
-0,39264327
0,22292942
-0,4931315
-0,2489954
-0,019360036
-0,24622124
0,07377595
-0,20052809
0,31427026
0,43730676
-0,41709185
-0,23728162
-0,2790442
0,25774783
0,111002386
-0,412974
0,15703106
0,46394902
-0,36546454
0,33810323
-0,2145682
-0,030471921
0,0699358
0,047925174
0,14124441
0,07085228
-0,3252908
-0,3646462
-0,19719774
-0,18430036
-0,19832009
-0,3171801
-0,050991118
0,020663142
0,02382052
0,23382789
0,34033847
0,40113723
0,21802294
0,4747311
0,3029825
-0,2679431
-0,45007214
0,1651994
-0,3178032
0,20946532
0,2131061
0,33806205
0,46827805
0,0666253
-0,016531765
0,44418252
0,23291194
0,009668052
0,16739905
0,2918318
0,17039508
-0,26238036
0,07197595
-0,07175949
0,2941122
0,22563481
0,020172715
0,14960593
0,24067873
-0,1142939
-0,12807116
0,068585455
-0,4987172
-0,1710873
-0,38373294
-0,11016834
0,2694705
0,13089311
0,46496028
0,4038244
0,050694227
0,41849154
0,3117357
-0,2426771
-0,31421167
0,002686739
-0,11825439
0,4293142
0,35276443
-0,48350832
0,39861983
0,4060589
0,33212066
-0,0076277554
-0,24681348
-0,27417582
0,04775554
-0,010258079
-0,39503634
-0,14555347
0,31989193
0,12221503
0,11659986
-0,46164316
-0,20327875
0,23888904
-0,2914399
-0,22529876
0,49586594
0,43355387
-0,31360197
-0,16304323
0,20882255
-0,26663038
-0,042632043
-0,36217576
-0,12595981
-0,27945042
0,16703922
0,13125473
-0,27470118
0,15495622
0,17308128
-0,008731991
-0,04256025
0,28201514
0,017795205
-0,36402953
-0,31868932
-0,45325822
0,2726559
-0,0032620728
-0,07371941
-0,4319419
0,12817097
-0,15219805
-0,04437691
0,27043366
0,20820731
-0,12276474
0,44434637
-0,3017496
-0,27737123
0,12737244
0,43595254
-0,06689161
0,44875818
-0,02109614
-0,022740185
0,4923042
0,26662976
0,4557265
0,37263525
-0,117834926
0,46619415
-0,47393847
-0,015585214
0,032517135
-0,24958557
0,358944
-0,3696981
0,09162694
-0,43518677
0,30453247
-0,28281295
-0,028694808
-0,4009673
-0,010101676
-0,3905156
0,3262617
-0,41920933
-0,4350565
-0,4567161
0,08037466
-0,37017536
0,28838694
-0,08683616
0,47408116
-0,30004472
-0,26078957
-0,29503152
-0,19965059
-0,034992933
-0,42900312
0,493102
-0,42506695
-0,31316692
-0,14843649
-0,023959398
-0,49253717
0,46131146
-0,14535987
-0,033877194
-0,32377368
-0,16285455
-0,08144644
-0,09070715
-0,16861594
-0,15566829
0,107728004
-0,1742082
-0,038042426
0,34551883
-0,3774398
-0,36178815
0,4560272
-0,27473015
0,47093463
-0,4134738
0,44437957
0,22969812
0,4271466
-0,06717053
-0,3796886
0,25305384
0,27100104
-0,0048284233
-0,024237663
0,071486056
-0,40482828
-0,0707784
0,13075227
-0,016699582
-0,21096072
0,10296762
-0,41824427
0,17423278
0,26809853
-0,17334005
0,052966475
0,11818677
0,15990025
-0,048908114
0,39484316
0,47489077
-0,31154776
-0,11033854
0,29638094
0,09381932
0,16644192
-0,1345728
0,35547662
0,21284091
0,38356483
-0,25160244
-0,19023454
-0,22752783
0,39084113
0,47603488
0,030375123
0,17249644
0,34440327
0,23282903
0,30872786
-0,28355032
0,30505133
0,14573193
-0,12514046
-0,14593685
-0,282467
0,0964756
-0,092280865
0,20000857
0,12701184
0,26523882
-0,4599406
-0,31041464
-0,030378431
-0,07025164
-0,0075493455
-0,15019011
0,046503782
0,35567695
-0,19289905
-0,15190849
-0,06899428
-0,40918857
0,21335399
0,148112
0,14235955
-0,33543575
0,06748384
-0,3042084
0,40904444
0,1855709
-0,1436347
-0,06577441
0,49558252
0,049783587
-0,36695862
0,15988117
0,22018987
-0,48374286
-0,4849899
-0,4793562
0,47290534
0,078199804
0,14234316
0,08849937
0,19468325
0,34571862
-0,32543164
-0,17452651
0,12692392
-0,3842901
0,29953557
-0,006058693
-0,34928358
0,38489068
-0,42291492
-0,3775191
-0,21075419
0,04502994
0,13351178
0,26162374
-0,49169123
0,2894541
-0,08214009
0,20172793
-0,37923306
-0,27580112
0,22234702
-0,3753242
0,32268506
-0,44815648
0,30999488
0,390337
0,0642218
-0,34197766
-0,28526628
0,46658337
0,33773345
0,4793315
-0,2720688
-0,22024599
0,21822822
-0,04455936
-0,34688756
0,3006962
0,13338602
-0,26306844
0,3534358
-0,023246944
0,46302652
0,1278035
0,08594197
0,25629497
0,33271533
-0,21507353
0,21605289
-0,22716641
-0,064256996
-0,31190306
-0,19146252
-0,3377787
0,4190393
0,41923583
0,16536272
0,40363586
-0,028215617
-0,4160689
-0,08686823
-0,4729404
-0,063862026
0,25054055
0,29249775
-0,31562752
-0,11515397
-0,37096384
-0,44983697
0,13626534
0,32410556
-0,3553298
0,26666045
0,30784547
0,43497735
-0,28526276
-0,49514717
0,09281653
0,13139093
0,3782885
-0,39524335
-0,21423385
0,49919665
-0,47681165
0,07182276
0,12115812
-0,19075784
-0,121917695
-0,33025664
0,37164074
0,12509316
-0,16518086
-0,35231107
0,4292174
0,21941161
0,32114196
-0,03950709
-0,3165332
0,27924752
-0,4386259
-0,31008893
0,24284893
-0,24362817
0,077890456
-0,24254143
-0,064740896
-0,111425966
-0,38411152
-0,12479994
0,41436678
-0,36393684
0,41224825
-0,26824933
0,038265347
0,19478554
-0,21740514
0,3405534
-0,40837252
-0,34775132
0,044037282
0,27080733
-0,21160138
0,3570152
0,075120926
-0,02181232
-0,10142791
-0,30154347
0,46429527
0,05363208
0,03486663
-0,22038296
0,26164055
-0,19291854
0,070060015
-0,0031493902
-0,090530634
0,38568985
0,123739004
0,46547216
-0,0073453486
-0,044416815
-0,4621724
0,32324523
0,3746249
-0,48883262
0,46124947
0,4818372
-0,3007794
0,19300926
0,13531685
0,24525005
0,018818319
0,48383266
-0,47176075
-0,13876992
0,3935057
0,35759413
-0,40406993
-0,2489889
-0,39143673
0,10658872
0,34276772
0,20967406
0,28060895
0,44477934
0,18543309
0,065911055
0,4443406
0,06370497
-0,17054719
0,31516504
-0,12544054
0,47483897
0,115835905
-0,39932227
0,019369602
-0,038731664
-0,3125758
-0,41063702
0,07755804
0,394831
-0,030720204
0,27556467
-0,30056244
0,1791051
0,42177302
-0,49865925
-0,13632783
-0,13863963
0,13821948
0,22054672
-0,18819553
-0,053256094
0,12936729
0,24974608
-0,46505386
-0,06435117
-0,18728065
-0,23919666
-0,44804725
0,31762064
-0,21254233
-0,19010314
-0,008268684
-0,33567244
0,30478227
0,32538682
-0,10720298
0,38803846
0,47414887
-0,4885143
0,36592418
-0,20721433
0,25865525
-0,051916003
-0,00013077259
-0,029349089
0,2849697
-0,330734
0,40834183
0,33853173
0,055929363
0,09303981
0,102033675
-0,18232957
-0,040808022
0,13721359
0,46133685
-0,040223777
0,15074873
0,44389415
-0,38760418
0,10057765
-0,20961782
0,45555973
0,18604857
-0,25334278
0,046384394
0,02957666
-0,12491712
0,16095686
0,055319786
0,4105941
0,4967968
0,03143841
0,378559
-0,3205624
-0,008048147
0,35951078
0,34282792
0,43158025
-0,13316363
-0,33201075
0,30213267
-0,3958337
0,36723202
-0,009062797
0,19979292
-0,044201285
-0,30410945
-0,46461755
0,4291098
0,26399648
-0,04011765
-0,23031214
-0,17358571
-0,03513664
0,20884681
-0,34513903
0,24246085
-0,18510273
0,19798791
0,465788
-0,45985714
0,34789652
0,15739673
-0,1525625
0,3924424
-0,092481196
0,43991172
0,017810643
0,15882218
-0,2742326
0,32909852
0,23430616
-0,07514465
-0,49886316
-0,3749942
0,22978073
0,0596177
-0,07748288
0,009982586
-0,28031528
-0,021451175
0,33087617
0,30337745
0,26002073
0,31911385
0,08794588
-0,28255627
0,124044955
0,24704373
0,21810108
0,038791478
0,19106394
-0,3929688
0,33625853
0,091101825
0,12480539
-0,15967166
0,15809917
0,40923572
0,07037103
-0,12720168
-0,49167988
0,48574698
-0,04700291
-0,100420415
-0,308542
0,212811
0,42122787
0,1597277
-0,47066346
0,13493031
-0,19258082
-0,31584635
-0,108183205
-0,27506524
-0,008966476
0,3170902
-0,37332484
-0,24322289
-0,32812423
-0,39042032
-0,402379
0,39901018
-0,25416315
-0,078876585
0,49032634
0,4238044
-0,25827092
-0,0029669106
-0,3281496
0,39507943
-0,12921551
-0,06915355
0,18768048
0,49429613
0,22208983
0,09834343
-0,42757532
-0,015965253
-0,43633598
0,2911899
0,09463245
-0,3466916
-0,37917224
-0,4465814
0,1986956
0,46763194
0,20111841
0,011896312
0,31408775
-0,47407174
-0,47396168
-0,040043235
0,45750773
-0,14512274
-0,26188788
0,44137585
-0,21282819
-0,2968796
0,22046012
-0,11569095
-0,14586979
-0,3167135
-0,034034163
0,014288068
-0,068373054
-0,36076078
-0,11450833
0,4207666
0,1695512
0,34858972
-0,057248145
-0,26152003
0,14156741
0,41918862
-0,10889214
0,23973644
0,27085018
-0,43755135
-0,08961651
-0,0031276941
-0,11896685
0,17637974
0,35803837
-0,27826887
-0,26731223
0,10091299
0,114846826
-0,37461174
-0,36273092
0,1397081
-0,12664863
0,3815446
-0,11089027
0,33327025
0,42419523
-0,3495741
-0,13637936
0,39435065
0,21506262
0,49599135
-0,2665325
-0,041178048
-0,42912215
0,011677146
-0,43618378
0,090629876
-0,33616287
0,23429054
-0,445538
0,25620914
0,11673814
-0,16270837
-0,22971216
0,20785141
-0,39624485
-0,21306837
-0,1647459
-0,4885832
0,4938596
0,3976943
0,13710815
0,2074309
-0,093788445
0,18417472
-0,45822257
0,097073615
-0,25463936
-0,113060296
-0,18393615
0,48592532
-0,49461043
-0,4069361
0,06559014
-0,23790818
0,46026957
0,2599616
0,12174481
0,022756994
-0,24319774
-0,23894909
-0,38643754
-0,41581294
0,05677706
0,0052492023
0,24749517
-0,17859495
-0,3667011
0,45790255
0,051238358
-0,4113583
-0,3815781
-0,4903491
-0,12339839
-0,44941157
0,38671172
-0,1542474
-0,050723523
-0,009920418
-0,16844529
-0,21981615
-0,27949673
-0,41686127
-0,24520674
0,20709622
0,3335002
0,42996848
-0,24972495
0,12997025
0,07065153
0,3451618
0,43168485
-0,43831128
0,38522428
0,11152089
-0,37015712
0,30697107
0,1585083
0,17140406
0,24658471
-0,10893941
0,25709867
0,11580944
0,34929812
0,08403325
0,46585846
0,3211205
-0,14938939
0,28721344
-0,33744705
-0,089904636
0,21718132
0,3664894
-0,47958738
-0,100043476
0,04110968
0,20525807
-0,07637796
0,3119424
-0,12311852
0,24794483
0,33632475
-0,060987264
-0,16761035
-0,455088
-0,25025314
0,42007136
0,12329513
0,056816638
0,3531314
-0,039836377
-0,014519274
-0,48413473
-0,19194505
0,020708442
0,20411986
0,09649223
-0,27946264
0,4374345
-0,34169167
0,4334789
-0,42305818
0,35104895
0,13662136
0,12460315
-0,26332992
-0,47023124
-0,14422566
-0,24956563
0,025633514
-0,13971108
0,4504164
0,33245873
0,058317065
-0,4265493
-0,16766769
0,002738297
0,15217865
-0,38615966
0,19096231
0,3577152
-0,08049154
-0,376516
0,104424894
0,29316747
-0,15801892
0,067858696
-0,40819618
0,15693462
-0,24952888
0,100824535
0,11938614
0,15116554
0,3625158
-0,45725194
-0,42921826
0,08895993
-0,054185927
-0,316154
-0,05289927
-0,49626398
-0,45949626
-0,067432314
0,25535482
-0,48028645
-0,4993383
0,34072012
-0,41826573
0,116928756
-0,20029971
0,1352228
0,3222527
-0,14071855
-0,2356616
-0,3902785
0,30229145
-0,48791263
-0,35101175
0,16122359
0,25899214
0,21657419
0,25024194
-0,059180737
-0,3793907
0,025520384
0,1654529
-0,4809661
-0,26413894
-0,2523414
-0,10036442
0,0421654
-0,09841952
0,29776382
-0,37293065
0,20493942
0,013939142
0,31871837
0,34614027
0,09653568
-0,41089082
-0,049145192
0,17418629
-0,14810753
0,23215026
0,46754152
0,015903354
0,14429432
0,24625552
-0,3358581
0,10159874
-0,09866056
-0,15173662
-0,3094082
-0,19169244
0,21868515
0,10641259
0,0075728297
-0,35555184
-0,4065562
0,47110873
-0,18968248
-0,21383363
0,09141636
0,027285933
0,39649647
0,030684233
-0,3656306
0,020879507
0,10535562
-0,42742756
0,1467092
-0,3764765
0,4577524
0,17728734
-0,4612404
-0,25961587
0,43502885
0,2289918
-0,31591225
0,07076454
-0,3316813
0,10173929
-0,46197572
0,025651932
0,49134105
-0,004598528
-0,34150022
-0,19326758
0,400428
-0,25708863
0,44910395
-0,39349052
-0,17004755
-0,042835116
0,21805346
-0,36246374
0,22579145
0,29774034
-0,45590752
0,018537104
0,0051475763
-0,38104472
0,41681373
0,05951315
0,45151627
0,3275004
-0,10053611
0,3409574
0,2762121
-0,35535607
0,25814492
-0,14789882
-0,33008927
-0,41193497
0,16209769
-0,13799837
0,2399466
-0,13011649
0,10184103
0,46637195
-0,4781259
-0,027195394
0,1522494
-0,3278896
0,27628207
0,17076695
0,28488594
-0,43952474
0,48085022
0,4521237
0,002162695
-0,068771124
0,48324853
0,3227619
-0,12473291
-0,14200786
-0,09161374
-0,051103085
-0,14161554
0,45760566
0,17394996
-0,1818926
-0,1284566
-0,12069929
0,12387717
0,21975636
0,1967653
0,029138267
0,043469608
0,26503396
0,004339576
0,07852328
0,23255408
-0,1618984
0,38076776
0,41354108
0,1943177
-0,2056979
-0,22386977
0,45067286
0,35651237
-0,009697974
0,027538419
-0,3934355
0,32928646
-0,0043486357
-0,11752775
-0,49359414
0,12583625
0,2749825
0,015345514
0,16174483
0,31157917
-0,08419886
0,10341793
0,068148196
0,09131575
0,29097897
0,10230774
0,44737625
-0,22691345
-0,13078967
-0,10152441
0,30657125
0,44723225
-0,16698864
-0,23697436
-0,3009896
-0,47633085
0,42759794
0,35774714
-0,46059406
0,16800654
0,06771779
-0,26863426
-0,37226638
-0,16171044
-0,18174875
-0,3766426
0,49982786
0,11631578
0,20180637
-0,09792173
-0,3899871
-0,081980586
0,13877487
0,18100911
-0,30463988
-0,18449375
-0,3361243
-0,10829911
0,31364077
0,42390883
-0,3180555
0,056666553
-0,47241879
-0,17126223
0,4090734
0,44190395
-0,40879884
0,05259615
-0,39780447
0,39090025
-0,0077548623
0,1929605
0,12794018
0,44758153
0,32087988
-0,29417354
0,4528767
0,31480998
-0,3311894
-0,14643553
0,035728514
-0,2402966
-0,37863132
0,035630643
-0,36921036
0,24760854
0,11272669
-0,098303735
0,25774014
0,39675844
0,4184513
0,26740938
0,16338438
-0,4237535
0,24000382
-0,05129981
0,2662015
-0,18486989
-0,4285338
-0,39967984
0,28018945
0,078413785
-0,18818384
-0,3508011
-0,46842074
0,41194957
-0,44283295
0,15199548
-0,17082536
-0,4945421
-0,43160576
-0,21861264
0,17188346
0,15018165
0,005725801
-0,285946
0,4264192
0,49037302
-0,26000184
-0,43426195
-0,17389917
0,08677316
-0,3319655
-0,16958642
0,2833901
0,05077654
-0,051475257
0,2210185
-0,44529057
0,25993782
-0,16595578
-0,35588956
-0,403595
0,49968487
0,25104254
-0,4010968
0,22862226
0,04080069
0,36669272
-0,38837665
-0,2074166
-0,030542046
-0,04738295
-0,28691941
-0,4186909
0,24927753
-0,30663657
0,09292328
-0,41742063
0,07571399
0,4496675
-0,07267016
0,46435577
0,48229146
0,46963978
-0,43163592
-0,25203675
-0,4947715
-0,49167973
0,05583334
-0,35140067
0,07544726
-0,32399374
-0,018188506
-0,35520276
-0,07374698
-0,3548727
0,08820081
-0,06453058
0,1028887
0,16046065
-0,10292542
-0,3393842
0,112158954
0,009421945
-0,49690375
0,016825795
0,028998971
0,33512074
-0,1673724
0,061180234
0,22185314
-0,18192676
-0,26505685
0,018025935
0,0685972
0,3074674
0,45027465
0,15761459
-0,3961946
0,41826195
0,09989333
-0,46334428
0,45013225
0,20966834
-0,26533985
0,06237191
-0,10382289
0,07324493
0,07820964
-0,178424
-0,16918552
-0,022004724
-0,04473725
0,32164502
-0,22712299
0,33471
0,30960202
-0,18126646
-0,19981784
0,030961335
-0,20433941
-0,3196321
-0,22294065
-0,3274175
0,18695784
0,14806414
0,28773314
-0,1076543
-0,20923164
-0,42492473
-0,28229257
0,40074039
0,22546679
-0,24435717
0,018803835
0,15774518
0,32422924
0,45359766
-0,051724076
0,15305895
0,2741338
0,40673155
0,05316806
-0,30826163
-0,114032835
-0,22216505
-0,3410892
0,36858022
-0,11028314
0,013542235
0,15338677
0,4488153
0,19051051
0,35287535
-0,04630974
-0,194004
0,15305668
-0,37334007
-0,020191014
0,07947874
-0,104715705
-0,2881507
-0,3548255
0,47896272
-0,42788798
0,2475341
-0,046401322
-0,27994907
-0,17343107
-0,20045558
-0,43435463
-0,10447481
-0,28967607
0,32611865
-0,36228725
0,007386565
-0,23529464
-0,40756527
-0,029558778
-0,10762039
0,35179698
-0,30170602
-0,4193749
-0,0821031
0,15708053
-0,26404518
0,2425695
0,23936218
0,18235075
0,32586253
0,3865773
0,2838695
-0,20477709
-0,24187833
0,26255292
0,035334826
0,44717503
0,04379189
-0,35882962
0,4732566
0,05439365
0,13377601
0,32771862
-0,32366785
0,24597263
-0,33525676
0,18434888
0,31075972
-0,0088380575
-0,32353586
-0,1918647
-0,028594315
-0,20521986
0,37814707
0,49046367
-0,474027
-0,17942604
0,05784005
0,17936629
-0,302335
0,38920224
0,46636462
-0,4163019
0,19498044
-0,115626514
0,4555614
-0,2435894
0,16278464
-0,35197872
0,29052722
0,06651515
-0,042169273
0,017353952
-0,19415131
0,24640149
0,2245313
-0,49719688
0,20476109
0,005373299
0,26227826
-0,13637856
-0,17557964
0,42817748
-0,21723223
0,48067158
-0,0014147162
0,20993924
-0,043699414
-0,42811707
0,031706214
-0,449736
0,4110096
-0,17670354
-0,059690863
0,35006702
0,12627459
-0,25305524
0,0127180815
-0,37222415
0,10812706
-0,32592535
-0,024139673
0,4706614
-0,11617571
-0,2559732
0,028260052
-0,18338293
0,4297641
-0,11190221
-0,20376328
0,34467256
-0,43660793
-0,08223486
-0,08513698
-0,15393305
0,25969058
0,48519462
-0,38087055
0,07215518
0,011359394
-0,08815771
-0,4654999
-0,23040056
-0,10488537
-0,09043315
0,25203323
0,31721336
-0,26077884
0,18754685
-0,49267757
0,3378135
0,22504437
-0,35394835
-0,3189983
0,09192228
-0,37875533
-0,21493402
0,4609223
-0,118833065
0,3654101
0,33452398
0,13035917
-0,3600424
-0,11479786
-0,1170806
-0,094270736
0,12945545
0,48274785
0,006679833
-0,092428416
-0,4302947
0,16412401
-0,31413007
-0,23726022
0,17896432
-0,10841867
-0,3253445
-0,31415832
-0,49823377
-0,15728024
-0,30200535
-0,059274763
0,31031215
-0,3818285
-0,39628536
0,14238292
0,4214942
-0,2653783
0,10475886
0,42139697
-0,18158346
0,24275601
-0,10165325
-0,29607612
-0,32783294
-0,112311184
0,30775166
0,19926369
0,4064182
0,45317215
1,1622906E-05
0,055927992
-0,49827567
-0,18187699
-0,45139146
0,42281395
-0,26055104
0,33194792
-0,3830629
-0,2752223
0,1415366
0,06614071
0,22870827
-0,21574754
-0,21447974
0,07619619
0,17302239
-0,44030336
-0,42112038
-0,376243
-0,32226908
-0,4084354
-0,24504444
-0,27745947
-0,30881006
-0,41000587
0,30221266
0,09660131
0,079328954
0,25274658
-0,27476126
-0,29972577
-0,4126839
0,27576768
0,1818021
0,3475303
-0,17167145
0,044101298
-0,25546086
0,031151175
-0,44874844
-0,28760633
0,13456893
-0,0076352954
-0,48941427
0,3505637
0,14230937
0,27504295
-0,090254605
0,49104667
0,016236722
-0,07313603
-0,08810261
0,021864176
-0,3340739
-0,18840423
0,4212882
-0,3810103
0,030629516
-0,46682325
0,30436826
-0,23007289
0,477624
-0,061851174
0,21823174
0,041148424
-0,14982215
-0,3559751
-0,11722028
0,2532037
0,44949263
-0,018143117
-0,25410527
-0,26310408
0,3256476
-0,393183
-0,09996188
-0,48302972
0,4976943
0,31426924
-0,45311692
0,36063838
-0,30439222
-0,42005157
-0,4071368
-0,48988816
-0,14062852
-0,04833591
-0,22900042
0,0624851
0,035716057
-0,103238165
0,24238086
0,27115154
-0,14951691
0,41927087
0,45170867
-0,1749208
0,09357822
-0,21134102
0,3388024
-0,41282263
-0,08694461
0,10257405
0,26344514
0,38803703
-0,23407534
-0,37641674
0,42594838
0,19731265
0,13636059
0,2713316
0,22344643
-0,15331057
-0,15874934
-0,28815138
-0,35985684
-0,22265011
0,31614047
0,20405513
-0,4417853
-0,36037147
0,1616478
-0,48001146
0,100723684
-0,2930497
-0,1761787
-0,35522425
0,26044714
0,031933904
0,3803066
0,47451925
0,0055611134
-0,37829137
0,007338643
-0,30942333
-0,23939636
0,4998281
0,15979522
-0,4687165
-0,29529762
0,024833918
-0,20690405
0,18862772
0,1272397
-0,0831438
0,07494342
-0,09498301
-0,11207238
0,0225389
0,37730867
0,43949634
-0,18337327
0,16621512
-0,45804712
-0,3467722
0,3715191
0,38639712
-0,2687053
-0,41110608
0,335967
-0,08667523
0,039062142
-0,08180714
-0,32230347
0,24903339
0,106876075
0,3766271
-0,24250624
-0,08963454
0,15259135
0,3383177
0,38099903
0,265781
-0,22781193
-0,0750978
-0,0450024
0,42055005
-0,32440662
-0,25876305
-0,17415419
-0,30174512
0,14923513
-0,034609467
-0,24746636
0,43925947
-0,12637728
0,1424473
-0,21462458
0,26794815
0,48224735
0,3995707
0,16799659
-0,24048269
-0,3721156
0,06767547
0,43280154
-0,44833928
0,1510902
-0,39233398
-0,16474673
-0,17859718
0,4153846
-0,06603786
-0,23224697
0,19589335
-0,016676128
-0,33619696
0,23252177
-0,33034495
-0,25225437
-0,11246392
-0,23290607
0,22627026
-0,071134806
-0,35825044
0,46612483
0,3801691
0,1298641
-0,08762777
0,10273737
0,4003139
-0,26227808
0,15380722
-0,16996375
-0,1413948
-0,4980204
-0,23350257
-0,20479259
-0,37994248
0,27839124
-0,17549562
-0,45005345
0,23088348
-0,47250974
-0,10408944
0,10550672
-0,37322098
-0,19316566
-0,0723069
-0,3102306
-0,22099915
-0,04906729
0,3354928
-0,2904386
0,21988988
0,29967195
-0,29896635
0,47139806
-0,12131706
0,42217952
0,26428753
0,4189412
0,41107702
-0,29354882
0,4047891
-0,29118618
0,023922205
0,31878972
0,1555559
-0,4321204
-0,35646713
-0,43824434
-0,44097966
-0,37846947
0,10178095
0,40917873
-0,46306545
-0,3463989
0,27817583
-0,17647302
-0,19904879
0,3816591
-0,057943046
-0,46429896
-0,33238763
0,27323055
-0,23578256
0,3979287
-0,2686591
0,49096215
-0,008195072
-0,45052624
0,074411154
-0,19602802
0,26839268
0,4519769
0,12055516
-0,48810107
-0,11265901
-0,33614802
-0,38586912
0,014546275
0,13791919
0,068730235
0,39918083
0,41853613
-0,1527678
0,22778177
-0,32456785
0,2195695
0,39781582
0,25068724
-0,08874184
-0,1008853
0,47817332
-0,17107335
-0,27903378
0,3745501
-0,47998786
0,1876843
0,39809138
0,055010796
0,06785697
0,37760067
-0,13690421
0,30430287
-0,096116364
0,23429322
-0,11303589
0,022023857
-0,44996545
0,100528
0,22677004
-0,25135714
-0,21171251
-0,46218315
-0,22285119
0,14120895
-0,398718
-0,046942085
-0,016265988
-0,19319546
0,3171335
0,019382656
0,26155436
0,10808599
0,4977461
-0,08831677
-0,1587486
0,41922116
-0,03930676
0,040250897
0,34378737
-0,2052832
0,1188128
0,003766954
-0,19809079
0,44880885
0,17414522
-0,24076226
-0,030021459
-0,38463503
-0,3708694
0,19890863
-0,23076814
0,2690599
0,28244668
0,40516484
-0,09237006
-0,014023572
-0,23787907
-0,4424764
-0,11253032
0,49423128
0,25000292
-0,4251497
-0,32512537
0,44482857
-0,4839826
0,35825163
0,40184814
-0,21226758
0,056971908
-0,08951402
-0,45221332
0,3215587
-0,33004138
-0,35892904
0,1611743
0,33810705
-0,4090762
0,20452565
-0,32526353
0,4685582
-0,2500343
0,08226788
-0,03966123
0,039532483
0,3336618
-0,3060969
0,21044892
-0,037890375
0,06671977
0,1934889
-0,36493388
-0,38406676
-0,3668997
-0,38699007
-0,37547293
-0,16616616
0,2242316
0,3860029
-0,11519003
-0,3278517
0,49071127
-0,395167
-0,015642583
0,36648762
0,017528415
-0,36026692
0,027063787
0,40821022
0,1435892
-0,36632857
-0,44507936
0,2879128
0,2169112
-0,15162241
0,2631836
-0,105326
-0,24531546
0,3678683
0,12441522
0,06493324
0,08033961
0,0395689
-0,31672114
-0,37643638
0,42859668
0,04846239
-0,44790572
0,24116695
0,010625124
-0,19467688
0,13150692
-0,47278237
-0,032390237
0,14710736
0,028439999
0,116957426
-0,022884846
-0,10565546
0,18748754
0,0042336583
-0,4151603
-0,25526047
-0,40437737
-0,021682024
0,45309025
0,33990932
-0,115727216
0,2986912
0,17503756
-0,12204304
-0,21399683
0,49631423
-0,46360093
-0,4567459
-0,1998454
0,00013720989
0,0049162507
-0,22631532
-0,012951046
-0,07391912
0,4403199
0,08291584
0,23262447
0,2786832
-0,21941236
0,38058138
-0,15854561
0,20644069
0,3895709
-0,25020766
0,22003406
-0,087084055
-0,36181608
0,22180396
0,4718083
-0,4224457
0,35581672
0,24284214
-0,25615966
-0,46070638
-0,49555513
0,12743998
0,36906368
-0,49750373
0,3400731
-0,2500273
-0,061231494
-0,041368246
-0,48040962
-0,42568117
0,49201941
0,077863514
0,3898211
-0,15164068
0,30856103
-0,33253375
-0,17150277
0,031478584
0,15876698
0,45602012
-0,12973589
-0,43159914
0,47437215
0,2563576
0,4090737
-0,084536165
0,35172403
0,29428965
-0,2942827
-0,112219185
0,019399166
-0,15308908
0,024125457
0,17766756
-0,15763944
-0,043237656
0,15145677
0,14496428
-0,12653112
-0,19290969
0,44207734
0,48775524
-0,0014538169
-0,46747914
0,25498593
0,25179666
0,44614708
-0,14869452
0,35503447
-0,0036352873
-0,24550867
-0,07415646
-0,31878415
-0,119553655
-0,40090072
-0,4972915
-0,44258368
-0,42997375
0,28470832
-0,45299482
0,4249211
0,31529874
0,10374534
-0,49290296
0,3471756
-0,46087596
-0,1032601
0,43522614
-0,35832494
-0,3817132
-0,20906743
0,15287328
-0,39310408
-0,36032674
0,27110064
0,4791286
-0,09150842
-0,014846504
-0,49202693
0,19868082
0,011227369
-0,2187779
0,3725034
-0,098241985
0,39985877
-0,13721249
0,34423238
-0,30029786
0,10214138
0,35369062
0,48763037
-0,12928131
-0,46921346
0,40354306
-0,30038637
-0,44896695
-0,43825108
0,022766829
-0,46849564
-0,4681665
-0,055102468
-0,4004025
-0,123002976
0,0335114
-0,43866277
-0,31260794
0,15468764
0,13648415
0,18466026
0,45188898
-0,41792226
-0,42475843
0,3087018
-0,24138492
0,4145379
-0,3773383
-0,3973714
-0,4186231
0,39337343
0,3008194
-0,4998291
-0,4960373
-0,12661305
-0,12965283
-0,045503378
-0,25482637
-0,055465043
0,22402906
0,40138745
0,4222008
-0,07147771
0,30670774
-0,124355495
-0,2781559
-0,33498907
0,18280613
0,48733628
0,3758598
-0,4109361
0,29722
-0,32416314
0,43453628
0,15535957
-0,36886203
-0,058374703
0,39923072
-0,013686001
0,41198665
-0,39929432
0,43698943
-0,028306186
0,03516358
-0,2372196
-0,47440428
0,19165885
-0,25567412
0,4937498
0,04000151
-0,13571152
0,3344134
0,05562842
0,13569874
-0,32294852
0,007283807
0,15492535
0,4284039
-0,14388108
0,10980064
0,2633952
0,32580262
0,21198368
0,016466856
-0,25890273
-0,32816923
-0,3423864
-0,14634383
0,38180757
-0,45503795
-0,1194298
-0,03854263
0,31604886
0,07239354
0,36713153
-0,2776906
0,0113796
-0,44257003
-0,31224787
-0,16875887
0,022075415
0,18345529
-0,41986984
-0,0023637116
0,3606491
-0,4078647
-0,26589757
0,46910203
0,44906175
-0,319713
-0,17567316
-0,44263482
0,07857013
0,08179045
-0,051683128
0,32360452
0,32728386
-0,31814852
0,26821417
-0,28184283
0,047576904
-0,15754163
0,13407463
0,019984365
0,27006513
-0,29028496
-0,2446368
0,065591514
-0,120875806
0,33535665
-0,005364865
-0,009922385
0,119965434
-0,2989589
-0,0054379404
0,1746453
0,19900477
-0,22134367
-0,43140906
-0,15209162
0,19415224
-0,41762286
-0,40748277
-0,14870048
-0,15463421
-0,49433964
-0,29779732
-0,18347174
0,2536432
0,48772454
-0,3819996
0,43246692
0,45943028
-0,0071505606
-0,45963
0,45644748
0,040899992
0,41822565
-0,14609289
-0,31132615
-0,34991857
-0,4876361
0,121362925
0,29979092
-0,4571107
0,29697174
-0,11963579
-0,010493636
-0,08692199
-0,45525536
0,34920263
0,089702964
-0,26538318
0,38721818
0,44311488
-0,3610677
0,14276958
-0,0058699846
-0,11094269
-0,10709834
0,26410908
0,4871586
-0,42282012
-0,35795733
-0,30061755
0,29485238
-0,4965067
-0,37716123
0,43657696
-0,35386923
-0,47292525
-0,4155445
-0,3328402
-0,0837622
0,400483
-0,12325382
0,27213216
-0,117627084
-0,22398528
-0,258336
0,24647081
0,44304526
-0,36850667
0,42794365
0,46505797
0,037635326
-0,30687875
0,061809957
-0,22686702
0,09918511
-0,16632432
-0,11381146
0,2584707
-0,18086392
-0,23882392
-0,4868702
-0,36609668
0,051132202
-0,32677463
-0,052290767
0,33458912
-0,026093185
0,21029335
0,4132893
0,19680983
0,23386359
-0,13431618
-0,2146006
-0,43079245
-0,42259273
0,11318642
-0,40153414
-0,11223817
-0,34352258
0,18395507
0,48847657
-0,26512963
0,35189015
-0,3962447
-0,3354308
-0,12995797
0,3998384
-0,27606034
0,12496042
-0,004073143
-0,33325523
-0,42723846
-0,158362
0,28944492
-0,16356379
-0,014975399
0,0851776
0,1599428
-0,41619894
0,35120702
0,030625165
-0,07349384
-0,34749305
-0,0044286847
-0,09164801
0,23733902
-0,37999177
-0,28072917
-0,027936548
-0,39906496
-0,0031749606
-0,19041935
0,37236774
-0,15523595
0,42573154
0,102834046
-0,2304829
-0,25408393
0,20072079
0,48291457
0,4843092
-0,19961092
0,03141761
0,016079545
0,064670324
0,13398957
0,33105242
0,27193475
0,48416966
-0,019774854
0,020402968
0,46890384
0,16406155
-0,47803107
-0,37798005
-0,47234294
-0,1414803
0,26191646
-0,016321331
-0,15929905
-0,07999173
0,2677124
-0,44690484
0,13955063
-0,37551335
-0,107234925
0,011863828
-0,32850596
-0,36123973
-0,04994449
-0,09890333
0,02626592
0,34947848
0,37853664
-0,20663524
-0,36572754
0,49584538
0,39822972
-0,42575246
0,3432259
0,48637986
-0,14676833
0,13237613
0,33658916
0,46335298
-0,04447484
0,4022128
-0,24088436
-0,07263258
0,41857302
-0,267431
0,31762558
-0,48620623
0,020767808
0,3094911
-0,059200615
-0,29007527
-0,1669018
0,27116752
-0,24036491
-0,32392114
0,34442812
-0,1423375
-0,15599194
-0,2567435
-0,49070147
0,2722172
-0,4475245
0,11102581
-0,24416101
0,09179348
-0,4471896
0,03635615
0,45174688
-0,3096963
0,048083663
-0,27937365
-0,10748604
0,13258666
0,11597502
-0,0062862635
-0,32106113
-0,022253275
-0,080295056
-0,20804188
0,22639734
-0,29755098
0,065210044
0,37477183
0,4210143
-0,23444664
0,40847737
0,1941225
-0,13463944
0,24741262
0,31406277
0,22504091
0,29625815
-0,13984475
0,297925
-0,42945108
-0,25590128
-0,49196646
0,3673103
0,054964364
-0,46092755
-0,07173324
0,40532392
0,13341981
0,19171
-0,022263616
0,25464642
0,34251195
-0,3231528
0,35961258
0,31080294
0,19784582
0,12125647
-0,15268695
-0,047383636
0,27671748
0,44796067
-0,26489574
0,41323322
-0,11767158
0,356377
0,31111574
0,23996776
-0,19333282
-0,34533072
-0,2486046
-0,036604106
-0,20811555
0,45424867
0,49449062
0,33395964
0,33588344
0,43973505
-0,26978278
0,33514458
-0,19242084
0,28503585
0,27284086
0,40349567
0,4207785
-0,08907202
0,44326216
0,31261313
-0,04039198
0,18484974
0,16912735
0,26492792
-0,13896683
0,06772816
0,47149712
0,24735522
0,020418823
0,42474252
-0,4041485
-0,12071991
-0,28747654
0,45112294
-0,022192687
0,23191744
0,12833148
-0,07126093
0,19274116
-0,28584936
0,38636446
-0,017417848
-0,09545106
0,31604004
-0,3559722
0,18122429
0,07042438
-0,34361422
-0,36020327
-0,45164973
-0,18759364
0,28705895
0,45159614
0,15470427
0,07155228
-0,3076294
0,37704164
-0,07288468
-0,07953918
0,34917802
0,47339433
-0,34886152
0,3409233
-0,05259514
-0,35114282
-0,12378743
0,27834326
0,42416126
-0,18718183
-0,2598209
0,2794791
0,33469558
-0,38681966
-0,20096281
0,055719376
-0,20017043
-0,22891217
0,3074754
0,16709268
0,46432215
-0,33665067
-0,38921168
-0,4081921
-0,014250219
-0,22520098
-0,042120665
0,49965495
-0,37457985
-0,081220806
-0,11132738
-0,3872559
-0,3033959
-0,47978386
0,46915424
-0,25867313
0,40396988
-0,39274076
-0,3754777
-0,041630715
0,39212298
0,18380725
-0,28147972
-0,38951737
0,0052914023
0,20661277
-0,23684883
-0,46040717
0,09131777
-0,019637287
-0,32647094
-0,38285342
0,21181166
0,48769414
-0,022678733
-0,1677792
-0,46976125
-0,19887626
0,23276359
-0,27129868
0,021646917
0,046938717
0,23451048
-0,4267491
-0,09159711
0,081103206
-0,0898
-0,351305
0,3997479
-0,21479642
-0,32855624
0,30692226
0,1819349
-0,43302464
-0,2704488
0,28335744
-0,29250768
-0,27705353
-0,12604228
0,16966474
-0,26771972
-0,039989173
0,31180537
-0,1495075
0,07982141
-0,2595907
0,44672084
0,21885294
-0,16141954
-0,22136697
-0,35211378
0,36544275
0,14968878
-0,21716845
-0,43376258
0,46716976
-0,089022756
0,22325474
-0,15661302
-0,03772956
0,27758437
-0,48102665
-0,3539327
-0,4885183
-0,07760012
0,05009508
-0,038759768
-0,074869186
-0,03581816
-0,36306855
-0,116174966
-0,27514297
0,45880902
-0,23528913
-0,0960992
0,0422529
-0,053432316
0,2856264
0,20786852
0,34328306
0,2462734
-0,35741788
-0,3803209
0,340688
0,12551838
0,37249237
-0,070491195
-0,013926655
0,4680153
-0,21571863
0,042346418
0,19480371
-0,35962355
-0,068156034
0,41584533
-0,41205978
-0,2963557
-0,37997657
0,081037164
-0,020266473
-0,23671007
0,48694557
-0,2957713
-0,34114814
0,45819545
-0,050842047
-0,2796163
0,12628555
-0,041910768
-0,47943926
0,3428524
0,25520438
0,4661703
0,46707684
-0,32001767
-0,27006644
0,27377236
0,48155838
0,35864556
0,42667365
0,10926849
-0,21355811
0,08657545
0,42954606
0,15145475
0,26638198
-0,019270986
-0,098282695
0,06551808
-0,24981219
-0,35007662
0,016249716
-0,36497554
0,3450889
-0,20452487
0,25075674
-0,08694592
-0,1875855
-0,47957712
-0,08357906
0,0067252517
-0,27161723
0,02608025
-0,32325244
-0,11842409
-0,24969786
0,0057047606
0,43979943
0,1426838
-0,3169241
-0,42337108
-0,21528795
-0,28354463
0,20129633
0,09857416
0,3036738
-0,047225446
-0,45175314
-0,08273691
-0,036867738
-0,018989176
-0,16385955
-0,27111912
0,12438536
0,34455776
0,045587897
-0,33010328
-0,1999684
0,1812132
0,12465966
0,19104886
-0,46895415
0,23806179
-0,41491863
0,2446509
0,36387986
0,25026906
0,16962796
0,051394224
0,45044357
0,48324245
-0,42134547
-0,42252332
-0,40256226
0,079918385
-0,4735704
0,0038359761
0,098991156
0,14884317
-0,46796066
-0,0572868
0,43761623
-0,47940785
-0,45667696
-0,19043761
-0,07407555
0,26904052
-0,1358445
-0,2471455
0,25131524
-0,05983767
0,22531867
-0,009653926
0,43370014
-0,3183084
-0,42313626
-0,056003004
-0,48515153
-0,22646397
0,41087484
0,46525198
-0,33429286
-0,017206967
0,39878786
-0,28658402
0,13859302
0,32039475
0,19326675
0,23796326
0,0068630576
0,12719184
0,40541542
0,24774337
-0,035400152
-0,43391865
-0,015209347
0,33406723
-0,19486919
-0,47403562
0,26720715
-0,22501668
0,19214457
0,24214226
-0,37047684
0,4796235
-0,21841908
0,0861882
-0,42696738
-0,266518
-0,2817616
-0,06102386
-0,009963661
-0,4666716
-0,3334037
0,4045918
-0,41095415
-0,09672731
0,28099537
0,2827828
0,42973858
-0,18004364
0,24118418
-0,27937394
0,49013692
-0,24367264
0,42822224
0,39066386
-0,40944403
-0,022574931
0,2820227
0,022275388
0,34143603
-0,41241604
-0,042547107
0,0402745
-0,3747659
-0,3660143
-0,121750236
-0,37528858
-0,0679459
0,4244529
0,3550611
-0,4107167
0,0754624
-0,25412974
-0,4166064
0,4024015
-0,24801102
0,43958932
-0,29949707
-0,32228187
0,42634213
-0,424144
0,47058034
0,030165732
-0,29703152
-0,025918543
-0,2516051
-0,016314864
-0,3423799
0,46387273
0,24832094
-0,4781235
-0,147331
0,34786344
-0,33601725
-0,4746623
0,36544406
0,48712516
-0,057089686
0,15860856
-0,009638369
-0,042690337
-0,10205343
0,45425457
-0,289119
0,061065733
0,16297746
-0,28823513
-0,35491365
0,09697652
-0,19793761
0,0010539293
-0,2784566
-0,0724493
0,16231948
0,19740689
0,31137657
-0,0035161674
-0,31237584
0,41998732
0,1754722
-0,49223754
0,3525266
0,2533183
-0,46244043
0,33456856
-0,4691144
-0,33875674
0,036210597
-0,06884834
-0,12221748
-0,3096217
0,06481099
-0,397987
0,08005524
-0,18397138
-0,3601076
-0,13047358
-0,24971393
-0,059837997
-0,06725755
0,4046985
0,09778535
0,038585663
0,47444642
-0,3503592
0,34312332
0,24304968
0,1657471
-0,04618287
0,16205323
-0,019745797
0,31049603
-0,2643067
0,2273683
-0,06843537
-0,395107
0,31549108
0,045897186
-0,3010629
-0,48898527
-0,24785236
-0,022740573
-0,34632626
0,21757954
0,3025269
-0,49312353
-0,14367399
-0,046102554
0,40082562
0,12356973
0,41282564
0,44467622
0,46120423
0,26062173
0,17675829
-0,39489198
0,006482661
-0,015221924
0,306759
0,21702653
-0,18534282
0,01611334
0,10998744
0,4421168
-0,27696267
0,21491551
-0,34829462
0,2785374
-0,40734774
-0,4215
0,04025662
0,3094353
-0,48034918
-0,44419274
0,007442832
0,11526072
-0,41561556
-0,45371884
-0,014754623
0,068513036
-0,46438548
0,30241317
0,24916089
0,17796576
-0,20376566
0,25092214
0,10247111
0,34231704
-0,17112806
-0,26875708
-0,3977741
-0,09599149
-0,20303771
0,22066349
0,18225634
0,25889534
-0,35095298
-0,031285137
-0,109820604
-0,34306902
-0,08286053
-0,45267716
-0,4246574
-0,23102266
-0,3991167
0,37070692
0,32093
-0,1972487
0,098985136
-0,2388137
-0,21705836
-0,3081801
0,32238007
-0,03348127
0,40859193
0,14308375
-0,4662606
-0,23067513
-0,33775586
-0,3339574
-0,33439875
-0,3969885
-0,30800572
0,4561808
-0,3092721
0,1770392
-0,12858403
-0,33375382
0,2714222
-0,3644781
-0,21027017
0,05523485
0,28275722
-0,4293133
0,4623763
-0,29133105
-0,21560192
0,052266717
-0,48462927
0,061103165
-0,34781396
0,23588508
-0,38520354
0,32196963
-0,055129558
-0,42704532
0,32474613
-0,31762102
-0,1931606
0,33648646
-0,20226261
0,37263554
0,06725633
-0,0062448084
0,21833473
0,42559016
0,38239324
-0,24233636
0,24268103
0,42446524
-0,040607244
0,064453125
-0,42643583
-0,28101596
0,38919324
0,49424487
-0,4405577
0,458636
-0,27740017
0,13014829
0,036733508
0,32618725
-0,15612072
-0,04585457
-0,23015046
-0,49030125
-0,2999063
-0,09937805
-0,14490578
-0,47385505
-0,4215353
-0,3474621
-0,04823777
-0,22593895
0,27930677
0,26459324
-0,1324214
-0,1947062
-0,28169197
0,22761416
-0,34034735
-0,20844561
-0,46523872
-0,018051565
-0,1686888
-0,016321331
0,319723
-0,484218
-0,28519475
-0,28068727
0,409302
0,36523718
-0,17491806
-0,31716964
0,110325456
0,44399774
0,39314735
0,29794282
-0,24567604
0,2249152
0,44386166
-0,33619016
-0,15669829
0,24454409
0,1851961
-0,19659913
-0,42767796
-0,35345364
0,4418221
0,02014947
-0,43612695
0,1021356
-0,4039735
0,38994205
0,47500706
0,14554954
0,4636522
-0,174463
-0,4392985
-0,039742142
0,2473867
-0,014435291
0,38504118
-0,2766155
0,4945696
0,4930352
-0,017074943
-0,32737756
0,18181533
-0,09510213
-0,34511316
0,3437503
0,006387472
-0,15802437
0,07699597
0,40455794
0,3222326
0,46023113
-0,15696228
0,35125196
0,43999368
0,18734252
0,048113108
-0,10786775
0,209275
-0,2504039
0,09714234
-0,21785444
0,44314623
-0,09026554
0,122282386
-0,47395858
-0,35305268
-0,38130236
-0,23687333
0,23774719
-0,46355593
-0,18423545
-0,19735551
-0,13308957
0,14741772
0,0780614
0,2990458
-0,13409862
0,15309429
-0,21610701
0,2753601
-0,36799574
0,07851714
-0,2176595
0,31571877
0,414459
0,03774333
-0,07982436
0,1733126
-0,062331527
-0,1277667
0,0035450459
0,4891587
-0,11441788
0,31837738
0,17640477
0,10700506
0,21735573
0,49636376
0,43771172
0,13334876
0,36024714
-0,2714905
-0,40016642
0,09408873
-0,053427458
0,32360828
-0,2512073
0,37687284
-0,20522657
0,40356487
-0,4523127
0,07537639
0,1497252
0,17662847
0,008980215
0,30144477
0,479213
0,24898016
-0,36510053
0,22623962
-0,0588288
-0,38547575
0,25487912
-0,14312103
0,1006878
-0,49651742
-0,2620649
-0,15441242
-0,16573423
0,31025785
0,2547968
-0,044407606
-0,24559152
0,3371384
0,20947868
-0,14058313
-0,4286745
-0,3940571
0,06879544
0,3174597
0,07886988
0,28892142
-0,1970526
-0,046179026
-0,17574832
0,35417354
0,42019606
-0,4943133
-0,019367874
0,436561
0,26929593
-0,03757271
0,24393475
0,12692082
0,49808377
-0,06527516
-0,23333895
0,43279523
-0,43126783
-0,22337672
-0,12814698
-0,108389825
0,26652628
0,15993065
-0,35763028
-0,287446
-0,0056244433
-0,26868266
-0,08375871
0,44071484
0,22655022
0,092170715
0,050348163
-0,17693388
-0,21622375
0,017395377
0,28152335
0,10968846
-0,43992296
0,03557843
-0,35022184
0,4480449
0,22319537
0,24181491
-0,2773494
0,08315331
-0,053910643
-0,45608705
0,46633965
-0,15476453
-0,2462267
-0,22160158
0,36425662
0,051205277
0,48854768
-0,20564926
0,30729324
-0,37822765
0,24732918
0,32309842
-0,19105369
-0,1928185
-0,13342115
0,49858445
0,41484332
-0,32308704
-0,29571408
0,4466163
-0,36322373
0,46133715
0,46218246
-0,11774671
0,10520339
0,36456674
-0,036871463
0,42074192
0,3507946
0,48293
0,1045599
-0,36859328
-0,14305186
-0,2828469
-0,0767549
-0,47672033
0,400737
-0,053736806
-0,4500763
0,12761271
0,27818584
-0,10689092
0,11956203
-0,022728115
0,23627472
-0,08205593
0,032812
0,36105883
0,2514732
-0,38827774
-0,15821993
-0,105053544
0,4600541
-0,16851121
-0,42870343
-0,010899454
-0,4493346
-0,124634564
-0,18213981
-0,15029582
0,24611372
-0,042888194
-0,048511565
-0,05891612
-0,24762133
-0,07107243
-0,43514654
0,17031062
-0,1543163
0,05487275
-0,3098764
-0,051054597
0,026020229
-0,41474473
-0,36667427
0,17006123
0,2934909
0,2989416
-0,34548742
-0,008863598
0,31555617
0,10843611
0,43659854
0,15028888
0,22364533
0,22543085
-0,37575874
-0,04166013
-0,4185712
-0,44655958
-0,28233236
0,12974125
-0,45449948
0,48495603
-0,3322681
-0,43603417
-0,22052145
-0,43788227
-0,28530854
-0,45342022
0,49450827
-0,19626349
0,34099543
-0,32571095
-0,44858485
0,33346498
-0,43034056
-0,20671463
0,2950518
0,37935555
0,48962224
0,40039217
-0,15584818
-0,23194486
-0,40722817
-0,02069661
-0,21515903
-0,008843601
-0,3902194
0,04608631
0,32585454
0,17663342
-0,4564613
0,18238825
0,26422918
-0,061721653
0,29993504
-0,30083779
-0,0006659329
-0,48443815
0,49147588
-0,26576525
0,49484748
0,46515894
-0,16649029
0,39487827
-0,1235469
0,47861177
-0,20303744
0,12867486
-0,41492134
0,39273864
0,27873003
-0,32033315
-0,46620905
0,0057426095
0,38831967
-0,08097112
0,20113206
-0,06890279
-0,078125626
-0,03396395
-0,2143926
0,33445936
0,17655742
0,49853283
0,4608456
0,14071274
0,31662518
-0,14529085
0,47693688
-0,030932367
0,10396826
0,40528202
0,022933424
-0,004827261
0,32372767
0,03245622
0,3033797
0,47270292
0,17755759
-0,30338362
0,4546662
0,3547758
0,40158033
0,434731
0,48492658
0,32618505
0,11045331
0,043735147
-0,17571744
-0,28076884
-0,23255384
-0,18933877
-0,06617761
0,49326974
-0,07568428
0,47258508
-0,14043069
-0,3158673
0,019937217
-0,41372854
0,1270122
0,45046264
-0,21796212
0,2811767
-0,04671824
-0,23597556
-0,18439943
-0,37887537
0,3035279
0,013586938
0,31991076
-0,11663744
0,009272099
0,4467479
-0,43489397
-0,16832003
-0,24778777
-0,17172936
-0,20268571
-0,23814327
-0,18371624
-0,16144636
0,43484432
0,026575327
-0,35501444
-0,37585568
-0,19611984
-0,14190134
-0,14062035
0,4529683
0,37474895
0,061281323
0,43427914
-0,05638358
0,10264659
0,32935053
-0,43520838
0,30627543
-0,19724974
0,49055654
0,15177846
-0,46951216
-0,2083576
-0,36272344
-0,042199314
0,1244154
0,22855508
-0,14959365
0,05912161
0,377851
0,092146814
-0,2378861
0,07751483
0,08326149
0,32189333
0,09821832
0,46200144
0,3450349
-0,43620023
-0,29442778
-0,009294897
-0,08930442
-0,42296422
-0,3691305
0,03041923
-0,15021464
0,37338454
0,04835093
-0,48461577
0,20602089
-0,29391918
0,08567977
-0,36022303
-0,08217099
-0,3326209
-0,082010865
0,1719935
0,3548652
-0,06359783
-0,08669013
0,11377674
0,11634332
-0,24518067
0,25742894
0,019464135
0,18044782
-0,2273235
0,2627681
0,4924366
-0,4312377
-0,012645751
0,20979154
0,27894503
-0,29500175
-0,48139063
-0,38486642
0,43024516
-0,31588873
0,04094428
-0,460264
0,42742062
0,45168334
0,15667379
0,076461494
-0,09216216
0,1101591
-0,17046723
0,16237915
-0,3646428
0,41178614
0,15290087
-0,20951721
0,35443664
0,1515696
0,28233194
-0,24406359
0,19386256
-0,37621486
0,2835273
0,2911201
-0,31950077
0,28128505
-0,22299504
0,39050192
-0,13135016
-0,053811938
0,024574697
-0,41842866
0,12316316
-0,08008316
0,079145014
0,222525
-0,24014604
0,12420952
-0,3588903
0,24574137
-0,26773322
0,23257571
0,26174366
0,49555337
0,38928074
-0,04062444
0,30125773
0,0020477176
-0,009265274
-0,24577826
0,06479406
0,19685024
-0,2750691
-0,36303037
0,4810686
0,37519562
-0,1513913
-0,46548182
0,0035549998
-0,49351013
-0,46118677
0,13405639
-0,28925937
-0,29849112
0,2817788
-0,49411887
-0,36115587
-0,41840467
0,13538921
-0,36427757
0,25153416
-0,3629146
0,19742388
-0,4636975
-0,49844408
0,053801417
0,4720257
-0,27765274
-0,3831762
0,23623401
-0,24010521
-0,20020512
-0,47863892
0,44762772
-0,30123907
-0,21971723
-0,01727134
-0,26917058
-0,43596712
0,18158251
0,05465877
0,27971
-0,16637585
0,18312627
-0,07394573
-0,12100607
0,25573844
-0,1868515
-0,11543453
0,4173228
0,008067846
0,39548725
0,28686965
-0,2914102
0,16041261
0,18047816
-0,42570597
0,0154984
-0,23004133
0,21081847
-0,013732761
-0,08599201
-0,044320732
-0,19304723
-0,4923017
0,21574622
0,11623788
0,4062153
0,029232144
-0,2763339
0,100554764
0,08803046
-0,09704661
-0,28199434
0,07567966
-0,14090058
-0,18241724
0,28932762
-0,06967038
-0,031968474
0,07399535
0,25252026
0,16241711
-0,32961893
-0,3649382
-0,3707758
-0,24686825
-0,45791793
-0,14913496
-0,07880604
-0,194926
-0,4715585
-0,30728835
-0,1470806
-0,27933556
0,2170862
0,110399604
0,048870087
-0,10579491
0,29098272
-0,08441189
0,28398615
0,14610207
0,30001312
0,42193615
0,09771466
0,40640926
0,057019234
0,34416997
0,17732328
0,07687175
0,3573262
0,16011357
-0,44050187
0,40891016
0,20301354
0,17741424
-0,49271417
0,011844754
-0,4709649
-0,32471508
0,2908616
-0,09078705
0,0836519
0,21239698
-0,10905126
-0,2907079
0,25937247
-0,10601577
-0,055815846
-0,47518995
-0,2988294
0,0092763305
0,0015709996
0,49144948
-0,4902025
0,038992822
-0,053801715
0,36611646
0,30140597
-0,20846894
-0,12374923
0,48125768
-0,31638867
0,0682621
0,38771647
0,38037467
-0,28359693
0,40858936
-0,06358227
-0,35768622
0,29861665
-0,2921229
-0,3555911
-0,4416619
0,27110398
-0,0787341
-0,18335691
0,46121168
0,031526506
-0,17212394
0,15574425
-0,27970207
-0,3587733
0,18358773
-0,4029891
-0,48398677
-0,14039418
-0,007997513
-0,43722892
0,044327974
0,06957668
-0,16245726
0,2525044
-0,2719106
-0,10839453
0,045727015
-0,42293793
0,2948743
-0,06943071
-0,22795615
-0,19182932
-0,08257365
-0,27512312
0,12413818
-0,29952443
0,23457235
-0,1770432
0,072414815
-0,4168657
0,15936208
-0,16929898
0,49712616
0,0050976276
-0,38454312
0,46193594
0,43113184
0,19061941
-0,33669943
0,25215554
-0,20930421
0,45983857
-0,04225397
0,23370409
0,14202386
0,44257814
0,15910834
0,02428317
-0,006370485
0,4257775
-0,3533405
-0,3370483
-0,24109405
0,16608119
-0,4346051
-0,10324079
0,41775012
-0,39973322
0,2771229
-0,29010212
0,16599739
-0,21239483
-0,28375962
0,41180402
-0,26271188
-0,19899106
0,33166707
-0,09885684
-0,28454143
-0,42261708
0,12413257
0,3586554
0,08581579
0,32893968
-0,21173897
-0,2869922
0,017920852
-0,19229385
0,12560868
0,10414362
0,20397842
-0,120582074
-0,4448598
-0,0965673
0,33289135
-0,19075948
0,3961327
-0,42288485
0,21440405
-0,19458783
0,2677701
0,457107
-0,22043824
-0,16904292
-0,24159211
-0,08095482
0,18194062
0,2584892
0,06490439
0,117729545
0,48223716
0,45477372
0,33648187
-0,0155542195
0,39159572
-0,3601607
-0,40105534
-0,42005923
-0,19562212
-0,4267126
0,33887202
0,34887958
-0,10702899
0,06669074
-0,23546633
-0,13389862
-0,29160684
-0,15832421
-0,14915127
-0,051514715
-0,32639515
0,24130708
0,24287623
-0,31041247
0,009545803
-0,45678288
0,1495071
0,28069377
-0,03632447
0,13149917
0,47203243
-0,30201623
0,31990546
0,31956607
-0,2595067
-0,14054507
0,11032635
0,23216462
0,15833282
0,119944215
-0,34281212
-0,102271706
-0,06780404
0,16088325
-0,03353086
-0,3548866
-0,23751596
-0,39456588
-0,33266604
-0,19534642
0,20893222
-0,12641451
-0,12875542
-0,12791625
-0,0635159
0,19888288
0,28068727
-0,12342739
-0,29470867
-0,37612775
-0,12036967
-0,21726084
0,24201155
-0,14713758
-0,1570195
-0,4291578
0,2808591
0,4262436
0,2779683
-0,47800913
0,25778347
0,033611834
0,25684804
0,15111828
-0,4244981
0,28599566
0,46158355
-0,0861195
-0,026414752
-0,09214941
0,15080947
-0,2335648
-0,44255325
-0,09268531
0,37444574
-0,39825708
-0,04158297
-0,20507935
0,44422966
-0,08145875
0,18220401
-0,09199762
-0,06711483
0,14584768
-0,31096476
0,44899917
0,29460126
0,34936816
-0,4468853
0,16057825
0,30107725
0,39029306
-0,025577456
-0,1727773
0,35751802
0,48261434
