60
125
-0,037864067
0,25503597
0,0056001362
-0,00963285
-0,0052755913
0,42989787
-0,0023569872
-0,033201873
0,11989977
-0,010259382
0,0046098027
0,015128597
-0,015611726
-0,032704934
0,3429029
-0,0033880556
0,0118862
-0,034105964
-0,004844393
-0,032076705
-0,016465552
0,024363814
0,22807544
-0,005515746
-0,023905091
-0,026714724
0,014394242
-0,017635863
-0,089835
0,002597555
-0,006149489
-0,019636778
-0,033022813
0,4761956
0,47565183
-0,0045431857
0,32263353
-0,007952023
-0,034205854
-0,11178694
-0,037493616
-0,023363488
-0,0012242986
0,0007205497
-0,007970298
-0,008636704
-0,018271782
-0,418098
-0,03814811
0,008453037
0,0067069656
-0,036479153
-0,02493024
0,24541624
0,007460454
0,27999744
-0,0540722
-0,0020907917
0,002001212
-0,0038829446
0,0027993037
-0,011972712
-0,009679726
-0,013727527
0,16767894
0,01683378
-0,009146819
0,31557965
-0,006543261
-0,017382292
-0,0005615717
-0,010961933
-0,0026885907
-0,017349983
-0,0018288329
0,0005393893
0,016790267
-0,036569413
-0,012707176
0,008687438
-0,012046818
0,028318934
-0,013042829
-0,0042077596
0,0037304794
-0,017785545
0,32675558
0,3196325
-0,006977618
0,15243751
0,0047025112
0,14104962
-0,013584783
0,018811986
0,45751646
-0,018517911
-0,046299003
0,0064885262
-0,046786554
0,02117379
-0,42135763
0,0025021592
-0,3407752
-0,0036425206
0,270282
-0,016554043
0,017260611
0,34900144
-0,03690207
-0,0028542907
0,011420383
-0,037006266
-0,0017334686
0,009701754
0,0057171886
-0,20464174
-0,05294399
0,01831655
0,02427575
-0,0126935905
0,06768431
0,010091923
-0,0527082
0,04929514
0,34768185
-0,010316509
-0,03258524
-0,004852423
0,03043485
0,0109341685
-0,07058987
0,00028042408
-0,051700477
0,033934824
0,016056625
0,0024131841
-0,04730228
0,00856826
0,012636187
0,030579144
0,028424386
0,026974974
-0,070302494
-0,26063406
0,12565759
0,011698158
0,3242276
0,003642249
-0,046002142
0,18273348
0,17979702
-0,31498092
0,024706926
-0,032204915
-0,055969432
0,00710076
-0,038322657
0,016688012
0,031601187
-0,013604949
0,0019079978
-0,0008916429
-0,030857118
-0,0002932003
-0,001389141
0,023848098
-0,19238582
-0,020759726
-0,017991036
-0,03881005
-0,015499751
-0,020100094
0,47534814
-0,03624499
0,026715968
-0,010977508
0,026690677
-0,011258204
-0,06803833
0,035237946
-0,018236503
0,008396238
-0,10480076
0,0128571205
-0,006661
-0,024784958
0,2368186
0,37832788
-0,013312692
0,017768774
0,005181194
-0,12718305
-0,0024852431
-0,0003747028
-0,011726644
0,000413549
-0,007626239
-0,15954554
0,03000939
0,03219981
0,027837858
-0,015271539
0,46719807
0,009713372
-0,027850244
-0,007975717
-0,013004605
-0,013334765
-0,40171984
-0,015600191
0,01882181
-0,036978267
0,36487973
-0,002720362
-0,014667815
-0,22717953
0,029383002
0,1943703
0,012556005
0,01665084
-0,03346215
0,3941075
0,29784048
-0,027028687
-0,019304369
-0,0032204834
0,013752869
0,01981887
0,039064266
-0,051745407
0,030206127
-0,0007217177
-0,029434448
0,070790336
-0,44991007
-0,009886193
0,0024661077
-0,005452122
-0,011129775
0,024218252
-0,020937268
0,0042156517
0,0012781961
0,008987479
0,02704115
0,006224025
-0,0012694114
-0,015873913
-0,020191636
0,11981318
0,004949512
-0,43174034
0,01204711
0,025774846
-0,029104492
0,037508428
0,040100135
-0,01502725
0,018708188
0,0051346426
0,006059311
0,0064224484
0,014779503
0,01236468
-0,038366597
0,0021296502
-0,40758276
-0,4857127
-0,013871772
0,031861413
-0,005378102
0,0016067198
-0,035412498
0,025512138
0,040241417
-0,0055888863
0,0417528
0,0010233365
0,01697202
0,015779011
0,12944876
-0,02883761
0,037203945
0,035632387
0,0023144085
-0,36781833
-0,0075231018
-0,0014726558
0,0047412007
-0,0064312164
0,0104433065
0,017681602
0,015318895
0,0110586295
0,028097875
-0,3660214
-0,048996296
-0,008316703
0,47013983
0,037544046
0,49214733
-0,013220811
-0,016713329
0,013823732
0,0041460013
-0,021678695
-0,008081861
-0,040213395
0,028318314
0,0075679985
-0,004762187
0,015526662
-0,031750116
0,0035810377
-0,0015022745
0,012232976
0,001971893
0,0021208574
-0,0032712852
0,0016449975
-0,006378386
-0,019587744
0,17321865
-0,015063887
-0,013391334
-0,0099399835
0,027013443
0,017177487
-0,027249847
0,021670647
0,015557332
-0,0019059316
-0,026761655
-0,04249711
0,018372603
-0,00042113476
0,25887993
0,005933031
-0,00135621
0,015213778
-0,05205651
-0,017280031
0,01076074
-0,01512396
-0,38767117
0,0015719008
0,010430643
0,43569416
-0,010405307
-0,018624341
-0,06123595
-0,0110268695
0,00087354326
-0,51799846
-0,22130579
0,006173147
-0,024789741
-0,008249592
0,012816041
-0,00043001055
-0,02102743
-0,028132115
0,010603513
-0,022959782
-0,020868829
-0,024708802
-0,0031630986
-0,021648034
0,004509024
-0,027557902
0,020172985
0,39024758
0,008211645
-0,020252
0,0043045594
0,003997011
-0,021940805
-0,0022276537
-0,008844765
-0,026026264
-0,0037530707
-0,012804899
-0,33517942
-0,03875677
-0,005187351
-0,004165975
-0,004819636
0,27631742
-0,0128148515
-0,03785091
0,24217978
-0,008210021
0,47394508
-0,012932773
-0,0104765585
0,37094164
0,018748336
0,022382094
-0,06987094
-0,22892526
-0,00960561
0,0033583243
0,35577127
-0,025539614
-0,0063313763
-0,001048557
0,0023966704
-0,009376794
0,016710842
-0,0001823639
0,020737046
-0,020748096
-0,026854523
0,08059518
-0,04608869
0,004759824
-0,0036568872
-0,024069542
-0,0075599714
-0,018895209
-0,040818628
-0,006766784
-0,02987102
-0,0050642197
0,0028554269
0,02831578
-0,026333842
0,032380003
0,0006553539
-0,009008515
-0,010126809
0,023343531
-0,0055972263
-0,014595012
0,030356735
-0,0032401946
0,0019426001
-0,008186756
-0,12978438
-0,020246446
0,5080161
-0,41549364
0,002836983
-0,042150747
-0,011828141
0,0337571
-0,024392372
0,0069287424
-0,0059314985
-0,026891071
-0,024629734
0,03690213
0,0058427644
0,007991066
-0,16391432
-0,0024370041
0,031663977
0,031589296
-0,05060404
-0,024734132
-0,02226389
0,045654256
-0,030765278
-0,03033549
-0,021510314
-0,019384213
0,015631963
0,07228856
0,009022683
0,001601036
0,008448077
-0,021785144
-0,01744435
0,4749222
0,0069164108
0,014382296
0,01132221
-0,004262008
-0,009739044
0,002538161
0,036652084
-0,00182078
0,4407095
0,0013591937
-0,010723407
-0,024059154
0,0110939555
-0,008426065
0,005809817
0,045170322
0,02033468
-0,015871594
0,008254497
0,309914
-0,007280631
-0,0038505064
-0,031250976
0,010543769
0,012850703
-0,1375838
-0,00046071154
-0,004249763
-0,053981908
0,05443514
0,0017984981
-0,029349197
0,45506656
-0,014468252
-0,112347886
0,014594103
-0,016013643
-0,021182202
0,010568274
-0,0037591702
-0,027855808
0,0066832984
0,0048349486
-0,007284704
0,04417256
0,022374382
-0,004926851
-0,0065943743
0,010483479
0,46037182
-0,0060583283
0,022456149
-0,012925086
-0,0052932394
0,012401796
-0,016125135
-0,003282826
-0,008038929
0,0077581564
-0,0034536188
0,03550809
-0,033929814
0,010389014
-0,030617576
-0,0011695011
0,00026488467
-0,012286987
0,28126314
0,01307765
0,0027934941
0,21163799
-0,00049720437
-0,017258922
0,0008673313
-0,37890533
0,00048349155
-0,022056958
0,013079128
0,12374981
0,38504428
-0,03348618
0,002583235
0,012111162
0,29332224
-0,009644614
-0,0018918142
-0,03598836
-0,011080581
-0,0073963096
0,0011868805
0,48476684
-0,003542944
0,0012392044
0,38298163
0,00020810786
0,008746765
0,0037870333
-0,25731575
-0,24501435
-0,000100100675
0,30564448
-0,010248221
0,011868879
-0,023084493
-0,007918868
0,0017149063
0,00069814606
-0,014580837
0,004728884
-0,013263184
0,46004215
-0,019527048
-0,010510855
0,20147942
-0,023028295
0,006017453
0,0027948532
-0,0008861009
0,0029789652
0,0009940023
0,028468065
-0,03315859
-0,020018395
0,0065865964
0,013963807
0,0064155245
-0,009478139
-0,008125314
-0,0088382745
-0,022011459
-0,34865487
0,020931967
-0,007274607
-0,00025117045
-0,012457656
0,028890083
-0,00048968784
0,4164197
-0,009263719
-0,27937692
0,0023593225
-0,009862163
0,018311495
0,0119223865
-0,014009978
-0,010887842
-0,03969042
0,008782216
0,006739531
0,016275164
-0,0035636786
-0,23627791
0,011976796
-0,010694832
-0,0020654637
0,11189057
-0,011227268
0,009352084
-0,0040746103
-0,01858474
0,016206967
-0,011828903
-0,030870507
-0,007310841
0,53058684
-0,0011524212
0,008455789
0,26721466
0,0034835145
0,013801668
0,0046275235
0,0109086335
-0,010116148
0,017948922
-0,008422219
-0,02813922
-0,00042042637
-0,01799482
0,01575854
0,005290593
0,0052842717
0,0201576
-0,03565371
-0,017388912
-0,0051051886
0,010752726
0,011873858
-0,19524972
0,048133243
-0,05936812
-0,03364072
-0,013990884
0,0120178545
-0,032609716
0,03256574
-0,2084087
0,042619962
-0,11964187
0,035247255
-0,23816533
-0,405371
0,035828065
-0,028292486
0,016494505
-0,004272986
-0,04519316
-0,022484094
0,04308184
-0,040796813
0,20389737
0,059523482
-0,047688343
0,009011327
-0,2989878
-0,023321211
0,00038406168
-0,008260408
0,008287678
-0,014713135
-0,0041848943
0,0081935
0,027370285
-0,015113916
0,023426056
-0,0028807076
0,015045127
-0,028309437
0,005127876
-0,02071198
0,0040887794
-0,025461717
0,04841933
-0,03888718
-0,02192853
0,03393127
0,021166576
0,029576745
-0,06061795
0,00082706264
0,023092592
-0,020247893
-0,0028593151
0,0047691213
0,025840182
0,014003411
-0,02913902
0,0513882
0,014068225
0,0017428794
-0,51009727
0,001893689
-0,021179702
0,03447023
-0,05785364
-0,00979877
0,037914332
-0,0030193634
0,010053482
0,025563098
0,020759348
-0,029079339
0,009334439
0,0031669368
0,014654129
-0,333257
-0,006176934
-0,022301693
0,015391061
-0,031130908
0,3696393
0,015228503
0,33039358
0,018782321
-0,0042948565
-0,41647178
0,007192482
-0,20923474
-0,018674813
-0,0058525344
-0,016794078
0,015396167
0,001626623
-0,05872364
-0,007326835
0,056460824
0,030890673
-0,015175842
-0,02812371
0,010042862
0,15964018
0,00056121754
0,020561
0,02961987
-0,012486058
0,00948177
-0,43497175
0,0037242854
-0,051180102
-0,0015130683
-0,0090845525
0,0073986677
0,020702694
-0,037909064
-0,00545007
0,004897512
0,01100555
0,009677544
0,40461314
-0,029916238
-0,0031960357
0,00071387395
0,0042665573
0,030207133
0,008735397
-0,3847883
-0,015240946
0,4836493
0,17895085
0,015010786
-0,021824067
0,03005566
-0,003884075
-0,013957839
-0,01320943
-0,0047364547
0,0069513656
0,027398154
0,41126734
-0,007889937
-0,0022036768
-0,008636837
0,03527055
-0,023837088
-0,008522232
0,0012730804
-0,028416498
0,00025007548
-0,0108083105
0,027429301
0,40422067
-0,031020021
-0,009192692
0,023475945
-0,3081501
-0,04392907
0,21465622
-0,0084299
0,17655161
0,12970291
0,38913783
0,0029495396
-0,019065494
0,0050873724
-0,025885642
0,003498344
0,0028018958
-0,012060154
-0,013730281
0,011486956
-0,0007253516
-0,004731001
-0,005044612
0,04735194
-0,001680484
-0,0862401
0,0009587167
0,027929302
-0,028419701
0,042423006
0,019186368
0,017798167
-0,038998205
0,016588837
-0,020087756
-0,010311996
0,3145117
0,018870182
0,012386452
0,30180293
0,008598638
0,013175813
-0,178518
-0,45534965
-0,486162
0,03709799
-0,010307767
0,019921253
0,015103205
0,00014688176
0,009550631
-0,016836233
-0,019313507
-0,19814217
-0,004375
-0,008061536
0,007890605
0,02312447
-0,03327018
0,047418203
-0,034634802
-0,02192946
0,010901222
0,4062584
0,02439635
-0,02629243
0,045039415
-0,020960469
0,011693234
0,02418345
0,44279188
0,016404422
0,003846992
0,012931709
-0,14908127
0,030472351
0,02421921
0,029565763
-0,021519234
-0,025942389
0,02770119
-0,019174818
-0,015440959
0,020537676
-0,3266959
0,014661833
-0,3944288
0,030131176
-0,019691715
0,036894947
-0,010209584
-0,0060755215
-0,016081735
0,012205833
-0,0023391552
0,042157426
-0,03109691
0,021324486
-0,012804399
0,021996751
0,0044616684
0,0013117827
0,0066408585
-0,026625933
0,030296868
0,029828452
0,0075074043
0,027223598
0,008438974
-0,015831986
0,10122088
0,0073879585
-0,031991336
0,011903849
0,0010039996
0,017390195
-0,007894498
-0,0121291345
-0,012559612
0,029377343
-0,0060568918
-0,3352247
0,02318818
0,03498035
0,024806248
-0,0389147
0,015437891
-0,0022121277
0,004949854
-0,01272066
-0,0029724909
0,018077722
0,016282557
-0,36005136
-0,0074087013
-0,3298182
0,013720926
0,023316735
-0,020009058
0,007834209
0,023459187
-0,0065332544
-0,009456006
-0,000117588614
-0,001210701
-0,0063000554
-0,009417878
0,0086159
-0,011499289
0,002507596
0,003609978
-0,20326488
-0,0031856531
0,008808934
-0,02155158
-0,0023252713
0,15414926
0,0009755071
0,010000774
-0,0021821726
0,0077991015
0,3439325
-0,0074238284
0,022111645
-0,006193719
0,016472552
-0,010103593
-0,30840224
0,0029670894
-0,01602112
0,01715132
-0,01240916
-0,010892284
0,015799494
-0,31674007
0,01747911
-0,244316
-0,006353307
-0,022718238
0,0050489553
-0,016201124
0,015283518
0,40120268
-0,00042144328
-0,28025228
-0,0059981686
0,028627979
0,01266013
-0,2832531
0,016169649
0,032521576
0,4226366
-0,0021490527
-0,0051993984
0,0033639101
0,21684039
-0,005501158
-0,016455458
0,0029084482
-0,066364564
0,009294043
0,5069713
0,008461206
-0,035447005
-0,00059796596
0,02533856
-0,008251896
0,030331528
0,030291298
0,016257241
0,0036122783
-0,027155554
-0,24528615
-0,008336127
-0,024267135
0,024822675
-0,008875028
0,044822987
-0,0040822257
0,4089934
-0,039189864
-0,0068429476
-0,001015634
-0,028544372
0,06268667
0,044299506
0,0025763917
0,009688575
-0,012666552
-0,019918062
-0,3654187
0,06914481
-0,018641375
-0,0066930912
-0,033677943
-0,018726554
-0,012967459
0,021377278
-0,028306674
0,04733378
-0,0195848
0,10010849
0,15027821
-0,0003919476
0,015734125
0,2026961
0,009506703
-0,020819642
0,002374446
-0,13868916
-0,0040658684
0,0014948054
0,008615048
-0,024777818
-0,012469716
0,013078416
0,020814419
-0,008719835
-0,12291413
0,15548119
0,009155367
0,29995185
0,3056966
0,023274465
-0,0024433844
-0,012126209
-0,0066951225
0,001999749
0,027267873
-0,017370885
0,022524752
0,022839846
-0,0008907176
-0,02712618
-0,26092544
-0,012094195
0,39709204
-0,041918613
0,029514236
-0,03826753
-0,40656444
-0,21035297
0,02051648
0,046626195
-0,32193598
0,01749919
0,0040359707
0,0010636216
0,21388045
0,019470187
0,007367323
-0,013925941
0,011980525
0,03687023
-0,015500416
-0,045074347
0,0076247705
0,22182472
-0,007594484
0,025786057
-0,04015141
0,017509932
-0,006719378
0,014920975
0,0028115783
0,039958198
0,03555089
0,006245989
0,0025258646
0,033817336
0,0014830509
-0,011893331
0,26367736
0,026302325
0,020663418
0,3059583
-0,25032482
0,012906624
-0,016062737
0,010222603
-0,018446017
0,040240534
0,021401966
-0,402181
0,22092442
0,020446857
-0,25830278
0,10712072
0,021113817
0,017854653
-0,001372484
0,009307037
-0,123344295
0,024575708
0,3724997
0,035894565
-0,019261172
0,064384416
0,0010055499
0,28386024
0,02488578
-0,020091806
0,0019462392
-0,022437038
-0,17900355
0,0002176093
-0,013133442
0,0106853135
-0,29693902
-0,01356508
-0,017563554
0,007161285
-0,38028723
0,006964218
0,021654684
0,00020459406
0,025450643
-0,026227705
0,0015248065
0,01500637
-0,043805256
0,0051161274
0,028873622
-0,0008661812
0,00591897
0,020871853
-0,33561596
-0,02115609
0,0036875522
0,01816423
0,026017085
0,015506143
0,03695793
0,009164965
-0,022661706
0,048214376
-0,005001339
0,19252442
-0,020411462
-0,009430992
-0,021439508
-0,037892494
0,02202549
0,015941292
-0,0049617356
-0,014753142
0,0052220332
-0,008399659
0,011621938
-0,0039611235
-0,009724699
-0,013705382
0,04262482
0,0099210655
-0,017533716
0,012860834
0,026377594
0,013289333
0,02178993
0,025648195
-0,38390562
0,34034467
0,03684759
0,029821798
0,023007486
-0,02425472
-0,004820209
-0,03049422
0,028321657
0,02580285
-0,03046659
0,02191218
0,042523056
0,014735117
0,01235136
0,0042658015
0,008274397
0,008401729
0,030570094
0,0007654721
0,035631604
0,043281697
-0,00052053283
-0,0145022115
-0,005346607
0,0012282629
0,005028603
0,026934886
0,0016423644
-0,004646869
-0,35644737
0,029393319
0,38212723
-0,3555108
-0,0044952463
-0,007644021
0,002842951
0,32468924
0,023596844
0,018144615
-0,25364864
-0,0056308373
0,031805955
-0,013558987
-0,019571304
-0,0075447606
0,014368426
0,35925484
0,16824506
-0,025137218
0,013999955
-0,010599514
-0,011216748
-0,008180271
-0,025786413
0,021960488
-0,032789785
-0,015676256
0,0029568865
-0,021007499
-0,0048920545
0,31123808
-0,20145278
-0,12701447
-0,011388214
0,005477088
-0,007153678
0,0046720305
-0,020586299
0,19001898
-0,013185834
0,011378252
-0,006039071
0,4131457
-0,010268773
-0,023608353
-0,0048738867
0,01879993
0,37726563
-0,008580543
0,0180324
-0,014719166
-0,004856795
0,0015075686
0,011211973
0,23085673
0,008128861
-0,01159917
-0,00075684546
-0,0075405105
-0,018451517
0,3231843
-0,0058683935
0,0025513237
-0,00015240611
0,016259875
0,00039092178
0,0044026384
-0,0026428534
0,0042158603
-0,0032096598
-0,0067347465
-0,44012251
0,004326706
0,00057399645
-0,010209351
-0,008429059
0,007577605
0,0084853545
0,010412369
-0,0011195457
-0,0002616558
-0,31397596
0,22016734
-0,029742042
0,034085017
0,006187577
-0,0012538715
-0,004700395
-0,37338433
0,0062379153
-0,0334388
0,011046754
-0,17509545
0,14073977
0,036470745
0,025985014
-0,0138826
-0,030108048
-0,001519488
-0,0034930508
-0,0041356995
0,28434262
-0,0015325547
0,019347027
0,017250618
-0,0050684973
0,50271934
-0,02221934
-0,003435282
0,02310627
0,010889627
0,017442584
-0,007727527
-0,015242226
0,0034934862
-0,00048083108
0,01030194
-0,029885888
-0,00060134986
-0,010434641
0,02522515
0,010999749
0,021588562
0,0023925328
0,1814432
-0,004243833
0,22775654
0,013913335
0,00205457
-0,013635847
-0,023046087
-0,3602145
-0,01605067
-0,003633962
-0,011284217
0,40616858
-0,019468032
0,016205372
0,1431528
-0,050480247
0,0020689014
-0,026379041
0,050370377
-0,05242629
0,004805844
-0,004015637
0,05085826
0,016224196
0,04193629
-0,4731341
-0,052555807
0,04109992
0,02857447
-0,0020771339
0,052298266
-0,010242945
-0,024213552
-0,011729377
-0,023815876
0,022605048
0,009970471
0,06964364
-0,46095467
-0,0092049865
-0,06544547
0,28391102
0,008077747
-0,011974143
-0,054795753
0,059673052
0,039292354
0,024374709
0,0287439
-0,10930452
0,14387241
0,06436714
0,01101275
-0,044206336
0,033657864
0,032794565
-0,0004993157
0,03773342
-0,012529881
0,015250933
0,018746365
-0,00069834874
0,03578294
-0,009528083
0,0024086586
0,026920585
-0,0010567256
-0,36430982
-0,04090591
-0,006842781
0,05802377
-0,016356904
-0,03065713
-0,010639369
-0,012151895
-0,14022766
0,016999127
0,039013386
0,0063547655
0,011039881
0,3306175
0,04163041
-0,070521854
0,45689797
0,016044103
-0,005943603
-0,025829554
-0,00725569
0,046923853
-0,033274375
0,027043011
0,012948682
-0,008608241
0,004439796
0,047780823
-0,007023358
-0,020828247
0,0015649205
-0,001794239
0,0065105264
0,03091777
0,0005544252
-0,0049277437
0,011348136
-0,27459875
0,048949596
0,23231146
-0,44794145
-0,018300192
-0,030451717
-0,05198926
-0,007988731
-0,4653309
-0,02892168
-0,006149219
0,004933081
0,0028107052
0,07190188
0,082773685
0,34154347
0,3230301
0,03005656
-0,0147025315
-0,08016365
0,009946389
0,022754256
-0,007051488
-0,06935482
0,26628816
0,023324749
-0,39201978
0,006626763
-0,008869236
0,013065958
-0,34979746
-0,037670683
0,011529072
0,017311156
-0,0107572805
0,019171998
-0,035025686
-0,024626058
0,015783
-0,18761596
-0,00083027565
-0,018672725
0,01587908
-0,0040883548
0,40331092
-0,015658436
0,023167638
-0,048655942
0,31885266
0,024564391
-0,02127863
0,016853381
0,006392989
-0,008246047
-0,0013938531
-0,03925628
-0,008556594
-0,022199608
-0,0009866633
-0,25517502
0,013992624
-0,021500323
-0,010468652
0,007859014
-0,35797083
0,015470041
-0,003946713
0,48219177
-0,10483597
0,0384108
-0,004124169
-0,000741402
-0,013637071
-0,10224393
0,0029320584
0,002040223
0,027793536
0,0035618711
0,0026538346
-0,031878814
-0,033815973
0,025601573
0,00861428
-0,033266496
0,0062947054
-0,31300306
-0,10640329
0,00040115163
0,45956823
-0,007037452
0,42523474
-0,031374417
-0,013719532
0,4622949
-0,013282212
-0,029098047
-0,041062806
-0,025525838
0,03609937
-0,019276159
0,0016316121
0,017392298
-0,03386681
0,49546605
-0,0143160755
-0,005990649
-0,006054808
-0,007140158
-0,02083759
-0,032403775
-0,01741707
-0,009635094
-0,0049033402
-0,021716466
-0,021681005
-0,496814
-0,019651009
-0,026758032
0,008155247
-0,013513414
-0,028001484
-0,019694177
-0,004917931
0,44687393
-0,001941636
0,093712844
-0,010587969
-0,016608944
-0,002168023
-0,026286254
-0,02173364
-0,044020403
0,15216027
0,003520652
0,1755503
-0,0041041346
0,0050201043
0,015504763
-0,26202682
-0,01924902
-0,058496233
-0,00093785475
-0,007663294
-0,03319394
-0,01887868
-0,022705667
-0,008900849
0,3334786
0,009738523
0,018016053
-0,043011464
0,0048236833
0,028405474
-0,014851449
0,45717078
-0,019956281
-0,0066001527
0,025619391
0,018434573
0,011533945
0,003378798
0,05946253
0,0029282826
0,0072270096
0,032739412
-0,033913657
0,002521945
0,27590352
0,37209234
-0,005734235
0,008403981
-0,018160595
-0,029507343
0,012413626
0,013762609
0,036823563
0,0022274577
0,019675432
0,004331349
-0,0038278485
-0,014015151
0,0020094381
0,2161218
0,2994657
-0,017322699
-0,0023147436
0,033284992
0,0130039705
0,016248168
-0,002361388
0,02148629
0,000770678
0,011736587
0,019120919
0,014819773
0,0020594604
-0,011474111
-0,00895733
0,43798497
0,019854527
-0,0031746796
-0,50095093
-0,020759182
0,03419578
-0,00018523184
-0,026845722
-0,0056001237
0,016545558
-0,034593206
-0,00054301595
-0,026431182
-0,03498657
0,5044831
0,015933104
0,01866917
-0,0098442035
0,0076170713
0,007771762
-0,18958798
0,005723122
0,011486377
0,018283676
-0,016254755
0,034011
0,020395752
0,0020093014
-0,011905643
-0,20195684
-0,0071987975
0,0153844915
0,014290854
0,20194176
0,00072364573
0,010238195
-0,006017965
0,009441262
-0,00351069
-0,0033933045
0,12770517
0,3110779
-0,039312135
-0,0022192143
0,031622726
0,013591456
0,008553968
0,021394555
-0,005907649
0,012083604
-0,02450055
0,026268095
0,014341232
-0,33433726
-0,014641432
0,016314166
-0,17022455
-0,017963933
-0,2656491
-0,03716236
0,024186125
-0,041261382
0,009771377
-0,012782571
-0,00087157096
0,03601394
0,0017640425
-0,33715522
0,009336568
0,009427272
-0,020088548
-0,05812854
0,025421582
0,008955503
0,15381356
0,0075304722
-0,27118284
0,0027027933
-0,055216946
-0,32044217
0,04338961
0,006574126
0,0144922575
-0,33293056
-0,16372609
-0,0046632844
0,037618395
-0,014937956
0,019367496
-0,23345701
0,005326703
0,002874433
0,031915743
0,012221316
-0,0486742
-0,15948516
0,018493578
0,015466703
0,04596564
0,034960814
-0,0023728523
0,32419518
-0,009893211
-0,0011387791
0,033827458
0,05046837
0,042378258
-0,020889966
-0,038966063
0,060603768
0,019320995
8,5360254E-05
0,4621684
0,017760491
0,04242401
0,0009729029
0,030045507
-0,008859146
0,00586804
0,0071210065
0,012710111
-0,14172517
-0,031861838
0,036494244
0,00511393
-0,39404753
-0,02034051
0,09564951
0,056542803
-0,008695807
0,031534333
-0,0016075857
0,0011038205
0,012712021
0,0030058324
-0,032751612
0,00933963
-0,013666019
0,021401742
-0,0028172769
-0,005729102
-0,00836288
-0,0024688207
-0,21814798
0,14106956
0,006726932
-0,12704335
-0,016566278
0,019249294
0,19659024
0,0019499313
-0,028625987
-0,011714017
0,009964053
-0,019560853
-0,0031691405
0,00091172603
0,016140249
0,02259468
0,35023382
0,09931165
-0,030041318
-0,006410393
0,0056295153
-0,02490616
0,018465996
0,030312039
0,42373797
-0,018855495
0,015300287
0,014483275
-0,045933735
-0,082029745
0,38125333
0,026114363
-0,003580227
-0,021701291
0,42143998
0,0011928668
0,011838624
-0,011535427
0,018525861
0,017443305
0,38961136
-0,0010522644
-0,020099072
0,00038434053
-0,0002923712
0,00049820705
0,0002116879
-0,3968673
0,034295242
0,0077923713
0,000798271
0,0052330373
0,018216774
-0,3442451
0,006677508
-0,00697046
-0,005217685
0,0011864054
0,001049845
0,013851092
-0,014975046
-0,16162498
0,07748279
-0,006488713
0,0031007107
0,04391094
0,015686216
-0,18270203
-0,0047618705
0,015043864
0,019968862
0,47670105
0,008620636
-0,008950443
-0,018020688
0,35877684
-0,0030082418
0,026822945
-0,022179669
0,031298418
0,028716056
-0,014047686
0,010230203
0,009270479
-0,02000749
0,019064883
0,018157894
-0,008789997
0,016121807
-0,3071829
-0,004669828
0,015717417
-0,0033812786
0,0016250381
0,018609859
-0,14079186
0,016915046
-0,0022049744
0,025495013
-0,01463947
0,020435506
0,013278689
-0,45534813
0,012588867
0,40030235
-0,05459488
-0,23843277
0,007620529
-0,018462475
0,019519245
0,011028735
0,0032475633
0,019930353
0,016031433
-0,0098549435
-0,14574732
-0,005987669
-0,0057224217
0,02382322
0,005242933
0,0042173946
-0,45203245
0,097123384
0,010268365
0,028940272
0,016728763
0,013027071
-0,025358047
0,0017227025
0,0090832235
0,012989911
0,024432072
0,3076858
0,0151930265
0,031787913
-0,45998698
0,03607436
-0,0061775385
-0,00545129
0,009388463
0,016465096
-0,38522243
-0,007931508
-0,023138609
-0,028591633
-0,0026427184
0,01395575
0,016138906
-0,0112627875
0,022176787
0,01765482
0,28758824
-0,00033450685
0,015632572
-0,4448405
-0,040416855
0,010993335
-0,004381774
0,35372913
-0,34183958
0,0086650485
0,008942008
0,002785319
-0,01103666
-0,4063784
0,22491364
-0,3569875
-0,029340146
0,03538654
0,00050034095
-0,0007235686
0,02203429
-0,04372587
0,011779692
-0,0018073972
0,00016099209
-0,3680971
0,0055022263
0,20605679
-0,00045899153
-0,024272095
-0,0060276957
0,013814839
-0,011513776
-0,009614938
-0,010392001
0,008322804
0,2806613
-0,020425014
0,5086999
-0,023266349
0,009112767
0,010000288
-0,021079393
-0,021894114
-0,036036782
-0,009280719
0,024017304
0,0012386951
0,016466139
-0,019481286
0,000569574
-0,0105334325
0,017444406
0,0012578764
0,029093798
0,014967062
-0,04580017
-0,06674518
0,03192067
0,00033115153
-0,02013021
0,017842283
-0,0044864384
-0,39942217
0,045819506
-0,024024954
0,0059303083
0,0034201585
-0,01935617
-0,20850833
-0,039875135
0,004957251
0,004624381
0,017112056
-0,0040568067
0,013620097
0,011119513
0,019244736
0,32618356
0,02551128
-0,03501919
-0,032864876
-0,0235163
-0,012305416
-0,0062720873
-0,3400772
0,024560593
-0,007676574
0,2189692
-0,024257137
0,34882706
-0,014149514
-0,025484566
0,01663205
-0,020480502
-0,0022127025
0,018005092
-0,029127687
-0,027316066
0,023629706
0,0048529124
-0,017601492
-0,002932823
-0,02961373
-0,058593433
0,19279987
0,013316356
-0,0037154995
0,042528003
-0,034121223
-0,034848478
-0,013864256
0,0016445811
0,029793441
0,042452488
0,012525059
-0,014907977
0,025437139
0,034500156
-0,029003086
-0,4779936
0,009283633
-0,007785253
-0,014960065
0,03418768
-0,015942195
0,021493485
0,0043081963
-0,0229232
-0,022906842
-0,013290047
-0,021776829
0,03543903
-0,029042937
-0,014298791
0,00810475
-0,0015856337
0,06365641
-0,053529937
0,009535667
-0,01102518
5,3072494E-05
0,0071890736
-0,025244387
-0,013548877
0,047371157
-0,016793886
0,006533625
-0,022028541
-0,013753339
-0,015147498
0,014208226
0,007981319
-0,016038917
0,01849242
0,005060819
0,0020455455
-0,020102622
-0,1553425
-0,019998884
0,0091084875
0,12334676
0,0002292583
-0,010170211
-0,016267687
-0,0024461567
0,015370558
-0,010168112
-0,31175527
-0,123785935
0,011137276
-0,0029628344
-0,046057675
-0,008350195
0,045358166
0,5131951
0,01073605
0,02084679
-0,01244486
0,45292082
-0,09165319
-0,04672638
0,009312574
0,0054112496
0,15740901
-0,02922329
-0,017084785
0,0020737187
-0,28591004
-0,050422363
-0,014972997
-0,37848648
0,0056996387
0,0006277249
-0,010745434
0,032785896
0,019399155
0,03297812
-0,0010047051
0,023228098
-0,006600647
-0,027370807
-0,01678894
0,016600655
0,003159095
0,0005942907
0,02980959
0,0026127058
-0,009558453
-0,009131086
-0,0033155368
0,28360736
0,18562064
0,014687533
-0,02279997
0,02115521
0,06175339
-0,010976885
-0,0028263119
-0,0013194253
0,13064899
0,0019177541
-0,0065760682
0,027117286
0,016619854
-0,011510239
-0,017038707
-0,0019355259
0,0049065757
0,014539824
0,14418104
0,02095911
-0,010974734
0,0021962791
0,0008472614
-0,48723942
0,008987276
0,009385819
0,017074918
-0,0064774626
0,016432026
-0,0018991185
-0,3154539
0,3648179
-0,0016095564
-0,0065461495
-0,0024744286
0,032964416
-0,006335061
-0,012703038
-0,023589421
0,013499398
0,0419349
-0,20528881
-0,021086087
-0,40803167
0,03206372
-0,011417058
0,3811694
0,017941386
0,030414283
-0,007819757
-0,08574931
0,007825379
-0,44013524
-0,046267632
0,026032291
-0,39346573
0,024771899
0,028468112
0,04289759
0,0074148425
-0,017198486
0,025742294
-0,4545164
-0,0082581155
0,07587217
0,026404498
-0,2887385
-0,028343396
0,021716125
0,015526503
0,009892797
0,024275899
-0,022171874
0,012887482
0,0036701525
0,016853662
0,0286288
-0,025126908
-0,02007719
0,017736154
-0,064154804
0,030758906
-0,0055989656
-0,1426699
-0,058626372
0,061688673
0,12973094
-0,439402
-0,004887762
0,0100575825
0,042010173
0,22677478
0,044346392
-0,0064742644
0,03210462
-0,027778098
-0,017949268
-1,9456667E-05
0,009133256
0,014322517
0,3840665
0,0076423637
0,23963614
-0,023650112
-0,01917959
0,00032548278
0,011194797
0,033602446
-0,1620588
-0,025305504
-0,010710036
-0,0041354983
0,0015883144
0,016109493
0,1791346
0,010156137
-0,030693505
-0,016421242
-0,036924057
-0,013418178
-0,33428958
-0,41588503
-0,005462584
0,0365713
-0,005973894
-0,043845113
0,027362067
-0,007071018
-0,0079083145
-0,012659519
0,003373549
-0,27525133
-0,016675973
0,012521045
-0,0018646336
0,19953427
-0,4030842
-0,0055306293
0,0075579206
-0,01118074
0,0040720445
0,005849576
0,005511689
-0,009679472
0,0102518145
0,43687606
0,004841699
0,17419168
0,028612992
-0,009630038
0,014071096
0,01244146
-0,005020889
-0,0072570555
0,21168636
0,021954028
-0,00013873793
-0,032829586
-0,020327754
-0,031175608
-0,030295392
0,0074589252
0,0006700582
-0,38495407
-0,0033099714
-0,015971785
0,0066129197
0,011200915
-0,030933142
0,00047909774
-0,010260697
0,014262201
-0,018143605
0,42029974
0,13534248
-0,017012704
-0,16696931
0,005758119
0,20196693
-0,045331664
-0,035747133
0,0169508
-0,019371757
-0,02326378
0,013109993
-0,01242314
-0,037591092
0,023852613
0,0815976
-0,021301402
-0,3271844
-0,013300272
-0,027216041
-0,007797953
-0,018090643
-0,010094361
0,009706305
-0,02879967
0,048811078
0,40171298
-0,018126266
-0,20774041
0,03984207
-0,00017838947
0,1119858
0,006847317
0,0022865385
0,00026301533
-0,026429826
0,000499596
0,0014131613
-0,006728373
0,002939647
-0,0041991556
0,0021364621
0,009021345
-0,014839407
-0,005152208
-0,011505966
-0,015211459
0,019347917
-0,046037417
-0,03132472
0,006370376
0,05030838
0,021644324
-0,0030964538
0,032196596
-0,021985928
0,13919784
-0,02024137
0,0056608217
0,32778776
-0,014539147
-0,022938011
0,17643312
-0,037341263
0,1124799
0,021191202
-0,031396694
-0,0026776632
0,021041665
-0,031728316
0,035761084
-0,26537398
0,0040769763
0,0043999655
0,0044452385
0,044353995
-0,24673447
0,019298058
-0,019222645
-0,024646942
0,0011245853
0,023687113
-0,0034245318
0,032917365
-0,025058603
-0,017943177
0,1231477
0,21813121
0,0010935236
0,009013664
0,010868111
-0,018201707
0,024208425
0,00703472
-0,32817015
-0,01617009
-0,019252723
0,032151677
0,028078664
-0,03355871
0,013765956
-0,023296522
0,009322482
0,005421931
0,007097636
-0,40603736
-0,001651877
0,008733687
0,032895274
0,017863777
-0,018597195
0,0014102132
-0,33356324
-0,0009405305
0,025361804
-0,032185413
-0,03954984
-0,014460666
-0,013267291
0,029815694
0,008774038
0,02068699
-0,00023004852
-0,010314558
0,021280568
-0,042253047
0,045382753
-0,024902524
0,019446934
0,00017356203
-0,0023570084
0,009010005
-0,012161681
-0,26200736
0,042382825
-0,023577942
-0,017356094
-0,02176292
-0,015520754
-0,0360081
0,01655321
-0,03756141
0,010026342
0,029475179
-0,0057214056
-0,030012421
0,004825447
0,47931743
0,46425822
0,036238622
0,03468643
0,22875223
0,004855254
0,006528701
-0,26019683
0,012702384
0,027335297
-0,03459831
0,049457587
0,022759574
-0,061891254
-0,0021709388
-0,012704442
0,13303882
-0,012380514
0,029870618
0,099559456
0,0065695844
0,36288568
-0,0050948462
-0,36991534
-0,012327957
0,007946701
-0,021868074
0,0026986098
0,01975402
-0,0030022466
-0,0058917576
-0,4345988
-0,08487414
0,028514259
-0,03368541
0,02178416
-0,2191376
0,0019359643
0,006271184
0,012652133
0,029074114
-0,010963988
-0,4210089
0,004766722
-0,00070753857
0,09105769
-0,008125912
-0,0022097202
0,0024324632
0,012480843
0,013062079
-0,43473917
0,01378793
0,22412172
0,022058178
0,0062740026
-0,011789921
0,007436878
0,019284992
0,011271926
-0,021226147
-0,0074783624
0,1733202
-0,013257874
0,18903841
0,007893605
-0,009252989
0,013563102
0,004309508
-0,010298925
0,005654284
0,01445907
-0,016397685
-0,013071648
-0,00945362
0,0011779174
-0,00987796
-0,023189453
0,05222365
0,014729917
-0,36594218
0,03255531
0,015361999
0,011531731
-0,30965984
0,55250007
0,018732423
-0,015364947
-0,002170845
-0,033622075
0,02015471
-0,041926105
0,042545438
0,0064562834
-0,00020458686
0,010988612
-0,004799841
-0,0018072926
-0,0745022
0,0014137261
0,26934493
0,046416596
-0,244998
0,023443514
-0,050674967
-0,036485326
0,45254362
0,27113715
0,040741544
-0,019711785
0,0026378462
0,43285695
-0,006518919
0,016566262
0,01066106
-0,017048482
0,01973835
-0,005334907
0,0046170796
0,02635255
-0,043392975
-0,039153915
0,06592122
-0,0035215423
0,38944814
-0,016363751
-0,004011367
-0,02247216
0,01237289
0,037480187
0,0075149126
-0,01466844
-0,14138636
-0,003560085
-0,38930747
-0,43902987
-0,0017388408
-0,039598726
-0,013448847
0,0060403193
0,02593276
0,22501278
-0,012283572
-0,12196335
0,03467469
0,049587067
-0,0035305659
-0,16016509
-0,09230329
-0,22322574
0,014933822
-0,015549537
0,047151357
-0,02045077
0,032260172
0,002717274
-0,29459044
-0,01903588
-0,014024945
0,012035463
-0,035179786
-0,125442
-0,0026744306
0,019184206
0,00025381066
-0,016277272
-0,011966197
0,0017434278
0,03324797
-0,025367266
0,0047669616
-0,006803604
-0,29054052
0,051281653
0,017181065
-0,012861847
0,023529876
0,01884597
-0,005849995
-0,0005580457
-0,0023819464
-0,0017361292
0,040584993
0,059117794
-0,00895
-0,07067457
0,022853361
0,02582048
0,20361644
0,028662559
-0,008203572
-0,018810783
0,011596001
0,008969394
0,0005853374
0,029213054
0,007370606
0,20871659
-0,0025496
-0,010415925
0,020016534
0,012862289
0,018027533
-9,304254E-05
-0,003376338
0,010308791
-0,025867658
-0,00033685972
0,08429863
0,3584306
-0,24541685
-0,013042732
0,0035763609
-0,010560871
-0,0034899209
0,02382247
0,19491576
-0,26956865
0,011424654
0,0071621486
0,006065632
-0,32451856
-0,030855455
0,002599782
-0,033528082
0,009056215
0,014792734
-0,022915175
0,03421918
0,0068997093
0,021558283
0,05774707
-0,46470135
0,02289446
0,04335098
0,17025228
-0,05213402
0,4069629
0,020252597
-0,017912779
0,16447066
-0,023137074
-0,0029813293
-0,0007447388
0,019150693
-0,0047560306
-0,023368353
-0,0017820679
0,0062500136
0,44597307
-0,04397728
-0,25495157
-0,05151717
0,046952873
-0,0055248477
0,036989413
0,0136208385
-0,014340939
-0,010137911
0,2565801
0,20508622
-0,35538954
0,035707053
-0,009971016
0,017015584
-0,019238764
-0,32976943
-0,0067573455
-0,004444238
-0,24919611
0,006221903
-0,016260559
-0,3028974
-0,183414
0,013071054
0,013523105
0,013520458
-0,23817922
0,0332255
0,01582619
0,029611027
-0,0023589402
0,016797557
-0,43111604
-0,4493649
0,00797818
0,009296953
0,017195247
0,006512587
-0,0062502804
0,029912395
-0,0087145
0,0026102022
0,38661173
0,017224617
-0,17831708
0,025010368
0,00612489
-0,0045465166
-0,0011998402
0,026283301
0,04841024
-0,024981964
0,0037283532
0,3620882
0,0022322794
-0,0019960687
0,009581521
-0,004860481
0,0044437735
0,017664963
0,017421098
-0,008730036
0,015800245
-0,25491688
-0,0054143844
0,012965022
-0,002170711
0,004864289
0,0005812744
0,019839706
0,39869735
-0,0049948953
0,0017337122
0,016139992
0,46267182
0,21976508
-0,0060823746
-0,24003011
-0,012793164
-9,099778E-05
-0,007900694
0,019543765
0,019924853
-0,48322663
-0,062001366
0,0015767752
0,41499853
-0,12794735
0,011404964
-0,011790345
0,014708579
0,008806521
0,01931015
0,003980835
0,39937058
-0,026767433
0,015611942
0,013767519
-0,0029644389
0,0050248266
-0,011290465
-0,4019493
0,007423456
-0,007964016
0,009602114
0,0065962505
-0,012362311
-0,33562922
0,01052546
-0,022231188
0,0071833315
0,24205844
-0,01203454
-0,027954346
0,0017193914
0,00096362043
-0,004723411
-0,022366282
0,012529
0,018400317
-0,005366992
0,012424341
-0,018605025
0,0063082776
-0,030379763
0,008606337
0,17810488
0,51145154
-0,02148774
-0,0071842703
0,17230049
-0,008778196
-0,16881435
-0,17090149
0,024611102
-0,01862822
0,017670877
-0,0010646201
0,007154686
-0,020801544
-0,002465093
-0,28447092
-0,0054643904
-0,00081592554
0,009514984
-0,00019655527
-0,02348879
-0,0013878099
0,16717647
-0,0044217305
-0,007906597
-0,0061719986
0,14401692
0,022322455
0,0017202592
-0,011431379
-0,0153750805
-0,0029353735
0,001734396
-0,017458387
-0,004403598
0,0063775387
-0,011880003
0,01141985
0,0033684748
-0,004280296
0,019160056
-0,015829481
0,007878489
0,008521101
0,013539274
-0,00011137129
-0,01169436
-0,011505623
0,01944866
-0,014929232
-0,009496591
0,0026977002
-0,017476328
-0,0034043582
-0,0060225897
-0,00066522375
0,009881071
0,010862267
-0,42761573
-0,42552522
-0,008110872
0,005684752
-0,0070349304
-0,026558446
-0,3611808
-0,008819048
0,0010029732
-0,040398713
-0,023120914
0,018802159
-0,09010488
0,008493134
0,006817237
-0,15093225
0,0030047144
-0,022954008
0,00081361295
-0,18713307
0,015218019
0,0022783892
-0,018389722
0,36228064
-0,0020904688
0,075725466
-0,02331376
0,0021281925
0,0037874584
-0,043867353
0,098720595
-0,31504872
-0,008033398
-0,010531107
0,006848321
0,023025526
0,012178644
0,013248089
0,30007637
0,028289042
-0,0033980934
0,48516247
0,00027594029
0,018854827
0,011568051
0,009909832
-0,025273876
-0,013113111
-0,00298692
0,013616058
-0,03462872
0,001769682
0,022858223
0,010091663
0,00087844045
0,14093737
0,03251921
-0,017633028
0,054666206
-0,0042327237
0,22708096
-0,014290685
0,003487073
0,08730491
-0,0050204215
-0,03592454
0,28684086
0,37450078
-0,006693761
0,38897553
-0,0238681
-0,01891406
-0,028582064
0,016591752
0,013204296
-0,013887241
0,24465354
-0,03683198
0,012497207
-0,010031381
-0,031052917
0,28579748
-0,010393473
0,010176715
-0,018784752
-0,0036915066
-0,028091464
-0,018100034
-0,034770418
-0,021475246
0,0049191206
0,021562124
-0,017603701
-0,033107705
0,028500862
-0,026158504
-0,01926808
-0,013356452
-0,008721815
-0,021648878
-0,0038087985
-0,0071889157
-0,03450268
0,47298554
-0,035484858
-0,0013857642
-0,01456257
-0,0076639736
-0,01643875
-0,010933103
0,0013753857
-0,009679877
-0,010941414
-0,016134867
-0,0035654614
-0,004346996
-0,010908106
-0,00076605944
-0,01109482
0,2500986
0,4204178
-0,024233673
0,0028299072
-0,01160795
0,012539095
-0,028608449
-0,044744242
-0,028766016
0,25185913
0,0008959459
0,036296193
-0,037955523
-0,0041414555
-0,21124887
-0,007868318
-0,016739987
0,0008603194
0,033359572
0,027133824
-0,025957324
-0,020970348
-0,0013711837
0,5062334
-0,0042848205
-0,009683809
-0,00065631996
0,013899324
-0,020884043
0,045924235
-0,4610128
-0,0053053475
-0,013746789
0,37011555
0,007595038
-0,002530431
-0,30257162
-0,014577117
-0,030106017
-0,0155970715
0,018363608
0,034760907
0,32546175
0,043623805
0,026321514
-0,010567705
-0,047088545
0,037021928
0,0042140414
-0,020708563
0,003531463
-0,0016402549
-0,010548771
-0,335546
-0,033468988
0,2265491
0,0076681515
0,0040915194
-0,0038872545
-0,00089222676
0,0064799497
-0,009537965
-0,288506
-0,009470007
-0,016341109
0,0036229626
-0,024312552
0,046494663
-0,019080698
0,29193515
-0,030071609
-0,016135098
0,020493839
-0,48545766
-0,007143586
0,0051985267
0,0076277396
-0,0045476644
-0,000922168
-0,033337157
0,039677165
-0,00949213
0,024188874
-0,007890603
0,004095268
0,26609
0,3726675
0,020007558
0,4169535
-0,022782851
-0,017056664
0,002478009
0,0012134439
-0,016608678
0,018458175
-0,015902057
0,29054523
0,0063723954
-0,4880826
-0,016391994
0,16021246
0,010448752
-0,0033004996
-0,0050156713
-0,39601803
-0,00081657304
0,014364259
0,0017541874
-0,027157271
0,0065587624
-0,0025454182
0,21976066
-0,0102298595
-0,007642443
0,009528265
0,011372281
-0,02266192
-0,0028563647
0,010254015
0,018293444
0,025185786
-0,0037353528
-0,015963478
0,014853609
-0,038565043
0,021510655
0,0030083472
-0,005640274
0,003958421
-0,02703945
0,001849103
0,3489072
-0,064637296
-0,0065885736
-0,010418707
-0,28475308
0,00506144
-0,05755056
0,009128886
-0,016119447
-0,019894818
0,06809453
-0,20402133
-0,015903972
-0,042608947
0,010198409
-0,01440896
-0,017893907
0,51824296
0,03856841
0,27884814
-0,024215313
-0,03459047
0,2896223
-0,0056619775
0,36572254
0,012833813
-0,01995108
-0,038360212
0,0016437776
0,00481296
-0,03784376
-0,046049483
-0,027786808
-0,023106711
0,0013096222
-0,018203478
-0,00066068844
-0,01606591
0,023895439
-0,04151273
-0,020087345
0,018580405
-0,028550074
-0,040550936
0,0010883934
0,363825
-0,36650953
0,0077679455
-0,013941935
0,25611243
-0,058421843
-0,025968902
0,004479578
-0,015791124
-0,03347157
-0,02424314
-0,005942833
0,014134976
-0,16299883
-0,016757706
-0,0053272876
0,03061764
-0,0125706885
0,033510063
-0,035059318
-0,259105
0,0077653867
-0,007084757
-0,05614454
0,16766183
0,004438094
-0,055167716
0,39758372
-0,0033806267
-0,015642216
-0,020447658
0,2808808
-0,0022439775
-0,035969306
0,18623725
-0,32788208
0,00832679
-0,00524067
-0,008625352
-0,021313066
-0,030646639
-0,001062792
0,017798128
0,014329577
-0,03516619
-0,014568911
0,19642627
-0,065900885
-0,01759709
0,020179445
0,017022116
-0,028586512
0,016538087
-0,016091516
-0,04845746
0,0067983307
0,028152756
0,0039446885
0,028036207
0,0103418175
-0,02437915
-0,037826143
0,014926018
0,20140879
-0,0139990235
-0,016893638
-0,035311464
-0,012871337
-0,022864416
0,0153235365
-0,33011958
0,29681304
-1,6224003E-05
-0,018686365
-0,4600849
0,026216054
-0,024130974
0,048381545
0,016402202
-0,010111197
-0,022461042
0,0127539
-0,3298137
0,008838194
-0,006023359
0,0010102605
0,3479524
-0,006467905
0,0068731145
-0,023749337
0,010940421
0,17267227
0,04901133
0,02938208
0,02116671
-0,005636612
0,006846768
0,4944417
0,00094998855
-0,0026400778
-0,003274147
0,019851608
0,004048091
0,030875
0,009579047
-0,0040985555
0,026829962
0,014052007
-0,441991
-0,003080822
0,00062303396
0,007799346
0,0056280773
-0,015832411
-0,00053069484
-0,39930454
-0,07910787
0,0046576364
0,02053581
-0,012246958
-0,3659397
-0,114316404
-0,024273774
0,014434003
-0,13244686
0,042714767
0,0068261037
-0,017907124
-0,1009023
0,00033101215
0,02297756
0,03067323
0,0029160606
0,0008840246
0,4767675
-0,046684604
0,006878454
-0,01297357
-0,012419447
0,031989
0,008037242
0,020635681
-0,0067618284
0,48723212
-0,00024386162
-0,016315656
0,005866716
0,024179036
0,003316529
0,013103435
-0,00031490612
0,029204162
-0,0032403297
0,007563473
0,04587881
0,041282877
-0,0027980148
-0,41797033
-0,0145947
-0,011075561
-0,015154089
0,026986277
0,34970963
0,008924432
-0,14274989
0,032913834
-0,011000057
-0,028810719
0,013193758
-0,0047108154
-0,012010343
0,0013992066
-0,010415097
-0,019858588
0,034812775
-0,006792889
-0,017539207
0,008614649
0,011908676
0,0075292056
-0,024747977
-0,007485595
-0,010933309
-0,007913659
0,0059198244
-0,020904357
0,04349525
-0,0131838145
-0,13095441
0,007877144
-0,0019953635
-0,032091286
0,27500865
0,4977981
-0,016695725
0,026615445
0,049253456
0,0036055434
-0,0732101
-0,05020884
0,006899365
-0,021144534
-0,3778785
-0,021197166
0,051300414
0,01399531
0,015387377
-0,017292917
-0,022821454
0,046455003
0,0115231825
0,21394686
0,0035041724
0,0152267935
-0,009869996
0,00039700186
-0,017149901
-0,00605688
0,017749092
-0,043462273
0,012399012
-0,14137794
-0,012326704
0,021837298
0,16420256
0,011793282
0,00074611505
0,012995905
-0,027999789
0,0038374288
0,0019612722
0,019453736
0,017899644
0,024253068
-0,005219866
0,0029097449
0,023554988
0,46016145
-0,0032377776
0,033073258
0,2900532
0,006413636
0,02158406
-0,0021783113
-0,14059736
-0,01935037
-0,012535846
-0,014217403
-0,021585109
-0,019016065
-0,008271754
-0,42698702
0,020310434
0,007151228
0,0013595438
0,0048168483
-0,027714815
0,002184545
0,0032957834
-0,019958379
0,255349
-0,0464744
-0,010813337
0,040233504
-0,17206123
0,006827796
0,35832357
0,01285852
-0,00518
0,022781478
-0,030438473
-0,009669273
-0,0024280446
-0,009559483
-0,48452133
-0,025840022
-0,0093943495
-0,012736307
-0,009636507
0,0022325448
-0,045113936
0,0023017293
-0,019393466
0,006532582
0,02131993
-0,0032231298
0,059625987
0,12334074
0,027003232
0,05472445
-0,0323653
0,0006511205
0,102115005
0,02847591
0,019026224
-0,022428526
0,01932878
0,015671875
-0,003272506
0,0150576765
-0,24411745
0,004619952
0,0044528516
-0,034099925
0,0033824863
-0,0013011863
-0,0015380835
-0,038074907
-0,022399671
0,014774785
-0,024093658
-0,009343799
-0,0023299414
0,01914575
-0,007946558
-0,006330677
-0,020221079
-0,016351465
0,00650129
0,03575966
0,0037427086
0,04144548
-0,014900111
0,025857998
0,4257811
0,0043311464
0,077461265
0,023919746
0,023758106
-0,005896084
0,031467576
0,0034915665
-0,055170577
-0,018219192
-0,024884662
0,008041764
0,027536532
-0,029095108
-0,0072777322
0,055430748
0,005663668
-0,32933772
0,0250214
0,13947466
-0,03916773
0,025526756
0,0027333265
0,0034535474
0,016373696
0,0064625433
-0,010372749
-0,021043673
0,08496062
-0,019999582
0,2583824
0,026273059
0,008765168
0,02495009
-0,3055848
0,040467035
0,019236427
0,01736872
0,004379208
-0,040485054
-0,021738151
0,020659657
0,011494213
-0,025921738
0,0059791757
0,028440049
0,022509128
-0,03298089
-0,021187674
0,014937561
0,1804058
0,0026025772
-0,43972087
0,0005148824
0,020727903
-0,037643276
0,013570171
-0,02143226
0,023680832
-0,020333655
0,02757793
0,008093157
0,023294432
-0,031596
-0,08299907
-0,013754579
0,16784957
-0,002850514
0,222273
0,013744128
0,012976876
-0,4160976
-0,016514666
-0,025167601
-0,0146354325
-0,03572976
-0,0019581907
0,015502958
-0,0051840628
0,0024648542
-0,1610815
0,40598124
0,2134558
0,009918119
0,014821608
0,0014893657
0,014256658
0,2455654
-0,009468033
0,026329441
-0,042848557
-0,00570536
-0,13216011
0,024519652
0,013441685
0,16768931
0,0054874527
-0,023558801
-0,0060603255
0,00026687575
0,018522415
-0,0055347667
-0,012746863
-0,026788244
-0,013257816
0,01492728
-0,11098802
0,004563528
0,010666783
0,008982047
-0,02525599
-0,015494336
-0,019791525
0,0033528528
0,0135243805
-0,100797914
-0,0053844987
-0,028758071
-0,032742754
0,012154329
0,024633711
0,0010927705
-0,0062779915
0,006827364
0,013036147
-0,000743455
0,49807584
-0,020362495
-0,018098153
-0,03293846
0,07175247
0,0011470215
-0,035314
-0,0062005753
-0,02139483
-0,06059155
0,013161581
-0,004075464
0,13105313
0,053418037
0,008219656
0,0009460943
-0,022340398
-0,011325534
0,013669365
-0,005166607
-0,23251584
0,008590358
-0,0015971514
0,0128312195
-0,027700502
-0,007229337
0,1553975
0,010024781
0,36131972
0,0057829795
-0,17914264
-0,0046989806
-0,0052482598
-0,011779097
0,46040413
-0,28994387
-0,030213105
-0,029474879
0,006776895
0,01727383
0,08933107
-0,011886748
0,007861578
0,009365243
0,45766497
0,008303137
0,0009347442
0,02391533
-0,015515336
-0,0016770829
-0,012680796
-0,006981775
0,30301496
0,029794777
-0,030843696
0,015227162
-0,016761353
-0,017004235
-0,36592382
0,24830759
0,011872096
-0,029669967
0,02875549
0,005634025
0,015992848
0,0002639564
0,008201618
0,0033564772
-0,011613781
0,32567674
0,015972842
0,004429675
0,014055487
-0,47252226
0,3344076
-0,015961455
0,029154483
-0,0119184535
-0,029073967
0,012446779
-0,09771411
0,004648029
-0,013417198
-0,024731947
-0,022961266
0,003504626
-0,01650849
0,014811445
-0,17986467
-0,015478898
0,17613043
0,00453116
0,42271557
0,007567159
-0,017009193
-0,008810847
0,006256736
-0,015792908
0,037281167
-0,014141639
-0,053048827
0,2759794
-0,0055847303
0,0010369339
-0,0166984
0,002181273
0,17025617
0,13164237
0,035699636
0,0082546
-0,014430576
0,013230187
-0,0061853724
0,06596493
-0,029388428
0,007168777
-0,0047041634
-0,026489833
-0,009291232
-0,0073804916
0,012058876
-0,021027986
-0,0076308884
0,006756984
-0,011378306
0,007998596
0,020895746
-0,0062676165
-0,025985941
0,019802876
-0,012635455
0,022148222
0,45354375
0,01440784
-0,00860863
-0,0024661722
-0,017221194
-0,005653958
-0,33513328
-0,08549335
0,0068191267
-0,025038455
-0,007033141
-0,0008815453
-0,007585993
0,00441877
0,0037525836
-2,1215037E-06
0,02396511
0,10087557
-0,0143979695
-0,014229518
-0,028135147
0,0070859706
-0,032677595
0,009373566
-0,20081161
0,0043371106
0,0047646933
0,028725063
-0,01912276
0,0045993673
0,018975439
-0,011763732
-0,03757065
-0,19862236
-0,0053687277
0,08813175
0,048803464
0,031122206
-0,014284123
0,03051096
-0,041859556
-0,20614347
0,04623658
0,31442606
0,02576556
-0,007935323
0,0140181845
-0,04660909
0,033387225
0,018585252
-0,028993636
-0,017633392
0,011571317
0,023004621
0,026182808
0,0045959847
-0,014309304
0,07194571
0,0039489297
0,011931836
0,018167634
0,013591029
-0,02319816
0,023804573
-0,017507795
-0,005603302
0,027266989
-0,23289467
0,020181766
0,0027369384
-0,03547901
0,009997993
-0,021633511
0,011313668
0,013156365
-0,023272932
0,008713882
-0,010748853
0,019915849
-0,49250475
-0,006408991
0,040246278
0,047293104
-0,0027852787
0,16181064
0,025276976
0,0069218106
0,017636498
-0,00203987
0,015520578
0,0049065435
-0,01023832
-0,041470338
-0,029349146
0,038180683
-0,017879928
0,011639391
-0,01008716
0,004723437
0,01506541
-0,18028681
0,0020037866
0,035951037
0,0031928828
0,006539506
-0,0051606055
-0,008571602
0,031159323
0,028012412
-0,0044737114
-0,14242396
0,3171822
0,12777476
0,018598258
0,011940619
-0,084719524
-0,19846325
0,0014180385
0,030134553
0,005042031
0,023643157
-0,0040250244
-0,02101415
0,22655137
0,020163018
-0,027058346
0,023858024
-0,068552695
0,05125522
-0,4778806
-0,021865353
0,38605657
0,0019709973
0,015265303
0,020780506
0,03455808
0,04308653
0,016789488
0,013454805
0,0075980024
0,018318914
-0,019172331
-0,20683476
-0,0008973958
-0,02674117
0,02823593
-0,022218699
0,022015825
-0,0336981
-0,022643633
0,014979684
-0,3828494
-0,033219397
-0,042124487
-0,042686976
-0,39504737
0,019306077
0,050424382
0,016983038
-0,0003756543
-0,037336245
0,041683547
-0,017183064
0,0037984643
-0,004301699
0,034820907
-0,007047507
0,022814974
0,04446806
0,06048285
-0,022908218
-0,01035783
-0,008686248
0,013063594
0,0077916416
0,0004003087
-0,016920889
0,022077432
0,010066356
-0,0014533157
-0,025361208
0,0055288025
-0,015048158
0,017875494
-0,008265739
-0,030711645
0,049910318
-0,030499006
-0,00451272
-0,014770447
0,009300678
0,05246064
0,04012305
0,0021861694
0,045395505
0,026300685
0,0024958556
0,0031230473
0,0008556475
0,0021360968
-0,016554527
-0,06136021
-0,00797555
-0,013343993
0,024707587
-0,0004159898
-0,0010392483
0,0062328833
-0,029066434
0,10770831
0,025530346
0,012531054
0,024655037
0,025575276
-0,0361708
0,15078042
0,0034804754
-0,047098536
-0,01105626
-0,024602577
0,009252515
0,0148374215
-0,03111068
-0,0024062074
-0,020952601
0,032351512
-0,059321765
-0,0087846005
0,0016413701
-0,0071864137
0,013564968
-0,02326564
0,00980639
-0,0034169666
-0,040137056
0,027111314
0,044444658
-0,0028423993
0,0019249647
-0,46197307
-0,02791235
0,010767851
0,009369454
0,32522458
0,021751717
-0,026303641
-0,03188331
-0,0013402326
-0,009982772
-0,007395764
0,034635633
0,015127481
-0,017002929
0,020498293
0,00809258
0,11250656
-0,021453306
0,31802493
0,0034368834
0,31025952
-0,00062268117
-0,047010474
-0,0134028485
-0,03349074
0,003954443
-0,018638667
0,048200857
0,00061439327
-0,28482762
-0,4453533
-0,01602542
-0,006591979
-0,16478403
-0,0148350485
0,021886937
0,03429267
-0,007765036
-0,053848706
0,003370998
-0,2910452
0,021573639
0,017959971
0,044453688
0,23567314
-0,16401339
-0,011066646
0,0012938675
-0,4877566
-0,0058946
0,0059210192
0,008746819
-0,2503938
0,0011760629
-0,05055489
-0,016221564
0,02402296
-0,01850429
-0,04145112
-0,3086277
0,014588895
0,0016217617
0,023830533
-0,005454161
0,21768586
0,008365041
0,21395925
0,00022302741
0,014671382
0,012428132
-0,002315723
0,016922437
0,011003839
-0,015895441
-0,043342493
0,3860368
0,012986346
0,017881272
-0,40513805
0,41296113
0,005746766
-0,009555806
-0,22449782
0,016627131
0,013773483
0,002360722
-0,037105028
0,00074261497
-0,015474809
-0,025652392
-0,009659379
0,00907196
0,016555293
-0,02307979
0,34347895
-0,0137390485
0,2672285
-0,0050241034
-0,0038669677
-0,003050793
-0,14790824
-0,00690277
-0,023406794
-0,0019519386
-0,0031765918
-0,01790902
-0,016574562
-0,002863248
-0,015185373
0,0026109396
-0,014182473
-0,02877174
-0,0076102586
-0,0132994875
-0,007038051
-0,0024447942
-0,018353557
0,00045178086
-0,0067977295
-0,0088797305
0,4053836
-0,010313916
-0,013968051
-0,020107327
-0,073255606
-0,011238899
0,004328886
-0,26665452
0,44584548
0,42016372
-0,008508095
-0,019516349
-0,02004047
-0,019191949
-0,009969128
0,066716306
-0,021349246
-0,021111796
0,42621627
-0,016182203
0,199524
-0,35525823
0,0042880205
0,009181699
-0,015730124
-0,008314135
-0,014261083
-0,0055865324
-0,016753813
0,015973115
-0,00026660692
-0,020605724
-0,015981978
-0,43862933
-0,39629373
0,0138883265
0,009727091
-0,01009273
0,028378645
0,33317423
0,016319431
-0,035698697
-0,013610606
-0,012468484
-0,2970448
-0,0051678945
0,008557742
0,1927805
-0,0013689427
-0,0051437435
-0,019076055
0,008771644
-0,014182452
0,008173551
0,024487618
0,0051306025
0,0059990096
0,008981611
-0,004455521
0,4594936
0,1698661
0,020217102
0,012532998
0,0041078078
-0,013396286
0,013720977
-0,012276495
-0,017611392
-0,010520633
-0,007915826
0,15756495
0,2629318
0,0005463284
0,002737948
0,027613541
-0,021401476
0,009086928
-0,011475389
-0,0068776533
-0,26451445
0,015065943
-0,004062121
-0,000900473
-0,23328152
-0,010032069
-0,039295692
0,0071418635
-0,19613312
-0,033751044
-0,002981301
0,0053546242
0,0066378536
-0,0062364317
0,41502088
0,02099915
-0,18686655
0,021266313
0,013190658
-0,008286802
-0,50889254
-0,004004929
0,03204468
-0,019666992
-0,022877472
0,011011261
-0,020050261
-0,41558564
0,012550844
0,008576097
-0,012852761
0,008150835
0,008835639
0,016588032
0,0073278258
-0,0043468
-0,027224477
-0,24360892
0,014095973
-0,00029553857
-0,009911558
-0,005291784
-0,1428741
-0,47197828
0,34500134
0,009245279
0,008971318
-0,00791843
-0,031906057
0,003719163
0,24050765
-0,2638871
0,01212751
-0,46768823
-0,029884327
-0,087343484
-0,0052292664
-0,0127026215
-0,020994589
-0,0055402922
0,3815657
0,009978263
-0,0033281953
-0,013694328
0,018829394
0,15425432
-0,0067505683
-0,009878368
0,045434263
-0,014564481
0,030710308
0,017219454
0,0044216826
-0,00049167714
0,014556017
-0,06492404
-0,020383006
-0,028251916
0,0337228
-0,020422438
0,011238245
-0,0064148977
-0,042316165
0,075617306
0,0009985459
-0,018977918
0,0403478
0,005673329
-0,0030461138
-0,016645087
-0,25524282
-0,04054068
0,03938107
-0,48601308
-0,012028363
-0,018430816
0,1633565
0,03478693
-0,047774885
0,013883365
-9,701459E-05
-0,0058645494
0,0047107595
-0,41202876
-0,47479057
-0,04092087
0,21848994
-0,015164591
0,015750175
-0,01680358
-0,1560478
-0,014154945
-0,3700495
0,016153177
0,008347328
0,037210237
0,017789979
0,269664
0,021369988
0,326315
0,17256147
0,013480453
-0,012807328
-0,016561443
-0,020683557
0,009905852
0,0033791338
-0,0142019065
-0,008953188
0,020874271
-0,030205417
-0,038092744
-0,017432386
0,027276417
0,01775114
0,032111533
0,13107458
0,11528474
-0,028687026
0,022965243
0,03559744
0,00045254352
0,1029254
0,015514245
0,032289054
-0,14413191
0,03010872
0,020062357
-0,02690771
0,007327382
-0,017322514
0,022253912
-0,030344587
0,024799401
0,010164603
0,007706665
0,0025994626
0,19042827
0,022610558
0,47202036
-0,0011550101
0,020730061
0,005241772
0,020992832
-0,24714318
0,04453702
-0,0053148638
-0,05769255
0,016798718
-0,0016497686
-0,25733906
0,012051968
0,017535169
0,020541567
0,016814789
0,020178275
0,0051169638
0,016094496
0,0014789449
0,028130751
0,0041772397
-0,020414628
0,09400711
-0,007296983
-0,37943423
-0,00052024267
0,032294545
-0,01893172
-0,024203751
-0,113476224
0,029550219
0,021973707
-0,48016074
0,014925924
0,2792942
0,026762754
-0,0025065667
-0,05707676
-0,40202674
0,12369576
0,3177482
-0,018846674
-0,02365414
-0,006606219
0,041990805
-0,009455367
0,036076035
-0,0077908696
-0,051593978
-0,030311802
-0,011803194
-0,013003826
-0,0031265998
-0,026716452
-0,03751022
-0,013913342
-0,060257394
-0,015081912
-0,20610498
-0,049683966
-0,011498471
0,27871743
0,016905187
0,0002176888
-0,028902806
0,2406084
-0,065108545
0,05423557
0,025959313
-0,005012425
-0,042107742
0,35921007
0,002100035
0,010070078
-0,0050162515
-0,011961788
-0,022745382
-0,0021803805
-0,020936824
0,031405725
-0,03035202
-0,3110523
-0,006205274
0,011637614
0,0062375953
-0,005334631
-0,025082188
-0,0051033203
0,2224896
0,397593
-0,15293418
-0,025094075
0,009337748
-0,018874161
0,012757977
-0,03849492
0,048539
0,01321501
-0,35549167
4,875809E-05
-0,028472241
0,013022253
-0,018570589
0,0014774634
-0,029961286
-0,08386576
-0,04850255
-0,01484388
0,02347392
0,028374247
0,003854707
0,0026102464
0,006332289
-0,020764489
-0,0062030996
-0,00039464803
0,026633816
0,020717937
-0,01624722
0,024483576
-0,40116772
-0,015900712
0,0038557502
0,020653581
-0,0053325305
-0,020580947
-0,05153481
-0,06515487
-0,010141711
-0,0113694845
0,49381068
-0,12027207
0,010126654
-0,029331004
-0,05567133
0,005901509
-0,005128706
0,012570663
0,49504325
0,10897785
0,026899254
0,025673961
-0,008549966
-0,026679926
-0,02665766
-0,014151744
0,45625582
-0,33996722
0,4362472
-0,016102457
-0,03563973
-0,034753546
-0,007350932
-0,024427861
-0,035018377
-0,023096265
-0,019036682
-0,009989188
0,0141002005
0,039792288
0,40572932
0,0115214875
-0,1178749
-0,1313139
-0,050639424
0,009185067
-0,044204038
-0,0020935119
0,15698019
-0,01645033
0,06407671
-0,0020298252
0,49749306
-0,0058361334
-0,012699269
0,24194379
0,17283551
0,03772516
-0,01800067
0,014725712
-0,01705149
-0,021168435
-0,008577882
-0,02348317
0,007818893
0,0007821045
-0,029231407
0,007969074
0,007461808
-0,028233841
-0,00061671325
0,43301108
0,31866768
-0,1380863
-0,41929954
-0,032826237
-0,016366888
-0,01397343
-0,00580513
-0,039060924
-0,019247908
0,01064525
-0,03189914
0,0035246157
-0,03129212
0,0075172414
0,008137273
0,0072697448
0,026861358
0,0014590747
-0,023873365
-0,010075395
-0,007634419
0,009450435
-0,01992048
0,043585505
-0,17149888
-0,090427324
-0,030882316
-0,10831214
0,04109478
-0,0009816107
-0,40453407
-0,40762416
0,022240343
-0,48017326
-0,16284835
0,5164046
-0,011887383
-0,0012897035
0,0077502164
0,051704895
0,082517676
0,035133947
0,0068555954
-0,0045491247
-0,030463668
-0,06469622
0,03896337
-0,2853614
0,005072034
0,0057519237
-0,03057197
-0,48530608
-0,002244895
0,45503217
-0,027847748
0,05210855
0,020350747
-0,0007026653
-0,027233288
0,015393874
0,035412002
0,2728973
-9,3504445E-05
0,020761812
0,02123712
-0,1451201
0,024521586
0,013439533
0,024387227
0,012913136
0,012948421
-0,027621325
0,021722194
-0,29229105
0,16535251
-0,016027983
-0,03361204
0,010357
0,017881388
0,024998745
0,0062465123
0,004605188
-0,013694201
0,0122375265
-0,020496985
0,012216895
0,016966775
-0,4089435
0,00890881
0,030191118
-0,008920457
0,015430301
0,0011194221
0,0068958607
-0,012997298
-0,034129445
0,0060095172
-0,00792566
-0,15758823
-0,034928694
-0,001651294
0,009451363
0,18753724
-0,18654887
0,024965024
-0,024181034
-0,015108784
0,02376468
0,40459287
0,018504197
0,020022767
0,00035690583
0,136392
-0,015574556
-0,0010547298
0,024877798
0,0020410581
0,0025196397
-0,011984132
-0,017282207
0,0028479865
-0,011779753
0,043964427
-0,022752557
-0,0040348605
0,037334
0,024471903
-0,01841795
0,002199293
0,13932334
0,04455624
0,024441632
-0,026106756
0,030086001
-0,002271765
0,24106738
-0,022726567
0,47423753
0,0016105166
0,00630118
-0,018636903
0,017458286
-0,0058461176
-0,036117356
-0,49195254
0,008079672
0,01835726
0,25242147
-0,070979156
-0,0009020226
0,014654408
-0,18395607
0,0073098196
0,014669217
0,011800511
0,0115813585
0,011272543
-0,004753657
0,007097957
-0,0040227524
0,0030435738
-0,0027800798
0,3383833
0,03249426
0,004150254
-0,19591963
0,013099801
0,02033714
-0,36264035
0,08999056
-0,0023539842
0,29075602
0,015273768
0,019251
0,4742078
0,0151014775
-0,017257057
-0,19004476
0,019457852
-0,0059880265
0,021809613
-0,010048513
-0,03171722
0,009872953
0,0066166366
0,24196737
0,003812655
0,0034397657
0,0006230514
0,0060898545
-0,03697997
0,0016309397
0,01193209
0,010462494
0,0030239068
-0,014642774
0,0027768034
0,028679868
0,054086693
0,023959264
-0,1156691
-0,0053718053
0,024590885
0,019197598
0,022399858
0,01868205
-0,012744365
-0,034034654
-0,34002796
-0,2899189
0,040327996
-0,0047364337
0,018448154
0,0013765225
8,7246895E-05
-0,013370402
-0,0015390561
0,015438389
-0,006020587
-0,3942698
-0,006506328
0,025753079
-0,005772435
-0,013528927
-0,3571927
0,036089826
0,023058493
-0,021537902
-0,0022479303
-0,008791103
-0,008056692
0,008875576
0,022395533
-0,0012581187
-0,22933958
-0,41106078
-0,004285494
0,0008515078
0,004433666
-0,46416876
0,03451265
0,0037052173
0,009332412
-0,007907825
0,0025928284
0,010737827
0,4155188
0,018521022
-0,09399849
-0,49597842
0,35104933
0,020035556
0,24851577
0,019222869
0,025169697
-0,01986858
0,0019000865
-0,015874017
0,022634903
0,00719897
-0,017054735
0,015819618
0,026815172
0,08834611
0,014045213
-0,031938933
-0,03004928
0,004130494
0,039576773
-0,010055261
0,023506353
-0,027896125
0,070713855
-0,013299001
0,042880133
-0,1701194
-0,07562189
0,015992051
-0,015145534
0,032668717
0,010280918
0,23365007
-0,0019738937
0,02157122
-0,020240344
-0,12782119
-0,2847057
-0,01509998
0,3923041
0,00056539424
0,021897163
0,32562304
0,23738533
-0,0018852921
0,024381438
0,04815219
-0,00036740588
0,02077279
-0,003381387
-0,06027362
-0,00094055414
0,04105075
0,016161803
0,011695818
-0,018994097
0,030692106
-0,019665472
0,040935796
-0,47962183
-0,00020179982
0,03386312
-0,2794063
0,017183045
-0,0034761203
-0,0021714945
0,21665408
-0,10929819
0,01721404
0,01751205
0,010891004
-0,009160104
-0,50651723
0,012131888
0,059544448
0,0060317074
-0,0015690735
-0,009756241
0,008690311
-0,0075398134
0,0070709344
-0,0043341704
-0,08069467
0,040921833
-0,011389626
0,022315599
-0,3545075
-0,03397399
0,13242811
-0,03367016
0,041993037
-0,011042841
0,02192854
0,014294595
0,019802256
0,002837987
0,007127307
0,009251532
-0,020988213
-0,01728713
-0,019831283
-0,029796131
-0,44887534
0,44783384
0,03881046
0,006633512
0,006775282
0,3767231
-0,010815542
-0,012606051
0,015395301
0,053342484
0,002327383
-0,2035417
0,03985915
0,011050346
-0,029625915
-0,022801248
0,031751268
-0,002274278
-0,027267713
0,0519653
0,0051071793
0,038664386
-0,0007072095
-0,030628128
0,014067931
0,40299508
0,003280588
0,0018134632
0,0024300588
-0,004736234
0,013664492
-0,015590522
-0,03022632
-0,00052342453
0,074961334
0,023873217
0,017498491
0,012261428
0,30897877
-0,030311871
-0,31871825
-0,0036730384
0,0034685184
0,0136671765
0,3363726
0,016455181
-0,0040912502
0,04058552
-0,028709715
-0,008703989
-0,0013796776
-0,17885485
0,0010317574
0,04817562
-0,027695116
-0,016785424
0,030439094
0,02198059
0,023130141
0,0067477534
0,0013174722
0,01355337
0,006196932
-0,024498329
0,017164702
0,0027905735
0,26140684
0,0024374926
-0,0015685129
-0,4320909
-0,012210773
-0,0025680207
-0,01346706
0,0162058
0,007803229
0,0019834437
-0,013712936
-0,31998473
0,016943734
-0,010367514
0,017448198
-0,01028487
0,011850087
0,0013946284
0,018758895
0,12994474
0,07061561
-0,016196005
0,005683003
0,006919906
-0,013167376
0,022442974
0,020112049
-0,009766933
0,16454774
-0,007858659
0,022481887
0,01303557
-0,011154838
-0,007254168
0,026111962
0,0013875085
-0,13448346
-0,009569633
0,008642259
0,007597267
-0,14114752
-0,40857702
0,009368536
-0,0052873422
-0,19242233
-0,010733835
-0,0020954567
0,024221841
-0,013579405
0,014699225
0,09192048
0,1630632
-0,008861161
-0,026504604
0,006315632
0,031192979
0,002070835
0,0057991776
-0,2774117
0,0064613107
-0,024779493
0,44261292
-0,0005650237
0,05506937
0,023691148
0,015922248
0,00092900754
0,012435691
-0,0033625585
-0,0106439935
0,019311717
0,42115945
0,01275561
0,022812052
-0,011571768
-0,0022935004
0,0071238177
0,011896899
-0,0055359285
0,15866755
0,03088113
-0,0012628407
-0,008918863
-0,014768876
-0,3944146
0,009260178
0,022816243
0,014555377
0,0024672516
-0,0005330104
-0,11946718
-0,09028274
0,0042074253
0,0020590762
0,009567933
0,002558815
0,44830146
-0,40321606
-0,007306723
-0,044237833
0,38788897
-0,00488704
-0,0022718825
0,030878318
0,055063035
0,03500908
0,3637769
-0,45062727
-0,0050462834
-0,017215636
-0,0083131865
-0,12729016
-0,00518851
0,029512383
-0,0038099107
0,002169856
0,011943574
0,010871337
0,043044448
0,019492835
0,47613037
0,41669592
0,0074007204
-0,010048725
-0,025354024
0,01898022
0,018476311
-0,00020589663
-0,017794339
0,016238242
0,013503218
0,005983054
-0,009463289
0,033487756
0,01726422
-0,1718716
0,024871312
-0,45623368
-0,014688199
0,058132283
-0,011241118
-0,007273481
0,028886586
-0,015704047
-0,33197254
0,006512408
0,02041379
0,024592664
0,034496713
0,0009814098
-0,024810826
0,0051979423
-0,0130714215
-0,32205254
-0,50237674
0,031343054
0,027393375
-0,007828741
0,04271027
-0,0050325957
-0,026964162
-0,02130065
-0,0012504985
-0,021351408
0,24042448
-0,042717125
-0,029380122
-0,30134487
-0,021067983
0,0066646673
-0,003326891
0,02272054
0,041854426
0,35203874
-0,20428632
0,34711033
0,0059382413
-0,021786625
-0,029806621
0,19102699
0,015386518
-0,027741436
0,16815668
0,05311979
-0,036007445
0,0014466958
-0,02220391
0,0006558057
0,027860576
0,013920552
0,024528358
-0,008112536
-0,01786524
-0,0008459461
0,0042193797
-0,0018341226
0,028738454
0,0053188307
-0,026759503
-0,03499893
0,3654191
0,027540337
-0,42473614
-0,008852388
-0,008503805
-0,010784499
0,026343936
-0,028456798
-0,0031593607
-0,005321687
0,0073614134
-0,008508986
-0,03687503
-0,02804949
0,054160405
0,00022418171
0,009798796
-0,008681444
-0,02223423
-0,008303979
-0,03853895
0,031004721
-0,018457914
0,012944733
-0,01561391
-0,019045768
-0,043306988
-0,01389948
-0,043440275
0,027624996
-0,029542457
0,039457202
-0,022093266
-0,026713882
0,003650085
0,037475288
-0,020794088
-0,014163234
0,01143035
0,022311503
-0,011404385
-0,045378674
-0,008061823
0,031321645
0,048582904
-0,037573617
-0,028339192
0,105423205
-0,4159126
-0,031958494
-0,012040212
0,016293978
0,042564787
-0,020972235
0,023697011
0,16789281
-0,005533927
-0,03851191
0,38853338
-0,3487154
0,0041487976
-0,049732964
0,022334507
0,035826407
0,29438478
-0,023260409
0,037327062
-0,006228035
-0,0033321
0,012035921
-0,022144351
0,0050052744
0,46301052
0,007083036
-0,041888468
0,052435324
-0,16012082
-0,18012618
-0,03251934
-0,023556987
0,0011903055
-0,41873026
0,011965911
-0,043470256
0,024024721
-0,011362264
-0,240108
0,019795232
0,16241832
0,00956007
-0,0046968386
0,29771915
0,023407483
-0,22953463
0,010756242
-0,032321528
0,023370894
-0,0018943668
0,038407534
0,020575464
-0,008514925
-0,0037363586
-0,009569964
0,026816929
-0,0037936268
-0,011953359
0,27356374
0,010763202
0,013393658
0,01306546
0,018656585
0,18204565
-0,021740487
0,009123599
-0,02680153
-0,0009333206
0,02482012
-0,13594715
-0,03451113
-0,037572384
0,012005559
0,016582252
0,022895688
-0,01324729
-0,1314881
-0,024327232
-0,0292153
-0,31654724
0,009824177
-0,07412009
-0,023826823
0,016034918
0,21228817
0,17863175
-0,01821083
-0,01104683
-0,004444327
-0,00698296
-0,027076332
0,012640901
-0,027098503
-0,026786743
-0,0012087139
-0,026798122
-0,028494319
-0,23534884
0,206826
-0,3474712
-0,014742895
0,01518694
0,006147656
0,0023397196
-0,010511845
-0,018672287
-0,4025983
-0,018788239
-0,032700893
0,0370538
-0,041752607
-0,03791142
-0,022057641
-0,0059957947
-0,028521888
-0,005144682
0,01940382
-0,051369347
0,48546657
0,016293468
0,011947954
-0,012890149
-0,0031210694
0,15970288
-0,007786356
-0,01677342
-0,03774133
-0,034822475
-0,029302407
-0,035225987
-0,010631339
0,005727343
-0,023753475
0,016891954
-0,02994869
0,32905537
-0,03515193
-0,0049859914
-0,020526953
-0,011384345
0,00094275473
0,32131737
-0,012010595
0,018150145
0,306313
0,1267358
0,022463249
0,015620193
0,41562364
-0,0018938881
-0,0031759657
-0,017799951
0,012628683
0,002205956
0,35115057
-0,0045452355
0,0047493023
-0,01808622
-0,014905881
-0,00774303
0,006553712
-0,010185891
-0,015090135
0,007986477
-0,0064855674
-0,04268879
-0,002757217
-0,0021241326
-0,026028799
0,0021482115
-0,008629011
-0,015753053
-0,026287831
0,34227708
-0,35507977
0,019296076
0,049390424
0,008611896
-0,039831344
0,048519913
0,033308838
-0,002631281
0,006508348
-0,005167892
-0,014504224
0,000947091
-0,02690344
-0,002326894
-0,4579624
0,009568435
-0,012564725
-0,035202052
-0,010840478
-0,02074928
-0,03590125
0,0066563864
0,004085808
-0,024284538
0,002012224
0,016801672
-0,015293048
-0,3393556
-0,33342478
0,38296625
-0,024192834
0,0010376634
-0,029605148
-0,0007771387
0,24925151
0,010147599
-0,012713995
0,026004603
0,15643193
-0,22407949
0,006893525
-0,02285671
-0,021453949
0,009280273
-0,01448855
-0,005229156
0,040709473
0,019389274
0,46565887
0,0061566355
-0,021445815
-0,017700499
-0,0010393686
0,023420138
0,012794462
-0,013261533
-0,041779034
0,43931803
-0,02322912
-0,010824526
0,29515186
0,018117163
-0,4347673
0,012905812
0,028144252
0,007412437
-0,0020985047
0,011566419
0,033735253
0,016861351
-0,009537074
0,02324546
-0,027330548
-0,008038554
-0,026136182
-0,20519598
0,008629905
-0,037571684
0,02559502
-0,022045862
-0,006492659
0,014544879
-0,00032811
0,011549478
-0,13507457
0,009434352
0,2652228
-0,4773016
-0,036625616
0,008453211
-0,026093652
-0,10104189
-0,018457308
0,0132556455
0,0011867981
0,01346934
-0,008303069
-0,14651692
-0,0040437058
-0,017785171
-0,012247419
-0,124963045
0,06362116
-0,043440778
-0,018297246
-0,015572141
0,35634807
-0,00517888
-0,018791124
-0,004246945
0,009066682
-0,005568634
0,012328458
0,0843357
-0,009603225
0,008963151
0,3343969
-0,02454377
-0,0125177335
0,008996841
0,020834448
-0,027668657
-0,0012753445
0,28771883
-0,021319505
-0,016872808
0,016371472
-0,0005464923
-0,00096603174
-0,005984515
-0,0068967566
-0,0044233934
0,020950679
0,013035218
-0,004327556
-0,31289545
-0,007019174
-0,0015878718
-0,031877086
0,0067075333
0,010615198
0,00012047513
-0,0018414422
0,0133662615
-0,0033328587
0,076090574
0,0025668654
0,0050824806
0,04578553
0,013915243
0,023550434
-0,04376866
-0,0057308483
0,043191213
0,2615458
0,0066089816
0,43176568
0,01588891
-0,011326583
0,004259326
0,017488757
0,016066086
-0,02417341
-0,028277041
0,022850549
0,08826335
0,47840548
0,034773793
0,006334451
-0,19525553
0,01521788
0,013643285
0,0390506
0,002281453
0,009375958
0,016859118
-0,01874421
0,00710747
0,005514624
-0,31223223
-0,021595046
-0,33251992
0,12462263
-0,19271618
-0,00012310041
0,022804115
0,021081924
0,012957209
0,021154815
0,01511169
0,005867818
0,027097674
0,047625396
0,011095488
0,03616533
0,010152384
0,020577611
-0,1499666
0,025055997
0,06286907
-0,0027930532
-0,43185002
-0,16167292
-0,0035428852
-0,1583569
0,0044592144
0,018677207
0,29550767
0,0062119034
0,0730471
-0,017890725
-0,040093474
0,025549693
-0,03012019
0,035307772
-0,007897603
-0,02796584
0,019097026
0,056136575
0,053195935
0,31915438
0,020054754
0,014762253
0,0117494585
0,022967353
0,013941413
0,015390616
-0,024889844
0,021906123
0,015424287
0,0057501206
-0,023139708
0,00727297
0,02680894
0,0033939169
0,023470223
-0,0002998324
0,014370877
-0,027572429
-0,15134518
0,01758295
-0,017692713
-0,008068657
0,026412668
0,018542418
0,004967644
0,025126578
0,009519249
-0,009467418
0,027114555
0,017547205
-0,2617103
-0,006457823
0,0016387744
-0,1482708
0,0061706393
-0,019131323
0,038228374
-0,0018065928
-0,019133529
-0,01294648
0,015352797
0,03524036
0,0029306477
-0,02198499
0,09395897
-0,008318668
-0,45029834
-0,0072019766
0,027921868
-0,01809596
0,018874906
-0,0430125
0,38526887
0,006308394
-0,051237825
-0,032112688
0,0048150807
0,019507643
-0,020139994
-0,0021105
-0,01767732
9,931857E-05
-0,0039591957
-0,0006233159
-0,42086375
-0,040142443
0,010893392
-0,39285937
-0,028975507
0,009516087
0,18478906
-0,006219323
0,011572284
-0,012349662
0,09702414
-0,068628065
0,010478751
0,19765894
0,00051770237
-0,0015860345
-0,025492894
0,04000636
-0,008052459
0,0065959976
0,024691429
0,0068926373
0,007416449
0,011924623
0,013837333
-0,012733122
0,005286448
0,013637984
-0,001999359
0,004881393
0,28521442
0,011014524
-0,047117602
0,011561225
-0,004144101
-0,0073975422
0,44382975
-0,024938617
-0,00013290918
0,039871708
-0,003388621
0,016630586
0,00087012374
-0,016386192
-0,00040836484
3,823654E-05
-0,27459466
-0,024040762
0,005608527
0,006423497
-0,0037935097
-0,026112083
0,007808735
0,004575181
-0,0032791556
-0,011030162
0,025950048
-0,0041343267
-0,38738683
-0,010841306
-0,016869714
0,015160029
0,019326074
-0,33119363
-0,012034773
-0,009844433
0,01592084
-0,0044033024
0,4586501
-0,019843405
0,016034111
0,019334715
-0,033522964
0,015434037
0,012309416
-0,011768607
-0,3921553
0,008599431
-0,01940942
0,42856047
-0,00076816924
-0,00018161556
0,24658877
-0,0030128073
0,46437135
0,007844516
0,22853912
0,013107201
-0,0045351344
0,015418281
-0,01807567
-0,44489875
0,021424752
0,0019235292
0,043769993
0,012661148
0,0057478254
0,19131304
0,009785554
0,009929775
-0,01047981
0,0011368027
-0,011473658
0,018268699
-0,011069998
-0,026810814
-0,026399992
0,009757129
-0,065506816
0,005498265
-0,3574956
-0,032074645
-0,0009969011
0,03393532
0,010523877
-0,031679664
0,0019998234
0,029091818
0,15604195
0,008329167
0,006182837
0,009754821
0,0145321535
0,0021897906
0,13534726
-0,035296526
-0,02689029
-0,008025499
0,03635802
-0,028806765
-0,012239718
0,012232978
-0,005370958
-0,020306801
-0,046012882
-0,015776938
0,033580154
0,0053926464
0,022283975
-0,0061353375
0,114290856
-0,016684998
-0,20099834
-0,008543137
-0,027511653
0,0071827886
-0,042596508
0,0023693475
-0,02197643
-0,3046767
0,11881795
-0,007822732
0,011390137
-0,022458548
0,007937419
0,012620563
-0,0021928116
0,00540122
0,33847392
-0,018116154
0,04621796
0,1947351
-0,037381943
-0,027263308
0,040370423
-0,0011297707
-0,4817799
-0,047162928
0,026093364
0,0045047984
0,014064763
0,010987527
-0,03185395
-0,024895148
0,35569227
0,041037302
-0,02956309
0,037540864
-0,0016861258
0,015377817
0,0013810104
-0,016745145
0,008249392
-0,048993852
-0,02401478
0,02320375
-0,111621
-0,48484904
-0,03259433
0,016395284
-0,1554905
0,012470615
0,0030615258
-0,001995923
0,01101174
0,017629154
-0,0323159
-0,03839948
0,013975726
-0,069640584
-0,0045632957
-0,003785937
-0,0027361717
-0,006233083
-0,010969324
0,042099632
-0,110661425
0,020274097
0,036676675
0,009302353
-0,005069791
-0,00811821
-0,046689313
-0,04321195
0,018711325
0,01392031
-0,26124465
-0,016212601
0,009220193
0,0039242213
0,024112005
-0,43459427
0,0029982817
0,23446329
0,0106602665
-0,021696193
0,00519268
-0,0108971875
0,31557047
0,0032882083
0,0077812513
0,008000269
0,26131842
-0,013649054
0,02097349
0,0019506873
-0,00033103905
-0,007887514
-0,006717896
-0,032452386
0,021229522
0,00013964066
0,36999646
-0,0020290867
0,022008052
-0,0029140736
-0,3691553
0,006507581
0,016971026
-0,021813395
0,039125763
-0,0053786426
-0,11620901
0,007209602
0,016153414
-0,003803751
0,029444035
0,0064696516
0,0011570771
-0,012606569
0,0338938
0,012671129
0,006704396
0,012827969
0,022868529
0,16987495
0,019412244
0,0040984717
0,057587326
0,021255344
-0,41670677
-0,010746861
-0,058886234
-0,31318444
0,028539658
0,011873806
-0,0008404802
0,30619663
0,022234684
-0,004882547
0,019020317
-0,010487681
-0,002247319
0,028227953
-0,28751907
0,049557902
0,0069390167
-0,0042295824
0,015569823
-0,010440929
0,025141124
0,016516902
0,034602024
-0,3648337
-0,23029514
0,016702997
-0,017108051
-0,023426441
0,040279567
0,031544138
0,020255273
-0,0023187355
0,0013952652
0,017932262
-0,01394137
0,021691918
0,041673984
-0,016491001
-0,18043569
0,039552137
-0,003664454
0,008007169
0,0067151627
0,33023477
0,03048242
0,01701051
-0,0013336389
-0,04543941
0,24079306
0,016828718
-0,016799234
-0,011025278
0,0036616758
0,005251822
-0,0071359184
0,006705108
0,020363817
-0,03928048
0,0028287584
0,031145163
0,020364594
0,0075873113
0,001509568
-0,0013405512
0,03197184
0,020393368
-0,025941772
0,013113115
0,010350538
0,0020028313
0,059046764
0,0072779064
0,24964513
-0,035514373
-0,0042431355
-0,003000655
0,0019340948
-0,05711001
0,0326401
0,0011181379
0,0005642249
-0,29614437
-0,016418012
0,008528626
-0,23627438
-0,0105832135
0,013863484
-0,013700528
0,003077027
0,0017482691
0,032757517
-0,022742826
-0,0041821455
-0,020113807
0,004610382
-0,0035448344
-0,02416023
-0,42323413
-0,0008613132
-0,00930531
0,0059618074
-0,032147374
0,028857343
0,014033996
0,05113567
0,011878409
-0,030316114
-0,008488701
-0,023106873
0,011708779
0,015720984
-0,02988772
-0,0061995555
0,3543975
-0,0025217661
-0,016390953
0,04906661
0,025133595
0,02293177
-0,0041556773
-0,02298521
0,033328578
0,27650693
-0,023644414
0,09675166
0,006816348
0,004804133
-0,030788042
-0,22323638
-0,021770423
0,0541569
-0,27820066
-0,037957653
-0,005682079
0,009004277
0,1352185
0,42232314
0,028908158
-0,010747926
-0,009780514
-0,015035164
-0,020354731
-0,023407098
-0,17106962
-0,006395667
0,010979674
0,51772577
0,008535087
0,002223209
-0,009734241
-0,01828376
0,055660408
0,001765239
-0,042304277
0,018330887
-0,030073956
-0,016460832
-0,004925929
-0,0054910337
-0,036957864
0,012258717
-0,014286551
0,012122161
-0,022130555
-0,2652533
-0,000758395
-0,0010628757
0,03320565
0,016935425
-0,038056605
0,007395144
0,040375017
0,32993627
-0,001275309
-0,010635947
0,031839393
-0,013115971
0,059178576
-0,018523585
0,1146962
0,024397895
0,015850028
-0,0018342023
-0,031318292
-0,07901315
-0,026101822
0,021292007
0,28625384
-0,010924537
-0,019577177
-0,023070168
0,0017457946
0,017872363
0,07584681
-0,013971924
0,019917658
0,011236144
-0,0060485485
0,02958041
-0,00072560325
0,20234257
0,013108963
0,008535658
-0,009295544
-0,008219182
-0,026670696
-0,023874015
-0,02563945
-0,0080772415
-0,0064664036
0,019076219
-0,027961593
-0,03372578
0,010169686
0,37352824
0,025988985
0,014546126
0,018416872
-0,0194329
0,015450593
0,21932329
-0,00082183373
-0,0068275407
0,38928694
0,019703468
-0,21127848
-0,04153697
0,015667567
-0,045589063
0,2617481
-0,0037672224
-0,0069775
0,4717003
-0,010778512
0,0028596942
0,14868036
-0,00055818
-0,40320876
0,18863942
-0,00425258
0,008345365
0,0052915146
-0,011740123
0,0059076645
0,013196686
-0,058377508
-0,0078778975
-0,004053327
-0,017728848
0,01769806
-0,0019817417
-0,016701419
-0,0040314733
0,036993746
-0,018258661
0,141891
-0,011277575
0,039538972
-0,020918239
0,007035693
-0,4143076
-0,0112157855
-0,44807902
0,02689682
0,023651946
0,023192633
-0,0061285277
0,01071342
0,012623796
0,024759239
-0,25214508
-0,009856424
0,004302743
0,019524364
0,011118431
0,27083164
-0,007542329
0,19962713
0,005391735
0,46028784
0,0091093145
0,0097786905
0,03731376
0,0003338008
-0,010003486
0,007141887
0,004134742
0,30041203
0,026554583
0,014734411
-0,019479673
-0,002744949
-0,4149024
-0,0019255024
0,01603042
0,030324565
0,00050424994
0,4188045
0,0034313295
0,0030395947
-0,28885317
0,000991705
0,011381305
0,022711657
-0,039852012
0,01383554
-0,0058181267
0,036763668
-0,007602612
-0,00069672964
0,053226
-0,06387209
-0,02393583
-0,022740753
0,009212841
0,13498189
0,4729078
-0,033906806
0,03355508
-0,03442687
0,0039559393
-0,027565276
-0,19597082
-0,014867136
-0,25813532
0,008188187
0,035308965
-0,03749124
-0,0056255744
-0,017089503
-0,0151577825
0,016566986
0,03106903
-0,030961946
-0,005473675
-0,022273077
0,009240657
-0,07204108
-0,012878832
-0,02213498
0,0073763463
-0,041745093
-0,022093536
0,015551356
0,20829102
0,004061621
-0,03397467
-0,0003860034
-0,037845403
-0,033628084
-0,020531962
-0,00818109
-0,023465069
0,017233824
-0,017010668
0,035556763
0,0352431
0,027507272
0,082174025
0,33109814
-0,028977145
0,033206295
-0,031501565
0,0003928674
-0,020193476
-0,014538914
-0,006567528
-0,036783025
-0,011349299
0,016660659
0,0067253
-0,021850144
-0,009164897
0,019812288
0,04874011
0,010173693
-0,5016681
0,011253607
-0,18957467
0,2814269
0,013095687
0,0066306256
-0,01553346
-0,01288729
-0,012675262
0,0034039647
0,012988142
-0,018272195
0,0023638322
-0,01158167
-0,0012996899
0,012989255
-0,0012275552
-0,26212454
-0,018851012
-0,013767861
0,01949459
-0,009740918
-0,019025905
0,0019023495
0,0085371975
0,012852555
-0,011568239
0,009514995
0,002359496
-0,027805967
0,02535945
0,26316324
0,12609355
-0,0016615376
0,0010540566
-0,3954074
0,00051689555
0,036131952
-0,13112304
-0,00091913814
0,028920686
-0,28323174
0,26911968
-0,0017497895
-0,011029407
0,014982679
6,3348314E-05
0,008735488
0,025679953
-0,022619387
-0,006827439
-0,000289072
0,001933065
0,003444703
0,024383178
0,022580292
0,019182056
-0,46412444
-0,023174712
0,33494005
0,0011897219
0,022706725
0,004084677
0,05725498
-0,02471276
-0,04064779
-0,007027491
-0,03971194
0,03455262
0,0017379593
0,00371524
-0,22379178
-0,0671932
0,25157008
0,070483774
-0,10463764
0,028103147
-0,21958834
0,05685699
-0,18050082
0,0027397715
0,03802567
0,053109307
-0,016179511
-0,0020513153
-0,017854786
0,02153896
-0,0170978
-0,046280917
-0,007752645
-0,009480768
0,23876895
-0,027374145
-0,023285003
0,01186428
-0,29593426
0,032582957
-0,016375795
0,0050301063
0,0021876767
-0,042195477
0,065170676
-0,33106303
0,33068874
-0,019668328
-0,40020013
-0,033276133
0,02026364
-0,019547815
0,020284545
0,024455566
-0,011033508
0,027709441
-0,0011560054
-0,0052166204
0,011042425
0,037182495
-0,13841346
-0,11291835
0,011751174
0,04425477
-0,026455278
-0,02743067
0,19500679
0,007827907
0,035297148
-0,45148915
0,01341714
-0,0034069628
0,018703524
0,012245099
0,024208266
0,023741156
0,008081518
-0,45026097
-0,34021428
-0,010172074
0,0041747773
-0,0034678867
0,025892867
-0,080708005
0,003678007
0,011328615
-0,0070215375
-0,14930269
0,017681098
0,0020922732
0,030685505
0,019818027
0,013209378
-0,013669674
-0,0012595513
0,022022728
0,016136501
-0,012973158
-0,016331136
0,011975936
-0,01544309
0,0047810525
-0,017514283
0,0011100793
0,0001372535
0,011374086
0,47433853
0,11970096
0,003822899
0,021255625
0,0062765786
0,01834336
0,025401695
0,021195004
-0,11153903
0,0045622466
0,37019533
0,09108469
0,4257444
-0,00421364
-0,013644137
0,025807023
-0,27016142
0,020660395
-0,039433654
0,025471251
-0,033066146
0,018111963
0,0010883485
-0,0058705895
-0,02005913
-0,033945415
0,041383825
-0,025762461
0,021959107
0,0029747272
-0,016292786
0,3048202
-0,010295979
0,02566689
0,0041155783
-0,032776106
0,005142351
0,003980893
-0,020288765
-0,022107368
0,0018497125
0,016537113
0,0070761084
-0,004929167
-0,36604163
-0,020930262
-0,0120746475
0,035140004
0,005661566
-0,0027931477
0,012831923
0,013990068
0,28006667
0,0005881639
-0,17949224
0,004057212
-0,021047262
0,024127964
-0,014662396
-0,011946349
0,0041201175
0,360433
-0,0063639516
-0,047386967
0,012500501
0,037963543
-0,21312332
-0,018241495
-0,022237241
0,01546584
-0,016143488
-0,006164583
-0,008947013
-0,0027647482
-0,022430437
0,012672153
-0,015039789
0,002895113
-0,007908219
0,307392
0,11905207
0,023244478
0,021438608
-0,0114483945
-0,021185523
-0,017034614
-0,0024633955
0,01210881
0,0042607584
0,015826114
0,005058069
-0,035614617
0,018217735
-0,013642877
0,43237573
-0,010824114
0,04734532
0,48439747
-0,008117013
-0,017986463
-0,08301232
-0,011062924
0,009017481
-0,25226265
0,0033739852
-0,00035815372
0,3814757
0,1324648
0,010528487
-0,021426795
-0,048688415
0,009595032
0,013575655
-0,009040243
-0,0046525523
0,00044292546
-0,022317376
0,0082574515
0,008068099
0,013938054
-0,017141342
-2,0828493E-05
0,0018274911
-0,01535046
-0,009671479
-0,0077429553
-0,0090315575
-0,013632728
-0,0034697382
0,35051438
-0,33619243
0,024646739
-0,034766953
0,24124093
-0,23609893
-0,007822634
-0,0073192
0,024165971
0,012832775
0,048399534
0,009163833
0,038588908
-0,015938947
-0,011562084
0,004086973
0,01821431
0,010486932
-0,00061563024
-0,01738938
-0,025927376
0,013482481
-0,31478474
0,0054036397
-0,01043196
-0,01762356
0,0073758224
0,0041993763
-0,0069006444
-0,0070580933
0,22092551
0,027481746
-0,0021871466
0,00013045823
0,016110165
0,0030359365
-0,3827616
0,015907083
-0,023810955
0,0065724975
-0,29843667
-0,022919938
0,0064467466
0,016730472
0,01338789
0,018402172
-0,0054314807
-0,0132394275
0,01638126
0,008875343
0,02394958
-0,018230934
-0,021326583
0,031496536
-0,0015148232
0,016817534
-0,024483511
-0,012200785
0,018011518
-0,008645809
0,003818895
0,032006923
0,018479826
0,013607939
0,012495933
-0,030423202
-0,018351316
-0,20536622
0,0015883637
-0,0035304974
-0,009089504
0,036294468
-0,006386951
-0,016197115
0,004826794
-0,26345667
-0,002067675
-0,021875791
-0,44589376
0,009072638
-0,008150563
-0,011661133
0,0051689935
0,013284966
-0,015122911
0,022710305
-0,015047653
-0,0009066475
-0,20243408
0,009674032
0,27190888
-0,022276355
0,01821527
0,009718309
-0,02122445
0,0054179877
0,471372
-0,02089613
0,0273102
0,05672892
-0,002921234
0,007432652
0,0014123697
0,01997027
0,019722516
-0,002258943
0,23516172
0,008097663
-0,3971347
-0,0005954972
-0,05218267
0,027159115
-0,014522867
0,013219355
0,018534942
-0,002132403
0,0057823504
0,010032461
-0,3768437
-0,007755012
-0,025328925
-0,027298566
0,01493975
-0,010831717
-0,008815022
0,015264282
-0,020809075
-0,016081147
-0,008327964
0,004180556
-0,0050650765
0,010825052
-0,014592198
0,33845535
0,39514688
0,026812354
0,0029962868
0,010610178
-0,0060914857
0,09636752
-0,010156131
-0,14045398
0,002947091
0,21132046
-0,0004586453
-0,0002474673
0,014377193
-0,019403832
0,028731048
-0,007275049
0,009234815
0,004402903
0,017099248
-0,037593566
0,011880582
0,050578527
0,038380187
0,013419606
-0,023030965
0,0146949645
0,0047302977
0,007736458
-0,013954425
0,0012663207
0,0029087372
0,0065292623
0,008442744
0,018527351
-0,44811815
-0,012446374
0,016164526
-0,43613383
-0,32877564
0,16277446
0,0019057664
0,008487799
0,04667959
-0,015788008
-0,00199762
0,009895356
0,00766567
-0,03733636
-0,034591213
0,18623868
-0,00096812757
-0,001586057
0,015272105
-0,010986675
0,022009289
0,018461613
-0,006563633
0,0077714277
-0,001067456
0,019289734
-0,0032651317
-0,0113512715
-0,0051370724
0,4513225
-0,020779599
-0,19006544
-0,006290757
0,0152642615
-0,023780538
0,013497921
0,0020789094
0,118266135
0,0059419344
0,007930557
-0,03806138
-0,016907876
0,0014351088
-0,0076939017
0,015963377
-0,015608356
0,0112113245
-0,019185398
-0,005651419
-0,0019266261
0,010179358
0,028543787
-0,14847343
-0,009109683
0,049923975
0,37363002
0,0056971135
-0,010094883
0,008768755
-0,01750712
-0,015079657
-0,047702264
-0,45709303
0,0100093065
0,31969714
-0,019771162
-0,008575644
0,0035746146
-0,0074960412
0,31351843
-0,004208983
-0,0012433925
-0,025728425
-0,00980257
-0,009356713
0,01340476
0,07553074
0,009495137
-0,026819313
-0,07566923
-0,36416885
0,034146618
-0,056027222
-0,00044605284
-0,01661249
-0,002822183
0,026453542
-0,40420935
0,021886343
-0,019575097
-0,01675141
0,46753898
0,21754177
-0,0100032715
0,021204354
-0,004729776
-0,022332124
0,044375196
0,22654128
-0,010597974
0,3460677
-0,014328628
-0,4639912
-0,008453811
0,015466062
-0,2425527
-0,008464018
-0,031178882
-0,020780792
-0,017178774
0,003982479
-0,04121019
0,019869927
0,0033020698
-0,19549082
0,44504407
-0,095161565
0,052294232
0,022235503
0,014310164
0,28551126
-0,02303156
-0,028771687
-0,0035765176
-0,018092697
-0,0020904182
0,008324669
-0,00079047057
0,0032889238
0,00068243354
-0,02772656
0,0038081973
0,0128639005
0,014043425
-0,022957236
0,013608419
-0,018803272
-0,01007295
0,0016986938
0,01894351
0,007794492
0,014991557
-0,012336058
-0,01694568
-0,01253484
0,03536201
0,00059676514
-0,018742576
-0,035467535
-0,012129358
0,0030248733
0,007294521
0,022275306
-0,015037068
-0,027106073
0,0057133683
-0,024097746
0,27058393
-0,035316207
0,004324037
0,010163542
-0,0033429528
-0,026338348
-0,0023448404
-0,012102648
0,02876142
-0,025792828
0,011211267
0,403279
0,00010309555
0,042189438
-0,020552218
0,015748974
0,02443507
-0,024264203
-0,018939532
-0,02135747
-0,040036593
-0,005462401
-0,008674398
0,008542314
0,44208822
-0,01795375
0,009027114
0,011130761
-0,028235521
0,0083159935
-0,023285907
0,032400627
-0,021447605
0,3531085
0,031885095
0,008382788
-0,01562749
0,009469641
0,008792431
-0,009922468
-0,024306074
-0,028725026
-0,0026350706
-0,003786146
0,1346164
0,022031534
-0,016069567
-0,0046871034
-0,02497543
-0,114288926
-0,03211176
-0,0053199404
-0,2599003
0,002443882
0,017814292
-0,0022342743
-0,018625868
-0,017914712
0,046638012
-0,022147426
-0,44205397
0,43839175
-0,013088807
-0,016726136
-0,011245578
0,08072047
-0,0065287906
0,3878168
-0,013582684
-0,002305958
-0,010192372
-0,0039333855
-0,0018031752
0,031610865
0,0038852813
-0,01465502
-0,046255838
0,018540027
0,014609053
-0,002753972
-0,009028456
-0,014621144
0,41875863
-0,004121884
0,019547734
-0,106638536
0,015839128
-0,008182217
-0,0067082923
0,011516249
-0,012615112
-0,030094385
-0,02851804
0,47557977
0,017229136
0,0326297
0,031064147
-0,0323495
0,00023136314
0,01573686
-0,006586578
0,009867579
0,029508436
0,01283896
-0,11262503
-0,0038644657
-0,027229896
-0,45822382
0,009606412
0,023605531
0,004645119
-0,012474657
-0,01755262
-0,009327784
0,0041086767
0,010764898
0,00904656
0,06872732
0,15935244
-0,0131268725
0,031134147
-0,16175868
-0,00046556603
0,008830724
0,0032400691
-0,01373984
-0,006144853
-0,0057392507
0,016572349
-0,023280166
0,016367398
-0,008233693
-0,00842199
0,06997614
0,0035024332
-0,15236244
0,032869026
0,0052056606
0,011181283
0,0015606297
0,24949974
-0,0072702914
-0,015907582
0,0044960016
-0,02583565
-0,04125543
-0,3095657
0,024888325
-0,021441435
0,023637466
0,010846368
0,045832884
-0,016511269
-0,008103501
0,02143096
0,034673676
-0,39917544
-0,17241058
-0,016636062
0,0048609427
0,06355965
-0,00018537416
0,026784495
-0,0075969924
0,03589055
-0,028758476
0,14100814
0,026014028
0,042730752
0,021851681
-0,12699518
-0,017932106
-0,0074181627
0,028863212
-0,0025902968
-0,0041751326
0,04243766
-0,00033929356
0,021937083
-0,19792402
0,0112353135
0,27169442
-0,010685238
0,031089662
-0,0003132208
0,022875791
0,011392657
0,42355543
-0,3681569
0,003945328
-0,19044706
-0,06199448
-0,014078603
0,060422402
0,20856474
0,005460378
0,013872897
-0,022108613
-0,45653576
-0,11407433
0,002921183
-0,3174587
0,026998956
0,14584397
0,016500797
-0,36748913
-0,10101839
0,028504388
0,016535766
0,04637639
0,015356869
0,0069959154
0,45146096
0,00672834
0,025343068
0,008403408
-0,31670237
0,0035150477
-0,01081749
0,011435105
0,013924024
0,0018561545
0,14790255
-0,0077235745
-0,013722426
-0,005444912
0,00468004
-0,0050756293
0,013716718
0,013325437
-0,0023012112
-0,38501915
-0,012672738
-0,010579764
-0,019651765
0,113075525
0,0076411953
0,018692112
-0,019582644
0,0032080736
0,027382554
0,0010602642
0,015068798
0,014656792
0,013654716
-0,037185553
-0,15009043
-0,017713808
-0,015335874
-0,0052728257
0,003522071
-0,017577616
-0,008310968
0,0021946025
0,43032825
0,0025825133
-0,012297593
-0,011968882
0,01837997
-0,33927798
0,0012132458
-0,0032320837
-0,0047354093
-0,006691266
0,035914313
-0,02204903
0,2829718
0,021226594
0,003986654
-0,0155392485
0,009915608
0,011920423
0,0016429953
-0,32811227
-0,005073379
-0,005485328
-0,032348745
-0,031360906
0,018673446
-0,007554048
0,043488137
-0,47760534
-0,011954489
-0,01066929
0,072808184
0,00025830124
0,027540836
0,002248182
0,015100014
0,0011210538
-0,016796488
0,037835635
-0,015284242
0,002394766
0,009351477
0,0028637978
-0,010619341
0,012526221
-0,37105104
-0,030723786
0,01773542
0,35964808
0,016278788
-0,007883423
0,030791882
-0,0009770878
-0,07779861
-0,017568206
0,033168692
0,033210516
-0,02536814
-0,0047690915
0,0082955975
0,023901215
0,022160858
-0,06555458
-0,009970554
0,006273167
0,35732493
0,015755156
0,0019307015
0,3541455
0,009103917
-0,028334439
-0,4059169
-0,0033037341
-0,14092216
0,4469241
-0,031097762
0,030560821
-0,010556843
-0,017376434
-0,04369653
0,01303281
-0,104848884
-0,009099445
0,012162692
0,004212815
0,018635
-0,015434512
0,06590661
-0,011423744
0,026852606
-0,02385673
-0,3564556
0,06730688
0,02915644
-0,49816844
-0,0101234475
-0,20107387
0,08139213
0,25048962
-0,00094792905
-0,00023806098
0,021105269
-0,022756243
0,4913719
0,056505915
0,0081591485
-0,28853112
-0,12669127
0,0016026123
0,011504708
0,021414137
0,029263746
0,006707481
0,018045994
-0,004161418
0,022196155
0,3504496
-0,0069736643
-0,038457435
-0,02519097
0,015369948
-0,012881023
0,043447606
0,0028743162
0,4683344
0,008511688
-0,47586587
-0,015195017
-0,015637163
0,28463754
-0,24104114
0,036485314
-0,016317707
-0,044090915
0,030226389
0,001080199
0,004171556
0,0049182866
0,010285212
0,0075993137
-0,45420998
0,068473704
0,08700064
0,3619717
0,02301325
-0,012313481
-0,0006784881
0,20225616
-0,02298089
-0,39423567
-0,007713774
-0,014458177
0,024255946
-0,0042265044
0,011710347
-0,021084793
-0,011159413
-0,09919583
-0,0004877389
0,008192163
0,0015089279
-0,17790806
0,1409063
-0,0025774036
-0,011288886
0,012868386
0,008893366
-0,017995697
0,0045145242
0,17044508
0,019018054
0,006695764
-0,0123294005
-0,02620403
0,0044147745
-0,0023398665
0,3270024
0,0054453607
-0,013585428
-0,029659921
0,018727228
0,022946512
0,0059429784
-0,008009881
0,3005401
0,022544703
0,030435216
0,012498402
-0,0063445335
-0,006639674
0,21262936
0,0032831507
-0,014960907
0,4378631
-0,049818978
-0,004627497
0,008823728
0,004143701
-0,18346207
-0,026075896
0,0070468048
-0,0068493146
0,12061453
0,0039231875
-0,05809181
0,022935547
0,011323723
0,464441
0,0012671493
0,025362438
0,011090625
0,022495609
0,17784803
0,0036893338
0,013384109
0,022609992
0,03024267
-0,04336557
-0,0011923353
-0,0066775586
-0,024270086
0,016283737
0,014433767
0,008202919
-0,0055383584
0,0051241643
-0,0085727535
0,033522304
-0,0064679724
0,018329367
0,017491404
0,0060342955
-0,19318278
0,018955346
-0,32647565
0,03943239
-0,00746594
-0,009945015
-0,015375665
0,0002346808
0,004200377
0,0015683826
0,0020596243
0,022058304
-0,0061165905
-0,0076167057
0,008839956
-0,38367867
-0,0023589565
0,0031908678
-0,022355039
0,11515785
-0,0048944717
0,025164574
0,004517676
0,00043095718
0,021326106
0,015016398
0,018951643
-0,15033783
0,0060705845
0,0037604796
