125
20
-0,2751514
-0,20387527
-0,41678417
0,3888998
0,14549297
0,4176297
-0,18830588
0,39251912
0,3195306
0,119742304
-0,069206744
0,29771814
-0,11049032
0,4596233
-0,24599406
0,14353018
-0,35337973
0,20271908
-0,43186617
-0,46693426
-0,36098188
0,29886478
0,40817243
0,03810907
0,18173407
0,26983938
0,14210401
0,44515702
0,077032425
0,38113475
0,04694114
0,4352538
-0,41305748
0,094946116
-0,43183792
-0,005036912
-0,23230797
0,17200118
-0,14309025
-0,25931144
-0,22011806
-0,06543351
-0,10002216
-0,23193578
0,08193055
-0,18305197
0,4999274
0,33667073
-0,4016187
0,076346904
-0,1793035
0,33885196
0,33696148
-0,0005191162
-0,40975505
-0,27565947
-0,07499849
-0,16166645
0,08511385
0,3978551
0,34729287
-0,27328482
-0,051699094
0,4760994
0,1813159
0,0064915917
0,4744551
0,44450408
-0,09648024
0,039724592
0,3382493
0,4450818
-0,13101709
-0,18503205
-0,043461047
-0,38947707
-0,013123368
-0,038059853
0,079208195
-0,43504488
0,033314325
-0,3602337
0,37473205
-0,01800648
-0,30034462
-0,43137264
0,021798909
-0,02145197
0,22808447
-0,45560026
0,22998697
0,49432346
0,36734167
0,2595861
0,3970964
-0,2029299
-0,402494
-0,18848793
0,07015421
-0,43240675
0,24939911
-0,38946718
-0,120550156
0,25570595
-0,0054880986
-0,29569554
0,45214158
0,16771042
0,32746905
-0,038330056
0,14245328
-0,13021684
0,49360624
-0,38222846
0,3562353
-0,1681057
0,26037845
-0,22915617
0,42749077
0,04747725
0,4765854
0,44354755
0,30498093
-0,19372617
0,4619104
-0,28141287
-0,44819826
0,16275099
0,26932284
-0,40836352
0,11347848
-0,22227511
0,42394072
-0,22325449
0,12915747
0,14167339
-0,17084408
-0,31204623
0,29081863
-0,15572889
0,01861616
-0,43841547
0,2820776
0,24853012
0,18497798
0,48775497
-0,36940968
-0,2428195
-0,09082165
-0,26556244
-0,2515025
-0,06254883
-0,15118642
-0,42513055
-0,01602255
-0,26135173
0,0030640159
0,098646924
0,04117367
-0,03016999
0,35350874
-0,47130117
0,12561174
0,13923569
0,18678758
-0,28043097
-0,4893945
-0,014960678
0,06919651
-0,34600133
-0,20018582
-0,390626
0,09355547
-0,31431395
0,0922598
-0,2624188
0,31469786
0,24927211
-0,21938019
0,26016766
-0,041849155
-0,0077819396
-0,10144179
0,47088742
-0,12726735
-0,467286
-0,49757844
0,23070648
-0,16200548
0,004056092
0,29353932
0,23048648
0,149482
0,33073926
0,020451562
-0,28190038
-0,4763347
-0,20237713
0,002288582
0,36730906
0,39858156
0,23541965
-0,48733264
0,27224123
-0,46488643
0,3088644
0,4905724
-0,18726657
0,19299588
0,041267004
-0,045719262
0,24338639
0,37997895
-0,13173455
-0,43769217
0,047038924
0,09913227
-0,40571606
0,3950661
0,286666
0,4596625
0,07371398
0,08602671
0,32866505
-0,40761063
0,09185992
-0,24083622
0,2605895
-0,20062603
0,18783234
-0,23757988
0,06204456
0,1276645
-0,09968054
-0,35624328
-0,4446817
0,06556349
-0,07569194
-0,291219
-0,21118467
0,039075963
0,31467554
-0,45343235
0,36035645
-0,48196268
0,26511878
0,18850794
-0,40449288
-0,036867708
-0,14730035
0,058574975
-0,16696192
-0,17359757
0,07311878
-0,26667172
0,3737285
0,24787174
0,25334123
-0,42759547
-0,28598186
-0,4507898
-0,39486405
0,008127421
0,087434806
-0,47736478
0,20491071
0,453265
0,39497647
-0,17139912
0,22031139
0,021429537
0,45656934
0,24655487
-0,4697081
0,29190361
-0,024621647
-0,09632551
0,07948399
-0,35383087
-0,47193822
0,44207054
0,022195153
0,08558691
0,27931318
0,41762167
0,057491247
0,3944141
0,29361287
-0,23859237
-0,23348507
0,47685063
-0,48443896
0,2841994
-0,25159043
0,46551654
-0,40781966
0,073734604
0,14261027
-0,14934495
-0,48418605
0,46348172
0,005076661
-0,08602804
0,17056704
0,45457813
0,45763937
-0,15865716
0,46306488
-0,0033055393
0,17385142
-0,14224839
-0,15583774
0,28151795
0,08404032
-0,16239388
0,4853367
-0,3375485
0,24054307
-0,120614156
-0,38193974
-0,18669322
-0,4958758
0,3029513
0,2028494
0,066607215
0,33832565
-0,058833957
-0,48163125
0,054480817
-0,029794652
-0,31411704
0,45070493
0,26684812
-0,31818938
-0,10393625
-0,2674484
-0,22085394
0,29283366
0,04053204
0,45803103
-0,32900468
-0,18885483
0,397102
-0,4587194
0,36011022
-0,09699743
0,012123418
-0,32950035
0,076129876
0,38436937
0,02877433
-0,00021955576
-0,39243662
0,40805733
0,2396176
0,49791932
0,17281514
-0,08813095
-0,16291618
-0,015757982
0,06995715
-0,3563663
-0,21933869
-0,41067705
0,38183102
-0,13020316
-0,29266405
-0,43543917
-0,14717685
0,06424722
-0,3203837
0,06082761
-0,06819175
0,118890435
0,32564306
-0,25564927
-0,26238787
0,22467224
-0,43784788
-0,08463
-0,4070707
-0,35219866
0,23063108
0,32418427
0,32459408
0,2453155
-0,31857964
0,34442228
-0,28538495
0,056644484
0,36931977
-0,3871806
-0,18541645
0,35529637
0,34105825
-0,23058501
-0,23001365
0,065615416
-0,281733
0,024822852
-0,39342916
-0,08979021
0,3234621
0,07895431
-0,040548388
0,27787915
-0,3046827
-0,47313786
0,19053954
-0,15638441
0,4278625
0,25723183
-0,25392616
0,47024867
0,36019012
-0,22332917
0,43787342
-0,2140297
-0,15708269
0,22228347
0,43869868
0,24753977
-0,47929552
-0,3274953
-0,07058254
-0,19538334
0,32675633
0,21600366
-0,24464385
0,21634841
-0,037160005
0,41176233
-0,39477655
0,49622
0,49613553
-0,12677364
0,1048962
-0,43859088
-0,41083515
-0,29488572
0,3374741
-0,38101122
0,43639448
0,43069547
-0,05790492
-0,48478076
0,2372377
0,3218825
0,12908608
0,15348715
-0,18480708
-0,22338009
-0,29568702
-0,4668108
-0,3513909
-0,017021261
-0,343165
-0,07950691
0,4149301
-0,19697878
0,12962422
-0,22345863
-0,08108842
-0,22280475
-0,3040683
0,46329078
-0,22136053
-0,44442642
0,33136827
-0,052714966
-0,2816038
-0,30789575
0,4704365
0,37921536
0,46624953
-0,022338968
0,05956428
0,46726066
0,16378246
-0,39420325
0,0711972
-0,23806448
-0,4818895
-0,3571153
0,022448037
0,031335883
-0,41965744
-0,08405808
-0,19485867
0,37738454
-0,35977787
-0,41057435
0,3544114
0,21104981
-0,45589104
0,057795662
0,03580689
-0,21783336
-0,29072252
0,40657115
0,07112849
0,3013683
0,22783837
0,17149033
-0,18036847
0,052570697
-0,36874056
0,15995574
0,18899027
0,13945213
-0,05948103
0,39495268
0,29975584
-0,314587
0,058977854
0,30185542
0,14991347
-0,29397994
-0,44152194
0,011509343
-0,4107959
-0,22998808
-0,13799572
0,09647822
0,083987005
-0,4831634
-0,052908067
-0,47564957
-0,30133426
-0,016452428
-0,10396268
0,3206313
-0,04629749
0,30611312
-0,00051711086
-0,22377223
0,20770583
-0,24069157
-0,37638384
0,0016838849
-0,3916566
-0,00498858
0,2487741
-0,4940596
0,3282006
-0,43847018
-0,18280381
0,3633749
-0,101579785
-0,34740266
0,052902397
0,32072803
-0,046049144
-0,34523964
0,34531376
-0,056386165
0,36894923
0,008974306
-0,47561774
0,39122814
0,020631017
-0,29125297
-0,26998213
0,43398085
-0,04023289
0,37511542
-0,24574326
-0,29073092
0,16043776
-0,00711446
-0,38840672
0,13846447
-0,35212615
-0,07415343
0,2554206
0,43154043
0,46281376
0,46716443
-0,15945037
-0,4651145
0,24627484
-0,061062206
0,21222058
-0,005658592
-0,42869595
-0,46509916
0,12249044
0,100093685
0,27507594
0,14820103
-0,036466718
-0,48850265
0,00019252792
-0,23564515
0,038958862
0,39579928
0,41335478
0,023549067
0,26822707
0,035768237
0,3424822
-0,1798056
0,2011266
-0,47893733
0,18203244
-0,3624329
0,34843817
0,21984652
0,42591307
-0,019952307
-0,27555004
0,36990088
0,35453764
0,46323583
-0,3546266
0,192438
0,33558238
0,22974022
0,48471147
-0,38046363
-0,42356306
-0,22132012
0,025298407
0,4054595
0,4217241
-0,17031224
0,45011112
0,22282955
-0,16212772
0,3621388
-0,23018534
-0,3299985
0,14188729
0,20552166
0,27429542
0,3119996
-0,21676357
-0,061941855
0,46407878
0,041829143
0,34188768
-0,45378357
0,22199081
0,35869575
0,2998274
0,38009244
0,16547367
0,19321294
0,39115652
0,40470362
-0,26167053
-0,080724455
0,49593875
0,2691425
0,18398175
-0,42867815
0,4737517
-0,009114871
-0,4218769
-0,2638346
0,4460193
0,4851227
-0,03653468
0,31961074
0,24174884
-0,226054
-0,35362622
-0,11579685
0,23109686
-0,06512545
-0,096515775
0,20024203
-0,47000647
0,16283493
-0,20378736
-0,35823768
0,49480054
0,08293152
-0,2922286
-0,3675694
0,48963448
-0,42110935
0,1844489
-0,10762561
0,30932137
-0,13791065
0,23031396
0,39739323
-0,07963711
0,05433971
-0,13251762
0,3495484
-0,41585216
-0,38651705
0,27647057
-0,24145882
-0,084178455
-0,29968467
0,4202561
-0,17506428
-0,25814483
-0,38024142
0,43937346
-0,3420998
0,4891799
-0,40148288
0,46605092
0,15167129
0,37491387
0,4881641
-0,36677203
0,12653041
-0,32926646
-0,17555547
0,305637
-0,0732551
-0,40073445
0,3892082
0,22734524
0,40823168
-0,4801486
-0,3737673
0,41534248
-0,054117
-0,05162231
0,43937534
-0,10009242
-0,021169884
-0,038450602
-0,35390195
0,12925392
0,05939159
0,26985928
0,16504695
0,4124179
-0,13198818
-0,18819697
-0,25546932
0,38558218
-0,015653707
0,36628106
0,34968632
-0,44283152
-0,39968023
-0,4155659
-0,4567798
0,284367
-0,36629564
0,021725602
0,3766634
-0,1633833
-0,40761277
-0,1739913
0,40522662
0,38123724
0,35662034
-0,12065311
0,33002287
0,39711607
0,18271105
-0,30072725
-0,03739542
0,26197654
0,15056257
-0,49834734
0,41355827
-0,4189306
-0,37553245
0,3832319
-0,25687087
0,26846007
0,38276935
-0,44774053
-0,10493522
0,32743725
0,1735889
-0,39298233
0,13552974
-0,10334729
-0,029059974
0,41891268
0,17282578
0,24247439
0,30666223
-0,035969052
0,45971686
-0,3077079
-0,17888993
-0,2625676
-0,3542633
0,025017863
0,22834738
-0,44675192
-0,1670178
-0,4006322
0,17589623
-0,10120501
0,12995021
-0,45027998
-0,3289441
-0,22222264
0,38891163
0,4954862
0,2865187
0,13796438
0,27851126
-0,46095613
-0,123277396
0,48550147
-0,13948697
-0,34765664
0,35560837
0,013884375
-0,20278004
-0,008839871
-0,4186396
0,3127929
-0,010239724
0,33166242
-0,14017363
0,40788296
0,35159522
0,40351927
-0,35462743
-0,0054833847
0,2349065
-0,21718407
0,26886836
-0,15602666
-0,17084299
-0,30869752
0,38003838
-0,13768823
0,0966887
-0,0642172
-0,27626616
-0,09534295
-0,35055912
0,3039681
0,29787746
-0,30141297
0,29859015
-0,41393486
-0,42531314
0,21643385
-0,19399393
-0,3429926
0,2822226
0,08463538
0,3863024
0,08297454
-0,2695568
0,1291002
-0,3698455
0,2215188
0,22273332
0,29352248
-0,4420067
0,16498303
-0,1979144
0,40106902
-0,07017573
-0,26815826
0,4513242
0,041619364
-0,2565661
0,20995168
-0,24597043
-0,15523541
-0,025132725
0,24497887
0,31061447
0,08344581
0,1403273
-0,4603393
-0,38057622
0,3551281
-0,042454198
-0,47371987
0,30604896
-0,22699328
-0,046825074
0,48011056
0,06491884
0,09425063
0,33792683
-0,2999717
-0,46590716
-0,094799876
-0,47014493
-0,28606865
-0,47305053
0,064575024
-0,42672867
-0,42743447
-0,0741762
0,0025419388
-0,09555142
-0,13948658
0,3355783
0,027826589
0,27312008
0,47391674
-0,31776753
-0,44536358
-0,23177956
-0,20145538
0,3554393
0,4647352
-0,3228531
-0,38676557
-0,14720374
0,17564443
0,3626387
0,15343009
0,35490307
0,15495412
0,37155268
-0,34034353
-0,2230952
0,2911493
-0,24130802
0,31552413
-0,20560385
0,08876006
0,29005784
0,46999732
-0,115611486
-0,06188285
-0,2315297
0,29239905
-0,28762463
0,37822288
-0,077193715
-0,23903514
0,26493862
-0,0027242713
0,08564576
0,14348903
0,3496947
-0,45734006
-0,14594775
0,022970477
0,006541111
0,46032485
-0,40089595
-0,15986553
0,49898422
0,49628922
-0,06766481
-0,2535992
0,49385408
0,1680341
0,3738115
0,3253404
-0,42954043
0,11906809
0,030419972
0,36829028
0,05899991
-0,070450656
-0,25745565
0,11609723
-0,25906193
0,02024693
0,40446365
0,1332041
0,025937187
0,26648858
0,35262102
-0,17377077
-0,012542497
0,35152212
0,113655776
0,20367283
0,07335998
-0,32921264
0,06509776
0,23191378
0,17760102
0,29452905
0,47443944
0,057376992
0,38203025
0,24603407
0,1968981
-0,26319155
0,33740354
-0,09509901
-0,36813045
0,49498668
0,28953093
-0,035193823
-0,34941858
0,2810862
-0,2251325
-0,3238389
0,48646688
-0,28268102
0,29813096
-0,17432746
-0,1970837
-0,3359946
-0,18157037
0,09031381
-0,11204197
0,36026123
-0,3893004
0,04180238
-0,09614805
0,30485746
-0,15229811
-0,28972727
0,05391137
-0,1699362
-0,39498216
0,06517143
0,29671416
0,11923508
-0,3864209
-0,012594027
0,025051402
0,09270995
-0,25763747
0,3799181
-0,43745562
-0,4631066
-0,15511927
-0,47090065
0,37838164
0,13388996
0,37272087
0,381507
-0,3560739
-0,25252077
0,44323367
-0,13620183
-0,31641468
0,32162106
-0,42573535
0,47982633
-0,22446936
-0,22724584
-0,432503
-0,3957883
0,39514336
0,002268203
0,17306486
0,15704764
0,2651671
-0,29648677
-0,4692303
-0,4655769
0,29047212
-0,17795803
-0,11412775
-0,15722197
-0,29545268
0,24933453
0,44356197
0,3845613
0,2285029
0,44560337
0,02942674
-0,04731793
-0,17933315
-0,13941783
-0,2911412
-0,07911255
-0,027281705
-0,18907425
-0,36057422
0,25636742
0,079891436
-0,46386603
0,3857832
0,42796308
0,36557788
-0,044170823
-0,45057312
0,29363692
-0,15993054
-0,4803874
0,2116891
-0,16224948
-0,11377029
0,349922
-0,39480525
-0,40816328
0,06501167
-0,0009948816
-0,041832756
0,36954957
0,38744947
0,31937477
0,31323376
0,1046843
-0,122444846
0,31473798
0,19787681
0,35820153
0,278168
-0,0279189
0,29773852
-0,46564844
0,27946353
0,49584913
-0,29916087
0,27635193
0,2686218
0,05189737
-0,4513119
0,11190609
0,49711192
0,23114213
0,4503464
-0,3266511
0,33959192
0,06658535
0,17103761
-0,38702342
0,04977947
0,33812207
-0,49966505
0,057922363
-0,27416238
-0,13893029
0,14729883
0,22869697
0,101722315
0,15950224
0,017767612
0,07416356
0,10761542
-0,3802548
0,20049697
0,21426372
0,46587503
-0,13197495
0,004527803
0,44352773
-0,056013566
0,28659505
-0,44433212
-0,2524095
-0,22000074
0,3475432
-0,33713007
0,40187117
-0,28552136
-0,38389602
-0,1800645
-0,4143315
0,42994067
0,29873565
-0,09884267
-0,24227962
0,2416095
0,2672692
-0,22573452
0,3632487
0,3727391
-0,24659327
-0,15522178
0,019259153
0,24140686
-0,15288915
-0,43917125
0,035757896
0,15518948
-0,1088266
0,042501915
0,09141857
-0,47483146
-0,26007718
-0,11546609
-0,13204011
0,29016125
0,07810695
0,3991447
0,07904533
0,104672156
0,07230767
0,10324455
-0,38670495
-0,4329967
-0,15910907
-0,21297966
-0,2494472
-0,18835977
0,28862885
0,48167348
0,31565627
0,31826013
0,3035808
0,20132981
-0,24626589
0,17141782
0,37252873
-0,43596855
-0,2569445
-0,23073305
0,31993452
-0,03484798
-0,17721424
0,26402417
-0,073195934
-0,2436389
0,077229455
0,17890374
-0,1597115
0,118622355
0,20935881
-0,26607728
-0,10042309
-0,25690427
0,44145033
-0,36262986
0,39915568
0,26309803
0,49963808
0,23669513
-0,39563778
-0,24705063
-0,33621162
-0,17723121
-0,3848827
0,106173195
-0,0019827932
-0,13112755
-0,22034098
0,45587233
0,36539534
-0,3613153
0,39882725
-0,16767031
-0,04811271
-0,0071316543
0,41100413
0,49345258
-0,28661618
0,35211563
0,20910427
-0,15271445
-0,49147338
-0,28258082
0,31509694
-0,36077332
-0,44388402
-0,22135976
-0,16107786
-0,018613992
0,19799843
0,03397967
0,00017483266
0,4669554
0,021905655
-0,446726
-0,22673374
-0,4171809
0,29697764
-0,007696286
0,22852774
0,39021963
0,48307252
0,023337128
-0,28032064
-0,13665505
-0,1412309
-0,05568587
-0,3458992
-0,0063999314
-0,16878664
-0,3445514
-0,46054316
0,36399797
-0,23696025
-0,34527317
0,110771306
0,034352697
-0,10599771
-0,2681946
0,103319965
0,059253205
0,26042113
0,24559966
0,3191535
-0,16683565
-0,064055055
-0,31394482
-0,4975715
0,43397447
-0,47944352
0,20250978
0,42435342
0,3551285
0,0034469415
-0,2377474
0,40541804
0,48746523
-0,22926526
-0,013361231
0,3519725
0,1250845
-0,09848448
0,35682514
-0,45178553
0,028973306
0,17906427
-0,2109735
-0,15260021
-0,4538932
0,31461358
0,28525734
-0,28476325
-0,20149416
-0,15766247
0,2581522
-0,2912782
0,092406645
0,12106194
-0,46516812
-0,3221918
-0,09893835
0,251071
-0,08665141
-0,41926003
-0,4855952
0,19903561
-0,3965758
0,37788838
-0,3775753
0,14405355
-0,05265661
0,2667615
-0,051395494
0,23307285
-0,42279613
-0,08966496
-0,48964667
-0,259337
-0,2920705
0,1611151
-0,082099214
0,4900563
-0,21501106
0,009642425
-0,27345222
-0,007792743
-0,07942521
0,45975927
-0,40985084
0,24602921
0,14057955
0,47700027
0,2842946
0,24094863
0,17113844
-0,36129838
-0,052429747
-0,34080988
0,4922381
-0,0794959
-0,2596444
0,39882
-0,065814406
-0,29149082
0,378996
-0,08811767
-0,12531848
-0,22622396
0,1510969
-0,49523544
0,49021745
-0,17401089
-0,12760411
0,4246518
-0,47210678
0,17698297
0,3372951
-0,4805005
-0,111066945
0,29755417
-0,038521487
-0,2367865
0,08556704
0,2286628
0,15830794
0,19700448
-0,31293407
-0,39262182
-0,18404353
-0,056474328
-0,24613252
-0,2724144
0,028959736
-0,48763588
0,33617476
0,14185129
0,13095812
-0,44882712
0,10945589
-0,12224165
-0,21459584
-0,021829292
-0,30311617
-0,26653093
0,15757188
-0,12211545
0,37149036
-0,0060439208
0,007646614
0,36901072
-0,23488984
0,40154013
-0,2868833
-0,2864039
0,25082412
-0,20996022
-0,073573194
0,47492856
-0,10337818
-0,05061683
0,19908409
-0,48757952
0,20012441
0,120511845
-0,31564307
-0,3486747
0,41065776
0,05262694
-0,4002485
-0,0495403
0,18501699
0,20558774
0,37065452
0,4229149
-0,071279645
-0,30916587
-0,20657317
-0,055896528
-0,24237324
-0,2977624
-0,13623823
0,12621137
-0,42119738
0,42234024
-0,021458615
0,07884698
-0,1557462
-0,33684647
0,19212848
-0,44937363
0,08681257
0,23305185
0,012752239
-0,16679405
-0,40856636
0,10064808
-0,117991835
0,28786162
-0,36290458
-0,18237011
0,35327744
-0,065608345
-0,31275296
0,103924185
0,24083568
-0,06971505
-0,06425605
-0,052418415
0,21399815
-0,10007679
0,4328375
-0,059652288
-0,0857617
-0,10365615
-0,035068568
0,45160526
0,14219269
0,38614985
-0,36907312
0,32041806
0,3097993
0,007081174
0,14708975
-0,33897004
0,09076316
-0,39852437
0,100329846
-0,49115857
0,36675385
-0,31977093
-0,40815732
0,29894865
-0,41901413
-0,26026824
-0,2809243
-0,12987928
-0,1526312
-0,24645942
-0,44225183
-0,47034162
0,09684102
-0,21274339
-0,4629472
-0,21104942
-0,22790512
0,3293973
-0,047195524
-0,10009509
-0,24836078
-0,37193727
0,22149746
0,07950225
0,42206857
0,19407946
0,34100118
-0,30192506
0,45930538
0,159648
0,035319
-0,14520834
-0,053753063
0,090444304
-0,48285198
-0,20235558
0,4768844
0,07625936
-0,35878444
0,034370784
0,34778392
0,3434818
-0,45609242
0,25197008
-0,14774008
0,11535938
-0,09321497
-0,28987688
0,3537777
0,08356069
0,06886473
0,2077375
-0,19931087
0,47733685
-0,07413124
0,23721172
0,02144377
-0,0821356
0,3704692
0,33737993
0,27650064
-0,050023746
-0,2916303
0,22474994
-0,32737488
0,13352795
0,3102768
0,19357958
-0,18914963
-0,46535283
-0,49017474
-0,1552886
0,31720805
0,15260316
-0,3276525
0,03889293
0,11895174
0,29110846
0,1099008
-0,23008624
-0,2608121
0,08805416
-0,035397805
0,33532885
-0,16166577
-0,15904847
-0,24299532
0,47105512
0,005616999
0,2923245
0,14957678
-0,44792947
-0,23788588
0,19331521
-0,16463938
0,35615382
-0,3504348
-0,35759494
-0,4152562
-0,06194126
0,2118053
0,30824387
-0,022409314
0,1549189
0,14912379
0,32376626
0,20763695
-0,1338882
-0,37448746
0,3707063
0,28650305
0,49203375
0,40474313
0,41270295
-0,3641112
0,34680316
-0,1521108
0,081926055
-0,19423465
0,4236172
0,0064660194
-0,44056576
-0,2477189
-0,12895547
-0,45887068
0,09604766
-0,15649611
0,025803499
-0,19825098
0,2559657
-0,45618826
0,27990013
0,37118235
-0,43400422
-0,20993617
-0,4500646
-0,39747232
-0,1651088
-0,3777042
-0,066473074
0,28907633
-0,47585437
-0,4593387
0,19504373
0,30030882
-0,37511095
-0,28367156
0,46025103
-0,22876456
0,2828369
-0,25668412
0,20387337
0,196876
-0,111784756
-0,34422186
-0,24766597
0,34526706
-0,22266236
0,25010464
-0,19257593
0,49579534
-0,1686022
0,24613799
-0,07903233
-0,3983236
0,007134839
-0,09966524
0,014997401
0,29346374
0,07830892
-0,2947656
0,09086831
0,49744326
0,46620238
-0,033939607
0,06338571
0,08323317
-0,1264191
0,39930356
0,20148471
-0,2997701
0,4174086
0,19890597
0,31298986
0,33967206
0,27765298
0,14509419
0,46626034
0,3616002
0,21523891
-0,4778672
-0,37608266
0,36296472
0,22899763
-0,30311692
0,44506368
-0,19710906
-0,33260968
-0,052915305
-0,16404109
-0,22941722
0,2020553
0,05598617
-0,09335802
-0,21796636
0,34220886
-0,21888956
0,010417296
-0,44377545
0,1512487
-0,22945228
-0,4201962
0,12562397
-0,10912978
0,424091
0,05487119
0,012061453
-0,16225941
-0,30059984
0,022623843
-0,38170448
0,49589416
-0,22756334
0,25920418
-0,46114406
-0,49155277
-0,4398802
-0,019894091
-0,1000881
-0,12704398
0,46916255
0,20970516
-0,019250248
-0,43793914
0,25809345
0,24910715
0,07606773
-0,36276713
0,13686897
0,29531616
-0,25619268
-0,45133144
-0,1969195
-0,15734793
-0,24143915
-0,25997892
0,01694068
-0,47655305
0,13443436
0,33619004
-0,43419123
-0,3943867
-0,073238075
-0,25331518
-0,42588145
0,1057556
-0,41335687
-0,055418916
-0,075940736
0,17393251
0,46051988
0,16189872
0,022321677
-0,25988933
0,1409453
-0,14744435
0,076829955
0,01773182
-0,37349296
0,08376769
0,28906092
0,24104609
0,16629364
0,20116556
0,4779707
0,11131265
0,4093968
0,3616338
-0,3456767
0,27621296
0,31093556
-0,30987424
-0,33836678
-0,42893454
-0,1116667
-0,43918726
-0,027955353
0,48075512
-0,25652194
-0,0827636
-0,47253615
0,24709551
-0,11604865
-0,41510952
-0,16040584
0,004300113
-0,31730467
0,39793327
0,13815549
-0,035286337
-0,11246115
0,12699269
-0,3753561
0,4595802
-0,04744308
-0,20244335
-0,3523961
0,39097208
0,35243264
-0,25910652
-0,32692623
-0,3320471
-0,0777951
0,09971009
-0,22873172
0,022434482
0,26949883
-0,16126956
-0,4965963
0,21811357
0,36848542
-0,27359638
-0,2698786
0,4259461
-0,3968295
-0,26211116
0,056879535
0,06786217
-0,08587496
-0,06302198
-0,014409305
-0,042654645
0,4607911
0,40197736
-0,45955348
-0,3946173
0,4264867
-0,37721464
-0,2576862
-0,35816485
-0,25557327
0,21602458
0,07968283
0,042791225
-0,29337138
0,039823778
0,49380073
0,13818783
0,073838614
-0,20101362
-0,410525
0,38693544
0,2868472
-0,26578316
0,22909458
-0,39563575
-0,48536405
0,43190745
0,07046969
0,34588802
0,038369656
-0,066560246
-0,100934826
0,41615114
-0,11369737
0,25335634
-0,08150096
-0,08156226
-0,08129296
-0,31435832
0,17041928
-0,29821664
-0,47295678
-0,36093482
0,2712524
-0,28082967
0,06721835
-0,46523127
0,461522
-0,09134988
-0,45246023
-0,40881082
-0,36561617
0,4332001
0,25606224
-0,45792016
-0,10870556
0,34736338
-0,2079226
0,39483082
0,109532535
-0,4128908
0,19851962
0,34875625
0,48109782
0,37131217
-0,18117642
-0,27015182
0,23303245
-0,38227174
-0,43063086
0,45790002
-0,19262145
-0,40769774
-0,3975439
0,028414052
0,45929638
-0,2941605
0,2600465
-0,3578626
-0,21946833
0,089267775
0,38612655
-0,42344424
0,2578738
-0,39534327
-0,19652767
0,41265064
0,39528015
-0,190086
0,49931857
-0,16973148
-0,33969772
0,005323053
0,41430673
0,017107125
0,04576992
-0,061949387
-0,20554312
0,09824416
0,13515593
0,36226726
0,13099486
-0,18519875
0,4375495
-0,21277432
0,3150208
-0,028696263
0,40876344
0,46536973
0,037626784
0,33912316
0,40268782
-0,24682774
0,089236744
0,05809254
0,4542459
-0,18143345
-0,12557237
-0,1164521
-0,008465528
-0,16484275
0,38087502
0,0066528614
0,13466968
-0,3456548
-0,21011448
-0,49493673
-0,23191446
0,2989064
-0,45333606
0,12162769
-0,25040945
-0,20493862
-0,46379453
0,4626119
0,18816948
-0,06247648
0,1826819
0,22333187
-0,015220391
0,26359457
-0,2772593
-0,13644175
0,256283
0,10863448
0,025756422
0,26608604
-0,44375682
-0,025010094
0,34681723
0,28236145
0,17790027
-0,27250206
-0,41181377
-0,015217923
0,15448596
0,32921007
-0,09271317
-0,41633126
0,06057436
0,02940967
0,21509424
0,36119348
-0,32349023
0,27715346
0,25750107
-0,29815668
-0,47738737
0,10095085
-0,2725613
0,48035857
0,13562219
-0,327129
-0,17772819
-0,30934668
-0,45868897
0,078810245
-0,10459755
-0,45827636
-0,49593616
0,057770226
0,30846733
-0,32412657
0,2511797
0,20453563
-0,30389193
0,078401804
-0,35105935
0,49203458
-0,3017763
0,0129473135
-0,18270344
0,15505107
-0,077659175
-0,4162017
0,10919595
-0,40262476
0,25249058
0,24469513
0,34897685
-0,1972018
-0,048759162
-0,2813122
-0,3404844
-0,32985568
0,35696998
0,28589988
-0,363048
-0,24795593
0,123865075
0,2590488
0,24945584
0,2192794
0,3905779
0,33073467
0,28776088
0,027017983
0,30563012
0,3989789
-0,39758015
0,38493437
0,43935826
0,0280924
-0,45030224
-0,15214193
-0,4530912
0,46137378
-0,4088597
0,48675552
-0,250403
0,2411412
-0,1589054
-0,004230794
-0,30297768
0,42723295
0,30468106
-0,19059542
0,30449057
-0,021161852
-0,070488855
-0,052601047
0,27574039
0,28638908
0,040673524
-0,19248761
-0,37153307
0,4855386
-0,4433832
0,20273757
0,020405304
0,3094345
-0,23937154
0,11726714
0,17752708
-0,34831905
0,42661327
-0,1142802
0,118882075
0,11950387
-0,2598566
0,011190028
-0,40915066
-0,21364264
0,12744467
0,37207636
-0,039125185
0,32626292
0,2608289
-0,021506632
-0,17027202
0,3251694
0,2922433
-0,26025155
0,44452858
0,18619898
0,42903838
0,37855956
-0,4150389
0,047354393
0,19248705
0,43718177
-0,14351986
0,089722626
-0,07932384
-0,31983203
-0,15582179
0,16254541
-0,22269197
0,16268629
-0,07355195
-0,25965685
0,027487002
-0,17574152
0,28349593
-0,33412746
0,054573696
0,15209827
0,27183077
0,34324977
-0,08356507
0,47295582
-0,14449033
0,2114025
-0,3162624
0,42582023
-0,29400846
-0,48142627
0,36969858
-0,3028236
0,014526854
-0,0740093
0,28188255
-0,1981765
0,20554431
-0,46201226
0,16352628
-0,4385946
0,22910896
-0,0011979068
-0,43897858
0,13568746
-0,43010795
0,18878047
-0,36612526
-0,33771464
-0,44359887
0,2749836
-0,4202919
-0,22987549
0,4853889
0,4648136
-0,27704206
0,4149426
-0,18424498
-0,4984883
-0,38933793
-0,47094378
-0,15979688
-0,04220712
-0,0033185123
0,30947635
0,019829582
0,09405914
0,058061823
0,20155358
-0,3623775
0,4190969
0,28822893
-0,16807605
0,49508137
0,019038286
0,44519505
-0,011163807
0,24800177
-0,3852473
0,31725463
-0,4932995
0,22668552
-0,4235103
-0,27767548
-0,14491475
-0,24846105
-0,15815717
0,39321455
0,2503239
-0,077525705
0,002853723
0,3185539
0,11605397
0,23393767
0,14048994
0,42734936
0,21530245
0,25862873
0,24911098
-0,22052477
0,294367
-0,11282731
-0,10978269
0,30710477
-0,38604337
-0,28386518
-0,34713688
0,47014114
0,14648646
0,021449866
-0,4235963
-0,01282291
-0,45939323
0,13310374
-0,4947749
0,09844978
0,48100877
-0,23498125
0,30310035
-0,2486
0,48963493
-0,45655462
-0,4531422
0,28995478
0,11250426
0,32887796
-0,12280414
0,28558826
0,46836904
-0,27845764
-0,25662223
0,49457538
-0,494172
0,11151584
0,034025423
-0,3304285
0,017858934
-0,30802694
-0,25040013
0,2356716
0,041569214
0,32108644
0,21975824
0,021147385
-0,19347976
0,07670868
-0,23692642
-0,30058697
0,3114152
-0,3802677
0,2868522
0,40355328
0,46901324
-0,42327663
0,3565712
0,20582524
0,32877126
0,46728078
-0,48021123
0,087451294
-0,012421655
-0,48725408
0,44664696
-0,053655494
-0,49421516
-0,429674
0,16442704
-0,41976997
-0,16506644
0,4021204
-0,39517066
0,205539
-0,20597439
0,40159392
-0,2406591
0,3952231
0,31850907
-0,35505185
0,33787623
0,42435807
-0,22349189
0,48104912
-0,1759159
0,45846382
-0,3122589
-0,21157132
-0,45154256
-0,45967117
0,05704096
-0,39364472
-0,48404023
-0,3960212
-0,1564077
0,34865075
0,015702657
-0,08417648
-0,04819236
-0,30945063
0,23603047
0,17443098
0,36935762
0,29839727
-0,38998678
-0,31561658
0,014438217
-0,01687189
-0,078854635
-0,12853195
-0,003538285
-0,02406713
0,069723085
-0,46091652
0,49041906
-0,41145116
-0,47179216
0,1952215
-0,25453985
-0,18672371
-0,16588223
-0,44825515
-0,115399085
0,09405764
0,42964828
-0,44785327
-0,14239213
-0,08857421
-0,06581443
-0,091584824
-0,3624863
0,42404035
-0,21393287
0,13626716
0,16346519
0,48763987
-0,49599847
0,43900773
0,27222154
0,04569957
0,03972734
-0,41517144
-0,18643673
0,00010301392
0,39595902
-0,3961278
0,107901774
0,17721839
0,36308852
0,22268292
-0,026132612
0,30898696
-0,08036754
-0,23487909
0,37381047
-0,15511759
0,16960207
-0,4880064
-0,001378367
-0,24620867
-0,18530558
0,059304435
-0,48761246
0,4462795
-0,4216535
-0,10485469
-0,1285097
0,082055084
-0,26259378
-0,29608387
0,018939834
0,29303563
0,2956941
0,017555296
0,11401357
-0,37678277
-0,30300313
-0,057937562
-0,10799889
0,38930473
0,31334034
-0,49818736
-0,056698877
0,015826974
0,43453684
0,46428707
0,37563452
0,4648611
0,121161014
0,33748266
0,1279413
-0,06382149
0,17950441
0,32194915
0,05882447
0,19015214
-0,4762818
-0,26554984
0,4570692
0,2497394
-0,005748335
-0,49065965
-0,28077868
0,26392674
-0,075946584
0,35506183
0,1528031
-0,30561906
0,33738983
-0,04572755
0,26198223
-0,4668127
0,1395739
-0,3624499
-0,2293061
0,2657074
-0,102370545
0,45184895
0,49273863
-0,065097
-0,34223187
0,43031377
-0,41890305
-0,41976115
0,40680617
0,039865468
-0,17401084
-0,49878004
0,31534526
0,35889593
0,2421749
-0,39970466
-0,24156153
-0,1811583
0,086409144
-0,47315744
0,49603513
-0,032099795
-0,2726829
-0,08548185
-0,33127898
0,37970003
-0,07669673
-0,32485908
0,19305
0,2154974
0,41666615
-0,32876116
-0,46917704
-0,062352035
-0,2735147
0,3838921
-0,47676152
0,46484962
-0,3645449
0,42522386
0,053933624
-0,3704599
-0,15795037
-0,49811485
0,26617014
0,16644765
0,073403925
0,21647492
0,104110986
0,2103612
0,41253236
0,14974451
-0,035533436
-0,33027506
0,2697588
-0,25893304
0,34824386
-0,20326765
-0,42354405
0,36018333
0,34431368
-0,17828892
-0,002389051
-0,07848021
0,18209486
0,38956082
0,07359117
0,21550047
0,06762906
-0,19768777
0,42052794
-0,45683017
0,4599999
0,05172738
-0,116287604
-0,026218927
-0,28481406
0,28395194
0,31889105
0,043252636
-0,035535324
0,27954233
-0,17855722
0,13074216
-0,30968967
0,23467454
0,44792905
-0,15188526
